\data\
ngram 1=30
ngram 2=715
ngram 3=7228
ngram 4=21128
ngram 5=33192

\1-grams:
-1.4771213	+	0.0
-1.4771213	</s>	0.0
-1.4771213	<num>	0.0
-1.4771213	<s>	0.0
-1.4771213	a	0.0
-1.4771213	b	0.0
-1.4771213	c	0.0
-1.4771213	d	0.0
-1.4771213	e	0.0
-1.4771213	f	0.0
-1.4771213	g	0.0
-1.4771213	h	0.0
-1.4771213	i	0.0
-1.4771213	j	0.0
-1.4771213	k	0.0
-1.4771213	l	0.0
-1.4771213	m	0.0
-1.4771213	n	0.0
-1.4771213	o	0.0
-1.4771213	p	0.0
-1.4771213	q	0.0
-1.4771213	r	0.0
-1.4771213	s	0.0
-1.4771213	t	0.0
-1.4771213	u	0.0
-1.4771213	v	0.0
-1.4771213	w	0.0
-1.4771213	x	0.0
-1.4771213	y	0.0
-1.4771213	z	0.0

\2-grams:
-0.0645407	+ </s>	-0.845098
-4.43e-05	</s> <s>	-3.9764875
-0.1806291	<num> <num>	-2.1445742
-0.47681	<num> k	-2.1445742
-2.6060486	<s> <num>	-3.1317103
-0.1252453	<s> <s>	-3.1317103
-1.7227842	<s> a	-3.1317103
-1.9845495	<s> b	-3.1317103
-1.6666817	<s> c	-3.1317103
-1.9218763	<s> d	-3.1317103
-1.9640414	<s> e	-3.1317103
-2.0324079	<s> f	-3.1317103
-2.0848065	<s> g	-3.1317103
-2.09609	<s> h	-3.1317103
-1.899501	<s> i	-3.1317103
-2.3335202	<s> j	-3.1317103
-2.3749293	<s> k	-3.1317103
-2.0436586	<s> l	-3.1317103
-1.767338	<s> m	-3.1317103
-2.1349277	<s> n	-3.1317103
-2.103294	<s> o	-3.1317103
-1.7950124	<s> p	-3.1317103
-2.639682	<s> q	-3.1317103
-2.0003055	<s> r	-3.1317103
-1.6423881	<s> s	-3.1317103
-1.8825702	<s> t	-3.1317103
-2.3972153	<s> u	-3.1317103
-2.2845491	<s> v	-3.1317103
-2.1492237	<s> w	-3.1317103
-2.710028	<s> x	-3.1317103
-2.8551391	<s> y	-3.1317103
-2.6654077	<s> z	-3.1317103
-0.9689407	a </s>	-2.2476096
-2.1487737	a a	-2.2476096
-1.5824109	a b	-2.2476096
-1.2167252	a c	-2.2476096
-1.3427138	a d	-2.2476096
-2.2492211	a e	-2.2476096
-1.9473846	a f	-2.2476096
-1.5929697	a g	-2.2476096
-2.4510867	a h	-2.2476096
-1.5653642	a i	-2.2476096
-2.7813463	a j	-2.2476096
-1.9808728	a k	-2.2476096
-1.023931	a l	-2.2476096
-1.2882148	a m	-2.2476096
-0.935542	a n	-2.2476096
-2.1890149	a o	-2.2476096
-1.3308633	a p	-2.2476096
-2.6833382	a q	-2.2476096
-0.9853343	a r	-2.2476096
-1.1821821	a s	-2.2476096
-1.0201038	a t	-2.2476096
-1.7874359	a u	-2.2476096
-1.6301433	a v	-2.2476096
-1.9986379	a w	-2.2476096
-1.9722556	a x	-2.2476096
-1.6750822	a y	-2.2476096
-2.4261203	a z	-2.2476096
-0.9787448	b </s>	-1.6676259
-0.9319678	b a	-1.6676259
-1.6533854	b b	-1.6676259
-1.6090312	b c	-1.6676259
-1.7205917	b d	-1.6676259
-0.9921191	b e	-1.6676259
-2.2013625	b f	-1.6676259
-1.8975925	b g	-1.6676259
-2.4087936	b h	-1.6676259
-0.923188	b i	-1.6676259
-2.1495996	b j	-1.6676259
-2.507925	b k	-1.6676259
-1.0700119	b l	-1.6676259
-1.7391542	b m	-1.6676259
-2.4087936	b n	-1.6676259
-0.9203004	b o	-1.6676259
-1.7205917	b p	-1.6676259
-2.820236	b q	-1.6676259
-1.2187479	b r	-1.6676259
-1.3594173	b s	-1.6676259
-1.9258034	b t	-1.6676259
-1.2130633	b u	-1.6676259
-2.1495996	b v	-1.6676259
-2.4087936	b w	-1.6676259
-2.2601405	b x	-1.6676259
-1.8975925	b y	-1.6676259
-2.820236	b z	-1.6676259
-0.8781684	c </s>	-2.0530784
-0.9505431	c a	-2.0530784
-2.0882429	c b	-2.0530784
-1.5258783	c c	-2.0530784
-2.008771	c d	-2.0530784
-1.0436905	c e	-2.0530784
-2.2830451	c f	-2.0530784
-2.1855891	c g	-2.0530784
-1.0147674	c h	-2.0530784
-1.3544303	c i	-2.0530784
-3.2056886	c j	-2.0530784
-1.3775717	c k	-2.0530784
-1.4720268	c l	-2.0530784
-1.7609865	c m	-2.0530784
-2.0711424	c n	-2.0530784
-0.8265263	c o	-2.0530784
-1.7692748	c p	-2.0530784
-2.5350522	c q	-2.0530784
-1.3324598	c r	-2.0530784
-1.4203588	c s	-2.0530784
-1.1836294	c t	-2.0530784
-1.6099604	c u	-2.0530784
-2.2315892	c v	-2.0530784
-2.6455931	c w	-2.0530784
-2.7942461	c x	-2.0530784
-2.1060443	c y	-2.0530784
-3.2056886	c z	-2.0530784
-0.6669038	d </s>	-1.8617777
-1.089293	d a	-1.8617777
-1.5615527	d b	-1.8617777
-1.6921686	d c	-1.8617777
-1.7759456	d d	-1.8617777
-0.7949688	d e	-1.8617777
-1.8475373	d f	-1.8617777
-1.9526974	d g	-1.8617777
-2.0402885	d h	-1.8617777
-0.9185764	d i	-1.8617777
-2.4542924	d j	-1.8617777
-2.0917444	d k	-1.8617777
-1.7031919	d l	-1.8617777
-1.5457297	d m	-1.8617777
-1.9729952	d n	-1.8617777
-1.2000702	d o	-1.8617777
-1.8322436	d p	-1.8617777
-2.7020769	d q	-1.8617777
-1.3905947	d r	-1.8617777
-1.3798576	d s	-1.8617777
-1.8798417	d t	-1.8617777
-1.5230262	d u	-1.8617777
-1.933306	d v	-1.8617777
-1.8798417	d w	-1.8617777
-2.1501267	d x	-1.8617777
-1.8798417	d y	-1.8617777
-3.0143879	d z	-1.8617777
-0.7045473	e </s>	-2.3109685
-1.3463074	e a	-2.3109685
-1.7605137	e b	-2.3109685
-1.2697221	e c	-2.3109685
-1.4100959	e d	-2.3109685
-1.5550937	e e	-2.3109685
-1.9949205	e f	-2.3109685
-1.8856034	e g	-2.3109685
-2.4018882	e h	-2.3109685
-1.9949205	e i	-2.3109685
-2.6317426	e j	-2.3109685
-2.1413594	e k	-2.3109685
-1.2639101	e l	-2.3109685
-1.470723	e m	-2.3109685
-1.0272486	e n	-2.3109685
-1.9169062	e o	-2.3109685
-1.6974007	e p	-2.3109685
-2.4894793	e q	-2.3109685
-0.8048645	e r	-2.3109685
-1.1150689	e s	-2.3109685
-1.3000093	e t	-2.3109685
-2.2251364	e u	-2.3109685
-1.8678505	e v	-2.3109685
-1.8736878	e w	-2.3109685
-1.6155517	e x	-2.3109685
-1.9169062	e y	-2.3109685
-2.7049058	e z	-2.3109685
-1.0345142	f </s>	-1.5731395
-1.0645235	f a	-1.5731395
-2.1513669	f b	-1.5731395
-1.6483303	f c	-1.5731395
-1.9520165	f d	-1.5731395
-1.069733	f e	-1.5731395
-1.2732245	f f	-1.5731395
-2.3008812	f g	-1.5731395
-0.8009683	f i	-1.5731395
-2.7170461	f j	-1.5731395
-2.4007761	f k	-1.5731395
-1.2732245	f l	-1.5731395
-1.7124177	f m	-1.5731395
-2.4007761	f n	-1.5731395
-0.8951584	f o	-1.5731395
-1.7610836	f p	-1.5731395
-2.3008812	f q	-1.5731395
-1.0750057	f r	-1.5731395
-1.4986231	f s	-1.5731395
-1.2109278	f t	-1.5731395
-1.3767436	f u	-1.5731395
-2.5307356	f v	-1.5731395
-2.3008812	f w	-1.5731395
-2.0923221	f x	-1.5731395
-2.2197214	f y	-1.5731395
-2.7170461	f z	-1.5731395
-0.5414374	g </s>	-1.7464612
-1.1488473	g a	-1.7464612
-2.0672353	g b	-1.7464612
-1.9764278	g c	-1.7464612
-1.9764278	g d	-1.7464612
-0.8813792	g e	-1.7464612
-2.1403985	g f	-1.7464612
-1.8789719	g g	-1.7464612
-1.4543693	g h	-1.7464612
-1.1026431	g i	-1.7464612
-2.715427	g j	-1.7464612
-2.715427	g k	-1.7464612
-1.4885161	g l	-1.7464612
-1.6740343	g m	-1.7464612
-1.4797244	g n	-1.7464612
-1.2192611	g o	-1.7464612
-1.7994271	g p	-1.7464612
-2.5867604	g q	-1.7464612
-1.1100105	g r	-1.7464612
-1.7169271	g s	-1.7464612
-1.8576787	g t	-1.7464612
-1.5066521	g u	-1.7464612
-2.406973	g v	-1.7464612
-2.228435	g w	-1.7464612
-2.406973	g x	-1.7464612
-1.8373809	g y	-1.7464612
-2.3389759	g z	-1.7464612
-0.878192	h </s>	-1.6829777
-0.8310925	h a	-1.6829777
-1.9257375	h b	-1.6829777
-1.8222559	h c	-1.6829777
-1.8709218	h d	-1.6829777
-0.8217958	h e	-1.6829777
-2.4107195	h f	-1.6829777
-2.6405739	h g	-1.6829777
-0.8454217	h i	-1.6829777
-2.6405739	h j	-1.6829777
-2.5106143	h k	-1.6829777
-1.9257375	h l	-1.6829777
-1.9257375	h m	-1.6829777
-1.778498	h n	-1.6829777
-0.8405925	h o	-1.6829777
-1.7581685	h p	-1.6829777
-2.5106143	h q	-1.6829777
-1.427087	h r	-1.6829777
-1.8222559	h s	-1.6829777
-1.3507983	h t	-1.6829777
-1.4973411	h u	-1.6829777
-2.6405739	h v	-1.6829777
-2.4107195	h w	-1.6829777
-2.8268843	h x	-1.6829777
-1.5681786	h y	-1.6829777
-2.5106143	h z	-1.6829777
-1.1604781	i </s>	-2.2132717
-1.3776986	i a	-2.2132717
-1.7939893	i b	-2.2132717
-1.0362165	i c	-2.2132717
-1.440787	i d	-2.2132717
-1.5050712	i e	-2.2132717
-1.7701537	i f	-2.2132717
-1.4988178	i g	-2.2132717
-2.7470084	i h	-2.2132717
-2.2148832	i i	-2.2132717
-2.9544394	i j	-2.2132717
-2.0659963	i k	-2.2132717
-1.328875	i l	-2.2132717
-1.5178549	i m	-2.2132717
-0.672479	i n	-2.2132717
-1.1288941	i o	-2.2132717
-1.4957245	i p	-2.2132717
-2.3681737	i q	-2.2132717
-1.5480731	i r	-2.2132717
-1.1369145	i s	-2.2132717
-1.1031811	i t	-2.2132717
-2.1689643	i u	-2.2132717
-1.4865747	i v	-2.2132717
-2.607209	i w	-2.2132717
-1.8745202	i x	-2.2132717
-2.8057864	i y	-2.2132717
-2.0329122	i z	-2.2132717
-1.2717194	j </s>	-1.0733517
-0.7737718	j a	-1.0733517
-1.5251671	j b	-1.0733517
-1.8877151	j c	-1.0733517
-1.300053	j d	-1.0733517
-0.9965899	j e	-1.0733517
-1.8877151	j f	-1.0733517
-2.018994	j h	-1.0733517
-1.0426171	j i	-1.0733517
-2.018994	j j	-1.0733517
-2.018994	j k	-1.0733517
-2.018994	j l	-1.0733517
-1.7053749	j m	-1.0733517
-2.2080503	j n	-1.0733517
-1.0113969	j o	-1.0733517
-1.7053749	j p	-1.0733517
-1.7053749	j q	-1.0733517
-1.5251671	j r	-1.0733517
-0.9549767	j s	-1.0733517
-2.018994	j t	-1.0733517
-1.1525329	j u	-1.0733517
-1.8877151	j v	-1.0733517
-1.8877151	j w	-1.0733517
-2.018994	j x	-1.0733517
-2.018994	j y	-1.0733517
-2.1280076	k +	-1.5217916
-0.4465924	k </s>	-1.5217916
-1.1840947	k a	-1.5217916
-1.9718547	k b	-1.5217916
-2.069494	k c	-1.5217916
-1.9301971	k d	-1.5217916
-0.7988836	k e	-1.5217916
-1.9718547	k f	-1.5217916
-2.3741889	k g	-1.5217916
-2.1280076	k h	-1.5217916
-0.9961299	k i	-1.5217916
-2.5015883	k j	-1.5217916
-2.069494	k k	-1.5217916
-1.7947929	k l	-1.5217916
-1.9718547	k m	-1.5217916
-1.8921879	k n	-1.5217916
-1.451314	k o	-1.5217916
-1.8248947	k p	-1.5217916
-2.6826429	k q	-1.5217916
-1.9301971	k r	-1.5217916
-1.2974683	k s	-1.5217916
-1.6693698	k t	-1.5217916
-1.6084825	k u	-1.5217916
-2.0179361	k v	-1.5217916
-2.1280076	k w	-1.5217916
-2.6826429	k x	-1.5217916
-1.6693698	k y	-1.5217916
-2.6826429	k z	-1.5217916
-0.7437283	l </s>	-2.0034937
-0.9684233	l a	-2.0034937
-2.1427718	l b	-2.0034937
-1.7863473	l c	-2.0034937
-1.5998013	l d	-2.0034937
-0.8026572	l e	-2.0034937
-2.3823707	l f	-2.0034937
-2.1914378	l g	-2.0034937
-3.1474002	l h	-2.0034937
-0.8635339	l i	-2.0034937
-3.1474002	l j	-2.0034937
-2.0786844	l k	-2.0034937
-1.1134024	l l	-2.0034937
-1.9289773	l m	-2.0034937
-2.309001	l n	-2.0034937
-1.0155754	l o	-2.0034937
-1.8518331	l p	-2.0034937
-2.4707066	l r	-2.0034937
-1.5998013	l s	-2.0034937
-1.4746429	l t	-2.0034937
-1.358273	l u	-2.0034937
-2.1427718	l v	-2.0034937
-2.6500756	l w	-2.0034937
-2.6500756	l x	-2.0034937
-1.6131928	l y	-2.0034937
-2.9610898	l z	-2.0034937
-0.7788495	m </s>	-1.9190781
-0.7870794	m a	-1.9190781
-1.5185721	m b	-1.9190781
-1.6188531	m c	-1.9190781
-2.0515888	m d	-1.9190781
-0.8040226	m e	-1.9190781
-2.1772556	m f	-1.9190781
-2.1772556	m g	-1.9190781
-2.6602458	m h	-1.9190781
-1.0388999	m i	-1.9190781
-3.0716883	m j	-1.9190781
-2.5115928	m k	-1.9190781
-1.7282278	m l	-1.9190781
-1.5059647	m m	-1.9190781
-2.3130154	m n	-1.9190781
-1.0243109	m o	-1.9190781
-1.2140384	m p	-1.9190781
-2.3130154	m q	-1.9190781
-2.0739801	m r	-1.9190781
-1.3686232	m s	-1.9190781
-1.9048377	m t	-1.9190781
-1.5587512	m u	-1.9190781
-2.0975888	m v	-1.9190781
-2.2074271	m w	-1.9190781
-2.5115928	m x	-1.9190781
-1.9048377	m y	-1.9190781
-2.7593772	m z	-1.9190781
-0.7537234	n </s>	-2.1188646
-1.2408111	n a	-2.1188646
-2.2513753	n b	-2.1188646
-1.3573822	n c	-2.1188646
-1.1775004	n d	-2.1188646
-1.0150609	n e	-2.1188646
-1.8186396	n f	-2.1188646
-0.9009909	n g	-2.1188646
-2.6008383	n h	-2.1188646
-1.1775004	n i	-2.1188646
-2.5128019	n j	-2.1188646
-1.6531513	n k	-2.1188646
-2.154029	n l	-2.1188646
-2.154029	n m	-2.1188646
-1.6699866	n n	-2.1188646
-1.4075261	n o	-2.1188646
-1.9602788	n p	-2.1188646
-2.7113793	n q	-2.1188646
-2.2513753	n r	-2.1188646
-1.2040711	n s	-2.1188646
-0.9450311	n t	-2.1188646
-1.835061	n u	-2.1188646
-1.8609195	n v	-2.1188646
-2.5545932	n w	-2.1188646
-2.3223416	n x	-2.1188646
-2.0602699	n y	-2.1188646
-2.3770421	n z	-2.1188646
-1.0244659	o </s>	-2.170479
-1.7764167	o a	-2.170479
-1.6200242	o b	-2.170479
-1.3742131	o c	-2.170479
-1.5377594	o d	-2.170479
-2.1720905	o e	-2.170479
-1.7159164	o f	-2.170479
-1.5453191	o g	-2.170479
-2.1562386	o h	-2.170479
-1.7963419	o i	-2.170479
-2.6062076	o j	-2.170479
-1.9495964	o k	-2.170479
-1.2839883	o l	-2.170479
-1.2346733	o m	-2.170479
-0.7745381	o n	-2.170479
-1.3615432	o o	-2.170479
-1.2881864	o p	-2.170479
-2.9116467	o q	-2.170479
-0.8994984	o r	-2.170479
-1.2460083	o s	-2.170479
-1.356577	o t	-2.170479
-1.3420101	o u	-2.170479
-1.8783871	o v	-2.170479
-1.6480831	o w	-2.170479
-2.0232036	o x	-2.170479
-2.1118843	o y	-2.170479
-2.7042157	o z	-2.170479
-0.7758203	p </s>	-1.9404782
-1.0152719	p a	-1.9404782
-2.103408	p b	-1.9404782
-1.5501773	p c	-1.9404782
-1.7658742	p d	-1.9404782
-0.9736748	p e	-1.9404782
-2.1549658	p f	-1.9404782
-1.8659618	p g	-1.9404782
-1.2990549	p h	-1.9404782
-1.3067508	p i	-1.9404782
-2.7681148	p j	-1.9404782
-2.2459855	p k	-1.9404782
-1.1885283	p l	-1.9404782
-1.6161429	p m	-1.9404782
-2.3193552	p n	-1.9404782
-1.1005008	p o	-1.9404782
-1.3348141	p p	-1.9404782
-2.3612811	p q	-1.9404782
-1.0590789	p r	-1.9404782
-1.453086	p s	-1.9404782
-1.4067126	p t	-1.9404782
-1.5639948	p u	-1.9404782
-2.1832379	p v	-1.9404782
-2.2811228	p w	-1.9404782
-2.3612811	p x	-1.9404782
-1.7335831	p y	-1.9404782
-0.9067243	q </s>	-1.0658173
-1.1846575	q a	-1.0658173
-1.8361432	q b	-1.0658173
-1.270464	q c	-1.0658173
-1.9715474	q d	-1.0658173
-1.5800099	q e	-1.0658173
-1.6498328	q f	-1.0658173
-1.9715474	q g	-1.0658173
-2.1693579	q h	-1.0658173
-1.3775053	q i	-1.0658173
-0.949854	q l	-1.0658173
-1.4199784	q m	-1.0658173
-2.1693579	q n	-1.0658173
-1.8361432	q o	-1.0658173
-1.6498328	q p	-1.0658173
-1.9715474	q q	-1.0658173
-2.1693579	q r	-1.0658173
-1.5800099	q s	-1.0658173
-1.5198732	q t	-1.0658173
-0.4958408	q u	-1.0658173
-2.1693579	q v	-1.0658173
-2.1693579	q y	-1.0658173
-0.7658685	r </s>	-2.1419721
-0.9481263	r a	-2.1419721
-2.0063095	r b	-2.1419721
-1.4698742	r c	-2.1419721
-1.5567203	r d	-2.1419721
-0.8003544	r e	-2.1419721
-2.0561399	r f	-2.1419721
-1.884027	r g	-2.1419721
-2.430321	r h	-2.1419721
-1.0343853	r i	-2.1419721
-2.6757087	r j	-2.1419721
-1.5737704	r k	-2.1419721
-1.9833862	r l	-2.1419721
-1.5609205	r m	-2.1419721
-1.7816452	r n	-2.1419721
-1.015949	r o	-2.1419721
-1.7746852	r p	-2.1419721
-2.7344867	r q	-2.1419721
-1.8417471	r r	-2.1419721
-1.4767734	r s	-2.1419721
-1.3183047	r t	-2.1419721
-1.5825531	r u	-2.1419721
-1.825924	r v	-2.1419721
-2.430321	r w	-2.1419721
-2.8024838	r x	-2.1419721
-1.5825531	r y	-2.1419721
-3.1109378	r z	-2.1419721
-0.5463706	s </s>	-2.1431305
-1.3652474	s a	-2.1431305
-2.1960964	s b	-2.1431305
-1.3733704	s c	-2.1431305
-1.8763937	s d	-2.1431305
-1.0495791	s e	-2.1431305
-2.0707036	s f	-2.1431305
-2.4314795	s g	-2.1431305
-1.410439	s h	-2.1431305
-1.1449035	s i	-2.1431305
-3.1120963	s j	-2.1431305
-1.7490682	s k	-2.1431305
-1.9320297	s l	-2.1431305
-1.7490682	s m	-2.1431305
-2.1960964	s n	-2.1431305
-1.2524818	s o	-2.1431305
-1.3872556	s p	-2.1431305
-2.0572984	s q	-2.1431305
-2.2980325	s r	-2.1431305
-1.2914193	s s	-2.1431305
-0.9043412	s t	-2.1431305
-1.5455166	s u	-2.1431305
-2.401308	s v	-2.1431305
-2.1611945	s w	-2.1431305
-2.6768672	s x	-2.1431305
-1.8270825	s y	-2.1431305
-3.1120963	s z	-2.1431305
-0.7502314	t </s>	-2.1416239
-1.0546054	t a	-2.1416239
-2.1767884	t b	-2.1416239
-1.6759107	t c	-2.1416239
-2.2131522	t d	-2.1416239
-0.832704	t e	-2.1416239
-2.2325436	t f	-2.1416239
-2.1767884	t g	-2.1416239
-1.4119193	t h	-2.1416239
-0.8241023	t i	-2.1416239
-2.7341386	t j	-2.1416239
-2.345101	t k	-2.1416239
-1.9507737	t l	-2.1416239
-1.8662699	t m	-2.1416239
-2.1596879	t n	-2.1416239
-1.0546054	t o	-2.1416239
-1.8255759	t p	-2.1416239
-3.1105897	t q	-2.1416239
-1.1275392	t r	-2.1416239
-1.4661172	t s	-2.1416239
-1.6814503	t t	-2.1416239
-1.5089043	t u	-2.1416239
-2.0557918	t v	-2.1416239
-1.9507737	t w	-2.1416239
-2.7341386	t x	-2.1416239
-1.6144238	t y	-2.1416239
-2.5773525	t z	-2.1416239
-1.18913	u </s>	-1.7743818
-1.3550993	u a	-1.7743818
-1.4211282	u b	-1.7743818
-1.343018	u c	-1.7743818
-1.4140549	u d	-1.7743818
-1.2768379	u e	-1.7743818
-2.0325593	u f	-1.7743818
-1.7019549	u g	-1.7743818
-2.4348935	u h	-1.7743818
-1.2284793	u i	-1.7743818
-2.4348935	u j	-1.7743818
-2.0627307	u k	-1.7743818
-1.1767678	u l	-1.7743818
-1.2284793	u m	-1.7743818
-0.9964987	u n	-1.7743818
-2.1301986	u o	-1.7743818
-1.3255038	u p	-1.7743818
-2.9269919	u q	-1.7743818
-0.9885249	u r	-1.7743818
-1.0416902	u s	-1.7743818
-1.0270563	u t	-1.7743818
-2.5155495	u u	-1.7743818
-2.2563555	u v	-1.7743818
-2.6146809	u w	-1.7743818
-1.7759933	u x	-1.7743818
-2.1301986	u y	-1.7743818
-2.2563555	u z	-1.7743818
-0.9291318	v </s>	-1.5475286
-0.8891991	v a	-1.5475286
-2.110836	v b	-1.5475286
-1.6942361	v c	-1.5475286
-1.9107065	v d	-1.5475286
-0.5375115	v e	-1.5475286
-2.4931709	v f	-1.5475286
-2.2612218	v g	-1.5475286
-2.361892	v h	-1.5475286
-0.7028443	v i	-1.5475286
-2.6822272	v k	-1.5475286
-1.999344	v l	-1.5475286
-1.6063485	v m	-1.5475286
-2.4931709	v n	-1.5475286
-1.2842871	v o	-1.5475286
-1.6063485	v p	-1.5475286
-1.7192985	v r	-1.5475286
-1.5332881	v s	-1.5475286
-1.8371291	v t	-1.5475286
-2.110836	v u	-1.5475286
-2.361892	v v	-1.5475286
-2.6822272	v w	-1.5475286
-2.361892	v x	-1.5475286
-2.1795518	v y	-1.5475286
-2.6822272	v z	-1.5475286
-0.9535777	w </s>	-1.4247607
-0.7526628	w a	-1.4247607
-2.2650598	w b	-1.4247607
-1.7805775	w c	-1.4247607
-1.8604892	w d	-1.4247607
-0.7773053	w e	-1.4247607
-2.1659284	w f	-1.4247607
-2.5773708	w g	-1.4247607
-1.6032714	w h	-1.4247607
-0.7809426	w i	-1.4247607
-2.3937264	w j	-1.4247607
-2.2650598	w k	-1.4247607
-1.8604892	w l	-1.4247607
-1.7805775	w m	-1.4247607
-1.6282377	w n	-1.4247607
-0.9323625	w o	-1.4247607
-1.7131096	w p	-1.4247607
-2.5773708	w q	-1.4247607
-1.8186979	w r	-1.4247607
-1.4599251	w s	-1.4247607
-1.8186979	w t	-1.4247607
-2.1659284	w u	-1.4247607
-2.3937264	w v	-1.4247607
-2.0852724	w w	-1.4247607
-2.0852724	w x	-1.4247607
-2.1659284	w y	-1.4247607
-2.3937264	w z	-1.4247607
-0.3663496	x </s>	-1.3163898
-1.395571	x a	-1.3163898
-2.1307532	x b	-1.3163898
-1.3752097	x c	-1.3163898
-1.8796972	x d	-1.3163898
-1.3192947	x e	-1.3163898
-1.948413	x f	-1.3163898
-1.948413	x g	-1.3163898
-2.4510883	x h	-1.3163898
-1.1480887	x i	-1.3163898
-2.4510883	x k	-1.3163898
-1.8796972	x l	-1.3163898
-1.5734029	x m	-1.3163898
-2.1307532	x n	-1.3163898
-1.6795677	x o	-1.3163898
-1.1600426	x p	-1.3163898
-2.4510883	x q	-1.3163898
-2.1307532	x r	-1.3163898
-1.6059903	x s	-1.3163898
-1.2114476	x t	-1.3163898
-1.7682051	x u	-1.3163898
-2.4510883	x v	-1.3163898
-1.8796972	x w	-1.3163898
-1.5734029	x x	-1.3163898
-1.8203832	x y	-1.3163898
-0.3314985	y </s>	-1.5195251
-1.5752956	y a	-1.5195251
-1.7074692	y b	-1.5195251
-1.6824549	y c	-1.5195251
-1.940328	y d	-1.5195251
-1.3678646	y e	-1.5195251
-2.2472669	y f	-1.5195251
-1.9867381	y g	-1.5195251
-2.3471617	y h	-1.5195251
-1.7074692	y i	-1.5195251
-2.4771213	y j	-1.5195251
-2.4771213	y k	-1.5195251
-1.6363734	y l	-1.5195251
-1.5752956	y m	-1.5195251
-1.3798074	y n	-1.5195251
-1.3126301	y o	-1.5195251
-1.3023787	y p	-1.5195251
-2.6634317	y q	-1.5195251
-1.7925264	y r	-1.5195251
-1.1501189	y s	-1.5195251
-1.404726	y t	-1.5195251
-1.6824549	y u	-1.5195251
-1.8601697	y w	-1.5195251
-2.6634317	y x	-1.5195251
-2.6634317	y y	-1.5195251
-2.3471617	y z	-1.5195251
-0.8024766	z </s>	-1.0292073
-0.9474114	z a	-1.0292073
-1.6300103	z b	-1.0292073
-2.1437805	z c	-1.0292073
-1.8149779	z d	-1.0292073
-0.7598297	z e	-1.0292073
-1.9489783	z f	-1.0292073
-1.0735683	z h	-1.0292073
-1.0950017	z i	-1.0292073
-2.1437805	z j	-1.0292073
-1.9489783	z k	-1.0292073
-1.7127203	z l	-1.0292073
-0.9633408	z o	-1.0292073
-1.9489783	z p	-1.0292073
-2.1437805	z q	-1.0292073
-1.8149779	z s	-1.0292073
-1.9489783	z t	-1.0292073
-1.4011887	z u	-1.0292073
-2.1437805	z v	-1.0292073
-2.1437805	z w	-1.0292073
-2.1437805	z x	-1.0292073
-1.6300103	z y	-1.0292073
-1.4481006	z z	-1.0292073

\3-grams:
-6.3e-06	+ </s> <s>	-0.845098
-1.15e-05	</s> <s> <s>	-3.9764875
-0.2388344	<num> <num> <num>	-1.9684829
-0.3737196	<num> <num> k	-1.9684829
-1.1984956	<num> k +	-1.6766936
-0.0346487	<num> k </s>	-1.6766936
-0.0783438	<s> <num> <num>	-1.6766936
-0.7827338	<s> <num> k	-1.6766936
-2.4852297	<s> <s> <num>	-3.0068784
-0.1760382	<s> <s> <s>	-3.0068784
-1.5981963	<s> <s> a	-3.0068784
-1.8604291	<s> <s> b	-3.0068784
-1.5420254	<s> <s> c	-3.0068784
-1.797617	<s> <s> d	-3.0068784
-1.8398734	<s> <s> e	-3.0068784
-1.9084079	<s> <s> f	-3.0068784
-1.9609546	<s> <s> g	-3.0068784
-1.9722723	<s> <s> h	-3.0068784
-1.7751969	<s> <s> i	-3.0068784
-2.2106762	<s> <s> j	-3.0068784
-2.2523169	<s> <s> k	-3.0068784
-1.9196889	<s> <s> l	-3.0068784
-1.6428112	<s> <s> m	-3.0068784
-2.0112351	<s> <s> n	-3.0068784
-1.9794986	<s> <s> o	-3.0068784
-1.6705267	<s> <s> p	-3.0068784
-2.519214	<s> <s> q	-3.0068784
-1.8762233	<s> <s> r	-3.0068784
-1.5177048	<s> <s> s	-3.0068784
-1.7582336	<s> <s> t	-3.0068784
-2.274737	<s> <s> u	-3.0068784
-2.1614583	<s> <s> v	-3.0068784
-2.02558	<s> <s> w	-3.0068784
-2.590389	<s> <s> x	-3.0068784
-2.7377068	<s> <s> y	-3.0068784
-2.5452272	<s> <s> z	-3.0068784
-1.8223689	<s> a a	-1.4560155
-1.5153442	<s> a b	-1.4560155
-1.0676784	<s> a c	-1.4560155
-1.0065903	<s> a d	-1.4560155
-1.8238514	<s> a e	-1.4560155
-1.6086923	<s> a f	-1.4560155
-1.6492161	<s> a g	-1.4560155
-2.8327578	<s> a h	-1.4560155
-1.5148231	<s> a i	-1.4560155
-2.5607171	<s> a j	-1.4560155
-1.9533937	<s> a k	-1.4560155
-1.1270042	<s> a l	-1.4560155
-1.2050428	<s> a m	-1.4560155
-1.0016632	<s> a n	-1.4560155
-1.9087023	<s> a o	-1.4560155
-1.1616027	<s> a p	-1.4560155
-2.2631152	<s> a q	-1.4560155
-1.0340997	<s> a r	-1.4560155
-1.2404674	<s> a s	-1.4560155
-1.4647487	<s> a t	-1.4560155
-1.1683501	<s> a u	-1.4560155
-1.3851354	<s> a v	-1.4560155
-1.7484185	<s> a w	-1.4560155
-1.7818912	<s> a x	-1.4560155
-2.6808244	<s> a y	-1.4560155
-2.2584735	<s> a z	-1.4560155
-0.8801398	<s> b a	-1.2563203
-1.6880722	<s> b b	-1.2563203
-1.8007575	<s> b c	-1.2563203
-1.599445	<s> b d	-1.2563203
-0.9161166	<s> b e	-1.2563203
-2.5593695	<s> b f	-1.2563203
-1.9854731	<s> b g	-1.2563203
-2.2979581	<s> b h	-1.2563203
-0.8490773	<s> b i	-1.2563203
-2.5524767	<s> b j	-1.2563203
-1.005714	<s> b l	-1.2563203
-1.7476824	<s> b m	-1.2563203
-2.5807295	<s> b n	-1.2563203
-0.8489419	<s> b o	-1.2563203
-1.5233094	<s> b p	-1.2563203
-2.6031946	<s> b q	-1.2563203
-1.0944331	<s> b r	-1.2563203
-1.5386738	<s> b s	-1.2563203
-1.8205832	<s> b t	-1.2563203
-1.121005	<s> b u	-1.2563203
-2.2829961	<s> b v	-1.2563203
-2.5807295	<s> b w	-1.2563203
-1.8193172	<s> b y	-1.2563203
-0.7920492	<s> c a	-1.5103387
-1.9161931	<s> c b	-1.5103387
-1.4975886	<s> c c	-1.5103387
-1.7713509	<s> c d	-1.5103387
-1.4022011	<s> c e	-1.5103387
-1.9194671	<s> c f	-1.5103387
-2.2118565	<s> c g	-1.5103387
-1.0832456	<s> c h	-1.5103387
-1.3438222	<s> c i	-1.5103387
-2.9183366	<s> c j	-1.5103387
-2.4353624	<s> c k	-1.5103387
-1.2637181	<s> c l	-1.5103387
-1.5740802	<s> c m	-1.5103387
-1.8040572	<s> c n	-1.5103387
-0.5189822	<s> c o	-1.5103387
-1.5940411	<s> c p	-1.5103387
-2.2198038	<s> c q	-1.5103387
-1.2332654	<s> c r	-1.5103387
-1.6033477	<s> c s	-1.5103387
-1.8213885	<s> c t	-1.5103387
-1.5900893	<s> c u	-1.5103387
-2.0708518	<s> c v	-1.5103387
-2.6116978	<s> c w	-1.5103387
-2.4421876	<s> c x	-1.5103387
-1.9165556	<s> c y	-1.5103387
-2.9183366	<s> c z	-1.5103387
-0.9980388	<s> d a	-1.2653622
-1.5760689	<s> d b	-1.2653622
-1.5490952	<s> d c	-1.2653622
-1.6618206	<s> d d	-1.2653622
-0.6710175	<s> d e	-1.2653622
-1.5228984	<s> d f	-1.2653622
-2.5697732	<s> d g	-1.2653622
-1.9612558	<s> d h	-1.2653622
-0.8469579	<s> d i	-1.2653622
-1.9735031	<s> d j	-1.2653622
-2.5973747	<s> d k	-1.2653622
-1.8664231	<s> d l	-1.2653622
-1.5423481	<s> d m	-1.2653622
-1.8184022	<s> d n	-1.2653622
-0.9758399	<s> d o	-1.2653622
-1.8753388	<s> d p	-1.2653622
-2.1958037	<s> d q	-1.2653622
-1.1881657	<s> d r	-1.2653622
-1.6356305	<s> d s	-1.2653622
-1.6256125	<s> d t	-1.2653622
-1.4304102	<s> d u	-1.2653622
-1.7117052	<s> d v	-1.2653622
-1.9525608	<s> d w	-1.2653622
-1.8890652	<s> d x	-1.2653622
-1.6656944	<s> d y	-1.2653622
-2.6695469	<s> d z	-1.2653622
-1.4056784	<s> e a	-1.2255081
-1.7682497	<s> e b	-1.2255081
-1.1167717	<s> e c	-1.2255081
-1.208936	<s> e d	-1.2255081
-2.0694443	<s> e e	-1.2255081
-1.7233406	<s> e f	-1.2255081
-2.1169492	<s> e g	-1.2255081
-1.8549339	<s> e h	-1.2255081
-1.7793619	<s> e i	-1.2255081
-2.3264654	<s> e j	-1.2255081
-1.7838876	<s> e k	-1.2255081
-1.0559693	<s> e l	-1.2255081
-1.1369695	<s> e m	-1.2255081
-0.9552604	<s> e n	-1.2255081
-1.9149926	<s> e o	-1.2255081
-1.2878768	<s> e p	-1.2255081
-1.9342558	<s> e q	-1.2255081
-1.3167175	<s> e r	-1.2255081
-1.0842414	<s> e s	-1.2255081
-1.2730685	<s> e t	-1.2255081
-2.0219289	<s> e u	-1.2255081
-1.5149198	<s> e v	-1.2255081
-2.2698269	<s> e w	-1.2255081
-0.9535761	<s> e x	-1.2255081
-1.9149926	<s> e y	-1.2255081
-2.1559974	<s> e z	-1.2255081
-0.9489892	<s> f a	-1.2683439
-1.9522536	<s> f b	-1.2683439
-1.6972486	<s> f c	-1.2683439
-1.9437154	<s> f d	-1.2683439
-1.0965689	<s> f e	-1.2683439
-1.9601939	<s> f f	-1.2683439
-2.5279677	<s> f g	-1.2683439
-0.7171213	<s> f i	-1.2683439
-1.0912965	<s> f l	-1.2683439
-1.7640223	<s> f m	-1.2683439
-0.7945208	<s> f o	-1.2683439
-1.6478594	<s> f p	-1.2683439
-2.2471475	<s> f q	-1.2683439
-0.8731681	<s> f r	-1.2683439
-1.6865954	<s> f s	-1.2683439
-1.6539446	<s> f t	-1.2683439
-1.1247045	<s> f u	-1.2683439
-2.0780074	<s> f w	-1.2683439
-2.5042802	<s> f x	-1.2683439
-2.5530221	<s> f z	-1.2683439
-0.9612448	<s> g a	-1.1126566
-1.8097341	<s> g b	-1.1126566
-1.8054484	<s> g c	-1.1126566
-1.609888	<s> g d	-1.1126566
-0.8081611	<s> g e	-1.1126566
-1.8126148	<s> g f	-1.1126566
-2.0034209	<s> g g	-1.1126566
-1.8362584	<s> g h	-1.1126566
-1.2476729	<s> g i	-1.1126566
-2.5064131	<s> g j	-1.1126566
-2.5064131	<s> g k	-1.1126566
-1.2086442	<s> g l	-1.1126566
-1.4289609	<s> g m	-1.1126566
-1.6912116	<s> g n	-1.1126566
-0.988939	<s> g o	-1.1126566
-1.4337666	<s> g p	-1.1126566
-2.21222	<s> g q	-1.1126566
-0.8285019	<s> g r	-1.1126566
-1.4669722	<s> g s	-1.1126566
-1.5122356	<s> g t	-1.1126566
-1.3287064	<s> g u	-1.1126566
-2.4855038	<s> g v	-1.1126566
-2.1944544	<s> g w	-1.1126566
-2.2050263	<s> g x	-1.1126566
-1.998959	<s> g y	-1.1126566
-2.4787519	<s> g z	-1.1126566
-0.6846002	<s> h a	-1.1514898
-1.6515105	<s> h b	-1.1514898
-1.5917228	<s> h c	-1.1514898
-1.4229735	<s> h d	-1.1514898
-0.9169854	<s> h e	-1.1514898
-2.023353	<s> h f	-1.1514898
-2.4909458	<s> h g	-1.1514898
-0.8974435	<s> h i	-1.1514898
-2.4909458	<s> h j	-1.1514898
-2.1970425	<s> h k	-1.1514898
-1.7911687	<s> h l	-1.1514898
-1.998286	<s> h m	-1.1514898
-2.3723868	<s> h n	-1.1514898
-0.8474492	<s> h o	-1.1514898
-1.5888668	<s> h p	-1.1514898
-2.4834377	<s> h q	-1.1514898
-1.1938974	<s> h r	-1.1514898
-1.5917228	<s> h s	-1.1514898
-1.433115	<s> h t	-1.1514898
-1.3449621	<s> h u	-1.1514898
-2.4909458	<s> h v	-1.1514898
-2.4760572	<s> h w	-1.1514898
-1.3194906	<s> h y	-1.1514898
-1.744165	<s> i a	-1.3027637
-1.6437324	<s> i b	-1.3027637
-1.2489176	<s> i c	-1.3027637
-1.2249446	<s> i d	-1.3027637
-1.8096464	<s> i e	-1.3027637
-1.5728085	<s> i f	-1.3027637
-1.5022467	<s> i g	-1.3027637
-2.0938105	<s> i h	-1.3027637
-2.0824019	<s> i i	-1.3027637
-2.6888098	<s> i j	-1.3027637
-2.0759314	<s> i k	-1.3027637
-1.6525584	<s> i l	-1.3027637
-1.1236864	<s> i m	-1.3027637
-0.4669096	<s> i n	-1.3027637
-1.5287433	<s> i o	-1.3027637
-1.0900607	<s> i p	-1.3027637
-1.9925298	<s> i q	-1.3027637
-1.4060671	<s> i r	-1.3027637
-1.323689	<s> i s	-1.3027637
-1.2539906	<s> i t	-1.3027637
-2.6327316	<s> i u	-1.3027637
-1.6282557	<s> i v	-1.3027637
-2.2147321	<s> i w	-1.3027637
-2.5756297	<s> i x	-1.3027637
-2.6101796	<s> i z	-1.3027637
-0.6550004	<s> j a	-0.9186418
-1.6252594	<s> j b	-0.9186418
-1.7789187	<s> j c	-0.9186418
-1.1781902	<s> j d	-0.9186418
-1.0578319	<s> j e	-0.9186418
-1.7789187	<s> j f	-0.9186418
-1.9506009	<s> j h	-0.9186418
-1.0899906	<s> j i	-0.9186418
-1.9506009	<s> j j	-0.9186418
-2.2090434	<s> j k	-0.9186418
-2.2090434	<s> j l	-0.9186418
-1.6482568	<s> j m	-0.9186418
-2.2386659	<s> j n	-0.9186418
-1.0124452	<s> j o	-0.9186418
-1.6482568	<s> j p	-0.9186418
-1.5606298	<s> j q	-0.9186418
-1.4717284	<s> j r	-0.9186418
-1.0771217	<s> j s	-0.9186418
-1.9506009	<s> j t	-0.9186418
-1.0511451	<s> j u	-0.9186418
-1.7789187	<s> j v	-0.9186418
-1.7789187	<s> j w	-0.9186418
-2.2090434	<s> j x	-0.9186418
-1.9506009	<s> j y	-0.9186418
-0.757184	<s> k a	-0.951823
-1.6260127	<s> k d	-0.951823
-0.6944091	<s> k e	-0.951823
-2.1688524	<s> k f	-0.951823
-2.1925542	<s> k h	-0.951823
-0.8054174	<s> k i	-0.951823
-1.9383507	<s> k j	-0.951823
-1.916308	<s> k k	-0.951823
-1.8872149	<s> k l	-0.951823
-1.7458895	<s> k m	-0.951823
-1.3921345	<s> k n	-0.951823
-0.9808377	<s> k o	-0.951823
-1.6194533	<s> k p	-0.951823
-1.9036002	<s> k r	-0.951823
-1.5531683	<s> k s	-0.951823
-1.4447627	<s> k t	-0.951823
-1.378217	<s> k u	-0.951823
-1.9120306	<s> k v	-0.951823
-2.1925542	<s> k w	-0.951823
-1.6066245	<s> k y	-0.951823
-0.7519769	<s> l a	-1.2376873
-1.8480013	<s> l b	-1.2376873
-1.6940061	<s> l c	-1.2376873
-1.6832422	<s> l d	-1.2376873
-0.7723897	<s> l e	-1.2376873
-2.2304804	<s> l g	-1.2376873
-0.6260383	<s> l i	-1.2376873
-2.5534594	<s> l j	-1.2376873
-2.4897947	<s> l k	-1.2376873
-1.8955093	<s> l l	-1.2376873
-2.2082436	<s> l m	-1.2376873
-1.8520734	<s> l n	-1.2376873
-0.8038336	<s> l o	-1.2376873
-2.0420007	<s> l p	-1.2376873
-2.5301003	<s> l r	-1.2376873
-2.0124104	<s> l s	-1.2376873
-1.7335722	<s> l t	-1.2376873
-1.1633527	<s> l u	-1.2376873
-1.8480013	<s> l v	-1.2376873
-2.0760335	<s> l x	-1.2376873
-1.7462114	<s> l y	-1.2376873
-0.6479797	<s> m a	-1.4465113
-1.7575291	<s> m b	-1.4465113
-1.4730516	<s> m c	-1.4465113
-1.9685994	<s> m d	-1.4465113
-0.8106563	<s> m e	-1.4465113
-2.037172	<s> m f	-1.4465113
-2.2076739	<s> m g	-1.4465113
-2.8045101	<s> m h	-1.4465113
-0.9014394	<s> m i	-1.4465113
-2.3390334	<s> m k	-1.4465113
-2.0172484	<s> m l	-1.4465113
-1.7953708	<s> m m	-1.4465113
-2.7787729	<s> m n	-1.4465113
-0.7429715	<s> m o	-1.4465113
-1.5156868	<s> m p	-1.4465113
-2.2121698	<s> m q	-1.4465113
-1.9127811	<s> m r	-1.4465113
-1.5039443	<s> m s	-1.4465113
-1.8582958	<s> m t	-1.4465113
-1.2868574	<s> m u	-1.4465113
-1.9133485	<s> m v	-1.4465113
-2.3285689	<s> m w	-1.4465113
-2.2167126	<s> m x	-1.4465113
-1.5411923	<s> m y	-1.4465113
-0.9953771	<s> n a	-1.1153934
-1.8612838	<s> n b	-1.1153934
-1.6313997	<s> n c	-1.1153934
-1.6623167	<s> n d	-1.1153934
-0.5782776	<s> n e	-1.1153934
-1.7488315	<s> n f	-1.1153934
-1.4019785	<s> n g	-1.1153934
-1.9917318	<s> n h	-1.1153934
-1.0068818	<s> n i	-1.1153934
-2.2978042	<s> n k	-1.1153934
-2.1424014	<s> n l	-1.1153934
-1.6221279	<s> n m	-1.1153934
-2.3034262	<s> n n	-1.1153934
-0.7878131	<s> n o	-1.1153934
-1.4663115	<s> n p	-1.1153934
-2.14896	<s> n r	-1.1153934
-1.6056848	<s> n s	-1.1153934
-1.5421011	<s> n t	-1.1153934
-1.2138106	<s> n u	-1.1153934
-1.8419576	<s> n v	-1.1153934
-2.4501221	<s> n w	-1.1153934
-1.9844317	<s> n x	-1.1153934
-2.1346597	<s> n y	-1.1153934
-1.5834938	<s> o a	-1.1276446
-1.4083241	<s> o b	-1.1276446
-1.3033586	<s> o c	-1.1276446
-1.3712701	<s> o d	-1.1276446
-2.4428439	<s> o e	-1.1276446
-1.3476386	<s> o f	-1.1276446
-1.8372629	<s> o g	-1.1276446
-2.1719	<s> o h	-1.1276446
-1.9784779	<s> o i	-1.1276446
-1.6463493	<s> o k	-1.1276446
-1.4197898	<s> o l	-1.1276446
-1.2930624	<s> o m	-1.1276446
-1.0759549	<s> o n	-1.1276446
-1.5514991	<s> o o	-1.1276446
-0.6551562	<s> o p	-1.1276446
-2.4952655	<s> o q	-1.1276446
-0.9165139	<s> o r	-1.1276446
-1.2209038	<s> o s	-1.1276446
-1.2512361	<s> o t	-1.1276446
-1.5998029	<s> o u	-1.1276446
-1.7073066	<s> o v	-1.1276446
-1.8508316	<s> o w	-1.1276446
-2.1600355	<s> o x	-1.1276446
-2.433957	<s> o y	-1.1276446
-0.8256824	<s> p a	-1.4027771
-1.8870606	<s> p b	-1.4027771
-1.4446088	<s> p c	-1.4027771
-1.6123902	<s> p d	-1.4027771
-1.1508351	<s> p e	-1.4027771
-2.0868089	<s> p f	-1.4027771
-1.998601	<s> p g	-1.4027771
-1.218021	<s> p h	-1.4027771
-1.2297816	<s> p i	-1.4027771
-2.7825824	<s> p j	-1.4027771
-2.0895942	<s> p k	-1.4027771
-1.2490279	<s> p l	-1.4027771
-1.6362138	<s> p m	-1.4027771
-2.474415	<s> p n	-1.4027771
-0.9257512	<s> p o	-1.4027771
-1.4963031	<s> p p	-1.4027771
-2.1870013	<s> p q	-1.4027771
-0.7172788	<s> p r	-1.4027771
-1.6583041	<s> p s	-1.4027771
-1.8474406	<s> p t	-1.4027771
-1.4450309	<s> p u	-1.4027771
-1.9455647	<s> p v	-1.4027771
-2.1846763	<s> p w	-1.4027771
-2.3081232	<s> p x	-1.4027771
-1.5842425	<s> p y	-1.4027771
-1.1613352	<s> q a	-0.7424357
-1.6638104	<s> q b	-0.7424357
-1.2416454	<s> q c	-0.7424357
-1.6782015	<s> q d	-0.7424357
-1.6232945	<s> q e	-0.7424357
-1.4864627	<s> q f	-0.7424357
-1.9409726	<s> q g	-0.7424357
-1.9686316	<s> q h	-0.7424357
-1.1888967	<s> q i	-0.7424357
-1.2335481	<s> q l	-0.7424357
-1.1936652	<s> q m	-0.7424357
-1.9686316	<s> q n	-0.7424357
-1.6638104	<s> q o	-0.7424357
-1.4864627	<s> q p	-0.7424357
-1.6782015	<s> q q	-0.7424357
-1.4771536	<s> q s	-0.7424357
-1.3608971	<s> q t	-0.7424357
-0.4406504	<s> q u	-0.7424357
-1.9686316	<s> q v	-0.7424357
-0.994829	<s> r a	-1.2596373
-2.2563282	<s> r b	-1.2596373
-1.7730347	<s> r c	-1.2596373
-1.7206455	<s> r d	-1.2596373
-0.4075903	<s> r e	-1.2596373
-1.7451305	<s> r f	-1.2596373
-1.9698721	<s> r g	-1.2596373
-1.6438939	<s> r h	-1.2596373
-1.0453652	<s> r i	-1.2596373
-2.4014778	<s> r k	-1.2596373
-1.9388636	<s> r m	-1.2596373
-1.9622023	<s> r n	-1.2596373
-0.8934634	<s> r o	-1.2596373
-1.679355	<s> r p	-1.2596373
-2.0813512	<s> r r	-1.2596373
-1.6608507	<s> r s	-1.2596373
-1.3454119	<s> r t	-1.2596373
-1.3103523	<s> r u	-1.2596373
-2.2349889	<s> r v	-1.2596373
-2.5679623	<s> r w	-1.2596373
-2.5872586	<s> r x	-1.2596373
-2.4047058	<s> r y	-1.2596373
-1.1092898	<s> s a	-1.5339284
-2.2357869	<s> s b	-1.5339284
-1.1847216	<s> s c	-1.5339284
-1.6195933	<s> s d	-1.5339284
-0.9182231	<s> s e	-1.5339284
-2.0339804	<s> s f	-1.5339284
-2.908984	<s> s g	-1.5339284
-1.1929469	<s> s h	-1.5339284
-1.1574751	<s> s i	-1.5339284
-2.9402653	<s> s j	-1.5339284
-1.526257	<s> s k	-1.5339284
-1.8956677	<s> s l	-1.5339284
-1.5101483	<s> s m	-1.5339284
-1.8294634	<s> s n	-1.5339284
-1.0598593	<s> s o	-1.5339284
-1.1224	<s> s p	-1.5339284
-1.6649707	<s> s q	-1.5339284
-1.9883882	<s> s r	-1.5339284
-1.6199295	<s> s s	-1.5339284
-0.9308647	<s> s t	-1.5339284
-1.1654242	<s> s u	-1.5339284
-2.1633444	<s> s v	-1.5339284
-1.6893226	<s> s w	-1.5339284
-2.6361502	<s> s x	-1.5339284
-1.5275091	<s> s y	-1.5339284
-2.9402653	<s> s z	-1.5339284
-1.0914777	<s> t a	-1.3188977
-2.0970768	<s> t b	-1.3188977
-1.5856277	<s> t c	-1.3188977
-2.0047747	<s> t d	-1.3188977
-0.6650109	<s> t e	-1.3188977
-2.2190305	<s> t f	-1.3188977
-2.0036497	<s> t g	-1.3188977
-1.0836893	<s> t h	-1.3188977
-1.1516001	<s> t i	-1.3188977
-2.6972601	<s> t j	-1.3188977
-2.391951	<s> t k	-1.3188977
-2.2009632	<s> t l	-1.3188977
-1.7464839	<s> t m	-1.3188977
-2.3797616	<s> t n	-1.3188977
-0.9230151	<s> t o	-1.3188977
-1.7009098	<s> t p	-1.3188977
-2.4116197	<s> t q	-1.3188977
-0.7681128	<s> t r	-1.3188977
-1.769663	<s> t s	-1.3188977
-1.7863684	<s> t t	-1.3188977
-1.3228324	<s> t u	-1.3188977
-2.0915396	<s> t v	-1.3188977
-1.6645284	<s> t w	-1.3188977
-2.6972601	<s> t x	-1.3188977
-1.6912264	<s> t y	-1.3188977
-1.541582	<s> u a	-0.8956234
-1.2918766	<s> u b	-0.8956234
-1.2381056	<s> u c	-0.8956234
-1.3432901	<s> u d	-0.8956234
-1.5251428	<s> u e	-0.8956234
-1.7323387	<s> u f	-0.8956234
-1.5026879	<s> u g	-0.8956234
-2.204292	<s> u h	-0.8956234
-1.318968	<s> u i	-0.8956234
-1.7341995	<s> u k	-0.8956234
-1.3650522	<s> u l	-0.8956234
-1.4387056	<s> u m	-0.8956234
-0.6336277	<s> u n	-0.8956234
-1.1574295	<s> u p	-0.8956234
-1.377175	<s> u r	-0.8956234
-1.0619945	<s> u s	-0.8956234
-1.0600158	<s> u t	-0.8956234
-2.2098315	<s> u u	-0.8956234
-1.6229468	<s> u v	-0.8956234
-2.2154426	<s> u w	-0.8956234
-1.863574	<s> u x	-0.8956234
-2.1880851	<s> u z	-0.8956234
-0.8783725	<s> v a	-1.0334238
-1.7158879	<s> v b	-1.0334238
-1.6017076	<s> v c	-1.0334238
-1.8231516	<s> v d	-1.0334238
-0.7456085	<s> v e	-1.0334238
-2.0196919	<s> v f	-1.0334238
-2.0102538	<s> v g	-1.0334238
-2.0149472	<s> v h	-1.0334238
-0.6023458	<s> v i	-1.0334238
-2.3167644	<s> v k	-1.0334238
-1.8292627	<s> v l	-1.0334238
-1.4052859	<s> v m	-1.0334238
-1.0325711	<s> v o	-1.0334238
-1.4596771	<s> v p	-1.0334238
-1.5295168	<s> v r	-1.0334238
-1.2705281	<s> v s	-1.0334238
-1.5357337	<s> v t	-1.0334238
-1.6222292	<s> v u	-1.0334238
-2.3167644	<s> v w	-1.0334238
-2.0149472	<s> v x	-1.0334238
-0.7643993	<s> w a	-1.1199753
-2.1361649	<s> w b	-1.1199753
-1.6586252	<s> w c	-1.1199753
-1.9434444	<s> w d	-1.1199753
-0.6722972	<s> w e	-1.1199753
-2.4016476	<s> w f	-1.1199753
-1.4824643	<s> w h	-1.1199753
-0.5779245	<s> w i	-1.1199753
-2.4133744	<s> w k	-1.1199753
-2.1000395	<s> w l	-1.1199753
-1.8224512	<s> w m	-1.1199753
-1.0064763	<s> w o	-1.1199753
-1.5916486	<s> w p	-1.1199753
-2.4378232	<s> w q	-1.1199753
-1.8255108	<s> w r	-1.1199753
-1.6322617	<s> w s	-1.1199753
-1.9394346	<s> w t	-1.1199753
-1.9640682	<s> w u	-1.1199753
-2.4254268	<s> w v	-1.1199753
-1.8411407	<s> w w	-1.1199753
-1.7480029	<s> w x	-1.1199753
-1.9640682	<s> w y	-1.1199753
-1.0761448	<s> x a	-0.667453
-1.6364476	<s> x b	-0.667453
-1.2833697	<s> x c	-0.667453
-1.4547547	<s> x d	-0.667453
-1.273105	<s> x e	-0.667453
-1.3426331	<s> x f	-0.667453
-1.621109	<s> x g	-0.667453
-1.9387806	<s> x h	-0.667453
-0.8742867	<s> x i	-0.667453
-1.8667925	<s> x l	-0.667453
-1.2254355	<s> x m	-0.667453
-1.6364476	<s> x n	-0.667453
-1.8167224	<s> x o	-0.667453
-0.9521381	<s> x p	-0.667453
-1.9387806	<s> x q	-0.667453
-1.6364476	<s> x r	-0.667453
-1.0936826	<s> x s	-0.667453
-1.4594033	<s> x t	-0.667453
-1.3119913	<s> x x	-0.667453
-1.8537235	<s> x y	-0.667453
-0.9468826	<s> y a	-0.69897
-1.154207	<s> y e	-0.69897
-1.7582884	<s> y g	-0.69897
-1.7882432	<s> y h	-0.69897
-0.9522783	<s> y i	-0.69897
-1.7944903	<s> y k	-0.69897
-1.6839784	<s> y m	-0.69897
-0.6475839	<s> y o	-0.69897
-1.7302671	<s> y r	-0.69897
-1.2196187	<s> y s	-0.69897
-0.8013396	<s> y u	-0.69897
-1.8008286	<s> y x	-0.69897
-1.8008286	<s> y y	-0.69897
-0.9932819	<s> z a	-0.7032914
-1.4641378	<s> z b	-0.7032914
-1.9460353	<s> z c	-0.7032914
-1.6414182	<s> z d	-0.7032914
-0.6723485	<s> z e	-0.7032914
-1.6570046	<s> z f	-0.7032914
-0.9009163	<s> z h	-0.7032914
-0.9787269	<s> z i	-0.7032914
-1.9460353	<s> z j	-0.7032914
-1.6570046	<s> z k	-0.7032914
-1.6263718	<s> z l	-0.7032914
-0.9188113	<s> z o	-0.7032914
-1.9162093	<s> z p	-0.7032914
-1.9460353	<s> z q	-0.7032914
-1.6414182	<s> z s	-0.7032914
-1.9162093	<s> z t	-0.7032914
-1.5580891	<s> z u	-0.7032914
-1.9460353	<s> z w	-0.7032914
-1.9460353	<s> z x	-0.7032914
-1.4641378	<s> z y	-0.7032914
-1e-07	a </s> <s>	-2.7101174
-0.7905467	a a </s>	-0.5740313
-1.6177052	a a a	-0.5740313
-1.5346552	a a b	-0.5740313
-1.0816732	a a c	-0.5740313
-1.464259	a a d	-0.5740313
-1.5371544	a a g	-0.5740313
-1.5305215	a a i	-0.5740313
-1.1017421	a a p	-0.5740313
-1.1425047	a a r	-0.5740313
-0.6624805	a a s	-0.5740313
-1.1554928	a a t	-0.5740313
-1.1371779	a a v	-0.5740313
-0.8544081	a b </s>	-0.8765824
-1.0023688	a b a	-0.8765824
-1.229918	a b b	-0.8765824
-1.4175523	a b c	-0.8765824
-2.0213042	a b d	-0.8765824
-1.3143025	a b e	-0.8765824
-2.1063095	a b f	-0.8765824
-0.8485338	a b i	-0.8765824
-0.7141577	a b l	-0.8765824
-1.0660414	a b o	-0.8765824
-1.7821399	a b p	-0.8765824
-1.5374796	a b r	-0.8765824
-1.3896307	a b s	-0.8765824
-2.0670588	a b t	-0.8765824
-1.5358987	a b u	-0.8765824
-1.8260127	a b v	-0.8765824
-2.1242815	a b w	-0.8765824
-2.1122179	a b x	-0.8765824
-1.8049862	a b y	-0.8765824
-1.1151491	a c </s>	-1.1691424
-1.6883627	a c a	-1.1691424
-2.4226615	a c b	-1.1691424
-1.1179777	a c c	-1.1691424
-1.9854251	a c d	-1.1691424
-0.8489069	a c e	-1.1691424
-2.1671946	a c f	-1.1691424
-2.4356121	a c g	-1.1691424
-1.059519	a c h	-1.1691424
-1.3474569	a c i	-1.1691424
-0.7934323	a c k	-1.1691424
-1.6044054	a c l	-1.1691424
-1.9644915	a c m	-1.1691424
-1.1874948	a c o	-1.1691424
-2.3587092	a c p	-1.1691424
-2.0054617	a c q	-1.1691424
-1.4923749	a c r	-1.1691424
-1.9118366	a c s	-1.1691424
-0.7033638	a c t	-1.1691424
-2.3107955	a c u	-1.1691424
-2.4252209	a c y	-1.1691424
-0.6977203	a d </s>	-1.0341543
-0.9173181	a d a	-1.0341543
-1.9609747	a d b	-1.0341543
-1.567223	a d c	-1.0341543
-1.4049053	a d d	-1.0341543
-0.7582423	a d e	-1.0341543
-2.2584692	a d f	-1.0341543
-1.753275	a d h	-1.0341543
-1.0410455	a d i	-1.0341543
-2.3053926	a d k	-1.0341543
-1.9899454	a d l	-1.0341543
-1.3502002	a d m	-1.0341543
-1.2185801	a d o	-1.0341543
-2.2547785	a d p	-1.0341543
-1.7860684	a d r	-1.0341543
-1.2330184	a d s	-1.0341543
-2.0167183	a d t	-1.0341543
-1.7082119	a d u	-1.0341543
-1.4597801	a d v	-1.0341543
-1.6531113	a d w	-1.0341543
-2.0429881	a d x	-1.0341543
-1.8593649	a d y	-1.0341543
-0.6057411	a e </s>	-0.526809
-1.4923147	a e b	-0.526809
-1.1547154	a e c	-0.526809
-1.4135176	a e d	-0.526809
-1.2052657	a e e	-0.526809
-1.5100988	a e g	-0.526809
-1.1533826	a e l	-0.526809
-1.0403002	a e m	-0.526809
-1.5138972	a e o	-0.526809
-0.8105048	a e r	-0.526809
-1.1142777	a e s	-0.526809
-0.8579167	a f </s>	-0.6799468
-1.3200145	a f a	-0.6799468
-1.7072718	a f c	-0.6799468
-0.7399882	a f e	-0.6799468
-0.7206912	a f f	-0.6799468
-1.2013897	a f i	-0.6799468
-1.5131287	a f k	-0.6799468
-1.5839602	a f l	-0.6799468
-1.7217711	a f m	-0.6799468
-1.8025608	a f n	-0.6799468
-1.1464421	a f o	-0.6799468
-1.7317134	a f p	-0.6799468
-1.6664701	a f s	-0.6799468
-0.9305754	a f t	-0.6799468
-1.1970256	a g </s>	-1.0446704
-1.2288828	a g a	-1.0446704
-0.3274376	a g e	-1.0446704
-1.5049081	a g g	-1.0446704
-0.9492857	a g i	-1.0446704
-1.7455189	a g l	-1.0446704
-1.4950354	a g m	-1.0446704
-1.2547602	a g n	-1.0446704
-1.1831209	a g o	-1.0446704
-1.2244977	a g r	-1.0446704
-2.0338481	a g s	-1.0446704
-2.1039	a g v	-1.0446704
-0.5102809	a h </s>	-0.5642714
-1.0626669	a h e	-0.5642714
-1.0262029	a h l	-0.5642714
-1.3125565	a h m	-0.5642714
-0.6552433	a h o	-0.5642714
-1.0017998	a h u	-0.5642714
-0.8844112	a i </s>	-0.8915081
-1.9158925	a i a	-0.8915081
-1.3410878	a i c	-0.8915081
-1.3449265	a i d	-0.8915081
-1.6147008	a i e	-0.8915081
-1.8042962	a i f	-0.8915081
-1.6136613	a i g	-0.8915081
-2.1226586	a i i	-0.8915081
-0.8716051	a i l	-0.8915081
-1.9725314	a i m	-0.8915081
-0.5900325	a i n	-0.8915081
-1.6372424	a i o	-0.8915081
-0.8577062	a i r	-0.8915081
-1.5281691	a i s	-0.8915081
-1.517222	a i t	-0.8915081
-1.9608281	a i v	-0.8915081
-1.8591566	a i w	-0.8915081
-1.657891	a i x	-0.8915081
-1.8325762	a i z	-0.8915081
-0.9930583	a j </s>	-0.3357921
-0.6353574	a j a	-0.3357921
-0.9085415	a j e	-0.3357921
-0.9253189	a j i	-0.3357921
-0.9140622	a j o	-0.3357921
-0.8923881	a j s	-0.3357921
-0.837563	a k </s>	-0.770852
-1.0184583	a k a	-0.770852
-0.3301165	a k e	-0.770852
-0.9920534	a k i	-0.770852
-1.735337	a k k	-0.770852
-1.7268239	a k m	-0.770852
-1.7619257	a k q	-0.770852
-1.2594593	a k u	-0.770852
-1.739657	a k w	-0.770852
-1.7619257	a k z	-0.770852
-0.4636278	a l </s>	-1.2964824
-1.3848588	a l a	-1.2964824
-2.1752566	a l b	-1.2964824
-1.6200737	a l c	-1.2964824
-1.8569439	a l d	-1.2964824
-1.0557195	a l e	-1.2964824
-2.1854014	a l f	-1.2964824
-1.6292456	a l g	-1.2964824
-2.6693331	a l h	-1.2964824
-1.0403454	a l i	-1.2964824
-1.5561121	a l k	-1.2964824
-0.9536613	a l l	-1.2964824
-1.7585248	a l m	-1.2964824
-2.6283227	a l n	-1.2964824
-1.4382598	a l o	-1.2964824
-2.039446	a l p	-1.2964824
-2.6427914	a l r	-1.2964824
-1.4071076	a l s	-1.2964824
-1.2649968	a l t	-1.2964824
-1.6744492	a l u	-1.2964824
-2.3396822	a l v	-1.2964824
-2.1918644	a l w	-1.2964824
-2.6539684	a l x	-1.2964824
-1.6128045	a l y	-1.2964824
-0.6971332	a m </s>	-1.066407
-1.178806	a m a	-1.066407
-1.2609098	a m b	-1.066407
-1.769819	a m c	-1.066407
-1.9224099	a m d	-1.066407
-0.638472	a m e	-1.066407
-2.0951063	a m f	-1.066407
-2.1163195	a m h	-1.066407
-1.0460647	a m i	-1.066407
-2.3984197	a m k	-1.066407
-1.5023056	a m l	-1.066407
-1.5406636	a m m	-1.066407
-2.1034677	a m n	-1.066407
-1.2470122	a m o	-1.066407
-1.1183973	a m p	-1.066407
-1.9238032	a m r	-1.066407
-1.4288194	a m s	-1.066407
-1.7960476	a m t	-1.066407
-2.2145382	a m u	-1.066407
-2.3548885	a m v	-1.066407
-1.8108556	a m w	-1.066407
-2.068993	a m y	-1.066407
-2.1184989	a m z	-1.066407
-0.7777731	a n </s>	-1.3477052
-1.1343576	a n a	-1.3477052
-2.0512302	a n b	-1.3477052
-1.1178285	a n c	-1.3477052
-0.800178	a n d	-1.3477052
-1.4723906	a n e	-1.3477052
-2.2318694	a n f	-1.3477052
-0.9615099	a n g	-1.3477052
-2.7352543	a n h	-1.3477052
-1.2751483	a n i	-1.3477052
-2.4446505	a n j	-1.3477052
-1.6298473	a n k	-1.3477052
-2.4237509	a n l	-1.3477052
-2.6899266	a n m	-1.3477052
-1.5182558	a n n	-1.3477052
-1.6160143	a n o	-1.3477052
-2.4038111	a n p	-1.3477052
-2.1450758	a n r	-1.3477052
-1.1330123	a n s	-1.3477052
-1.064136	a n t	-1.3477052
-2.0318872	a n u	-1.3477052
-2.0336644	a n v	-1.3477052
-2.7322784	a n w	-1.3477052
-2.4355701	a n x	-1.3477052
-1.7124415	a n y	-1.3477052
-1.9766994	a n z	-1.3477052
-0.6683237	a o </s>	-0.5195251
-1.2270646	a o c	-0.5195251
-1.595755	a o h	-0.5195251
-1.2895129	a o i	-0.5195251
-1.4091911	a o l	-0.5195251
-1.3886216	a o m	-0.5195251
-1.0117971	a o n	-0.5195251
-1.4388271	a o o	-0.5195251
-1.2070369	a o p	-0.5195251
-0.8049507	a o s	-0.5195251
-1.2232041	a o t	-0.5195251
-1.5918882	a o y	-0.5195251
-1.6224532	a o z	-0.5195251
-0.7097482	a p </s>	-0.9947569
-1.233924	a p a	-0.9947569
-2.050861	a p b	-0.9947569
-1.8239898	a p c	-0.9947569
-1.8575784	a p d	-0.9947569
-1.0991968	a p e	-0.9947569
-2.0552428	a p f	-0.9947569
-1.8688996	a p g	-0.9947569
-0.9264865	a p h	-0.9947569
-1.1318235	a p i	-0.9947569
-2.3745622	a p j	-0.9947569
-2.3350723	a p k	-0.9947569
-1.4572091	a p l	-0.9947569
-1.6441168	a p m	-0.9947569
-1.5486218	a p o	-0.9947569
-0.7782591	a p p	-0.9947569
-2.3478408	a p q	-0.9947569
-1.5364496	a p r	-0.9947569
-1.555061	a p s	-0.9947569
-1.2471897	a p t	-0.9947569
-1.8265834	a p u	-0.9947569
-2.3267639	a p v	-0.9947569
-2.3392869	a p w	-0.9947569
-2.3478408	a p x	-0.9947569
-2.2278397	a p y	-0.9947569
-0.7278613	a q </s>	-0.447158
-1.0429303	a q c	-0.447158
-0.9526701	a q l	-0.447158
-1.0924695	a q s	-0.447158
-0.3982228	a q u	-0.447158
-0.8926225	a r </s>	-1.300194
-1.2109703	a r a	-1.300194
-1.8544551	a r b	-1.300194
-1.0931477	a r c	-1.300194
-1.0948072	a r d	-1.300194
-0.8631917	a r e	-1.300194
-2.3671601	a r f	-1.300194
-2.1914751	a r g	-1.300194
-2.6751477	a r h	-1.300194
-1.2045944	a r i	-1.300194
-2.0114581	a r j	-1.300194
-1.1164452	a r k	-1.300194
-1.8536247	a r l	-1.300194
-1.5779847	a r m	-1.300194
-1.6207011	a r n	-1.300194
-1.6937196	a r o	-1.300194
-1.7889893	a r p	-1.300194
-2.0120552	a r q	-1.300194
-1.5888961	a r r	-1.300194
-1.767373	a r s	-1.300194
-0.8874796	a r t	-1.300194
-2.2870551	a r u	-1.300194
-2.0728815	a r v	-1.300194
-2.6751477	a r w	-1.300194
-2.6977282	a r x	-1.300194
-1.4437937	a r y	-1.300194
-0.774009	a s </s>	-1.1646114
-1.6236877	a s a	-1.1646114
-2.4669916	a s b	-1.1646114
-1.3810326	a s c	-1.1646114
-0.8537624	a s e	-1.1646114
-2.4488097	a s f	-1.1646114
-2.4908445	a s g	-1.1646114
-1.2736343	a s h	-1.1646114
-1.1345665	a s i	-1.1646114
-1.5527551	a s k	-1.1646114
-2.4228891	a s l	-1.1646114
-1.8819122	a s m	-1.1646114
-2.4669916	a s n	-1.1646114
-1.342045	a s o	-1.1646114
-1.3819857	a s p	-1.1646114
-2.4465896	a s q	-1.1646114
-2.4787543	a s r	-1.1646114
-0.843511	a s s	-1.1646114
-0.8463055	a s t	-1.1646114
-1.5890745	a s u	-1.1646114
-2.4883994	a s v	-1.1646114
-1.5558767	a s y	-1.1646114
-2.5186906	a s z	-1.1646114
-1.0376589	a t </s>	-1.3756636
-1.0355796	a t a	-1.3756636
-2.6224179	a t b	-1.3756636
-1.5176738	a t c	-1.3756636
-0.7905422	a t e	-1.3756636
-2.0621042	a t f	-1.3756636
-2.6224179	a t g	-1.3756636
-1.5071761	a t h	-1.3756636
-0.4437009	a t i	-1.3756636
-2.6391276	a t k	-1.3756636
-1.8179156	a t l	-1.3756636
-1.8792793	a t m	-1.3756636
-2.6203737	a t n	-1.3756636
-1.0996191	a t o	-1.3756636
-2.3151829	a t p	-1.3756636
-1.6558749	a t r	-1.3756636
-1.6479689	a t s	-1.3756636
-1.4887088	a t t	-1.3756636
-1.7412055	a t u	-1.3756636
-2.3390569	a t v	-1.3756636
-1.0573357	a u </s>	-0.90309
-1.7685898	a u c	-0.90309
-0.7290045	a u d	-0.90309
-1.4368301	a u g	-0.90309
-1.9049871	a u k	-0.90309
-1.2694203	a u l	-0.90309
-1.4518753	a u n	-0.90309
-1.9104534	a u o	-0.90309
-1.157061	a u r	-0.90309
-1.0414299	a u s	-0.90309
-0.4526511	a u t	-0.90309
-1.0334746	a v </s>	-1.0449671
-0.5623574	a v a	-1.0449671
-0.4822346	a v e	-1.0449671
-0.6683825	a v i	-1.0449671
-2.0409718	a v l	-1.0449671
-1.890013	a v o	-1.0449671
-1.9817711	a v p	-1.0449671
-1.7419794	a v r	-1.0449671
-1.9650678	a v s	-1.0449671
-2.021882	a v t	-1.0449671
-2.0558608	a v y	-1.0449671
-0.6531362	a w </s>	-0.6392018
-0.8087793	a w a	-0.6392018
-1.7086762	a w d	-0.6392018
-0.9197591	a w e	-0.6392018
-0.9209146	a w i	-0.6392018
-1.4680932	a w k	-0.6392018
-1.281126	a w l	-0.6392018
-1.6616328	a w n	-0.6392018
-1.1191927	a w o	-0.6392018
-1.6811738	a w p	-0.6392018
-1.1335175	a w s	-0.6392018
-1.7016356	a w t	-0.6392018
-1.7614414	a w v	-0.6392018
-1.7457003	a w y	-0.6392018
-0.3145029	a x </s>	-0.6600519
-1.060866	a x a	-0.6600519
-1.7633669	a x b	-0.6600519
-1.6047582	a x c	-0.6600519
-1.7325772	a x d	-0.6600519
-1.583159	a x e	-0.6600519
-0.9613615	a x i	-0.6600519
-1.7325772	a x l	-0.6600519
-1.6682331	a x m	-0.6600519
-1.2886156	a x o	-0.6600519
-1.6768618	a x s	-0.6600519
-1.5365829	a x t	-0.6600519
-1.4561766	a x u	-0.6600519
-1.7325772	a x w	-0.6600519
-0.3284228	a y </s>	-0.8377369
-1.1412256	a y a	-0.8377369
-1.9432219	a y b	-0.8377369
-1.9368308	a y c	-0.8377369
-0.9633998	a y e	-0.8377369
-2.0282954	a y f	-0.8377369
-1.9980477	a y g	-0.8377369
-1.2625006	a y l	-0.8377369
-1.5301131	a y m	-0.8377369
-1.8354458	a y n	-0.8377369
-1.3026964	a y o	-0.8377369
-1.6137428	a y p	-0.8377369
-1.5530928	a y r	-0.8377369
-1.2106617	a y s	-0.8377369
-1.8456105	a y t	-0.8377369
-1.9368308	a y u	-0.8377369
-1.9766689	a y w	-0.8377369
-1.0436962	a z </s>	-0.49485
-1.1185055	a z a	-0.49485
-0.6662879	a z e	-0.49485
-0.9758727	a z i	-0.49485
-0.8101773	a z o	-0.49485
-0.877114	a z u	-0.49485
-1.323294	a z y	-0.49485
-1.0390358	a z z	-0.49485
-3e-07	b </s> <s>	-2.1205739
-0.7687193	b a </s>	-0.9595713
-1.886915	b a a	-0.9595713
-1.6744109	b a b	-0.9595713
-1.0978108	b a c	-0.9595713
-1.8239938	b a g	-0.9595713
-1.5626289	b a i	-0.9595713
-2.1399891	b a k	-0.9595713
-1.3281559	b a l	-0.9595713
-1.7484281	b a m	-0.9595713
-0.9119071	b a n	-0.9595713
-1.8892293	b a o	-0.9595713
-1.5299759	b a p	-0.9595713
-2.1989314	b a q	-0.9595713
-1.0144908	b a r	-0.9595713
-0.7072134	b a s	-0.9595713
-1.0184307	b a t	-0.9595713
-2.1030256	b a u	-0.9595713
-1.6858814	b a y	-0.9595713
-0.8700631	b b </s>	-0.5118834
-1.4884387	b b b	-0.5118834
-1.4787201	b b c	-0.5118834
-1.2430824	b b d	-0.5118834
-0.965549	b b e	-0.5118834
-0.6164532	b b i	-0.5118834
-1.5556221	b b j	-0.5118834
-1.2854258	b b l	-0.5118834
-1.0542891	b b o	-0.5118834
-1.3542354	b b r	-0.5118834
-1.1888854	b b s	-0.5118834
-1.5332629	b b t	-0.5118834
-0.3634161	b c </s>	-0.60206
-0.9870978	b c a	-0.60206
-1.2407222	b c c	-0.60206
-1.3223261	b c e	-0.60206
-1.5746188	b c g	-0.60206
-1.5326192	b c m	-0.60206
-1.2056886	b c o	-0.60206
-1.1009859	b c p	-0.60206
-1.4361947	b c r	-0.60206
-1.5067186	b c u	-0.60206
-0.5229095	b d </s>	-0.4423591
-1.070808	b d a	-0.4423591
-1.4545197	b d c	-0.4423591
-1.4707373	b d d	-0.4423591
-1.0671362	b d e	-0.4423591
-1.5076732	b d h	-0.4423591
-1.1815523	b d m	-0.4423591
-1.2962044	b d o	-0.4423591
-1.215602	b d p	-0.4423591
-1.371932	b d r	-0.4423591
-1.487584	b d t	-0.4423591
-1.4133291	b d u	-0.4423591
-1.487584	b d y	-0.4423591
-0.9188975	b e </s>	-0.9279136
-0.9087766	b e a	-0.9279136
-2.0460669	b e b	-0.9279136
-1.4669681	b e c	-0.9279136
-1.4898619	b e d	-0.9279136
-1.5077113	b e e	-0.9279136
-1.6715943	b e h	-0.9279136
-1.8215027	b e i	-0.9279136
-1.0818733	b e l	-0.9279136
-1.9610607	b e m	-0.9279136
-1.1762444	b e n	-0.9279136
-0.5491491	b e r	-0.9279136
-1.0683053	b e s	-0.9279136
-1.8907215	b e t	-0.9279136
-1.8099678	b e v	-0.9279136
-1.6253535	b e x	-0.9279136
-1.6524198	b e y	-0.9279136
-0.539879	b f </s>	-0.3802112
-1.0329331	b f c	-0.3802112
-0.9765659	b f f	-0.3802112
-0.8652601	b f o	-0.3802112
-0.9266813	b f r	-0.3802112
-0.3418953	b g </s>	-0.4973246
-0.9450252	b g a	-0.4973246
-1.3114571	b g d	-0.4973246
-1.1513474	b g i	-0.4973246
-1.2534752	b g l	-0.4973246
-1.2518335	b g n	-0.4973246
-1.2966738	b g p	-0.4973246
-0.7185398	b h </s>	-0.30103
-0.873785	b h p	-0.30103
-0.8510629	b h u	-0.30103
-0.8991337	b h v	-0.30103
-0.8792085	b i </s>	-0.9082296
-1.4610659	b i a	-0.9082296
-2.1041662	b i b	-0.9082296
-1.4572492	b i c	-0.9082296
-1.984669	b i d	-0.9082296
-1.8061605	b i e	-0.9082296
-1.2452071	b i g	-0.9082296
-1.8919139	b i k	-0.9082296
-0.6991643	b i l	-0.9082296
-1.8092844	b i m	-0.9082296
-1.0411224	b i n	-0.9082296
-1.0981661	b i o	-0.9082296
-1.8038322	b i p	-0.9082296
-1.3499502	b i r	-0.9082296
-1.2512575	b i s	-0.9082296
-0.8948724	b i t	-0.9082296
-2.1726625	b i u	-0.9082296
-2.0038677	b i v	-0.9082296
-2.2084822	b i w	-0.9082296
-1.5989697	b i x	-0.9082296
-1.889079	b i z	-0.9082296
-0.6763392	b j </s>	-0.69897
-0.2074979	b j e	-0.69897
-0.6088614	b k e	-0.30103
-0.6633117	b k i	-0.30103
-0.734348	b k o	-0.30103
-1.3106733	b l </s>	-1.1064553
-1.0205754	b l a	-1.1064553
-1.972146	b l d	-1.1064553
-0.3495852	b l e	-1.1064553
-0.9731905	b l i	-1.1064553
-0.9511768	b l o	-1.1064553
-1.9461813	b l t	-1.1064553
-0.8733342	b l u	-1.1064553
-1.7144807	b l y	-1.1064553
-0.5725341	b m </s>	-0.4771213
-1.0719723	b m a	-0.4771213
-1.4165713	b m c	-0.4771213
-0.9471185	b m e	-0.4771213
-1.4878588	b m g	-0.4771213
-1.5144824	b m j	-0.4771213
-1.4372865	b m l	-0.4771213
-1.0356238	b m o	-0.4771213
-1.2952837	b m p	-0.4771213
-0.8681358	b m s	-0.4771213
-1.4898498	b m w	-0.4771213
-0.6713046	b n </s>	-0.30103
-0.8934596	b n b	-0.30103
-0.761212	b n e	-0.30103
-0.8844598	b n p	-0.30103
-1.0293417	b o </s>	-0.9491331
-1.3634982	b o a	-0.9491331
-1.689344	b o b	-0.9491331
-1.5464034	b o c	-0.9491331
-1.8212102	b o d	-0.9491331
-2.1756396	b o e	-0.9491331
-2.0400008	b o g	-0.9491331
-2.1738135	b o h	-0.9491331
-1.5299586	b o l	-0.9491331
-1.5197354	b o m	-0.9491331
-1.2644237	b o n	-0.9491331
-0.7389634	b o o	-0.9491331
-1.5307869	b o p	-0.9491331
-0.9402031	b o r	-0.9491331
-1.1458804	b o s	-0.9491331
-1.0282428	b o t	-0.9491331
-1.3322179	b o u	-0.9491331
-0.9928606	b o x	-0.9491331
-1.8960853	b o y	-0.9491331
-0.6962197	b p </s>	-0.4900862
-0.92274	b p a	-0.4900862
-1.0116646	b p c	-0.4900862
-1.0305923	b p e	-0.4900862
-1.3431686	b p i	-0.4900862
-1.2978152	b p l	-0.4900862
-1.1761758	b p m	-0.4900862
-1.0731805	b p o	-0.4900862
-1.1320065	b p p	-0.4900862
-1.3892361	b p s	-0.4900862
-1.4511604	b p y	-0.4900862
-0.2914109	b q p	-0.30103
-1.3595213	b r </s>	-0.9294189
-0.5653021	b r a	-0.9294189
-1.8026571	b r c	-0.9294189
-0.9478902	b r e	-0.9294189
-1.8928404	b r f	-0.9294189
-0.700919	b r i	-0.9294189
-1.8864894	b r l	-0.9294189
-0.6514903	b r o	-0.9294189
-1.5348793	b r t	-0.9294189
-1.299858	b r u	-0.9294189
-0.4377538	b s </s>	-0.6409781
-1.4153397	b s a	-0.6409781
-1.417409	b s c	-0.6409781
-1.2205396	b s d	-0.6409781
-1.1105075	b s e	-0.6409781
-1.7897344	b s f	-0.6409781
-1.2861684	b s h	-0.6409781
-1.3473277	b s i	-0.6409781
-1.736149	b s m	-0.6409781
-1.5675761	b s o	-0.6409781
-1.4208797	b s p	-0.6409781
-1.788108	b s q	-0.6409781
-1.3951723	b s s	-0.6409781
-0.9423205	b s t	-0.6409781
-1.7996229	b s w	-0.6409781
-1.7522888	b s y	-0.6409781
-0.6025456	b t </s>	-0.4771213
-1.302442	b t b	-0.4771213
-0.990259	b t c	-0.4771213
-1.0149481	b t e	-0.4771213
-1.0105645	b t i	-0.4771213
-0.6669016	b t r	-0.4771213
-1.2962743	b t v	-0.4771213
-1.1830363	b u </s>	-0.7829501
-1.7335036	b u c	-0.7829501
-1.5477341	b u d	-0.7829501
-1.628797	b u f	-0.7829501
-0.9462908	b u g	-0.7829501
-0.848911	b u i	-0.7829501
-1.3571504	b u l	-0.7829501
-1.683416	b u m	-0.7829501
-1.5589972	b u n	-0.7829501
-1.7263237	b u p	-0.7829501
-0.9794856	b u r	-0.7829501
-0.9035598	b u s	-0.7829501
-0.9854794	b u t	-0.7829501
-0.9132825	b u y	-0.7829501
-1.9243625	b u z	-0.7829501
-0.9115983	b v </s>	-0.4771213
-0.5794609	b v e	-0.4771213
-0.3985833	b v i	-0.4771213
-0.9971643	b v o	-0.4771213
-0.7431845	b w </s>	-0.30103
-0.6708657	b w a	-0.30103
-0.6823556	b w i	-0.30103
-0.7365387	b w o	-0.30103
-0.0368749	b x </s>	-0.845098
-0.3310995	b y </s>	-0.6766936
-1.259267	b y d	-0.6766936
-0.9373728	b y o	-0.6766936
-0.5663127	b y t	-0.6766936
-0.231418	b z e	-0.30103
-1e-07	c </s> <s>	-2.6063814
-1.0924983	c a </s>	-1.2364893
-2.2264542	c a a	-1.2364893
-1.7425138	c a b	-1.2364893
-1.5913969	c a c	-1.2364893
-1.1445058	c a d	-1.2364893
-2.5101488	c a e	-1.2364893
-1.9316453	c a f	-1.2364893
-2.527573	c a h	-1.2364893
-1.812753	c a i	-1.2364893
-1.8410834	c a k	-1.2364893
-0.7664051	c a l	-1.2364893
-1.1260367	c a m	-1.2364893
-1.0612813	c a n	-1.2364893
-1.1440645	c a p	-1.2364893
-0.9441053	c a r	-1.2364893
-1.0620487	c a s	-1.2364893
-0.9152065	c a t	-1.2364893
-2.4307629	c a u	-1.2364893
-2.1621386	c a v	-1.2364893
-2.2116024	c a x	-1.2364893
-2.399217	c a y	-1.2364893
-0.5209029	c b </s>	-0.5642714
-0.9107773	c b a	-0.5642714
-0.8930557	c b c	-0.5642714
-1.4498614	c b d	-0.5642714
-1.2715225	c b l	-0.5642714
-1.2001814	c b o	-0.5642714
-1.3299034	c b r	-0.5642714
-1.1395002	c b s	-0.5642714
-1.1117975	c b u	-0.5642714
-0.6496171	c c </s>	-0.7403627
-1.1254005	c c a	-0.7403627
-1.9757289	c c b	-0.7403627
-1.4855887	c c c	-0.7403627
-1.6997601	c c d	-0.7403627
-1.0076237	c c e	-0.7403627
-1.9983339	c c f	-0.7403627
-1.9881417	c c g	-0.7403627
-1.4466536	c c h	-0.7403627
-1.1446295	c c i	-0.7403627
-1.6141447	c c l	-0.7403627
-1.6709219	c c m	-0.7403627
-1.5403635	c c n	-0.7403627
-0.8658237	c c o	-0.7403627
-1.6721367	c c p	-0.7403627
-1.4469795	c c r	-0.7403627
-1.4662336	c c s	-0.7403627
-1.3162663	c c t	-0.7403627
-1.4984445	c c u	-0.7403627
-1.7306503	c c w	-0.7403627
-0.5463536	c d </s>	-0.5606673
-1.093736	c d c	-0.5606673
-1.1605696	c d e	-0.5606673
-1.5605668	c d h	-0.5606673
-1.080029	c d i	-0.5606673
-1.5164585	c d l	-0.5606673
-0.8767132	c d m	-0.5606673
-1.1083152	c d n	-0.5606673
-1.5369049	c d p	-0.5606673
-1.2133364	c d r	-0.5606673
-1.5432313	c d t	-0.5606673
-0.3669876	c e </s>	-1.1490724
-1.6970635	c e a	-1.1490724
-1.7417619	c e b	-1.1490724
-1.9759571	c e c	-1.1490724
-1.6377102	c e d	-1.1490724
-1.9168075	c e e	-1.1490724
-2.1264142	c e f	-1.1490724
-2.3663661	c e g	-1.1490724
-2.4365671	c e h	-1.1490724
-2.1264142	c e i	-1.1490724
-2.4099689	c e k	-1.1490724
-1.1671526	c e l	-1.1490724
-1.644544	c e m	-1.1490724
-1.0567815	c e n	-1.1490724
-2.1182837	c e o	-1.1490724
-1.34349	c e p	-1.1490724
-1.2090494	c e r	-1.1490724
-0.9197051	c e s	-1.1490724
-1.7677879	c e t	-1.1490724
-1.8558625	c e u	-1.1490724
-1.9547976	c e v	-1.1490724
-0.8111835	c f </s>	-0.3735807
-1.1253548	c f a	-0.3735807
-1.3190345	c f c	-0.3735807
-1.088054	c f d	-0.3735807
-0.9470949	c f e	-0.3735807
-1.0347001	c f o	-0.3735807
-1.1304248	c f r	-0.3735807
-1.2849758	c f s	-0.3735807
-1.1904902	c f t	-0.3735807
-1.2500237	c f u	-0.3735807
-1.3779716	c f x	-0.3735807
-0.3006242	c g </s>	-0.5698753
-0.8644202	c g i	-0.5698753
-1.3260259	c g l	-0.5698753
-1.261918	c g o	-0.5698753
-1.2265061	c g r	-0.5698753
-1.329328	c g u	-0.5698753
-1.4032238	c g v	-0.5698753
-0.6921834	c h </s>	-1.2388821
-0.7258443	c h a	-1.2388821
-1.9871672	c h b	-1.2388821
-2.389999	c h c	-1.2388821
-2.1434612	c h d	-1.2388821
-0.7328797	c h e	-1.2388821
-0.733962	c h i	-1.2388821
-2.4100907	c h l	-1.2388821
-1.9871672	c h m	-1.2388821
-1.3388258	c h n	-1.2388821
-1.2740924	c h o	-1.2388821
-1.9737856	c h p	-1.2388821
-1.3582824	c h r	-1.2388821
-2.1379318	c h s	-1.2388821
-1.7305354	c h t	-1.2388821
-1.9411574	c h u	-1.2388821
-2.1782027	c h w	-1.2388821
-2.3219861	c h y	-1.2388821
-0.9440848	c i </s>	-0.948528
-0.9068464	c i a	-0.948528
-2.0740848	c i b	-0.948528
-1.433591	c i c	-0.948528
-1.0476359	c i e	-0.948528
-1.5466615	c i f	-0.948528
-1.6871043	c i i	-0.948528
-2.1197796	c i k	-0.948528
-1.2870376	c i l	-0.948528
-1.302994	c i m	-0.948528
-0.8058102	c i n	-0.948528
-1.8242078	c i o	-0.948528
-1.4352395	c i p	-0.948528
-1.7843054	c i r	-0.948528
-1.0570784	c i s	-0.948528
-0.8925092	c i t	-0.948528
-1.771677	c i v	-0.948528
-0.2783992	c j </s>	-0.30103
-0.4337873	c k </s>	-0.8480424
-1.5293396	c k a	-0.8480424
-1.3761879	c k b	-0.8480424
-1.832015	c k c	-0.8480424
-1.6588307	c k d	-0.8480424
-0.7335134	c k e	-0.8480424
-2.082459	c k f	-0.8480424
-2.1333448	c k g	-0.8480424
-1.8365342	c k h	-0.8480424
-1.2103242	c k i	-0.8480424
-1.5330881	c k l	-0.8480424
-1.8231152	c k m	-0.8480424
-1.7320585	c k o	-0.8480424
-1.6498718	c k p	-0.8480424
-2.0745288	c k r	-0.8480424
-1.3215403	c k s	-0.8480424
-1.7811623	c k t	-0.8480424
-1.4285356	c k u	-0.8480424
-1.8275423	c k v	-0.8480424
-1.6710709	c k w	-0.8480424
-2.0090063	c k y	-0.8480424
-0.8254033	c l </s>	-1.1383027
-0.8693641	c l a	-1.1383027
-0.7138257	c l e	-1.1383027
-0.7382969	c l i	-1.1383027
-0.6474348	c l o	-1.1383027
-2.0297954	c l r	-1.1383027
-1.1196748	c l u	-1.1383027
-2.0170769	c l v	-1.1383027
-0.5388728	c m </s>	-0.6283889
-0.950987	c m a	-0.6283889
-1.4372203	c m b	-0.6283889
-1.4550518	c m c	-0.6283889
-1.7748126	c m d	-0.6283889
-1.2868988	c m e	-0.6283889
-1.7886042	c m f	-0.6283889
-1.7886042	c m g	-0.6283889
-1.3141066	c m l	-0.6283889
-1.1793868	c m m	-0.6283889
-1.2868436	c m o	-0.6283889
-1.2329074	c m p	-0.6283889
-1.0074274	c m s	-0.6283889
-1.7536185	c m t	-0.6283889
-1.4447729	c m u	-0.6283889
-1.7914158	c m w	-0.6283889
-0.715983	c n </s>	-0.4890205
-1.0012649	c n a	-0.4890205
-1.3843667	c n c	-0.4890205
-1.2339292	c n e	-0.4890205
-1.0554422	c n n	-0.4890205
-1.175589	c n o	-0.4890205
-1.0724503	c n p	-0.4890205
-1.5399284	c n r	-0.4890205
-0.9941607	c n s	-0.4890205
-1.1949374	c n t	-0.4890205
-1.5250554	c n y	-0.4890205
-1.546861	c n z	-0.4890205
-1.0236297	c o </s>	-1.3167905
-1.7060902	c o a	-1.3167905
-1.9340923	c o b	-1.3167905
-1.4751683	c o c	-1.3167905
-1.4074495	c o d	-1.3167905
-2.1795531	c o e	-1.3167905
-2.1416575	c o f	-1.3167905
-1.8553538	c o g	-1.3167905
-2.3439631	c o h	-1.3167905
-2.1511967	c o i	-1.3167905
-2.3652939	c o j	-1.3167905
-2.5787327	c o k	-1.3167905
-1.260283	c o l	-1.3167905
-0.677045	c o m	-1.3167905
-0.6923499	c o n	-1.3167905
-1.4232356	c o o	-1.3167905
-1.3955675	c o p	-1.3167905
-1.1234375	c o r	-1.3167905
-1.3301098	c o s	-1.3167905
-1.9785133	c o t	-1.3167905
-1.2464081	c o u	-1.3167905
-1.8149382	c o v	-1.3167905
-2.4974802	c o w	-1.3167905
-0.4372073	c p </s>	-0.60206
-1.0102585	c p a	-0.60206
-1.4382447	c p c	-0.60206
-1.4723972	c p d	-0.60206
-1.384385	c p e	-0.60206
-1.2483048	c p i	-0.60206
-1.1248248	c p l	-0.60206
-1.4502325	c p m	-0.60206
-1.4616626	c p o	-0.60206
-1.3874679	c p p	-0.60206
-1.801509	c p q	-0.60206
-1.4373955	c p r	-0.60206
-1.6286844	c p s	-0.60206
-1.6107291	c p t	-0.60206
-1.6669881	c p u	-0.60206
-1.7866059	c p v	-0.60206
-1.7139288	c p y	-0.60206
-0.9911304	c q a	-0.4149733
-1.0602848	c q e	-0.4149733
-1.0994841	c q r	-0.4149733
-1.0602848	c q s	-0.4149733
-0.3660382	c q u	-0.4149733
-1.1225773	c r </s>	-0.9682082
-1.0875399	c r a	-0.9682082
-1.5381519	c r c	-0.9682082
-0.8623551	c r e	-0.9682082
-2.1381913	c r f	-0.9682082
-2.1720771	c r h	-0.9682082
-0.7742558	c r i	-0.9682082
-2.1280174	c r l	-0.9682082
-1.3254977	c r m	-0.9682082
-0.6590955	c r o	-0.9682082
-2.08955	c r p	-0.9682082
-2.1035791	c r r	-0.9682082
-1.5390146	c r s	-0.9682082
-1.9393371	c r t	-0.9682082
-1.1400593	c r u	-0.9682082
-1.1400593	c r y	-0.9682082
-2.1929757	c r z	-0.9682082
-0.2166461	c s </s>	-0.9131513
-1.5502405	c s a	-0.9131513
-1.6895822	c s c	-0.9131513
-1.6104039	c s d	-0.9131513
-1.1915785	c s e	-0.9131513
-2.0922755	c s g	-0.9131513
-1.6986646	c s h	-0.9131513
-1.4996332	c s i	-0.9131513
-1.7583593	c s m	-0.9131513
-1.4275524	c s o	-0.9131513
-1.8982266	c s p	-0.9131513
-1.7990923	c s r	-0.9131513
-1.2836206	c s s	-0.9131513
-1.5158365	c s t	-0.9131513
-2.0905315	c s v	-0.9131513
-2.0244621	c s y	-0.9131513
-0.7431826	c t </s>	-1.0811872
-1.7816885	c t a	-1.0811872
-2.0121393	c t d	-1.0811872
-1.3521183	c t e	-1.0811872
-2.2929509	c t f	-1.0811872
-2.2873163	c t g	-1.0811872
-0.5123417	c t i	-1.0811872
-2.0282797	c t j	-1.0811872
-2.2413226	c t m	-1.0811872
-2.2854543	c t n	-1.0811872
-0.8509182	c t o	-1.0811872
-1.9806318	c t p	-1.0811872
-0.9873388	c t r	-1.0811872
-1.3534925	c t s	-1.0811872
-1.0679366	c t u	-1.0811872
-2.2726387	c t v	-1.0811872
-2.2566984	c t w	-1.0811872
-2.3222755	c t x	-1.0811872
-1.1043975	c u </s>	-0.8255759
-1.1270763	c u b	-0.8255759
-1.5262028	c u c	-0.8255759
-1.7631216	c u d	-0.8255759
-1.5102135	c u e	-0.8255759
-1.6919923	c u i	-0.8255759
-0.9454082	c u l	-0.8255759
-1.0491999	c u m	-0.8255759
-1.5221499	c u p	-0.8255759
-0.7264052	c u r	-0.8255759
-0.853836	c u s	-0.8255759
-0.8523954	c u t	-0.8255759
-1.9093073	c u z	-0.8255759
-0.6240221	c v </s>	-0.49485
-0.7853403	c v d	-0.49485
-0.8767386	c v e	-0.49485
-0.9853468	c v i	-0.49485
-1.0559055	c v p	-0.49485
-1.33623	c v r	-0.49485
-1.0487954	c v s	-0.49485
-1.3501194	c v t	-0.49485
-0.4312972	c w </s>	-0.4771213
-0.6443219	c w d	-0.4771213
-0.7790797	c w i	-0.4771213
-0.4851601	c x </s>	-0.3679768
-0.8306683	c x f	-0.3679768
-0.5270105	c x m	-0.3679768
-0.3544838	c y </s>	-0.6320232
-0.8604056	c y b	-0.6320232
-0.8595521	c y c	-0.6320232
-1.4435728	c y d	-0.6320232
-1.4029911	c y m	-0.6320232
-1.3471368	c y p	-0.6320232
-1.1200141	c y t	-0.6320232
-0.237476	c z </s>	-0.30103
-1e-07	d </s> <s>	-2.6263404
-0.6863817	d a </s>	-0.8983436
-2.1943842	d a a	-0.8983436
-1.5971613	d a b	-0.8983436
-1.5279691	d a c	-0.8983436
-1.9494303	d a d	-0.8983436
-2.207158	d a e	-0.8983436
-1.9417152	d a h	-0.8983436
-1.70068	d a i	-0.8983436
-2.166525	d a k	-0.8983436
-1.5460191	d a l	-0.8983436
-1.4036785	d a m	-0.8983436
-1.012884	d a n	-0.8983436
-1.9278678	d a o	-0.8983436
-1.3022892	d a p	-0.8983436
-1.167386	d a r	-0.8983436
-1.2818005	d a s	-0.8983436
-0.6146888	d a t	-0.8983436
-2.1216976	d a u	-0.8983436
-1.8554096	d a v	-0.8983436
-1.9116258	d a w	-0.8983436
-2.1648418	d a x	-0.8983436
-1.4480937	d a y	-0.8983436
-2.2241536	d a z	-0.8983436
-0.3872126	d b </s>	-0.6799468
-1.1597983	d b a	-0.6799468
-1.4560381	d b c	-0.6799468
-1.789423	d b f	-0.6799468
-1.4881706	d b g	-0.6799468
-1.4853213	d b l	-0.6799468
-1.3134898	d b m	-0.6799468
-1.0011679	d b o	-0.6799468
-1.7235035	d b p	-0.6799468
-1.371837	d b r	-0.6799468
-1.268334	d b s	-0.6799468
-1.3701394	d b u	-0.6799468
-1.7938951	d b x	-0.6799468
-1.7552137	d b y	-0.6799468
-0.4383236	d c </s>	-0.6283889
-0.9796436	d c a	-0.6283889
-1.1815513	d c c	-0.6283889
-1.3817261	d c d	-0.6283889
-0.9949304	d c h	-0.6283889
-1.5227141	d c i	-0.6283889
-1.5599805	d c l	-0.6283889
-1.6254806	d c m	-0.6283889
-1.0273087	d c o	-0.6283889
-1.5149715	d c r	-0.6283889
-1.5444534	d c s	-0.6283889
-1.4556318	d c t	-0.6283889
-0.6207906	d d </s>	-0.5166298
-1.1658535	d d a	-0.5166298
-1.521554	d d b	-0.5166298
-1.5540509	d d c	-0.5166298
-1.5712592	d d d	-0.5166298
-1.0349104	d d e	-0.5166298
-0.9077451	d d i	-0.5166298
-1.61613	d d k	-0.5166298
-1.1472428	d d l	-0.5166298
-1.5171039	d d m	-0.5166298
-1.6024447	d d n	-0.5166298
-1.2028834	d d o	-0.5166298
-1.1101441	d d r	-0.5166298
-1.2504975	d d s	-0.5166298
-0.7986291	d e </s>	-1.1487055
-1.3802772	d e a	-1.1487055
-1.7216131	d e b	-1.1487055
-1.3170036	d e c	-1.1487055
-1.6294518	d e d	-1.1487055
-1.5909715	d e e	-1.1487055
-1.518497	d e f	-1.1487055
-2.4894505	d e h	-1.1487055
-2.0179934	d e i	-1.1487055
-2.5052379	d e j	-1.1487055
-2.1917928	d e k	-1.1487055
-0.993533	d e l	-1.1487055
-1.4950158	d e m	-1.1487055
-1.0627308	d e n	-1.1487055
-1.8054113	d e o	-1.1487055
-1.7172253	d e p	-1.1487055
-0.7748638	d e r	-1.1487055
-1.039783	d e s	-1.1487055
-1.8126776	d e t	-1.1487055
-2.197912	d e u	-1.1487055
-1.2658642	d e v	-1.1487055
-2.007646	d e w	-1.1487055
-1.5953461	d e x	-1.1487055
-2.5088255	d e z	-1.1487055
-0.9800184	d f </s>	-0.4666558
-1.2690377	d f a	-0.4666558
-1.2718787	d f e	-0.4666558
-1.1057503	d f i	-0.4666558
-1.3706692	d f l	-0.4666558
-1.2564782	d f m	-0.4666558
-1.5892699	d f n	-0.4666558
-0.9331512	d f o	-0.4666558
-1.5184225	d f p	-0.4666558
-0.8219403	d f r	-0.4666558
-0.9649976	d f s	-0.4666558
-1.3429463	d f t	-0.4666558
-1.199818	d f u	-0.4666558
-1.5662148	d f x	-0.4666558
-0.693365	d g </s>	-0.90309
-0.1655204	d g e	-0.90309
-1.2892945	d g r	-0.90309
-0.7955026	d h </s>	-0.4313638
-1.0377197	d h a	-0.4313638
-1.37045	d h c	-0.4313638
-0.8863889	d h e	-0.4313638
-1.4215397	d h g	-0.4313638
-1.3826701	d h l	-0.4313638
-0.695488	d h o	-0.4313638
-1.2933658	d h r	-0.4313638
-1.0429316	d h t	-0.4313638
-1.3113924	d h u	-0.4313638
-1.1439704	d i </s>	-1.069197
-0.7789399	d i a	-1.069197
-2.28015	d i b	-1.069197
-1.2348347	d i c	-1.069197
-1.7306205	d i d	-1.069197
-1.7406669	d i e	-1.069197
-2.0362339	d i f	-1.069197
-1.4722204	d i g	-1.069197
-2.3569553	d i i	-1.069197
-2.401136	d i j	-1.069197
-1.9299354	d i l	-1.069197
-1.8472284	d i m	-1.069197
-0.7519246	d i n	-1.069197
-1.1185879	d i o	-1.069197
-1.8431148	d i p	-1.069197
-1.2773533	d i r	-1.069197
-0.9258256	d i s	-1.069197
-1.0362347	d i t	-1.069197
-1.6998889	d i u	-1.069197
-1.6544103	d i v	-1.069197
-2.2997865	d i x	-1.069197
-2.3969286	d i y	-1.069197
-0.9384602	d j </s>	-0.3424227
-0.7761551	d j a	-0.3424227
-0.8641618	d j e	-0.3424227
-0.6516481	d j i	-0.3424227
-1.0005784	d j m	-0.3424227
-0.0626823	d k </s>	-0.9294189
-1.2194559	d k n	-0.9294189
-0.6067523	d l </s>	-0.7178553
-1.3781004	d l a	-0.7178553
-0.9605272	d l c	-0.7178553
-0.5444197	d l e	-0.7178553
-0.8774511	d l i	-0.7178553
-1.4433972	d l l	-0.7178553
-1.6533218	d l n	-0.7178553
-1.2144741	d l o	-0.7178553
-1.6203308	d l p	-0.7178553
-0.5307206	d m </s>	-0.6927211
-0.6839429	d m a	-0.6927211
-1.7128071	d m c	-0.6927211
-1.2157659	d m e	-0.6927211
-1.8001958	d m g	-0.6927211
-0.7865379	d m i	-0.6927211
-1.737873	d m l	-0.6927211
-1.681489	d m m	-0.6927211
-1.4726533	d m o	-0.6927211
-1.5704482	d m p	-0.6927211
-1.5129083	d m r	-0.6927211
-1.2826543	d m s	-0.6927211
-1.8205207	d m x	-0.6927211
-1.8283947	d m z	-0.6927211
-0.58234	d n </s>	-0.5081555
-1.2814326	d n a	-0.5081555
-1.0830491	d n c	-0.5081555
-0.7749293	d n e	-0.5081555
-1.406772	d n f	-0.5081555
-1.4358129	d n l	-0.5081555
-1.3859678	d n n	-0.5081555
-0.9106354	d n s	-0.5081555
-1.4116426	d n v	-0.5081555
-0.8799526	d o </s>	-0.8361432
-1.7870358	d o a	-0.8361432
-1.6138322	d o b	-0.8361432
-0.9308057	d o c	-0.8361432
-2.1009643	d o e	-0.8361432
-2.011018	d o f	-0.8361432
-1.9547112	d o g	-0.8361432
-2.0989701	d o h	-0.8361432
-1.635183	d o i	-0.8361432
-2.1363463	d o j	-0.8361432
-1.3736011	d o l	-0.8361432
-1.0711727	d o m	-0.8361432
-1.2274522	d o n	-0.8361432
-1.0473208	d o o	-0.8361432
-1.0921559	d o r	-0.8361432
-1.1949609	d o s	-0.8361432
-1.2594215	d o t	-0.8361432
-1.5611663	d o u	-0.8361432
-1.5271355	d o v	-0.8361432
-1.0987154	d o w	-0.8361432
-1.8161225	d o x	-0.8361432
-0.4768138	d p </s>	-0.5797836
-0.9814915	d p a	-0.5797836
-1.5468379	d p b	-0.5797836
-1.5110616	d p d	-0.5797836
-1.4055909	d p i	-0.5797836
-1.362867	d p l	-0.5797836
-0.8991388	d p o	-0.5797836
-1.4146643	d p p	-0.5797836
-1.1214763	d p r	-0.5797836
-1.0544406	d p s	-0.5797836
-0.6408367	d q </s>	-0.30103
-0.700386	d q a	-0.30103
-0.7451675	d q e	-0.30103
-1.0573899	d r </s>	-0.9128498
-0.6480415	d r a	-0.9128498
-1.9095407	d r b	-0.9128498
-1.8166237	d r c	-0.9128498
-0.8161938	d r e	-0.9128498
-0.7233782	d r i	-0.9128498
-1.8395236	d r m	-0.9128498
-0.7222549	d r o	-0.9128498
-1.7699622	d r t	-0.9128498
-1.3220248	d r u	-0.9128498
-1.5948561	d r y	-0.9128498
-0.2870812	d s </s>	-0.7403627
-1.5521701	d s a	-0.7403627
-1.7496521	d s c	-0.7403627
-1.9024711	d s d	-0.7403627
-1.4386327	d s e	-0.7403627
-1.9338221	d s f	-0.7403627
-1.9676137	d s g	-0.7403627
-1.56434	d s h	-0.7403627
-1.8748054	d s k	-0.7403627
-1.4890631	d s l	-0.7403627
-1.6300016	d s m	-0.7403627
-1.948517	d s n	-0.7403627
-1.2961056	d s o	-0.7403627
-1.2368797	d s p	-0.7403627
-1.9579604	d s r	-0.7403627
-1.7123026	d s s	-0.7403627
-1.1356851	d s t	-0.7403627
-1.5955165	d s u	-0.7403627
-0.6196241	d t </s>	-0.4086639
-1.2305939	d t a	-0.4086639
-1.4865063	d t c	-0.4086639
-1.5722046	d t d	-0.4086639
-1.0874948	d t e	-0.4086639
-1.5738996	d t f	-0.4086639
-1.4033419	d t h	-0.4086639
-1.527245	d t m	-0.4086639
-1.5196843	d t p	-0.4086639
-0.990276	d t r	-0.4086639
-1.4232881	d t s	-0.4086639
-1.4878974	d t t	-0.4086639
-1.4379404	d t u	-0.4086639
-1.2822258	d t v	-0.4086639
-1.6001529	d t x	-0.4086639
-1.5947738	d t z	-0.4086639
-1.167222	d u </s>	-0.6651117
-1.2058395	d u b	-0.6651117
-0.5741866	d u c	-0.6651117
-1.6030405	d u e	-0.6651117
-1.7493795	d u g	-0.6651117
-1.1750255	d u i	-0.6651117
-1.812906	d u k	-0.6651117
-1.0201192	d u l	-0.6651117
-1.4000794	d u m	-0.6651117
-1.1200404	d u n	-0.6651117
-1.5431919	d u o	-0.6651117
-1.6246666	d u p	-0.6651117
-1.117734	d u r	-0.6651117
-1.2205255	d u s	-0.6651117
-1.470708	d u t	-0.6651117
-1.7661142	d u x	-0.6651117
-0.8855534	d v </s>	-0.4771213
-0.8731221	d v a	-0.4771213
-1.482995	d v b	-0.4771213
-1.4634761	d v d	-0.4771213
-0.7267766	d v e	-0.4771213
-0.6623616	d v i	-0.4771213
-1.4139252	d v m	-0.4771213
-1.4139252	d v p	-0.4771213
-1.1741335	d v r	-0.4771213
-1.4540361	d v t	-0.4771213
-1.4982322	d v v	-0.4771213
-0.8323759	d w </s>	-0.5772364
-0.54963	d w a	-0.5772364
-1.480676	d w d	-0.5772364
-1.1330311	d w e	-0.5772364
-1.1352116	d w i	-0.5772364
-1.4710968	d w m	-0.5772364
-0.6255929	d w o	-0.5772364
-1.47586	d w r	-0.5772364
-1.5159721	d w z	-0.5772364
-0.2973391	d x </s>	-0.5006024
-1.2456716	d x l	-0.5006024
-1.2274148	d x o	-0.5006024
-0.8958261	d x p	-0.5006024
-1.2598861	d x r	-0.5006024
-1.2410349	d x y	-0.5006024
-0.3842622	d y </s>	-0.7132104
-1.4270779	d y a	-0.7132104
-1.4430464	d y b	-0.7132104
-0.4402002	d y n	-0.7132104
-1.3777292	d y p	-0.7132104
-1.3376532	d y s	-0.7132104
-0.237476	d z </s>	-0.30103
-0.0	e </s> <s>	-3.0378248
-1.1468247	e a </s>	-1.1477577
-1.1442625	e a c	-1.1477577
-1.0487852	e a d	-1.1477577
-2.0812412	e a f	-1.1477577
-1.7747443	e a g	-1.1477577
-2.1111191	e a h	-1.1477577
-1.8803538	e a i	-1.1477577
-2.4130696	e a j	-1.1477577
-1.8034114	e a k	-1.1477577
-0.8849553	e a l	-1.1477577
-0.9216538	e a m	-1.1477577
-1.0081437	e a n	-1.1477577
-2.3761497	e a o	-1.1477577
-1.6566222	e a p	-1.1477577
-0.9356366	e a r	-1.1477577
-1.0242666	e a s	-1.1477577
-1.1520289	e a t	-1.1477577
-1.7920372	e a u	-1.1477577
-1.6172711	e a v	-1.1477577
-0.9114689	e b </s>	-0.7596678
-1.0061165	e b a	-0.7596678
-1.6641431	e b c	-0.7596678
-1.6840163	e b d	-0.7596678
-1.1556242	e b e	-0.7596678
-1.7331762	e b f	-0.7596678
-1.4319836	e b g	-0.7596678
-1.1922331	e b i	-0.7596678
-2.0345317	e b k	-0.7596678
-1.4922345	e b l	-0.7596678
-0.8457781	e b o	-0.7596678
-1.9206384	e b p	-0.7596678
-1.0965043	e b r	-0.7596678
-0.9509775	e b s	-0.7596678
-1.7109812	e b t	-0.7596678
-1.0510548	e b u	-0.7596678
-2.0280688	e b w	-0.7596678
-2.0154247	e b x	-0.7596678
-1.9626828	e b y	-0.7596678
-2.0477532	e b z	-0.7596678
-0.8697656	e c </s>	-1.219557
-1.2645742	e c a	-1.219557
-1.6810046	e c c	-1.219557
-1.5578858	e c e	-1.219557
-0.8007632	e c h	-1.219557
-1.3268742	e c i	-1.219557
-1.554001	e c k	-1.219557
-1.5141972	e c l	-1.219557
-1.8618795	e c m	-1.219557
-1.8790824	e c n	-1.219557
-1.0092965	e c o	-1.219557
-2.3766833	e c p	-1.219557
-1.4233597	e c r	-1.219557
-1.9275618	e c s	-1.219557
-0.5993394	e c t	-1.219557
-1.337949	e c u	-1.219557
-2.0053447	e c v	-1.219557
-2.4800389	e c w	-1.219557
-2.1661072	e c y	-1.219557
-0.3626426	e d </s>	-1.0886023
-1.3874938	e d a	-1.0886023
-1.7120795	e d b	-1.0886023
-2.2255933	e d c	-1.0886023
-2.0021902	e d d	-1.0886023
-1.3241357	e d e	-1.0886023
-1.5093084	e d g	-1.0886023
-2.2979961	e d h	-1.0886023
-0.6489223	e d i	-1.0886023
-2.2286353	e d l	-1.0886023
-1.8182565	e d m	-1.0886023
-1.7442488	e d o	-1.0886023
-1.4232528	e d s	-1.0886023
-2.2702514	e d t	-1.0886023
-1.2680273	e d u	-1.0886023
-2.2804491	e d v	-1.0886023
-1.7389098	e d w	-1.0886023
-2.3125627	e d x	-1.0886023
-2.0150653	e d y	-1.0886023
-0.6153249	e e </s>	-0.9370161
-1.4354674	e e b	-0.9370161
-1.330917	e e c	-0.9370161
-1.0988625	e e d	-0.9370161
-1.8302977	e e e	-0.9370161
-2.137582	e e g	-0.9370161
-1.920134	e e h	-0.9370161
-2.2182252	e e j	-0.9370161
-1.6205808	e e k	-0.9370161
-1.387447	e e l	-0.9370161
-1.8104689	e e m	-0.9370161
-0.9183495	e e n	-0.9370161
-1.1108944	e e p	-0.9370161
-0.9341057	e e r	-0.9370161
-1.4228351	e e s	-0.9370161
-1.1965605	e e t	-0.9370161
-2.1891791	e e u	-0.9370161
-1.8818039	e e v	-0.9370161
-1.723829	e e w	-0.9370161
-2.0664057	e e x	-0.9370161
-1.0399882	e f </s>	-0.6927211
-0.9811118	e f a	-0.6927211
-1.7200461	e f c	-0.6927211
-1.1234871	e f e	-0.6927211
-1.0097845	e f f	-0.6927211
-0.7519944	e f i	-0.6927211
-1.1624955	e f l	-0.6927211
-1.7345454	e f m	-0.6927211
-0.8952431	e f o	-0.6927211
-0.9262053	e f r	-0.6927211
-1.5690115	e f t	-0.6927211
-1.637996	e f u	-0.6927211
-1.79228	e f x	-0.6927211
-1.8036546	e f y	-0.6927211
-0.8146644	e g </s>	-0.7832909
-0.7834846	e g a	-0.7832909
-1.0943814	e g e	-0.7832909
-1.855703	e g g	-0.7832909
-0.8464429	e g i	-0.7832909
-1.7666808	e g l	-0.7832909
-1.5683436	e g m	-0.7832909
-1.7639141	e g n	-0.7832909
-1.0348249	e g o	-0.7832909
-0.8125881	e g r	-0.7832909
-1.1941403	e g u	-0.7832909
-1.9062293	e g v	-0.7832909
-1.8948965	e g w	-0.7832909
-1.586289	e g y	-0.7832909
-0.9768178	e h </s>	-0.559308
-0.8411891	e h a	-0.559308
-1.4130026	e h c	-0.559308
-0.8451873	e h i	-0.559308
-0.6731858	e h o	-0.559308
-0.8290075	e h r	-0.559308
-1.1359684	e h s	-0.559308
-1.3639149	e h u	-0.559308
-0.805712	e i </s>	-0.6471384
-1.4977043	e i b	-0.6471384
-1.200758	e i c	-0.6471384
-1.0330408	e i d	-0.6471384
-0.9757721	e i g	-0.6471384
-1.8108332	e i i	-0.6471384
-1.8436088	e i j	-0.6471384
-1.7953286	e i k	-0.6471384
-1.2771903	e i l	-0.6471384
-0.8780719	e i n	-0.6471384
-1.5109887	e i o	-0.6471384
-1.4615703	e i r	-0.6471384
-1.2313971	e i s	-0.6471384
-0.990223	e i t	-0.6471384
-1.6688866	e i v	-0.6471384
-1.5417286	e i w	-0.6471384
-1.1343875	e j </s>	-0.4771213
-0.9520473	e j a	-0.4771213
-0.7529746	e j b	-0.4771213
-1.066648	e j i	-0.4771213
-1.0553914	e j o	-0.4771213
-0.5020312	e j s	-0.4771213
-0.3817246	e k </s>	-0.5781478
-1.2594451	e k a	-0.5781478
-1.0984942	e k e	-0.5781478
-1.6638147	e k f	-0.5781478
-1.6993193	e k g	-0.5781478
-1.6812043	e k h	-0.5781478
-1.0795881	e k i	-0.5781478
-1.67533	e k k	-0.5781478
-1.3770315	e k l	-0.5781478
-1.6525968	e k n	-0.5781478
-1.5495655	e k o	-0.5781478
-1.6416614	e k p	-0.5781478
-1.3889361	e k r	-0.5781478
-1.0908327	e k t	-0.5781478
-0.6947169	e l </s>	-1.2250371
-1.1605142	e l a	-1.2250371
-2.0073084	e l b	-1.2250371
-1.8692382	e l c	-1.2250371
-1.4439443	e l d	-1.2250371
-0.8410996	e l e	-1.2250371
-1.893261	e l f	-1.2250371
-1.1128295	e l i	-1.2250371
-2.1696357	e l k	-1.2250371
-0.6683325	e l l	-1.2250371
-1.8780918	e l m	-1.2250371
-2.182965	e l n	-1.2250371
-1.1087603	e l o	-1.2250371
-1.4923365	e l p	-1.2250371
-1.527098	e l s	-1.2250371
-1.5198507	e l t	-1.2250371
-2.0515924	e l u	-1.2250371
-1.9643409	e l y	-1.2250371
-2.4948582	e l z	-1.2250371
-0.8620968	e m </s>	-1.0330003
-0.7789711	e m a	-1.0330003
-1.2482073	e m b	-1.0330003
-1.5017242	e m c	-1.0330003
-2.2440436	e m d	-1.0330003
-0.75565	e m e	-1.0330003
-2.2600892	e m f	-1.0330003
-0.868691	e m i	-1.0330003
-1.7563405	e m m	-1.0330003
-2.2733666	e m n	-1.0330003
-1.0865334	e m o	-1.0330003
-1.2640629	e m p	-1.0330003
-2.2733666	e m q	-1.0330003
-1.9772517	e m r	-1.0330003
-1.4784107	e m s	-1.0330003
-1.8016721	e m t	-1.0330003
-1.497186	e m u	-1.0330003
-1.8132004	e m v	-1.0330003
-1.962176	e m y	-1.0330003
-0.9609568	e n </s>	-1.3368598
-1.6401221	e n a	-1.3368598
-2.1177847	e n b	-1.3368598
-1.0349804	e n c	-1.3368598
-1.1256189	e n d	-1.3368598
-1.1980547	e n e	-1.3368598
-2.3583	e n f	-1.3368598
-1.3344321	e n g	-1.3368598
-2.4203688	e n h	-1.3368598
-1.5399729	e n i	-1.3368598
-2.1244846	e n j	-1.3368598
-1.9181851	e n k	-1.3368598
-2.1141067	e n l	-1.3368598
-2.0208599	e n m	-1.3368598
-1.6366926	e n n	-1.3368598
-1.6564094	e n o	-1.3368598
-2.103971	e n p	-1.3368598
-2.2378507	e n r	-1.3368598
-1.0667619	e n s	-1.3368598
-0.4872259	e n t	-1.3368598
-2.3608782	e n u	-1.3368598
-1.8134065	e n v	-1.3368598
-2.2477013	e n w	-1.3368598
-2.3889155	e n y	-1.3368598
-2.0268101	e n z	-1.3368598
-0.8921138	e o </s>	-0.7096939
-1.8107858	e o a	-0.7096939
-1.2439451	e o c	-0.7096939
-1.8694098	e o e	-0.7096939
-1.1038619	e o g	-0.7096939
-1.4617181	e o l	-0.7096939
-1.1406079	e o m	-0.7096939
-0.9275374	e o n	-0.7096939
-0.9681478	e o p	-0.7096939
-0.8717659	e o r	-0.7096939
-1.0157442	e o s	-0.7096939
-1.6823565	e o t	-0.7096939
-1.3423421	e o u	-0.7096939
-1.8304166	e o v	-0.7096939
-1.7803452	e o w	-0.7096939
-1.8524836	e o x	-0.7096939
-0.8754728	e p </s>	-0.8318361
-0.969631	e p a	-0.8318361
-2.0499891	e p b	-0.8318361
-1.9244038	e p c	-0.8318361
-1.7440274	e p d	-0.8318361
-1.206484	e p e	-0.8318361
-1.7567317	e p g	-0.8318361
-1.1585566	e p h	-0.8318361
-1.8233328	e p i	-0.8318361
-1.1453453	e p l	-0.8318361
-1.46127	e p m	-0.8318361
-0.8203884	e p o	-0.8318361
-1.3412936	e p p	-0.8318361
-1.125687	e p r	-0.8318361
-1.4413312	e p s	-0.8318361
-1.0052566	e p t	-0.8318361
-1.7094457	e p u	-0.8318361
-2.0694119	e p w	-0.8318361
-2.0760841	e p x	-0.8318361
-0.9269734	e q </s>	-0.9777236
-0.0845573	e q u	-0.9777236
-0.3779362	e r </s>	-1.5866851
-1.26185	e r a	-1.5866851
-1.9386782	e r b	-1.5866851
-1.4744946	e r c	-1.5866851
-2.0654177	e r d	-1.5866851
-1.3394349	e r e	-1.5866851
-1.861978	e r f	-1.5866851
-1.7930648	e r g	-1.5866851
-2.9128272	e r h	-1.5866851
-1.2231147	e r i	-1.5866851
-2.2843634	e r k	-1.5866851
-1.7654574	e r l	-1.5866851
-1.556911	e r m	-1.5866851
-1.5109754	e r n	-1.5866851
-1.7124538	e r o	-1.5866851
-1.5794495	e r p	-1.5866851
-1.5995025	e r r	-1.5866851
-1.1173929	e r s	-1.5866851
-1.4697721	e r t	-1.5866851
-1.3426404	e r v	-1.5866851
-2.1641246	e r w	-1.5866851
-2.9329507	e r x	-1.5866851
-1.7028654	e r y	-1.5866851
-0.5336023	e s </s>	-1.287607
-1.5356612	e s a	-1.287607
-2.5899871	e s b	-1.287607
-1.4459335	e s c	-1.287607
-2.2865269	e s d	-1.287607
-1.2504948	e s e	-1.287607
-2.3078123	e s f	-1.287607
-2.6138401	e s g	-1.287607
-1.5740106	e s h	-1.287607
-1.2236785	e s i	-1.287607
-1.5219099	e s k	-1.287607
-2.1349244	e s l	-1.287607
-2.2673389	e s m	-1.287607
-1.4944238	e s o	-1.287607
-1.6518212	e s p	-1.287607
-2.306602	e s q	-1.287607
-2.6017499	e s r	-1.287607
-0.8221224	e s s	-1.287607
-0.69093	e s t	-1.287607
-1.9814194	e s u	-1.287607
-2.5853698	e s w	-1.287607
-2.3379197	e s x	-1.287607
-2.125265	e s y	-1.287607
-0.5770835	e t </s>	-1.1317936
-1.0279888	e t a	-1.1317936
-1.8565418	e t b	-1.1317936
-1.313928	e t c	-1.1317936
-2.4193467	e t d	-1.1317936
-1.0083304	e t e	-1.1317936
-1.8583936	e t f	-1.1317936
-2.4148682	e t g	-1.1317936
-1.40042	e t h	-1.1317936
-1.12594	e t i	-1.1317936
-1.9628136	e t l	-1.1317936
-2.1126146	e t m	-1.1317936
-2.4126461	e t n	-1.1317936
-1.3622797	e t o	-1.1317936
-1.7475921	e t p	-1.1317936
-1.2799754	e t r	-1.1317936
-1.136714	e t s	-1.1317936
-1.4151032	e t t	-1.1317936
-1.8038236	e t u	-1.1317936
-1.758758	e t v	-1.1317936
-1.320511	e t w	-1.1317936
-1.8176808	e t y	-1.1317936
-1.2002358	e u </s>	-0.5920758
-1.4575755	e u c	-0.5920758
-1.4799668	e u d	-0.5920758
-1.4343974	e u e	-0.5920758
-1.0711756	e u i	-0.5920758
-1.3948725	e u l	-0.5920758
-0.88142	e u m	-0.5920758
-0.7234072	e u r	-0.5920758
-1.0314828	e u s	-0.5920758
-0.7285603	e u t	-0.5920758
-1.6077699	e u v	-0.5920758
-0.9166489	e v </s>	-0.9242793
-0.9118374	e v a	-0.9242793
-1.5814241	e v c	-0.9242793
-0.4204804	e v e	-0.9242793
-0.6694356	e v i	-0.9242793
-1.2691743	e v o	-0.9242793
-1.8282236	e v p	-0.9242793
-1.5836658	e v r	-0.9242793
-1.8652832	e v t	-0.9242793
-1.896466	e v y	-0.9242793
-0.6927862	e w </s>	-0.8205551
-0.6489944	e w a	-0.8205551
-1.4272554	e w c	-0.8205551
-0.9271394	e w e	-0.8205551
-1.9198095	e w g	-0.8205551
-1.5682446	e w h	-0.8205551
-1.1454267	e w i	-0.8205551
-1.9122735	e w j	-0.8205551
-1.8628933	e w l	-0.8205551
-1.3096535	e w m	-0.8205551
-0.8730806	e w o	-0.8205551
-1.1980354	e w s	-0.8205551
-1.856276	e w t	-0.8205551
-0.4602681	e x </s>	-1.0504095
-1.2879708	e x a	-1.0504095
-1.0657804	e x c	-1.0504095
-1.181032	e x e	-1.0504095
-1.2137744	e x i	-1.0504095
-1.7938086	e x m	-1.0504095
-2.0599071	e x o	-1.0504095
-0.8442213	e x p	-1.0504095
-2.0430977	e x s	-1.0504095
-0.8064388	e x t	-1.0504095
-1.6562696	e x u	-1.0504095
-1.7938086	e x x	-1.0504095
-2.0864077	e x y	-1.0504095
-0.2853199	e y </s>	-0.7323938
-1.7627178	e y a	-0.7323938
-1.7964883	e y b	-0.7323938
-1.0252198	e y e	-0.7323938
-1.8731018	e y f	-0.7323938
-1.8801408	e y h	-0.7323938
-1.5478564	e y i	-0.7323938
-1.8872957	e y j	-0.7323938
-1.5380623	e y l	-0.7323938
-1.7627178	e y m	-0.7323938
-1.4892595	e y n	-0.7323938
-1.2336025	e y o	-0.7323938
-1.5578764	e y r	-0.7323938
-1.2041948	e y s	-0.7323938
-1.5646873	e y w	-0.7323938
-0.9075856	e z </s>	-0.3853509
-1.1644616	e z b	-0.3853509
-0.8169947	e z h	-0.3853509
-0.8217908	e z i	-0.3853509
-0.7892798	e z o	-0.3853509
-1.1862301	e z s	-0.3853509
-1.2091475	e z v	-0.3853509
-5e-07	f </s> <s>	-1.9542425
-0.9259308	f a </s>	-0.8406437
-1.6127205	f a b	-0.8406437
-0.4572135	f a c	-0.8406437
-1.953803	f a e	-0.8406437
-1.2559202	f a i	-0.8406437
-1.3507914	f a l	-0.8406437
-1.4161163	f a m	-0.8406437
-1.0034161	f a n	-0.8406437
-1.76836	f a p	-0.8406437
-1.250528	f a r	-0.8406437
-1.1466446	f a s	-0.8406437
-1.4634585	f a t	-0.8406437
-1.638779	f a u	-0.8406437
-1.4885666	f a x	-0.8406437
-0.8669682	f b </s>	-0.30103
-0.8482851	f b a	-0.30103
-0.844643	f b i	-0.30103
-0.900012	f b l	-0.30103
-0.8434357	f b o	-0.30103
-0.9448194	f b r	-0.30103
-0.3568289	f c </s>	-0.5228787
-1.1742376	f c a	-0.5228787
-1.4463389	f c b	-0.5228787
-1.3739535	f c c	-0.5228787
-1.2185165	f c e	-0.5228787
-1.2053002	f c h	-0.5228787
-0.9531294	f c o	-0.5228787
-1.4152553	f c p	-0.5228787
-1.2758128	f c t	-0.5228787
-0.5765343	f d </s>	-0.3853509
-0.8205313	f d a	-0.3853509
-1.172703	f d c	-0.3853509
-1.1822944	f d d	-0.3853509
-0.964606	f d i	-0.3853509
-1.1515442	f d m	-0.3853509
-1.1921024	f d y	-0.3853509
-0.6860122	f e </s>	-0.8939466
-1.1575104	f e a	-0.8939466
-1.0363704	f e c	-0.8939466
-1.4332052	f e d	-0.8939466
-1.1714318	f e e	-0.8939466
-1.9233627	f e i	-0.8939466
-1.3053445	f e l	-0.8939466
-1.5918437	f e m	-0.8939466
-1.2632626	f e n	-0.8939466
-0.6330669	f e r	-0.8939466
-1.0227295	f e s	-0.8939466
-1.4166551	f e t	-0.8939466
-0.8347895	f f </s>	-0.7853298
-1.1985244	f f a	-0.7853298
-1.7393492	f f d	-0.7853298
-0.6763706	f f e	-0.7853298
-0.451251	f f i	-0.7853298
-1.3816845	f f l	-0.7853298
-1.4441126	f f m	-0.7853298
-1.5201855	f f r	-0.7853298
-1.6656676	f f s	-0.7853298
-1.6330394	f f u	-0.7853298
-0.3883752	f g </s>	-0.3679768
-0.7612558	f g a	-0.3679768
-0.7728203	f g o	-0.3679768
-1.1109794	f i </s>	-0.9777236
-1.6584611	f i a	-0.9777236
-1.6006141	f i b	-0.9777236
-0.7757808	f i c	-0.9777236
-1.6704229	f i d	-0.9777236
-1.4877181	f i e	-0.9777236
-1.8702167	f i f	-0.9777236
-1.5730075	f i g	-0.9777236
-2.1877725	f i i	-0.9777236
-0.8377727	f i l	-0.9777236
-0.7167725	f i n	-0.9777236
-1.8641961	f i o	-0.9777236
-2.0357593	f i p	-0.9777236
-1.1023548	f i r	-0.9777236
-1.2638934	f i s	-0.9777236
-1.3626299	f i t	-0.9777236
-1.678255	f i v	-0.9777236
-1.3732396	f i x	-0.9777236
-0.2606611	f j o	-0.30103
-0.464651	f k </s>	-0.39794
-0.3704072	f k a	-0.39794
-1.2189953	f l </s>	-0.8239087
-0.7795487	f l a	-0.8239087
-0.9078818	f l e	-0.8239087
-0.9835044	f l i	-0.8239087
-0.5510801	f l o	-0.8239087
-1.7263842	f l p	-0.8239087
-0.8052808	f l u	-0.8239087
-1.7508896	f l v	-0.8239087
-1.4319341	f l y	-0.8239087
-0.5497988	f m </s>	-0.5118834
-0.8956439	f m a	-0.5118834
-0.9108541	f m c	-0.5118834
-1.3851678	f m d	-0.5118834
-0.7859488	f m e	-0.5118834
-1.3182262	f m m	-0.5118834
-1.170338	f m o	-0.5118834
-1.2421631	f m p	-0.5118834
-0.3274183	f n </s>	-0.39794
-0.6222629	f n e	-0.39794
-1.1205404	f o </s>	-0.9156791
-1.7645114	f o b	-0.9156791
-1.3188761	f o c	-0.9156791
-2.0232609	f o f	-0.9156791
-1.9746013	f o g	-0.9156791
-2.0417397	f o i	-0.9156791
-1.3764541	f o l	-0.9156791
-1.3099937	f o n	-0.9156791
-1.3872582	f o o	-0.9156791
-1.6874127	f o p	-0.9156791
-2.1371723	f o q	-0.9156791
-0.293998	f o r	-0.9156791
-1.3705316	f o s	-0.9156791
-1.5723344	f o t	-0.9156791
-1.4672946	f o u	-0.9156791
-2.0055364	f o w	-0.9156791
-1.5269141	f o x	-0.9156791
-0.4681088	f p </s>	-0.4436975
-1.1263536	f p a	-0.4436975
-1.299798	f p c	-0.4436975
-1.335621	f p d	-0.4436975
-1.3477379	f p g	-0.4436975
-1.2359581	f p h	-0.4436975
-1.3123566	f p m	-0.4436975
-1.0330007	f p s	-0.4436975
-1.3311629	f p y	-0.4436975
-0.4700062	f q </s>	-0.3679768
-0.7673328	f q a	-0.3679768
-0.7802892	f q c	-0.3679768
-1.0265825	f r </s>	-1.0463
-0.6089162	f r a	-1.0463
-0.4981121	f r e	-1.0463
-1.1207879	f r i	-1.0463
-1.8630758	f r m	-1.0463
-0.6996744	f r o	-1.0463
-1.8466544	f r s	-1.0463
-1.8668962	f r y	-1.0463
-0.2879617	f s </s>	-0.5713912
-1.4441683	f s a	-0.5713912
-1.4467654	f s c	-0.5713912
-1.1383743	f s e	-0.5713912
-1.4582025	f s h	-0.5713912
-1.3604326	f s i	-0.5713912
-1.5350415	f s k	-0.5713912
-1.5350415	f s m	-0.5713912
-1.4511287	f s p	-0.5713912
-1.2041527	f s s	-0.5713912
-1.2378442	f s t	-0.5713912
-0.289338	f t </s>	-0.8037054
-1.1807456	f t e	-0.8037054
-1.6909595	f t h	-0.8037054
-1.4219727	f t i	-0.8037054
-1.79464	f t l	-0.8037054
-1.2463037	f t o	-0.8037054
-1.225549	f t p	-0.8037054
-1.4692377	f t s	-0.8037054
-1.3360224	f t t	-0.8037054
-1.4757354	f t u	-0.8037054
-1.1355565	f t w	-0.8037054
-1.0343977	f u </s>	-0.6661775
-1.5316773	f u c	-0.6661775
-1.5540685	f u d	-0.6661775
-1.5084991	f u e	-0.6661775
-1.6903653	f u j	-0.6661775
-0.8794137	f u l	-0.6661775
-0.5900038	f u n	-0.6661775
-1.2121019	f u r	-0.6661775
-0.7533607	f u s	-0.6661775
-1.2256174	f u t	-0.6661775
-1.3935008	f u z	-0.6661775
-0.5102349	f v </s>	-0.30103
-0.4570354	f v i	-0.30103
-0.4770262	f w </s>	-0.3679768
-0.6603434	f w a	-0.3679768
-0.8021136	f w s	-0.3679768
-0.0320906	f x </s>	-0.90309
-0.0404718	f y </s>	-0.7781513
-0.2944306	f z d	-0.30103
-1e-07	g </s> <s>	-2.6364879
-0.8916824	g a </s>	-0.8181564
-1.7675345	g a a	-0.8181564
-1.6994942	g a b	-0.8181564
-1.7637593	g a c	-0.8181564
-1.8266837	g a d	-0.8181564
-2.052748	g a e	-0.8181564
-1.75164	g a f	-0.8181564
-1.5547014	g a g	-0.8181564
-1.6960476	g a i	-0.8181564
-1.3336216	g a l	-0.8181564
-0.665893	g a m	-0.8181564
-1.0475369	g a n	-0.8181564
-1.7699697	g a o	-0.8181564
-1.4078737	g a p	-0.8181564
-1.0568912	g a r	-0.8181564
-1.2366303	g a s	-0.8181564
-0.8712376	g a t	-0.8181564
-2.0211453	g a w	-0.8181564
-1.7806827	g a z	-0.8181564
-0.8476922	g b </s>	-0.39794
-0.8333229	g b a	-0.39794
-1.2394911	g b d	-0.39794
-1.0422372	g b e	-0.39794
-1.0099328	g b i	-0.39794
-0.7032091	g b o	-0.39794
-1.1707987	g b s	-0.39794
-1.2616538	g b t	-0.39794
-0.5793224	g c </s>	-0.4586378
-0.8998554	g c a	-0.4586378
-1.2688851	g c c	-0.4586378
-1.3289477	g c d	-0.4586378
-1.1129567	g c h	-0.4586378
-1.0057377	g c l	-0.4586378
-1.3053152	g c m	-0.4586378
-1.032109	g c p	-0.4586378
-0.8875259	g d </s>	-0.3735807
-0.7251701	g d a	-0.3735807
-1.3004011	g d b	-0.3735807
-1.3273791	g d c	-0.3735807
-0.8393587	g d e	-0.3735807
-1.0482081	g d i	-0.3735807
-1.3293718	g d l	-0.3735807
-1.1860751	g d o	-0.3735807
-1.2510054	g d s	-0.3735807
-1.3561447	g d t	-0.3735807
-1.3824145	g d x	-0.3735807
-0.5496889	g e </s>	-1.0999649
-1.7545512	g e a	-1.0999649
-1.6974428	g e b	-1.0999649
-1.865993	g e c	-1.0999649
-1.9053312	g e d	-1.0999649
-1.7896417	g e e	-1.0999649
-2.2614862	g e f	-1.0999649
-2.3135089	g e j	-1.0999649
-1.5576634	g e l	-1.0999649
-1.3971757	g e m	-1.0999649
-0.7219239	g e n	-1.0999649
-1.1207421	g e o	-1.0999649
-2.2029103	g e p	-1.0999649
-0.7212004	g e r	-1.0999649
-1.5307764	g e s	-1.0999649
-1.294904	g e t	-1.0999649
-1.9826186	g e w	-1.0999649
-0.66857	g f </s>	-0.3853509
-0.738114	g f i	-0.3853509
-1.2185328	g f k	-0.3853509
-1.0293335	g f r	-0.3853509
-1.1433556	g f s	-0.3853509
-1.2155035	g f w	-0.3853509
-1.2065405	g f x	-0.3853509
-0.6320507	g g </s>	-0.5282738
-0.8237735	g g e	-0.5282738
-0.7656321	g g i	-0.5282738
-1.3310756	g g l	-0.5282738
-1.2602611	g g o	-0.5282738
-0.8725373	g g r	-0.5282738
-1.098215	g g s	-0.5282738
-1.4179614	g g v	-0.5282738
-0.9893682	g h </s>	-0.7579479
-1.1344231	g h a	-0.7579479
-1.4708563	g h b	-0.7579479
-1.4637565	g h c	-0.7579479
-1.2360912	g h e	-0.7579479
-1.7460648	g h l	-0.7579479
-1.2445104	g h o	-0.7579479
-1.7327801	g h s	-0.7579479
-0.3011617	g h t	-0.7579479
-1.4282751	g h u	-0.7579479
-1.784843	g h z	-0.7579479
-1.3397096	g i </s>	-0.8998848
-1.3735119	g i a	-0.8998848
-0.758085	g i c	-0.8998848
-1.9218615	g i d	-0.8998848
-1.4741065	g i e	-0.8998848
-2.0202159	g i f	-0.8998848
-1.5814468	g i g	-0.8998848
-2.0875027	g i i	-0.8998848
-1.3671146	g i l	-0.8998848
-1.9496535	g i m	-0.8998848
-0.5910839	g i n	-0.8998848
-1.409064	g i o	-0.8998848
-1.3914537	g i r	-0.8998848
-0.9197391	g i s	-0.8998848
-1.0051616	g i t	-0.8998848
-1.9387528	g i v	-0.8998848
-1.7826235	g i x	-0.8998848
-0.5768833	g j b	-0.30103
-0.5448635	g j u	-0.30103
-0.367741	g k </s>	-0.30103
-0.5486363	g k a	-0.30103
-0.9996897	g l </s>	-0.763428
-0.760165	g l a	-0.763428
-0.6306809	g l e	-0.763428
-0.9593433	g l i	-0.763428
-1.5154082	g l l	-0.763428
-0.8622547	g l o	-0.763428
-1.7062722	g l p	-0.763428
-1.2513705	g l s	-0.763428
-1.2270899	g l u	-0.763428
-1.2523909	g l y	-0.763428
-0.7895792	g m </s>	-0.6879746
-0.5377478	g m a	-0.6879746
-1.496806	g m b	-0.6879746
-0.6246307	g m e	-0.6879746
-1.5305269	g m l	-0.6879746
-1.0483997	g m p	-0.6879746
-1.4631998	g m s	-0.6879746
-1.2763759	g m v	-0.6879746
-0.6303112	g n </s>	-0.8091855
-1.0217306	g n a	-0.8091855
-1.6187793	g n c	-0.8091855
-0.7272255	g n e	-0.8091855
-0.944012	g n i	-0.8091855
-1.6842366	g n k	-0.8091855
-0.8416302	g n o	-0.8091855
-1.3547534	g n s	-0.8091855
-1.1473121	g n u	-0.8091855
-0.5755207	g o </s>	-0.7781513
-1.9190795	g o a	-0.7781513
-1.647502	g o b	-0.7781513
-1.7878049	g o c	-0.7781513
-1.2190556	g o d	-0.7781513
-1.9837753	g o e	-0.7781513
-1.4877695	g o g	-0.7781513
-1.1338211	g o l	-0.7781513
-1.549327	g o m	-0.7781513
-1.1867736	g o n	-0.7781513
-1.0429543	g o o	-0.7781513
-1.4393614	g o p	-0.7781513
-0.9446258	g o r	-0.7781513
-1.332585	g o s	-0.7781513
-1.3529118	g o t	-0.7781513
-1.4514787	g o u	-0.7781513
-1.6835309	g o v	-0.7781513
-1.885824	g o w	-0.7781513
-0.6403942	g p </s>	-0.4648868
-1.0445823	g p a	-0.4648868
-1.4628164	g p d	-0.4648868
-1.4783436	g p g	-0.4648868
-1.3392064	g p h	-0.4648868
-1.3420846	g p i	-0.4648868
-1.1841514	g p m	-0.4648868
-0.8492791	g p o	-0.4648868
-1.3523112	g p p	-0.4648868
-1.2328706	g p r	-0.4648868
-1.390936	g p s	-0.4648868
-1.1771819	g p u	-0.4648868
-0.6408367	g q </s>	-0.30103
-0.7266972	g q i	-0.30103
-0.769418	g q y	-0.30103
-1.5475353	g r </s>	-1.1426675
-0.3409271	g r a	-1.1426675
-1.9812835	g r c	-1.1426675
-0.7659843	g r e	-1.1426675
-1.150876	g r i	-1.1426675
-0.7191022	g r o	-1.1426675
-1.5984338	g r p	-1.1426675
-2.0439979	g r r	-1.1426675
-1.7475671	g r u	-1.1426675
-0.5447968	g s </s>	-0.4988405
-1.4194769	g s a	-0.4988405
-1.4223775	g s c	-0.4988405
-1.1131312	g s e	-0.4988405
-1.4351759	g s h	-0.4988405
-1.5222885	g s k	-0.4988405
-1.5513221	g s l	-0.4988405
-1.5222885	g s m	-0.4988405
-1.5782496	g s n	-0.4988405
-1.0414387	g s o	-0.4988405
-1.4272554	g s p	-0.4988405
-1.2876929	g s q	-0.4988405
-0.7919045	g s t	-0.4988405
-0.7947957	g t </s>	-0.4259687
-1.1916582	g t a	-0.4259687
-1.4071686	g t c	-0.4259687
-1.0581163	g t i	-0.4259687
-1.1925051	g t k	-0.4259687
-1.4394688	g t m	-0.4259687
-1.4704897	g t n	-0.4259687
-0.722805	g t o	-0.4259687
-1.1668309	g t p	-0.4259687
-1.3558494	g t s	-0.4259687
-1.367868	g t u	-0.4259687
-1.4615782	g t v	-0.4259687
-1.5057903	g u </s>	-0.6569087
-0.6713817	g u a	-0.6569087
-1.3575355	g u c	-0.6569087
-1.0159508	g u e	-0.6569087
-0.7387096	g u i	-0.6569087
-1.7505909	g u j	-0.6569087
-0.8231577	g u l	-0.6569087
-1.5233251	g u m	-0.6569087
-1.4071417	g u n	-0.6569087
-1.2477813	g u r	-0.6569087
-1.4321946	g u s	-0.6569087
-1.4242092	g u t	-0.6569087
-1.7539591	g u u	-0.6569087
-0.3776338	g v </s>	-0.4259687
-0.7004188	g v i	-0.4259687
-0.8665136	g v s	-0.4259687
-0.7063134	g w </s>	-0.4149733
-0.5246971	g w a	-0.4149733
-0.8503172	g w e	-0.4149733
-0.9141164	g w o	-0.4149733
-1.0821693	g w t	-0.4149733
-0.3858227	g x </s>	-0.4259687
-0.8886603	g x g	-0.4259687
-0.5580457	g x i	-0.4259687
-0.1810232	g y </s>	-0.6532125
-1.0777919	g y e	-0.6532125
-1.3670799	g y m	-0.6532125
-1.334373	g y n	-0.6532125
-1.3177313	g y p	-0.6532125
-1.2776552	g y s	-0.6532125
-0.5961092	g z </s>	-0.3424227
-0.8884666	g z h	-0.3424227
-0.8947186	g z i	-0.3424227
-0.8527347	g z o	-0.3424227
-0.9627512	g z u	-0.3424227
-3e-07	h </s> <s>	-2.2201081
-1.3915	h a </s>	-0.9714445
-2.1164611	h a b	-0.9714445
-1.5866787	h a c	-0.9714445
-1.4688108	h a d	-0.9714445
-1.9867256	h a e	-0.9714445
-2.217536	h a f	-0.9714445
-1.9053502	h a g	-0.9714445
-1.4331398	h a i	-0.9714445
-2.2239954	h a k	-0.9714445
-1.2317265	h a l	-0.9714445
-1.2299011	h a m	-0.9714445
-0.7166988	h a n	-0.9714445
-1.6966187	h a o	-0.9714445
-1.358325	h a p	-0.9714445
-0.6580034	h a r	-0.9714445
-1.0978006	h a s	-0.9714445
-1.1646333	h a t	-0.9714445
-2.1806762	h a u	-0.9714445
-1.6591556	h a v	-0.9714445
-1.9673791	h a w	-0.9714445
-1.5033068	h a y	-0.9714445
-2.2794509	h a z	-0.9714445
-1.0775748	h b </s>	-0.4393327
-0.7474041	h b a	-0.4393327
-1.2713854	h b b	-0.4393327
-1.0513254	h b i	-0.4393327
-1.2832912	h b m	-0.4393327
-0.6468406	h b o	-0.4393327
-1.1711528	h b r	-0.4393327
-0.9462567	h b u	-0.4393327
-0.7491947	h c a	-0.39794
-1.1579835	h c e	-0.39794
-1.444394	h c g	-0.39794
-0.9774504	h c h	-0.39794
-1.2922652	h c i	-0.39794
-1.0960568	h c l	-0.39794
-1.3950317	h c m	-0.39794
-1.1545158	h c n	-0.39794
-1.0316441	h c o	-0.39794
-1.396448	h c p	-0.39794
-1.2845226	h c r	-0.39794
-1.3649884	h c u	-0.39794
-0.9039163	h d </s>	-0.3899711
-1.1536239	h d a	-0.3899711
-1.3167915	h d b	-0.3899711
-1.0920581	h d d	-0.3899711
-1.3683072	h d f	-0.3899711
-0.9093328	h d i	-0.3899711
-0.923795	h d l	-0.3899711
-1.0671721	h d m	-0.3899711
-1.2024655	h d o	-0.3899711
-1.2673958	h d s	-0.3899711
-1.3725351	h d t	-0.3899711
-1.013786	h e </s>	-0.9797966
-1.2433605	h e a	-0.9797966
-2.1817539	h e b	-0.9797966
-1.4659602	h e c	-0.9797966
-1.4270338	h e d	-0.9797966
-1.501833	h e e	-0.9797966
-1.6966406	h e f	-0.9797966
-1.6966406	h e i	-0.9797966
-2.3004652	h e j	-0.9797966
-1.0389598	h e l	-0.9797966
-1.0983544	h e m	-0.9797966
-1.0653523	h e n	-0.9797966
-1.6921588	h e o	-0.9797966
-2.1633767	h e p	-0.9797966
-0.5705713	h e r	-0.9797966
-1.2933258	h e s	-0.9797966
-1.9994651	h e t	-0.9797966
-2.268755	h e u	-0.9797966
-1.8039365	h e v	-0.9797966
-1.9615762	h e w	-0.9797966
-1.6658167	h e x	-0.9797966
-1.6921588	h e y	-0.9797966
-0.7744402	h f a	-0.30103
-0.8657058	h f c	-0.30103
-0.8706482	h f m	-0.30103
-0.8512074	h f s	-0.30103
-0.544407	h g a	-0.30103
-0.5758193	h g u	-0.30103
-1.3253751	h i </s>	-1.0157126
-1.8478886	h i a	-1.0157126
-1.5697541	h i b	-1.0157126
-0.9774903	h i c	-1.0157126
-2.0669396	h i d	-1.0157126
-1.5467548	h i e	-1.0157126
-1.658726	h i f	-1.0157126
-1.359843	h i g	-1.0157126
-1.9593667	h i k	-1.0157126
-1.0418316	h i l	-1.0157126
-2.0967359	h i m	-1.0157126
-0.5459758	h i n	-1.0157126
-1.7614469	h i o	-1.0157126
-1.0487864	h i p	-1.0157126
-2.2604832	h i q	-1.0157126
-1.6376138	h i r	-1.0157126
-1.2780078	h i s	-1.0157126
-1.233836	h i t	-1.0157126
-1.2292714	h i v	-1.0157126
-0.5579194	h j </s>	-0.30103
-0.5938244	h j x	-0.30103
-0.2651655	h k </s>	-0.39794
-0.6191413	h k i	-0.39794
-0.5333132	h l </s>	-0.4393327
-0.829181	h l e	-0.4393327
-1.3033207	h l m	-0.4393327
-1.0940037	h l o	-0.4393327
-1.3308254	h l r	-0.4393327
-0.9997942	h l s	-0.4393327
-1.2118946	h l u	-0.4393327
-1.2650772	h l y	-0.4393327
-0.7026259	h m </s>	-0.4771213
-0.704912	h m a	-0.4771213
-0.8309701	h m e	-0.4771213
-0.7611147	h m i	-0.4771213
-1.2364508	h m m	-0.4771213
-1.1016165	h m o	-0.4771213
