\data\
ngram 1=34
ngram 2=749
ngram 3=12048
ngram 4=47092
ngram 5=84005

\1-grams:
-1.5314789	#	0.0
-1.5314789	+	0.0
-1.5314789	-	0.0
-1.5314789	.	0.0
-1.5314789	/	0.0
-1.5314789	</s>	0.0
-1.5314789	<num>	0.0
-1.5314789	<s>	0.0
-1.5314789	a	0.0
-1.5314789	b	0.0
-1.5314789	c	0.0
-1.5314789	d	0.0
-1.5314789	e	0.0
-1.5314789	f	0.0
-1.5314789	g	0.0
-1.5314789	h	0.0
-1.5314789	i	0.0
-1.5314789	j	0.0
-1.5314789	k	0.0
-1.5314789	l	0.0
-1.5314789	m	0.0
-1.5314789	n	0.0
-1.5314789	o	0.0
-1.5314789	p	0.0
-1.5314789	q	0.0
-1.5314789	r	0.0
-1.5314789	s	0.0
-1.5314789	t	0.0
-1.5314789	u	0.0
-1.5314789	v	0.0
-1.5314789	w	0.0
-1.5314789	x	0.0
-1.5314789	y	0.0
-1.5314789	z	0.0

\2-grams:
-0.2884409	# </s>	-0.30103
-0.5772364	+ +	-0.30103
-0.5772364	+ </s>	-0.30103
-0.7414284	- -	-0.30103
-0.7414284	- </s>	-0.30103
-0.7414284	- x	-0.30103
-0.5772364	. j	-0.30103
-0.5772364	. n	-0.30103
-0.2884409	/ s	-0.30103
-1.47e-05	</s> <s>	-4.4589097
-0.1697511	<num> d	-0.4771213
-4.7932175	<s> -	-3.5986811
-4.7932175	<s> .	-3.5986811
-0.1250439	<s> <s>	-3.5986811
-1.7728628	<s> a	-3.5986811
-1.9532409	<s> b	-3.5986811
-1.691705	<s> c	-3.5986811
-1.9282264	<s> d	-3.5986811
-1.9445202	<s> e	-3.5986811
-2.0289227	<s> f	-3.5986811
-2.067267	<s> g	-3.5986811
-2.0237112	<s> h	-3.5986811
-1.89677	<s> i	-3.5986811
-2.2509455	<s> j	-3.5986811
-2.344364	<s> k	-3.5986811
-2.0453619	<s> l	-3.5986811
-1.7998512	<s> m	-3.5986811
-2.1302049	<s> n	-3.5986811
-2.146285	<s> o	-3.5986811
-1.8384009	<s> p	-3.5986811
-2.5454	<s> q	-3.5986811
-2.0521159	<s> r	-3.5986811
-1.63508	<s> s	-3.5986811
-1.9054841	<s> t	-3.5986811
-2.3161192	<s> u	-3.5986811
-2.2248481	<s> v	-3.5986811
-2.1102992	<s> w	-3.5986811
-2.5480575	<s> x	-3.5986811
-2.5713274	<s> y	-3.5986811
-2.5085898	<s> z	-3.5986811
-0.9236375	a </s>	-2.7264857
-1.9794651	a a	-2.7264857
-1.621551	a b	-2.7264857
-1.2254802	a c	-2.7264857
-1.3600322	a d	-2.7264857
-2.0686719	a e	-2.7264857
-1.9435512	a f	-2.7264857
-1.542116	a g	-2.7264857
-2.283982	a h	-2.7264857
-1.4678359	a i	-2.7264857
-2.6420535	a j	-2.7264857
-1.9597587	a k	-2.7264857
-1.0823777	a l	-2.7264857
-1.2720394	a m	-2.7264857
-0.9349265	a n	-2.7264857
-1.9570151	a o	-2.7264857
-1.3153687	a p	-2.7264857
-2.5804253	a q	-2.7264857
-1.0059301	a r	-2.7264857
-1.1793065	a s	-2.7264857
-1.098364	a t	-2.7264857
-1.8041369	a u	-2.7264857
-1.6625909	a v	-2.7264857
-2.1017297	a w	-2.7264857
-1.9709098	a x	-2.7264857
-1.652979	a y	-2.7264857
-2.3463139	a z	-2.7264857
-0.8872543	b </s>	-2.2039189
-0.9136417	b a	-2.2039189
-1.6026876	b b	-2.2039189
-1.5604877	b c	-2.2039189
-1.6918172	b d	-2.2039189
-1.025908	b e	-2.2039189
-2.223762	b f	-2.2039189
-1.7672609	b g	-2.2039189
-2.223762	b h	-2.2039189
-0.9832355	b i	-2.2039189
-2.0465168	b j	-2.2039189
-2.3612607	b k	-2.2039189
-1.2308011	b l	-2.2039189
-1.6233144	b m	-2.2039189
-2.0937768	b n	-2.2039189
-0.968022	b o	-2.2039189
-1.6539438	b p	-2.2039189
-2.5282723	b q	-2.2039189
-1.326091	b r	-2.2039189
-1.370951	b s	-2.2039189
-1.7172832	b t	-2.2039189
-1.1414147	b u	-2.2039189
-2.3850062	b v	-2.2039189
-2.1468149	b w	-2.2039189
-2.3387465	b x	-2.2039189
-1.9650914	b y	-2.2039189
-2.6020955	b z	-2.2039189
-3.6946216	c #	-2.4922015
-3.6946216	c +	-2.4922015
-3.6946216	c /	-2.4922015
-0.8641934	c </s>	-2.4922015
-0.9976376	c a	-2.4922015
-1.8798332	c b	-2.4922015
-1.3942708	c c	-2.4922015
-1.7994064	c d	-2.4922015
-1.0823346	c e	-2.4922015
-2.0668719	c f	-2.4922015
-2.0354188	c g	-2.4922015
-1.035895	c h	-2.4922015
-1.3181588	c i	-2.4922015
-2.5734313	c j	-2.4922015
-1.4629769	c k	-2.4922015
-1.4119571	c l	-2.4922015
-1.6432279	c m	-2.4922015
-1.8978739	c n	-2.4922015
-0.9004387	c o	-2.4922015
-1.6173673	c p	-2.4922015
-2.4267169	c q	-2.4922015
-1.3717566	c r	-2.4922015
-1.372855	c s	-2.4922015
-1.2314288	c t	-2.4922015
-1.6620784	c u	-2.4922015
-2.1777559	c v	-2.4922015
-2.4267169	c w	-2.4922015
-2.609822	c x	-2.4922015
-2.1440112	c y	-2.4922015
-2.8268596	c z	-2.4922015
-3.526831	d -	-2.3405857
-0.6590785	d </s>	-2.3405857
-1.0660786	d a	-2.3405857
-1.5628909	d b	-2.3405857
-1.5733675	d c	-2.3405857
-1.7020126	d d	-2.3405857
-0.816086	d e	-2.3405857
-1.7973004	d f	-2.3405857
-1.8966328	d g	-2.3405857
-2.0181927	d h	-2.3405857
-0.9823629	d i	-2.3405857
-2.4488188	d j	-2.3405857
-2.0108717	d k	-2.3405857
-1.8017629	d l	-2.3405857
-1.5025837	d m	-2.3405857
-1.9563634	d n	-2.3405857
-1.2747613	d o	-2.3405857
-1.632944	d p	-2.3405857
-2.4905628	d q	-2.3405857
-1.3936012	d r	-2.3405857
-1.3408595	d s	-2.3405857
-1.8062716	d t	-2.3405857
-1.5501409	d u	-2.3405857
-2.0409265	d v	-2.3405857
-1.8748656	d w	-2.3405857
-2.1986488	d x	-2.3405857
-1.8856128	d y	-2.3405857
-2.7149966	d z	-2.3405857
-3.9330462	e .	-2.7468009
-0.7222532	e </s>	-2.7468009
-1.3172658	e a	-2.7468009
-1.6451723	e b	-2.7468009
-1.267193	e c	-2.7468009
-1.417386	e d	-2.7468009
-1.4673756	e e	-2.7468009
-2.0391592	e f	-2.7468009
-1.9020941	e g	-2.7468009
-2.3028481	e h	-2.7468009
-1.8518848	e i	-2.7468009
-2.6647401	e j	-2.7468009
-2.1693767	e k	-2.7468009
-1.2651416	e l	-2.7468009
-1.4690088	e m	-2.7468009
-1.0688606	e n	-2.7468009
-1.9513591	e o	-2.7468009
-1.6427243	e p	-2.7468009
-2.5234948	e q	-2.7468009
-0.8053563	e r	-2.7468009
-1.1115961	e s	-2.7468009
-1.3109659	e t	-2.7468009
-2.1861108	e u	-2.7468009
-1.8158819	e v	-2.7468009
-1.8639035	e w	-2.7468009
-1.6488703	e x	-2.7468009
-2.0212874	e y	-2.7468009
-2.6161969	e z	-2.7468009
-0.9501111	f </s>	-2.0674979
-1.0367721	f a	-2.0674979
-1.8777465	f b	-2.0674979
-1.540804	f c	-2.0674979
-1.8674776	f d	-2.0674979
-1.0759534	f e	-2.0674979
-1.3176067	f f	-2.0674979
-2.1605224	f g	-2.0674979
-2.5078964	f h	-2.0674979
-0.8625803	f i	-2.0674979
-2.5078964	f j	-2.0674979
-2.4656745	f k	-2.0674979
-1.2489443	f l	-2.0674979
-1.7150001	f m	-2.0674979
-2.3003663	f n	-2.0674979
-0.946444	f o	-2.0674979
-1.7150001	f p	-2.0674979
-2.5078964	f q	-2.0674979
-1.2715044	f r	-2.0674979
-1.4582826	f s	-2.0674979
-1.1812284	f t	-2.0674979
-1.3063106	f u	-2.0674979
-2.5078964	f v	-2.0674979
-2.1809212	f w	-2.0674979
-1.9830657	f x	-2.0674979
-2.0549088	f y	-2.0674979
-2.3918513	f z	-2.0674979
-0.6203476	g </s>	-2.2271246
-1.1337106	g a	-2.2271246
-1.8337502	g b	-2.2271246
-1.681707	g c	-2.2271246
-1.8209371	g d	-2.2271246
-0.8819367	g e	-2.2271246
-2.0810642	g f	-2.2271246
-1.8675412	g g	-2.2271246
-1.4311311	g h	-2.2271246
-1.1285525	g i	-2.2271246
-2.3006656	g j	-2.2271246
-2.3844664	g k	-2.2271246
-1.4441901	g l	-2.2271246
-1.5693108	g m	-2.2271246
-1.5288174	g n	-2.2271246
-1.1963988	g o	-2.2271246
-1.7731604	g p	-2.2271246
-2.551478	g q	-2.2271246
-1.1860331	g r	-2.2271246
-1.5068302	g s	-2.2271246
-1.8146696	g t	-2.2271246
-1.457654	g u	-2.2271246
-2.2641397	g v	-2.2271246
-2.0810642	g w	-2.2271246
-2.4082119	g x	-2.2271246
-1.8209371	g y	-2.2271246
-2.1991846	g z	-2.2271246
-0.8728856	h </s>	-2.1785506
-0.8557235	h a	-2.1785506
-1.8711805	h b	-2.1785506
-1.6714241	h c	-2.1785506
-1.7245865	h d	-2.1785506
-0.9324953	h e	-2.1785506
-2.181875	h f	-2.1785506
-2.1659615	h g	-2.1785506
-2.3358925	h h	-2.1785506
-0.897438	h i	-2.1785506
-2.359638	h j	-2.1785506
-2.0324902	h k	-2.1785506
-1.863326	h l	-2.1785506
-1.7851762	h m	-2.1785506
-1.7851762	h n	-2.1785506
-0.867351	h o	-2.1785506
-1.6867009	h p	-2.1785506
-2.5767273	h q	-2.1785506
-1.4063536	h r	-2.1785506
-1.6285756	h s	-2.1785506
-1.3385512	h t	-2.1785506
-1.3799918	h u	-2.1785506
-2.5029041	h v	-2.1785506
-2.1983937	h w	-2.1785506
-2.5767273	h x	-2.1785506
-1.6377388	h y	-2.1785506
-2.2520916	h z	-2.1785506
-1.1066947	i </s>	-2.6633519
-1.371429	i a	-2.6633519
-1.7258821	i b	-2.6633519
-1.0857775	i c	-2.6633519
-1.4246609	i d	-2.6633519
-1.4675607	i e	-2.6633519
-1.7059147	i f	-2.6633519
-1.4800355	i g	-2.6633519
-2.4245244	i h	-2.6633519
-2.1133768	i i	-2.6633519
-2.6666762	i j	-2.6633519
-2.1612581	i k	-2.6633519
-1.366529	i l	-2.6633519
-1.4524548	i m	-2.6633519
-0.7154475	i n	-2.6633519
-1.2197736	i o	-2.6633519
-1.4485138	i p	-2.6633519
-2.4339059	i q	-2.6633519
-1.5197657	i r	-2.6633519
-1.1022531	i s	-2.6633519
-1.060571	i t	-2.6633519
-2.1612581	i u	-2.6633519
-1.498345	i v	-2.6633519
-2.3639808	i w	-2.6633519
-1.8777739	i x	-2.6633519
-2.683195	i y	-2.6633519
-2.0956107	i z	-2.6633519
-0.9226906	j </s>	-1.6921612
-0.8384312	j a	-1.6921612
-1.6795721	j b	-1.6921612
-1.472304	j c	-1.6921612
-1.5697133	j d	-1.6921612
-1.0829459	j e	-1.6921612
-1.7851857	j f	-1.6921612
-2.1793327	j g	-1.6921612
-2.0165146	j h	-1.6921612
-1.1158023	j i	-1.6921612
-1.8732485	j j	-1.6921612
-1.8732485	j k	-1.6921612
-1.849503	j l	-1.6921612
-1.7120043	j m	-1.6921612
-1.849503	j n	-1.6921612
-1.1467436	j o	-1.6921612
-1.6211782	j p	-1.6921612
-1.5820192	j q	-1.6921612
-1.7657022	j r	-1.6921612
-1.0414792	j s	-1.6921612
-1.4821092	j t	-1.6921612
-1.2735278	j u	-1.6921612
-2.231758	j v	-1.6921612
-1.9250296	j w	-1.6921612
-1.8269888	j x	-1.6921612
-1.6642212	j y	-1.6921612
-1.8732485	j z	-1.6921612
-0.5346229	k </s>	-1.9729567
-1.1260377	k a	-1.9729567
-1.8628146	k b	-1.9729567
-1.7530995	k c	-1.9729567
-1.9603676	k d	-1.9729567
-0.7792199	k e	-1.9729567
-1.9927998	k f	-1.9729567
-2.1302985	k g	-1.9729567
-2.1077843	k h	-1.9729567
-1.0119857	k i	-1.9729567
-2.1791633	k j	-1.9729567
-2.0099718	k k	-1.9729567
-1.698507	k l	-1.9729567
-1.7341292	k m	-1.9729567
-1.7435108	k n	-1.9729567
-1.3482007	k o	-1.9729567
-1.8045016	k p	-1.9729567
-2.5721874	k q	-1.9729567
-1.8754794	k r	-1.9729567
-1.2288257	k s	-1.9729567
-1.715953	k t	-1.9729567
-1.5605016	k u	-1.9729567
-2.2646265	k v	-1.9729567
-2.2058251	k w	-1.9729567
-2.332655	k x	-1.9729567
-1.6204589	k y	-1.9729567
-2.3711333	k z	-1.9729567
-0.7718737	l </s>	-2.44595
-0.9831117	l a	-2.44595
-2.0793948	l b	-2.44595
-1.6764793	l c	-2.44595
-1.5333262	l d	-2.44595
-0.8340324	l e	-2.44595
-2.0591267	l f	-2.44595
-2.2459297	l g	-2.44595
-2.5008441	l h	-2.44595
-0.876969	l i	-2.44595
-2.519491	l j	-2.44595
-2.0657782	l k	-2.44595
-1.1292854	l l	-2.44595
-1.8528522	l m	-2.44595
-2.3615178	l n	-2.44595
-1.0041129	l o	-2.44595
-1.8288948	l p	-2.44595
-2.8056483	l q	-2.44595
-2.2459297	l r	-2.44595
-1.5122113	l s	-2.44595
-1.4814736	l t	-2.44595
-1.4320301	l u	-2.44595
-2.1230104	l v	-2.44595
-2.2998895	l w	-2.44595
-2.5593732	l x	-2.44595
-1.5811004	l y	-2.44595
-2.519491	l z	-2.44595
-0.8211617	m </s>	-2.4092441
-0.7497173	m a	-2.4092441
-1.5646194	m b	-2.4092441
-1.5188146	m c	-2.4092441
-1.8922237	m d	-2.4092441
-0.8680375	m e	-2.4092441
-2.1522404	m f	-2.4092441
-2.1098731	m g	-2.4092441
-2.4125684	m h	-2.4092441
-1.0604389	m i	-2.4092441
-2.7335975	m j	-2.4092441
-2.3813041	m k	-2.4092441
-1.7883214	m l	-2.4092441
-1.5400252	m m	-2.4092441
-2.2092238	m n	-2.4092441
-1.0561374	m o	-2.4092441
-1.2155074	m p	-2.4092441
-2.251842	m q	-2.4092441
-2.0290723	m r	-2.4092441
-1.2093731	m s	-2.4092441
-1.7621724	m t	-2.4092441
-1.6651131	m u	-2.4092441
-2.1347945	m v	-2.4092441
-2.1018739	m w	-2.4092441
-2.5665859	m x	-2.4092441
-1.7479079	m y	-2.4092441
-2.8964156	m z	-2.4092441
-0.760342	n </s>	-2.5593746
-1.1482576	n a	-2.5593746
-1.9662768	n b	-2.5593746
-1.3262899	n c	-2.5593746
-1.1887901	n d	-2.5593746
-0.9809501	n e	-2.5593746
-1.8546709	n f	-2.5593746
-0.9044518	n g	-2.5593746
-2.4019725	n h	-2.5593746
-1.1654459	n i	-2.5593746
-2.2600035	n j	-2.5593746
-1.6507027	n k	-2.5593746
-2.052248	n l	-2.5593746
-2.1168709	n m	-2.5593746
-1.7287761	n n	-2.5593746
-1.4100481	n o	-2.5593746
-1.9196147	n p	-2.5593746
-2.792243	n q	-2.5593746
-2.3493225	n r	-2.5593746
-1.2585102	n s	-2.5593746
-1.0214184	n t	-2.5593746
-1.8269983	n u	-2.5593746
-2.0048894	n v	-2.5593746
-2.4133141	n w	-2.5593746
-2.4133141	n x	-2.5593746
-1.9787701	n y	-2.5593746
-2.4883916	n z	-2.5593746
-0.9715502	o </s>	-2.6210993
-1.7265492	o a	-2.6210993
-1.567034	o b	-2.6210993
-1.4072431	o c	-2.6210993
-1.5123914	o d	-2.6210993
-2.0001766	o e	-2.6210993
-1.5859007	o f	-2.6210993
-1.6009927	o g	-2.6210993
-2.2476824	o h	-2.6210993
-1.7540595	o i	-2.6210993
-2.2476824	o j	-2.6210993
-1.7881315	o k	-2.6210993
-1.3091147	o l	-2.6210993
-1.248464	o m	-2.6210993
-0.8492142	o n	-2.6210993
-1.3536719	o o	-2.6210993
-1.2839773	o p	-2.6210993
-2.7784411	o q	-2.6210993
-0.9416061	o r	-2.6210993
-1.2651485	o s	-2.6210993
-1.375044	o t	-2.6210993
-1.2891893	o u	-2.6210993
-1.8516287	o v	-2.6210993
-1.5613899	o w	-2.6210993
-1.9260261	o x	-2.6210993
-2.1089977	o y	-2.6210993
-2.6244236	o z	-2.6210993
-0.7012814	p </s>	-2.4122427
-1.0086811	p a	-2.4122427
-1.8807916	p b	-2.4122427
-1.4565832	p c	-2.4122427
-1.7370956	p d	-2.4122427
-1.0670548	p e	-2.4122427
-2.0817228	p f	-2.4122427
-1.9152407	p g	-2.4122427
-1.4223414	p h	-2.4122427
-1.286347	p i	-2.4122427
-2.4671369	p j	-2.4122427
-2.3147654	p k	-2.4122427
-1.2247281	p l	-2.4122427
-1.5792749	p m	-2.4122427
-2.1377931	p n	-2.4122427
-1.160745	p o	-2.4122427
-1.285145	p p	-2.4122427
-2.3147654	p q	-2.4122427
-1.1137987	p r	-2.4122427
-1.3667834	p s	-2.4122427
-1.4306521	p t	-2.4122427
-1.6293082	p u	-2.4122427
-2.1210209	p v	-2.4122427
-2.164232	p w	-2.4122427
-2.3843027	p x	-2.4122427
-1.9051162	p y	-2.4122427
-2.8526412	p z	-2.4122427
-0.7552266	q </s>	-1.5486396
-1.2181197	q a	-1.5486396
-1.7297269	q b	-1.5486396
-1.2916359	q c	-1.5486396
-1.9083379	q d	-1.5486396
-1.3694058	q e	-1.5486396
-1.9890381	q f	-1.5486396
-2.0882364	q g	-1.5486396
-2.1478703	q h	-1.5486396
-1.3385876	q i	-1.5486396
-2.1478703	q j	-1.5486396
-2.2170161	q k	-1.5486396
-1.0516376	q l	-1.5486396
-1.4261917	q m	-1.5486396
-2.2170161	q n	-1.5486396
-1.7297269	q o	-1.5486396
-1.6416641	q p	-1.5486396
-1.781508	q q	-1.5486396
-1.6221806	q r	-1.5486396
-1.4025792	q s	-1.5486396
-1.5206996	q t	-1.5486396
-0.6859913	q u	-1.5486396
-2.0882364	q v	-1.5486396
-2.0882364	q w	-1.5486396
-2.0358111	q x	-1.5486396
-1.5856547	q y	-1.5486396
-2.1478703	q z	-1.5486396
-0.7231981	r </s>	-2.5800375
-0.9792686	r a	-2.5800375
-1.9366063	r b	-2.5800375
-1.4918435	r c	-2.5800375
-1.5217322	r d	-2.5800375
-0.871587	r e	-2.5800375
-2.0255523	r f	-2.5800375
-1.9015052	r g	-2.5800375
-2.2888157	r h	-2.5800375
-1.0929546	r i	-2.5800375
-2.5998806	r j	-2.5800375
-1.5583979	r k	-2.5800375
-1.8981462	r l	-2.5800375
-1.5203281	r m	-2.5800375
-1.8051311	r n	-2.5800375
-1.0162954	r o	-2.5800375
-1.7086503	r p	-2.5800375
-2.6934608	r q	-2.5800375
-1.8476613	r r	-2.5800375
-1.3385702	r s	-2.5800375
-1.2610517	r t	-2.5800375
-1.6576886	r u	-2.5800375
-1.8272946	r v	-2.5800375
-2.3320268	r w	-2.5800375
-2.6170526	r x	-2.5800375
-1.6388683	r y	-2.5800375
-3.0204359	r z	-2.5800375
-0.5696201	s </s>	-2.6323126
-3.8185579	s <num>	-2.6323126
-1.3384582	s a	-2.6323126
-2.0846103	s b	-2.6323126
-1.3678123	s c	-2.6323126
-1.8011206	s d	-2.6323126
-1.097732	s e	-2.6323126
-2.1939764	s f	-2.6323126
-2.1071589	s g	-2.6323126
-1.3124458	s h	-2.6323126
-1.1521909	s i	-2.6323126
-2.3734059	s j	-2.6323126
-1.7988388	s k	-2.6323126
-1.8840595	s l	-2.6323126
-1.6372677	s m	-2.6323126
-2.1458643	s n	-2.6323126
-1.2775023	s o	-2.6323126
-1.415936	s p	-2.6323126
-2.0508038	s q	-2.6323126
-2.0590119	s r	-2.6323126
-1.2626837	s s	-2.6323126
-0.9713038	s t	-2.6323126
-1.5197752	s u	-2.6323126
-2.2545413	s v	-2.6323126
-1.9661173	s w	-2.6323126
-2.6846071	s x	-2.6323126
-1.7453719	s y	-2.6323126
-2.4183821	s z	-2.6323126
-0.7053739	t </s>	-2.5907758
-1.0336724	t a	-2.5907758
-1.9698531	t b	-2.5907758
-1.5722076	t c	-2.5907758
-1.9698531	t d	-2.5907758
-0.8644429	t e	-2.5907758
-2.1201687	t f	-2.5907758
-2.1482721	t g	-2.5907758
-1.4858411	t h	-2.5907758
-0.9603878	t i	-2.5907758
-2.4447154	t j	-2.5907758
-2.4563612	t k	-2.5907758
-1.8078413	t l	-2.5907758
-1.7129479	t m	-2.5907758
-2.1094175	t n	-2.5907758
-1.0504954	t o	-2.5907758
-1.757808	t p	-2.5907758
-2.6277909	t q	-2.5907758
-1.2140677	t r	-2.5907758
-1.3838559	t s	-2.5907758
-1.6159502	t t	-2.5907758
-1.5615512	t u	-2.5907758
-2.0018027	t v	-2.5907758
-2.0362906	t w	-2.5907758
-2.6106189	t x	-2.5907758
-1.5145615	t y	-2.5907758
-2.4932985	t z	-2.5907758
-1.0740831	u </s>	-2.2563435
-1.3496611	u a	-2.2563435
-1.4760686	u b	-2.2563435
-1.3981314	u c	-2.2563435
-1.2971358	u d	-2.2563435
-1.3556849	u e	-2.2563435
-2.0083328	u f	-2.2563435
-1.8438885	u g	-2.2563435
-2.4136853	u h	-2.2563435
-1.2455504	u i	-2.2563435
-2.4136853	u j	-2.2563435
-2.0462915	u k	-2.2563435
-1.2408687	u l	-2.2563435
-1.3006841	u m	-2.2563435
-0.9236851	u n	-2.2563435
-1.9569725	u o	-2.2563435
-1.2647989	u p	-2.2563435
-2.696742	u q	-2.2563435
-1.0677857	u r	-2.2563435
-0.9950418	u s	-2.2563435
-1.1197473	u t	-2.2563435
-2.3911711	u u	-2.2563435
-2.2761866	u v	-2.2563435
-2.5176182	u w	-2.2563435
-1.7393231	u x	-2.2563435
-1.9734268	u y	-2.2563435
-2.1992395	u z	-2.2563435
-0.9223498	v </s>	-1.9944964
-0.8870425	v a	-1.9944964
-1.8720485	v b	-1.9944964
-1.4974944	v c	-1.9944964
-1.7944761	v d	-1.9944964
-0.57534	v e	-1.9944964
-2.1518382	v f	-1.9944964
-2.200703	v g	-1.9944964
-2.3188498	v h	-1.9944964
-0.7411996	v i	-1.9944964
-2.7451515	v j	-1.9944964
-2.5937271	v k	-1.9944964
-1.9100642	v l	-1.9944964
-1.6565263	v m	-1.9944964
-2.0680374	v n	-1.9944964
-1.3159641	v o	-1.9944964
-1.6419986	v p	-1.9944964
-2.5937271	v q	-1.9944964
-1.6792717	v r	-1.9944964
-1.5184804	v s	-1.9944964
-1.8152626	v t	-1.9944964
-1.9235134	v u	-1.9944964
-2.2273648	v v	-1.9944964
-2.3541947	v w	-1.9944964
-2.392673	v x	-1.9944964
-2.2273648	v y	-1.9944964
-2.6628728	v z	-1.9944964
-0.8652142	w </s>	-1.9560261
-0.818257	w a	-1.9560261
-1.845884	w b	-1.9560261
-1.7265801	w c	-1.9560261
-1.8099656	w d	-1.9560261
-0.755141	w e	-1.9560261
-1.9280861	w f	-1.9560261
-2.1371134	w g	-1.9560261
-1.6255062	w h	-1.9560261
-0.9062424	w i	-1.9560261
-2.1371134	w j	-1.9560261
-2.1133679	w k	-1.9560261
-1.845884	w l	-1.9560261
-1.6731094	w m	-1.9560261
-1.7080154	w n	-1.9560261
-0.9661247	w o	-1.9560261
-1.7171986	w p	-1.9560261
-2.5552568	w q	-1.9560261
-1.7560058	w r	-1.9560261
-1.3882849	w s	-1.9560261
-1.845884	w t	-1.9560261
-2.029567	w u	-1.9560261
-2.4431976	w v	-1.9560261
-2.1133679	w w	-1.9560261
-2.1622326	w x	-1.9560261
-1.9434369	w y	-1.9560261
-2.1888945	w z	-1.9560261
-0.4214725	x </s>	-1.817345
-1.5515307	x a	-1.817345
-1.6829303	x b	-1.817345
-1.2673699	x c	-1.817345
-1.7072029	x d	-1.817345
-1.4175167	x e	-1.817345
-1.8047558	x f	-1.817345
-1.8543601	x g	-1.817345
-2.1416984	x h	-1.817345
-1.1595312	x i	-1.817345
-2.1090148	x j	-1.817345
-2.568	x k	-1.817345
-1.7329128	x l	-1.817345
-1.587899	x m	-1.817345
-2.1416984	x n	-1.817345
-1.760241	x o	-1.817345
-1.2496038	x p	-1.817345
-2.2577434	x q	-1.817345
-1.9307682	x r	-1.817345
-1.4439281	x s	-1.817345
-1.3003245	x t	-1.817345
-1.6712845	x u	-1.817345
-2.802464	x v	-1.817345
-1.9307682	x w	-1.817345
-1.3102184	x x	-1.817345
-1.6829303	x y	-1.817345
-2.1090148	x z	-1.817345
-0.4099217	y </s>	-2.0153897
-3.201635	y <num>	-2.0153897
-1.3987509	y a	-2.0153897
-1.5827437	y b	-2.0153897
-1.5604168	y c	-2.0153897
-1.7739186	y d	-2.0153897
-1.3627859	y e	-2.0153897
-1.7829061	y f	-2.0153897
-1.9206749	y g	-2.0153897
-2.0340318	y h	-2.0153897
-1.7004431	y i	-2.0153897
-1.9206749	y j	-2.0153897
-2.1236227	y k	-2.0153897
-1.6248108	y l	-2.0153897
-1.5391818	y m	-2.0153897
-1.490236	y n	-2.0153897
-1.2727108	y o	-2.0153897
-1.4995937	y p	-2.0153897
-2.3219288	y q	-2.0153897
-2.0028006	y r	-2.0153897
-1.0736946	y s	-2.0153897
-1.4856316	y t	-2.0153897
-1.7315756	y u	-2.0153897
-2.211554	y v	-2.0153897
-1.8516372	y w	-2.0153897
-2.0028006	y x	-2.0153897
-1.7829061	y y	-2.0153897
-1.9736654	y z	-2.0153897
-0.779092	z </s>	-1.5827366
-1.1641031	z a	-1.5827366
-1.6025796	z b	-1.5827366
-1.4852592	z c	-1.5827366
-1.8744064	z d	-1.5827366
-0.9656814	z e	-1.5827366
-1.7889431	z f	-1.5827366
-1.8744064	z g	-1.5827366
-1.1580115	z h	-1.5827366
-1.3347259	z i	-1.5827366
-1.6197517	z j	-1.5827366
-2.0699081	z k	-1.5827366
-1.5117535	z l	-1.5827366
-1.7638239	z m	-1.5827366
-1.5399698	z n	-1.5827366
-1.1344648	z o	-1.5827366
-1.7400784	z p	-1.5827366
-1.8440113	z q	-1.5827366
-2.0699081	z r	-1.5827366
-1.6961598	z s	-1.5827366
-1.7400784	z t	-1.5827366
-1.5860609	z u	-1.5827366
-2.3333916	z v	-1.5827366
-1.7175642	z w	-1.5827366
-1.4035028	z x	-1.5827366
-1.4035028	z y	-1.5827366
-1.3532906	z z	-1.5827366

\3-grams:
-7.3e-06	# </s> <s>	-0.30103
-0.1990405	+ + </s>	-0.30103
-7.3e-06	+ </s> <s>	-0.30103
-0.2286431	- - </s>	-0.30103
-7.3e-06	- </s> <s>	-0.30103
-0.1614964	- x </s>	-0.30103
-0.2632486	. j s	-0.30103
-0.2578706	. n e	-0.30103
-0.1974353	/ s </s>	-0.30103
-3.8e-06	</s> <s> <s>	-4.4589097
-0.6018019	<num> d -	-0.30103
-0.4441556	<num> d </s>	-0.30103
-0.2286431	<s> - -	-0.30103
-0.1990405	<s> . n	-0.30103
-4.9359741	<s> <s> -	-3.4737788
-4.9359741	<s> <s> .	-3.4737788
-0.1760731	<s> <s> <s>	-3.4737788
-1.6480418	<s> <s> a	-3.4737788
-1.8285182	<s> <s> b	-3.4737788
-1.5668515	<s> <s> c	-3.4737788
-1.8034875	<s> <s> d	-3.4737788
-1.8197918	<s> <s> e	-3.4737788
-1.9042551	<s> <s> f	-3.4737788
-1.9426311	<s> <s> g	-3.4737788
-1.8990395	<s> <s> h	-3.4737788
-1.7720121	<s> <s> i	-3.4737788
-2.1265076	<s> <s> j	-3.4737788
-2.2200639	<s> <s> k	-3.4737788
-1.9207076	<s> <s> l	-3.4737788
-1.6750425	<s> <s> m	-3.4737788
-2.0056277	<s> <s> n	-3.4737788
-2.0217242	<s> <s> o	-3.4737788
-1.713611	<s> <s> p	-3.4737788
-2.4215194	<s> <s> q	-3.4737788
-1.9274672	<s> <s> r	-3.4737788
-1.5102072	<s> <s> s	-3.4737788
-1.7807313	<s> <s> t	-3.4737788
-2.1917743	<s> <s> u	-3.4737788
-2.1003767	<s> <s> v	-3.4737788
-1.9857025	<s> <s> w	-3.4737788
-2.4241838	<s> <s> x	-3.4737788
-2.4475164	<s> <s> y	-3.4737788
-2.3846172	<s> <s> z	-3.4737788
-1.746367	<s> a a	-1.878831
-1.4701901	<s> a b	-1.878831
-1.0882021	<s> a c	-1.878831
-1.1320326	<s> a d	-1.878831
-1.7856522	<s> a e	-1.878831
-1.699455	<s> a f	-1.878831
-1.5884008	<s> a g	-1.878831
-2.0860299	<s> a h	-1.878831
-1.2689683	<s> a i	-1.878831
-2.387508	<s> a j	-1.878831
-2.109532	<s> a k	-1.878831
-1.1963708	<s> a l	-1.878831
-1.3008545	<s> a m	-1.878831
-1.0289387	<s> a n	-1.878831
-1.7340527	<s> a o	-1.878831
-1.0379103	<s> a p	-1.878831
-2.0878339	<s> a q	-1.878831
-1.0748365	<s> a r	-1.878831
-1.1099069	<s> a s	-1.878831
-1.3691476	<s> a t	-1.878831
-1.2468873	<s> a u	-1.878831
-1.4640798	<s> a v	-1.878831
-1.9282096	<s> a w	-1.878831
-1.8910614	<s> a x	-1.878831
-2.3125255	<s> a y	-1.878831
-2.3339463	<s> a z	-1.878831
-0.8417206	<s> b a	-1.7013022
-1.5893026	<s> b b	-1.7013022
-1.6432955	<s> b c	-1.7013022
-1.5419128	<s> b d	-1.7013022
-0.9246864	<s> b e	-1.7013022
-2.1095822	<s> b f	-1.7013022
-1.9275063	<s> b g	-1.7013022
-1.9357106	<s> b h	-1.7013022
-0.9075593	<s> b i	-1.7013022
-2.0287216	<s> b j	-1.7013022
-2.4075858	<s> b k	-1.7013022
-1.1841664	<s> b l	-1.7013022
-1.7618031	<s> b m	-1.7013022
-1.9636966	<s> b n	-1.7013022
-0.9350076	<s> b o	-1.7013022
-1.7084293	<s> b p	-1.7013022
-2.4106652	<s> b q	-1.7013022
-1.0982949	<s> b r	-1.7013022
-1.558688	<s> b s	-1.7013022
-1.5912499	<s> b t	-1.7013022
-1.0375382	<s> b u	-1.7013022
-2.5027357	<s> b v	-1.7013022
-1.9961816	<s> b w	-1.7013022
-2.5014641	<s> b x	-1.7013022
-1.9045742	<s> b y	-1.7013022
-2.6298459	<s> b z	-1.7013022
-3.3720282	<s> c #	-1.9121671
-3.3720282	<s> c +	-1.9121671
-3.3720282	<s> c /	-1.9121671
-0.8654757	<s> c a	-1.9121671
-1.7082115	<s> c b	-1.9121671
-1.2983987	<s> c c	-1.9121671
-1.7074835	<s> c d	-1.9121671
-1.3517278	<s> c e	-1.9121671
-1.7698141	<s> c f	-1.9121671
-1.8935916	<s> c g	-1.9121671
-1.0808271	<s> c h	-1.9121671
-1.2002321	<s> c i	-1.9121671
-2.4672913	<s> c j	-1.9121671
-2.1985124	<s> c k	-1.9121671
-1.2985689	<s> c l	-1.9121671
-1.5639332	<s> c m	-1.9121671
-1.6392306	<s> c n	-1.9121671
-0.6400475	<s> c o	-1.9121671
-1.5251463	<s> c p	-1.9121671
-2.1953419	<s> c q	-1.9121671
-1.256525	<s> c r	-1.9121671
-1.4050142	<s> c s	-1.9121671
-1.6870179	<s> c t	-1.9121671
-1.5444165	<s> c u	-1.9121671
-2.028357	<s> c v	-1.9121671
-2.1675083	<s> c w	-1.9121671
-2.2582491	<s> c x	-1.9121671
-2.0910794	<s> c y	-1.9121671
-2.7678393	<s> c z	-1.9121671
-0.8947349	<s> d a	-1.7258488
-1.5102789	<s> d b	-1.7258488
-1.5104513	<s> d c	-1.7258488
-1.7173081	<s> d d	-1.7258488
-0.7209145	<s> d e	-1.7258488
-1.6040789	<s> d f	-1.7258488
-2.1709467	<s> d g	-1.7258488
-1.8134769	<s> d h	-1.7258488
-0.8911158	<s> d i	-1.7258488
-2.2327393	<s> d j	-1.7258488
-2.5120684	<s> d k	-1.7258488
-1.8527876	<s> d l	-1.7258488
-1.4263473	<s> d m	-1.7258488
-1.7927612	<s> d n	-1.7258488
-1.0495737	<s> d o	-1.7258488
-1.5893065	<s> d p	-1.7258488
-2.2331945	<s> d q	-1.7258488
-1.1406032	<s> d r	-1.7258488
-1.44898	<s> d s	-1.7258488
-1.6723838	<s> d t	-1.7258488
-1.3646112	<s> d u	-1.7258488
-1.9043701	<s> d v	-1.7258488
-1.8772613	<s> d w	-1.7258488
-2.0929806	<s> d x	-1.7258488
-1.8116614	<s> d y	-1.7258488
-2.5333547	<s> d z	-1.7258488
-1.297123	<s> e a	-1.7098568
-1.438296	<s> e b	-1.7098568
-1.0588573	<s> e c	-1.7098568
-1.2383707	<s> e d	-1.7098568
-1.7846571	<s> e e	-1.7098568
-1.6032007	<s> e f	-1.7098568
-1.7959259	<s> e g	-1.7098568
-1.7076998	<s> e h	-1.7098568
-1.6569902	<s> e i	-1.7098568
-2.2762553	<s> e j	-1.7098568
-2.0765424	<s> e k	-1.7098568
-1.149803	<s> e l	-1.7098568
-1.1167284	<s> e m	-1.7098568
-1.003537	<s> e n	-1.7098568
-1.8625971	<s> e o	-1.7098568
-1.3146521	<s> e p	-1.7098568
-2.0082925	<s> e q	-1.7098568
-1.4082408	<s> e r	-1.7098568
-1.1425099	<s> e s	-1.7098568
-1.3236282	<s> e t	-1.7098568
-1.8201376	<s> e u	-1.7098568
-1.4055214	<s> e v	-1.7098568
-1.9385609	<s> e w	-1.7098568
-1.0695146	<s> e x	-1.7098568
-2.0367805	<s> e y	-1.7098568
-1.8446408	<s> e z	-1.7098568
-0.8917662	<s> f a	-1.6272082
-1.6214911	<s> f b	-1.6272082
-1.4889242	<s> f c	-1.6272082
-1.7784799	<s> f d	-1.6272082
-1.1274005	<s> f e	-1.6272082
-1.8588743	<s> f f	-1.6272082
-2.1860777	<s> f g	-1.6272082
-2.2582253	<s> f h	-1.6272082
-0.7879533	<s> f i	-1.6272082
-2.5535269	<s> f j	-1.6272082
-3.0051612	<s> f k	-1.6272082
-1.0623345	<s> f l	-1.6272082
-1.7097198	<s> f m	-1.6272082
-2.1320804	<s> f n	-1.6272082
-0.8809896	<s> f o	-1.6272082
-1.652995	<s> f p	-1.6272082
-2.4314429	<s> f q	-1.6272082
-1.0448325	<s> f r	-1.6272082
-1.5664365	<s> f s	-1.6272082
-1.667196	<s> f t	-1.6272082
-1.0453011	<s> f u	-1.6272082
-2.7239642	<s> f v	-1.6272082
-2.0797452	<s> f w	-1.6272082
-1.9533251	<s> f x	-1.6272082
-2.4159315	<s> f y	-1.6272082
-2.4288189	<s> f z	-1.6272082
-0.96371	<s> g a	-1.5897778
-1.5221453	<s> g b	-1.5897778
-1.5492807	<s> g c	-1.5897778
-1.4682852	<s> g d	-1.5897778
-0.8763124	<s> g e	-1.5897778
-1.8224584	<s> g f	-1.5897778
-1.9129885	<s> g g	-1.5897778
-1.9268937	<s> g h	-1.5897778
-1.3151418	<s> g i	-1.5897778
-2.151655	<s> g j	-1.5897778
-2.1530479	<s> g k	-1.5897778
-1.160057	<s> g l	-1.5897778
-1.374314	<s> g m	-1.5897778
-1.8069358	<s> g n	-1.5897778
-0.9933747	<s> g o	-1.5897778
-1.4431925	<s> g p	-1.5897778
-2.1551457	<s> g q	-1.5897778
-0.930322	<s> g r	-1.5897778
-1.4271518	<s> g s	-1.5897778
-1.4810257	<s> g t	-1.5897778
-1.2895303	<s> g u	-1.5897778
-2.2936592	<s> g v	-1.5897778
-2.0402214	<s> g w	-1.5897778
-2.096182	<s> g x	-1.5897778
-1.817437	<s> g y	-1.5897778
-1.9976712	<s> g z	-1.5897778
-0.7693804	<s> h a	-1.6323015
-1.6264979	<s> h b	-1.6323015
-1.4500839	<s> h c	-1.6323015
-1.4971662	<s> h d	-1.6323015
-0.9752558	<s> h e	-1.6323015
-1.9991812	<s> h f	-1.6323015
-2.0845541	<s> h g	-1.6323015
-2.1947966	<s> h h	-1.6323015
-0.9528297	<s> h i	-1.6323015
-2.1951861	<s> h j	-1.6323015
-1.6627197	<s> h k	-1.6323015
-1.8609922	<s> h l	-1.6323015
-1.7818348	<s> h m	-1.6323015
-1.9893662	<s> h n	-1.6323015
-0.884326	<s> h o	-1.6323015
-1.4728396	<s> h p	-1.6323015
-2.4377974	<s> h q	-1.6323015
-1.1838328	<s> h r	-1.6323015
-1.4719542	<s> h s	-1.6323015
-1.4652979	<s> h t	-1.6323015
-1.2758059	<s> h u	-1.6323015
-2.0891091	<s> h v	-1.6323015
-2.0401821	<s> h w	-1.6323015
-2.3423608	<s> h x	-1.6323015
-1.3979523	<s> h y	-1.6323015
-2.0410011	<s> h z	-1.6323015
-1.6788898	<s> i a	-1.7567531
-1.3114558	<s> i b	-1.7567531
-1.1143114	<s> i c	-1.7567531
-1.3026242	<s> i d	-1.7567531
-1.6417067	<s> i e	-1.7567531
-1.5535554	<s> i f	-1.7567531
-1.6550474	<s> i g	-1.7567531
-1.8273769	<s> i h	-1.7567531
-1.9116488	<s> i i	-1.7567531
-2.8587004	<s> i j	-1.7567531
-2.315641	<s> i k	-1.7567531
-1.6021418	<s> i l	-1.7567531
-1.159238	<s> i m	-1.7567531
-0.65058	<s> i n	-1.7567531
-1.5529728	<s> i o	-1.7567531
-1.0785652	<s> i p	-1.7567531
-2.1265704	<s> i q	-1.7567531
-1.5109974	<s> i r	-1.7567531
-1.0677362	<s> i s	-1.7567531
-1.0602572	<s> i t	-1.7567531
-2.1233097	<s> i u	-1.7567531
-1.7272861	<s> i v	-1.7567531
-1.7228276	<s> i w	-1.7567531
-2.2503257	<s> i x	-1.7567531
-2.5638509	<s> i y	-1.7567531
-2.6654077	<s> i z	-1.7567531
-0.6751328	<s> j a	-1.4117492
-1.6351666	<s> j b	-1.4117492
-1.5283862	<s> j c	-1.4117492
-1.3539623	<s> j d	-1.4117492
-1.1720843	<s> j e	-1.4117492
-1.6675654	<s> j f	-1.4117492
-2.3253833	<s> j g	-1.4117492
-2.1983031	<s> j h	-1.4117492
-1.1547036	<s> j i	-1.4117492
-1.9605465	<s> j j	-1.4117492
-2.3019219	<s> j k	-1.4117492
-1.8550905	<s> j l	-1.4117492
-1.665216	<s> j m	-1.4117492
-1.6127354	<s> j n	-1.4117492
-1.0424297	<s> j o	-1.4117492
-1.5123916	<s> j p	-1.4117492
-1.4005253	<s> j q	-1.4117492
-1.610664	<s> j r	-1.4117492
-1.0994809	<s> j s	-1.4117492
-1.297077	<s> j t	-1.4117492
-1.1158863	<s> j u	-1.4117492
-1.9722658	<s> j v	-1.4117492
-1.9628652	<s> j w	-1.4117492
-2.0953559	<s> j x	-1.4117492
-1.846114	<s> j y	-1.4117492
-2.3019219	<s> j z	-1.4117492
-0.8131974	<s> k a	-1.3222193
-1.681945	<s> k b	-1.3222193
-1.6081778	<s> k c	-1.3222193
-1.7694181	<s> k d	-1.3222193
-0.8164294	<s> k e	-1.3222193
-1.8199841	<s> k f	-1.3222193
-2.0218071	<s> k g	-1.3222193
-2.1136481	<s> k h	-1.3222193
-0.8766796	<s> k i	-1.3222193
-2.2358442	<s> k j	-1.3222193
-1.7708585	<s> k k	-1.3222193
-1.6757193	<s> k l	-1.3222193
-1.6772674	<s> k m	-1.3222193
-1.2828157	<s> k n	-1.3222193
-0.965119	<s> k o	-1.3222193
-1.4964482	<s> k p	-1.3222193
-2.1276379	<s> k q	-1.3222193
-1.497985	<s> k r	-1.3222193
-1.424695	<s> k s	-1.3222193
-1.8077708	<s> k t	-1.3222193
-1.4004274	<s> k u	-1.3222193
-1.8264953	<s> k v	-1.3222193
-2.0243861	<s> k w	-1.3222193
-2.0278489	<s> k x	-1.3222193
-1.572155	<s> k y	-1.3222193
-2.6916265	<s> k z	-1.3222193
-0.8366255	<s> l a	-1.6111512
-1.9391756	<s> l b	-1.6111512
-1.4877061	<s> l c	-1.6111512
-1.6689244	<s> l d	-1.6111512
-0.8198111	<s> l e	-1.6111512
-1.9388079	<s> l f	-1.6111512
-1.9072785	<s> l g	-1.6111512
-2.7076314	<s> l h	-1.6111512
-0.6788892	<s> l i	-1.6111512
-2.0681051	<s> l j	-1.6111512
-2.3081664	<s> l k	-1.6111512
-1.7266046	<s> l l	-1.6111512
-1.839596	<s> l m	-1.6111512
-1.9428693	<s> l n	-1.6111512
-0.8571103	<s> l o	-1.6111512
-1.7168021	<s> l p	-1.6111512
-2.1785102	<s> l q	-1.6111512
-2.064818	<s> l r	-1.6111512
-1.5519171	<s> l s	-1.6111512
-1.5510634	<s> l t	-1.6111512
-1.220206	<s> l u	-1.6111512
-2.1125296	<s> l v	-1.6111512
-2.0656375	<s> l w	-1.6111512
-2.0684352	<s> l x	-1.6111512
-1.7546979	<s> l y	-1.6111512
-2.1187878	<s> l z	-1.6111512
-0.6350927	<s> m a	-1.8521984
-1.7267356	<s> m b	-1.8521984
-1.4556816	<s> m c	-1.8521984
-1.6404903	<s> m d	-1.8521984
-0.8824185	<s> m e	-1.8521984
-2.0581095	<s> m f	-1.8521984
-2.0315957	<s> m g	-1.8521984
-2.1179355	<s> m h	-1.8521984
-0.8937775	<s> m i	-1.8521984
-2.7831546	<s> m j	-1.8521984
-2.1496333	<s> m k	-1.8521984
-2.0517112	<s> m l	-1.8521984
-1.7262194	<s> m m	-1.8521984
-2.3554496	<s> m n	-1.8521984
-0.8043475	<s> m o	-1.8521984
-1.637936	<s> m p	-1.8521984
-2.1827531	<s> m q	-1.8521984
-1.7325978	<s> m r	-1.8521984
-1.3944011	<s> m s	-1.8521984
-1.6602578	<s> m t	-1.8521984
-1.4439443	<s> m u	-1.8521984
-2.1469064	<s> m v	-1.8521984
-2.3530595	<s> m w	-1.8521984
-2.483945	<s> m x	-1.8521984
-1.3404971	<s> m y	-1.8521984
-3.25307	<s> m z	-1.8521984
-0.8796058	<s> n a	-1.5285212
-1.576493	<s> n b	-1.5285212
-1.2978115	<s> n c	-1.5285212
-1.7212104	<s> n d	-1.5285212
-0.6817165	<s> n e	-1.5285212
-1.8175798	<s> n f	-1.5285212
-1.2784783	<s> n g	-1.5285212
-1.8980527	<s> n h	-1.5285212
-1.0875132	<s> n i	-1.5285212
-2.0896212	<s> n j	-1.5285212
-2.3894749	<s> n k	-1.5285212
-2.0280668	<s> n l	-1.5285212
-1.7616893	<s> n m	-1.5285212
-2.4012283	<s> n n	-1.5285212
-0.8865462	<s> n o	-1.5285212
-1.434119	<s> n p	-1.5285212
-2.240896	<s> n q	-1.5285212
-1.983675	<s> n r	-1.5285212
-1.3940778	<s> n s	-1.5285212
-1.5206604	<s> n t	-1.5285212
-1.2962364	<s> n u	-1.5285212
-1.7600228	<s> n v	-1.5285212
-2.0922128	<s> n w	-1.5285212
-2.034989	<s> n x	-1.5285212
-1.891454	<s> n y	-1.5285212
-2.6245038	<s> n z	-1.5285212
-1.6163837	<s> o a	-1.5129101
-1.3514891	<s> o b	-1.5129101
-1.1953452	<s> o c	-1.5129101
-1.3989787	<s> o d	-1.5129101
-1.8763491	<s> o e	-1.5129101
-1.1981143	<s> o f	-1.5129101
-1.8614979	<s> o g	-1.5129101
-1.9215461	<s> o h	-1.5129101
-1.7387287	<s> o i	-1.5129101
-2.21633	<s> o j	-1.5129101
-1.712418	<s> o k	-1.5129101
-1.4326719	<s> o l	-1.5129101
-1.2998291	<s> o m	-1.5129101
-1.066473	<s> o n	-1.5129101
-1.5633024	<s> o o	-1.5129101
-0.7478951	<s> o p	-1.5129101
-2.321147	<s> o q	-1.5129101
-0.9786194	<s> o r	-1.5129101
-1.3548729	<s> o s	-1.5129101
-1.3826221	<s> o t	-1.5129101
-1.418198	<s> o u	-1.5129101
-1.6881865	<s> o v	-1.5129101
-1.6557212	<s> o w	-1.5129101
-2.0083722	<s> o x	-1.5129101
-2.0139483	<s> o y	-1.5129101
-2.4419154	<s> o z	-1.5129101
-0.8682952	<s> p a	-1.8141964
-1.7471237	<s> p b	-1.8141964
-1.326576	<s> p c	-1.8141964
-1.6219689	<s> p d	-1.8141964
-1.1638589	<s> p e	-1.8141964
-1.9932525	<s> p f	-1.8141964
-2.073347	<s> p g	-1.8141964
-1.1958136	<s> p h	-1.8141964
-1.1747685	<s> p i	-1.8141964
-2.2253353	<s> p j	-1.8141964
-2.1828325	<s> p k	-1.8141964
-1.2535096	<s> p l	-1.8141964
-1.6091898	<s> p m	-1.8141964
-2.1431905	<s> p n	-1.8141964
-0.9695861	<s> p o	-1.8141964
-1.5020481	<s> p p	-1.8141964
-2.2688915	<s> p q	-1.8141964
-0.7697762	<s> p r	-1.8141964
-1.4958332	<s> p s	-1.8141964
-1.6613844	<s> p t	-1.8141964
-1.3864951	<s> p u	-1.8141964
-1.9459416	<s> p v	-1.8141964
-2.0202413	<s> p w	-1.8141964
-2.5209768	<s> p x	-1.8141964
-1.6935783	<s> p y	-1.8141964
-2.7467959	<s> p z	-1.8141964
-1.1573085	<s> q a	-1.1328014
-1.673615	<s> q b	-1.1328014
-1.3622771	<s> q c	-1.1328014
-1.7469823	<s> q d	-1.1328014
-1.6958669	<s> q e	-1.1328014
-1.7507395	<s> q f	-1.1328014
-1.9232661	<s> q g	-1.1328014
-2.0446693	<s> q h	-1.1328014
-1.1824309	<s> q i	-1.1328014
-2.2083291	<s> q j	-1.1328014
-1.9289168	<s> q k	-1.1328014
-1.4575685	<s> q l	-1.1328014
-1.3443474	<s> q m	-1.1328014
-1.9289168	<s> q n	-1.1328014
-1.4179416	<s> q o	-1.1328014
-1.4144483	<s> q p	-1.1328014
-1.5732632	<s> q q	-1.1328014
-1.5216268	<s> q r	-1.1328014
-1.2461165	<s> q s	-1.1328014
-1.2977471	<s> q t	-1.1328014
-0.5729971	<s> q u	-1.1328014
-1.9232661	<s> q v	-1.1328014
-2.0409727	<s> q w	-1.1328014
-1.9204682	<s> q x	-1.1328014
-1.2765136	<s> q y	-1.1328014
-2.2083291	<s> q z	-1.1328014
-0.9377268	<s> r a	-1.6045583
-1.733955	<s> r b	-1.6045583
-1.4532382	<s> r c	-1.6045583
-1.6814327	<s> r d	-1.6045583
-0.4773357	<s> r e	-1.6045583
-1.7352105	<s> r f	-1.6045583
-1.9654479	<s> r g	-1.6045583
-1.5263008	<s> r h	-1.6045583
-1.1159044	<s> r i	-1.6045583
-2.9920487	<s> r j	-1.6045583
-2.1922435	<s> r k	-1.6045583
-1.9653508	<s> r l	-1.6045583
-1.7946208	<s> r m	-1.6045583
-2.0021964	<s> r n	-1.6045583
-0.8718422	<s> r o	-1.6045583
-1.6671844	<s> r p	-1.6045583
-2.4117911	<s> r q	-1.6045583
-2.0037846	<s> r r	-1.6045583
-1.5694004	<s> r s	-1.6045583
-1.4349138	<s> r t	-1.6045583
-1.4113068	<s> r u	-1.6045583
-2.2142367	<s> r v	-1.6045583
-2.4045243	<s> r w	-1.6045583
-2.4107068	<s> r x	-1.6045583
-2.3570402	<s> r y	-1.6045583
-2.7131485	<s> r z	-1.6045583
-1.0642266	<s> s a	-2.0151017
-2.0643255	<s> s b	-2.0151017
-1.2653811	<s> s c	-2.0151017
-1.7825844	<s> s d	-2.0151017
-1.0002	<s> s e	-2.0151017
-2.0843811	<s> s f	-2.0151017
-1.9954559	<s> s g	-2.0151017
-1.0991212	<s> s h	-2.0151017
-1.1426509	<s> s i	-2.0151017
-2.047877	<s> s j	-2.0151017
-1.5412602	<s> s k	-2.0151017
-1.6423344	<s> s l	-2.0151017
-1.3824133	<s> s m	-2.0151017
-1.8049085	<s> s n	-2.0151017
-1.0528191	<s> s o	-2.0151017
-1.1513265	<s> s p	-2.0151017
-1.7558452	<s> s q	-2.0151017
-1.8710431	<s> s r	-2.0151017
-1.6143645	<s> s s	-2.0151017
-1.0612722	<s> s t	-2.0151017
-1.1777425	<s> s u	-2.0151017
-1.9366911	<s> s v	-2.0151017
-1.5591967	<s> s w	-2.0151017
-2.7264614	<s> s x	-2.0151017
-1.5353863	<s> s y	-2.0151017
-2.1970988	<s> s z	-2.0151017
-0.9830182	<s> t a	-1.748188
-1.8561215	<s> t b	-1.748188
-1.4668377	<s> t c	-1.748188
-1.7604068	<s> t d	-1.748188
-0.7801499	<s> t e	-1.748188
-2.0109601	<s> t f	-1.748188
-2.0113382	<s> t g	-1.748188
-1.1509594	<s> t h	-1.748188
-1.0845295	<s> t i	-1.748188
-2.378303	<s> t j	-1.748188
-2.255164	<s> t k	-1.748188
-2.0046572	<s> t l	-1.748188
-1.6380708	<s> t m	-1.748188
-2.0425185	<s> t n	-1.748188
-0.8746559	<s> t o	-1.748188
-1.6014148	<s> t p	-1.748188
-2.2567584	<s> t q	-1.748188
-0.8652079	<s> t r	-1.748188
-1.5092326	<s> t s	-1.748188
-1.8486718	<s> t t	-1.748188
-1.4495571	<s> t u	-1.748188
-1.6823079	<s> t v	-1.748188
-1.8360241	<s> t w	-1.748188
-2.3141272	<s> t x	-1.748188
-1.8248029	<s> t y	-1.748188
-3.1283334	<s> t z	-1.748188
-1.5059761	<s> u a	-1.4002
-1.3859256	<s> u b	-1.4002
-1.1395108	<s> u c	-1.4002
-1.3971826	<s> u d	-1.4002
-1.4828541	<s> u e	-1.4002
-1.7117172	<s> u f	-1.4002
-1.6371144	<s> u g	-1.4002
-1.9113598	<s> u h	-1.4002
-1.3100385	<s> u i	-1.4002
-1.6753279	<s> u k	-1.4002
-1.433123	<s> u l	-1.4002
-1.3124353	<s> u m	-1.4002
-0.63892	<s> u n	-1.4002
-1.7106227	<s> u o	-1.4002
-1.0875255	<s> u p	-1.4002
-1.4403786	<s> u r	-1.4002
-1.0349855	<s> u s	-1.4002
-1.2741428	<s> u t	-1.4002
-1.9770649	<s> u u	-1.4002
-1.8018487	<s> u v	-1.4002
-1.8550629	<s> u w	-1.4002
-1.954448	<s> u x	-1.4002
-2.4304247	<s> u z	-1.4002
-0.8770249	<s> v a	-1.4368963
-1.6950455	<s> v b	-1.4368963
-1.3226068	<s> v c	-1.4368963
-1.6365666	<s> v d	-1.4368963
-0.8310425	<s> v e	-1.4368963
-1.7661051	<s> v f	-1.4368963
-1.8448142	<s> v g	-1.4368963
-2.1421949	<s> v h	-1.4368963
-0.6431108	<s> v i	-1.4368963
-2.3680322	<s> v j	-1.4368963
-2.8240068	<s> v k	-1.4368963
-1.695932	<s> v l	-1.4368963
-1.3809685	<s> v m	-1.4368963
-1.9368764	<s> v n	-1.4368963
-1.1421244	<s> v o	-1.4368963
-1.3956115	<s> v p	-1.4368963
-2.2426745	<s> v q	-1.4368963
-1.4988361	<s> v r	-1.4368963
-1.2861641	<s> v s	-1.4368963
-1.7585235	<s> v t	-1.4368963
-1.5891796	<s> v u	-1.4368963
-2.0627099	<s> v v	-1.4368963
-2.0654716	<s> v w	-1.4368963
-1.9431022	<s> v x	-1.4368963
-2.5186176	<s> v y	-1.4368963
-2.5387395	<s> v z	-1.4368963
-0.8137743	<s> w a	-1.5478693
-1.9470322	<s> w b	-1.5478693
-1.7456755	<s> w c	-1.5478693
-1.9456956	<s> w d	-1.5478693
-0.6456799	<s> w e	-1.5478693
-1.7246253	<s> w f	-1.5478693
-1.9995456	<s> w g	-1.5478693
-1.3991737	<s> w h	-1.5478693
-0.7318155	<s> w i	-1.5478693
-2.247708	<s> w j	-1.5478693
-2.0490148	<s> w k	-1.5478693
-1.7487739	<s> w l	-1.5478693
-1.7439947	<s> w m	-1.5478693
-2.2217477	<s> w n	-1.5478693
-0.9905893	<s> w o	-1.5478693
-1.6957032	<s> w p	-1.5478693
-2.3529926	<s> w q	-1.5478693
-1.696705	<s> w r	-1.5478693
-1.5304606	<s> w s	-1.5478693
-1.7487739	<s> w t	-1.5478693
-1.7262327	<s> w u	-1.5478693
-2.4723634	<s> w v	-1.5478693
-1.9136144	<s> w w	-1.5478693
-1.8111985	<s> w x	-1.5478693
-1.8076231	<s> w y	-1.5478693
-2.2494951	<s> w z	-1.5478693
-1.2965934	<s> x a	-1.1303338
-1.4470247	<s> x b	-1.1303338
-1.2573987	<s> x c	-1.1303338
-1.4146442	<s> x d	-1.1303338
-1.3413457	<s> x e	-1.1303338
-1.3575726	<s> x f	-1.1303338
-1.5738647	<s> x g	-1.1303338
-1.8303391	<s> x h	-1.1303338
-0.9914156	<s> x i	-1.1303338
-2.0398475	<s> x j	-1.1303338
-2.2292732	<s> x k	-1.1303338
-1.449061	<s> x l	-1.1303338
-1.189826	<s> x m	-1.1303338
-1.8303391	<s> x n	-1.1303338
-2.0072895	<s> x o	-1.1303338
-1.0339128	<s> x p	-1.1303338
-1.9279267	<s> x q	-1.1303338
-1.4920391	<s> x r	-1.1303338
-1.148489	<s> x s	-1.1303338
-1.4553274	<s> x t	-1.1303338
-1.3534586	<s> x u	-1.1303338
-2.5278672	<s> x v	-1.1303338
-1.9113407	<s> x w	-1.1303338
-1.1601875	<s> x x	-1.1303338
-1.5224845	<s> x y	-1.1303338
-1.7527556	<s> x z	-1.1303338
-0.9001038	<s> y a	-1.1087731
-1.9579502	<s> y b	-1.1087731
-1.9537394	<s> y c	-1.1087731
-1.5975287	<s> y d	-1.1087731
-1.123594	<s> y e	-1.1087731
-1.3081455	<s> y f	-1.1087731
-1.79848	<s> y g	-1.1087731
-1.8043817	<s> y h	-1.1087731
-1.1909397	<s> y i	-1.1087731
-1.3994998	<s> y j	-1.1087731
-2.1821949	<s> y k	-1.1087731
-1.6419724	<s> y l	-1.1087731
-1.492287	<s> y m	-1.1087731
-1.8388216	<s> y n	-1.1087731
-0.8128882	<s> y o	-1.1087731
-1.7586025	<s> y p	-1.1087731
-2.196614	<s> y q	-1.1087731
-1.8945073	<s> y r	-1.1087731
-1.3143866	<s> y s	-1.1087731
-1.9383028	<s> y t	-1.1087731
-1.1348927	<s> y u	-1.1087731
-2.0240948	<s> y v	-1.1087731
-1.9966481	<s> y w	-1.1087731
-1.7272881	<s> y x	-1.1087731
-1.1927524	<s> y y	-1.1087731
-1.4715816	<s> y z	-1.1087731
-1.2246445	<s> z a	-1.182985
-1.5546266	<s> z b	-1.182985
-1.4731093	<s> z c	-1.182985
-1.66008	<s> z d	-1.182985
-0.9023559	<s> z e	-1.182985
-1.5237748	<s> z f	-1.182985
-1.7792581	<s> z g	-1.182985
-0.9501157	<s> z h	-1.182985
-1.2986047	<s> z i	-1.182985
-1.4473844	<s> z j	-1.182985
-2.0740373	<s> z k	-1.182985
-1.3831081	<s> z l	-1.182985
-1.7098987	<s> z m	-1.182985
-1.3324353	<s> z n	-1.182985
-1.0266258	<s> z o	-1.182985
-1.7710393	<s> z p	-1.182985
-1.7776019	<s> z q	-1.182985
-1.9563511	<s> z r	-1.182985
-1.5201046	<s> z s	-1.182985
-1.5219358	<s> z t	-1.182985
-1.5964672	<s> z u	-1.182985
-1.6041604	<s> z w	-1.182985
-1.3771506	<s> z x	-1.182985
-1.3771506	<s> z y	-1.182985
-1.5762477	<s> z z	-1.182985
-0.0	a </s> <s>	-3.2342641
-0.6363584	a a </s>	-0.9107768
-1.2682573	a a a	-0.9107768
-1.6886851	a a b	-0.9107768
-1.3726876	a a c	-0.9107768
-1.3931025	a a d	-0.9107768
-1.8946818	a a e	-0.9107768
-2.1398727	a a f	-0.9107768
-1.5699832	a a g	-0.9107768
-2.1879848	a a h	-0.9107768
-1.7992059	a a i	-0.9107768
-1.8846156	a a k	-0.9107768
-1.7956948	a a l	-0.9107768
-1.3803647	a a m	-0.9107768
-1.3066817	a a n	-0.9107768
-2.1424388	a a o	-0.9107768
-1.1532398	a a p	-0.9107768
-1.275316	a a r	-0.9107768
-0.6720179	a a s	-0.9107768
-1.6678115	a a t	-0.9107768
-1.5062956	a a u	-0.9107768
-1.6943348	a a v	-0.9107768
-0.7058533	a b </s>	-1.2198702
-1.0221638	a b a	-1.2198702
-1.2494978	a b b	-1.2198702
-1.248315	a b c	-1.2198702
-2.0248129	a b d	-1.2198702
-1.2385748	a b e	-1.2198702
-2.1864506	a b g	-1.2198702
-2.5086691	a b h	-1.2198702
-0.9792462	a b i	-1.2198702
-0.8118379	a b l	-1.2198702
-2.3793846	a b m	-1.2198702
-2.2243797	a b n	-1.2198702
-1.1936694	a b o	-1.2198702
-1.8228735	a b p	-1.2198702
-1.5606318	a b r	-1.2198702
-1.3334712	a b s	-1.2198702
-1.8281468	a b t	-1.2198702
-1.3694864	a b u	-1.2198702
-2.5246034	a b v	-1.2198702
-2.4989991	a b w	-1.2198702
-2.0708121	a b x	-1.2198702
-1.6464493	a b y	-1.2198702
-1.0028828	a c </s>	-1.5465427
-1.3820276	a c a	-1.5465427
-2.3080258	a c b	-1.5465427
-1.087099	a c c	-1.5465427
-1.8877011	a c d	-1.5465427
-0.8873179	a c e	-1.5465427
-2.3197549	a c f	-1.5465427
-2.2259461	a c g	-1.5465427
-1.0034601	a c h	-1.5465427
-1.4366044	a c i	-1.5465427
-2.9164164	a c j	-1.5465427
-0.8731128	a c k	-1.5465427
-1.3113351	a c l	-1.5465427
-1.9204703	a c m	-1.5465427
-2.2188752	a c n	-1.5465427
-1.271055	a c o	-1.5465427
-2.0634774	a c p	-1.5465427
-2.0363415	a c q	-1.5465427
-1.6209801	a c r	-1.5465427
-1.7666732	a c s	-1.5465427
-0.8323227	a c t	-1.5465427
-1.9214637	a c u	-1.5465427
-2.8777733	a c v	-1.5465427
-2.9186065	a c x	-1.5465427
-2.1535333	a c y	-1.5465427
-0.6514528	a d </s>	-1.3999398
-1.0139692	a d a	-1.3999398
-1.9277828	a d b	-1.3999398
-1.5923425	a d c	-1.3999398
-1.4435429	a d d	-1.3999398
-0.728657	a d e	-1.3999398
-2.0813435	a d f	-1.3999398
-2.0881967	a d g	-1.3999398
-1.9546151	a d h	-1.3999398
-1.0388824	a d i	-1.3999398
-2.4942471	a d j	-1.3999398
-2.4620417	a d k	-1.3999398
-2.0816836	a d l	-1.3999398
-1.2372225	a d m	-1.3999398
-2.2980499	a d n	-1.3999398
-1.2087355	a d o	-1.3999398
-1.8323986	a d p	-1.3999398
-1.812728	a d r	-1.3999398
-1.4313477	a d s	-1.3999398
-1.8903153	a d t	-1.3999398
-1.8737725	a d u	-1.3999398
-1.5307845	a d v	-1.3999398
-1.8001062	a d w	-1.3999398
-2.195344	a d x	-1.3999398
-1.8446432	a d y	-1.3999398
-2.7936759	a d z	-1.3999398
-0.5322857	a e </s>	-0.8331167
-1.5520324	a e a	-0.8331167
-1.5045055	a e b	-0.8331167
-1.3019372	a e c	-0.8331167
-1.3916672	a e d	-0.8331167
-1.5852737	a e e	-0.8331167
-1.8145166	a e f	-0.8331167
-1.3585465	a e g	-0.8331167
-2.1360351	a e j	-0.8331167
-1.8244798	a e k	-0.8331167
-1.3016102	a e l	-0.8331167
-1.3284065	a e m	-0.8331167
-1.4748115	a e n	-0.8331167
-1.8060803	a e o	-0.8331167
-1.4167082	a e p	-0.8331167
-0.9434822	a e r	-0.8331167
-1.2731452	a e s	-0.8331167
-1.5504353	a e t	-0.8331167
-1.7960154	a e w	-0.8331167
-1.4172411	a e x	-0.8331167
-2.0761711	a e y	-0.8331167
-0.7693052	a f </s>	-0.924749
-1.187217	a f a	-0.924749
-1.7068689	a f c	-0.924749
-2.1537296	a f d	-0.924749
-0.8382758	a f e	-0.924749
-0.8348631	a f f	-0.924749
-2.2057118	a f g	-0.924749
-2.2384717	a f h	-0.924749
-1.2663536	a f i	-0.924749
-1.9500925	a f k	-0.924749
-1.351236	a f l	-0.924749
-1.8826292	a f m	-0.924749
-1.7743878	a f n	-0.924749
-1.2068995	a f o	-0.924749
-2.1136449	a f p	-0.924749
-1.4112055	a f r	-0.924749
-1.8253441	a f s	-0.924749
-0.8789032	a f t	-0.924749
-1.9477105	a f u	-0.924749
-2.2384717	a f v	-0.924749
-1.9191108	a f x	-0.924749
-2.2300472	a f z	-0.924749
-1.0563214	a g </s>	-1.3142686
-1.2834664	a g a	-1.3142686
-2.5198994	a g b	-1.3142686
-2.2496268	a g c	-1.3142686
-2.5168484	a g d	-1.3142686
-0.3147735	a g e	-1.3142686
-2.2991798	a g f	-1.3142686
-1.5471166	a g g	-1.3142686
-1.0617398	a g i	-1.3142686
-2.6003995	a g k	-1.3142686
-2.0618614	a g l	-1.3142686
-1.7037037	a g m	-1.3142686
-1.4427667	a g n	-1.3142686
-1.2684607	a g o	-1.3142686
-2.2646731	a g p	-1.3142686
-1.3067176	a g r	-1.3142686
-1.7526156	a g s	-1.3142686
-1.5315881	a g u	-1.3142686
-1.927701	a g v	-1.3142686
-2.602246	a g x	-1.3142686
-2.5823538	a g z	-1.3142686
-0.7497884	a h </s>	-0.6897293
-0.9022061	a h a	-0.6897293
-1.8696291	a h b	-0.6897293
-1.587389	a h c	-0.6897293
-1.8355083	a h d	-0.6897293
-1.1099749	a h e	-0.6897293
-1.931985	a h h	-0.6897293
-1.0438879	a h i	-0.6897293
-1.8979632	a h k	-0.6897293
-1.4552291	a h l	-0.6897293
-1.604573	a h m	-0.6897293
-1.8506863	a h n	-0.6897293
-0.8356244	a h o	-0.6897293
-1.5899237	a h p	-0.6897293
-1.3949826	a h r	-0.6897293
-1.2323362	a h s	-0.6897293
-1.5103939	a h t	-0.6897293
-1.2879601	a h u	-0.6897293
-1.9191385	a h w	-0.6897293
-0.860343	a i </s>	-1.2968339
-1.6662705	a i a	-1.2968339
-1.9723334	a i b	-1.2968339
-1.4779483	a i c	-1.2968339
-1.3900444	a i d	-1.2968339
-2.0228576	a i e	-1.2968339
-1.8981094	a i f	-1.2968339
-1.717892	a i g	-1.2968339
-2.2207504	a i h	-1.2968339
-2.2066218	a i i	-1.2968339
-2.3987811	a i j	-1.2968339
-2.2094681	a i k	-1.2968339
-0.9400874	a i l	-1.2968339
-1.4125764	a i m	-1.2968339
-0.6435976	a i n	-1.2968339
-1.73101	a i o	-1.2968339
-1.6733589	a i p	-1.2968339
-0.8936763	a i r	-1.2968339
-1.2196818	a i s	-1.2968339
-1.3642522	a i t	-1.2968339
-2.2094681	a i u	-1.2968339
-2.0282801	a i v	-1.2968339
-2.0977057	a i w	-1.2968339
-1.9838995	a i x	-1.2968339
-2.6889981	a i y	-1.2968339
-2.3676856	a i z	-1.2968339
-0.9076772	a j </s>	-0.6232493
-0.6041051	a j a	-0.6232493
-1.4971012	a j c	-0.6232493
-1.1720555	a j e	-0.6232493
-0.7929208	a j i	-0.6232493
-1.0534923	a j o	-0.6232493
-1.5300962	a j p	-0.6232493
-1.0311936	a j s	-0.6232493
-1.4377958	a j u	-0.6232493
-1.291025	a j x	-0.6232493
-0.7329893	a k </s>	-0.9667591
-0.8403132	a k a	-0.9667591
-2.1449427	a k b	-0.9667591
-1.8771383	a k c	-0.9667591
-2.1633902	a k d	-0.9667591
-0.4450782	a k e	-0.9667591
-2.1688081	a k f	-0.9667591
-2.1883214	a k g	-0.9667591
-2.1854795	a k h	-0.9667591
-1.1041168	a k i	-0.9667591
-1.7423095	a k k	-0.9667591
-2.1055061	a k l	-0.9667591
-1.6598013	a k o	-0.9667591
-2.1475306	a k r	-0.9667591
-1.6304224	a k s	-0.9667591
-1.6054859	a k t	-0.9667591
-1.2667526	a k u	-0.9667591
-2.1969603	a k w	-0.9667591
-1.9272742	a k z	-0.9667591
-0.57458	a l </s>	-1.7036496
-1.2545881	a l a	-1.7036496
-2.0752648	a l b	-1.7036496
-1.5587445	a l c	-1.7036496
-1.7678299	a l d	-1.7036496
-0.9455042	a l e	-1.7036496
-1.8740925	a l f	-1.7036496
-1.96539	a l g	-1.7036496
-2.3002611	a l h	-1.7036496
-1.0187071	a l i	-1.7036496
-1.5132447	a l k	-1.7036496
-0.8722542	a l l	-1.7036496
-1.5481011	a l m	-1.7036496
-3.0407351	a l n	-1.7036496
-1.6013105	a l o	-1.7036496
-1.8444139	a l p	-1.7036496
-2.0779842	a l r	-1.7036496
-1.4049975	a l s	-1.7036496
-1.3451435	a l t	-1.7036496
-1.7639738	a l u	-1.7036496
-2.1209802	a l v	-1.7036496
-2.1742879	a l w	-1.7036496
-2.7686891	a l x	-1.7036496
-1.5702482	a l y	-1.7036496
-0.766522	a m </s>	-1.4848472
-0.9672121	a m a	-1.4848472
-1.3986445	a m b	-1.4848472
-1.7603402	a m c	-1.4848472
-2.0981949	a m d	-1.4848472
-0.6862412	a m e	-1.4848472
-2.1086129	a m f	-1.4848472
-2.2763765	a m g	-1.4848472
-2.192203	a m h	-1.4848472
-1.2253064	a m i	-1.4848472
-2.407331	a m k	-1.4848472
-1.68436	a m l	-1.4848472
-1.5062487	a m m	-1.4848472
-2.4000508	a m n	-1.4848472
-1.3400965	a m o	-1.4848472
-0.8185346	a m p	-1.4848472
-2.5682738	a m q	-1.4848472
-2.180227	a m r	-1.4848472
-1.3362746	a m s	-1.4848472
-2.0276891	a m t	-1.4848472
-2.0211746	a m u	-1.4848472
-2.3959448	a m v	-1.4848472
-1.5733692	a m w	-1.4848472
-2.8702208	a m x	-1.4848472
-2.2500394	a m y	-1.4848472
-2.8857188	a m z	-1.4848472
-0.7472461	a n </s>	-1.8144525
-1.0045095	a n a	-1.8144525
-1.9918571	a n b	-1.8144525
-1.1603999	a n c	-1.8144525
-0.8589435	a n d	-1.8144525
-1.5693521	a n e	-1.8144525
-2.3070466	a n f	-1.8144525
-0.9388574	a n g	-1.8144525
-2.521597	a n h	-1.8144525
-1.4602233	a n i	-1.8144525
-2.0492174	a n j	-1.8144525
-1.4193202	a n k	-1.8144525
-2.1419806	a n l	-1.8144525
-1.9939313	a n m	-1.8144525
-1.5177408	a n n	-1.8144525
-1.6729858	a n o	-1.8144525
-2.1758532	a n p	-1.8144525
-2.6149168	a n r	-1.8144525
-1.1982852	a n s	-1.8144525
-1.040568	a n t	-1.8144525
-2.1364515	a n u	-1.8144525
-2.2629514	a n v	-1.8144525
-2.9071274	a n w	-1.8144525
-2.6166014	a n x	-1.8144525
-1.7205862	a n y	-1.8144525
-2.3217756	a n z	-1.8144525
-0.4867005	a o </s>	-0.8645111
-1.6122179	a o a	-0.8645111
-1.8347224	a o b	-0.8645111
-1.3605132	a o c	-0.8645111
-1.5840846	a o d	-0.8645111
-1.7505813	a o e	-0.8645111
-1.3788639	a o f	-0.8645111
-1.8430674	a o g	-0.8645111
-1.6453105	a o h	-0.8645111
-2.1039578	a o i	-0.8645111
-1.551375	a o j	-0.8645111
-1.7300534	a o k	-0.8645111
-1.6364244	a o l	-0.8645111
-1.337612	a o m	-0.8645111
-1.3311082	a o n	-0.8645111
-1.6488939	a o o	-0.8645111
-1.4631066	a o p	-0.8645111
-1.7793434	a o q	-0.8645111
-1.1367207	a o s	-0.8645111
-1.2189263	a o t	-0.8645111
-2.1315346	a o v	-0.8645111
-1.5916157	a o w	-0.8645111
-1.9013989	a o x	-0.8645111
-1.9211135	a o y	-0.8645111
-1.9487182	a o z	-0.8645111
-0.6871872	a p </s>	-1.4271734
-1.0902946	a p a	-1.4271734
-1.8874804	a p b	-1.4271734
-1.7141628	a p c	-1.4271734
-1.9293934	a p d	-1.4271734
-1.3105939	a p e	-1.4271734
-2.0644894	a p f	-1.4271734
-2.0572578	a p g	-1.4271734
-1.2350709	a p h	-1.4271734
-1.092151	a p i	-1.4271734
-2.8202776	a p j	-1.4271734
-2.3628823	a p k	-1.4271734
-1.5444741	a p l	-1.4271734
-1.7543452	a p m	-1.4271734
-2.5167874	a p n	-1.4271734
-1.5828863	a p o	-1.4271734
-0.6047141	a p p	-1.4271734
-2.3628823	a p q	-1.4271734
-1.5780131	a p r	-1.4271734
-1.440894	a p s	-1.4271734
-1.4271471	a p t	-1.4271734
-1.8318425	a p u	-1.4271734
-2.3527993	a p v	-1.4271734
-2.3554301	a p w	-1.4271734
-2.8126492	a p x	-1.4271734
-2.4900775	a p y	-1.4271734
-2.8423786	a p z	-1.4271734
-0.5407181	a q </s>	-0.6110148
-1.254637	a q a	-0.6110148
-1.2730368	a q c	-0.6110148
-1.2900734	a q e	-0.6110148
-1.6397902	a q f	-0.6110148
-1.2836061	a q i	-0.6110148
-1.375176	a q l	-0.6110148
-1.1524061	a q m	-0.6110148
-1.5850768	a q p	-0.6110148
-1.5808139	a q r	-0.6110148
-1.1492538	a q s	-0.6110148
-0.7137175	a q u	-0.6110148
-0.8718267	a r </s>	-1.7285041
-1.3616869	a r a	-1.7285041
-1.8971218	a r b	-1.7285041
-1.1781851	a r c	-1.7285041
-1.1192175	a r d	-1.7285041
-0.9649959	a r e	-1.7285041
-2.299256	a r f	-1.7285041
-1.8108093	a r g	-1.7285041
-2.8296874	a r h	-1.7285041
-1.2244626	a r i	-1.7285041
-2.1569316	a r j	-1.7285041
-1.0401291	a r k	-1.7285041
-1.9465795	a r l	-1.7285041
-1.5182473	a r m	-1.7285041
-1.7546428	a r n	-1.7285041
-1.7689227	a r o	-1.7285041
-1.7361618	a r p	-1.7285041
-2.2029943	a r q	-1.7285041
-1.6110677	a r r	-1.7285041
-1.5888791	a r s	-1.7285041
-0.7457637	a r t	-1.7285041
-2.0597094	a r u	-1.7285041
-2.1028923	a r v	-1.7285041
-2.3070403	a r w	-1.7285041
-2.6734077	a r x	-1.7285041
-1.6332682	a r y	-1.7285041
-2.8532801	a r z	-1.7285041
-0.7372409	a s </s>	-1.5915098
-1.6249591	a s a	-1.5915098
-2.0753318	a s b	-1.5915098
-1.3654584	a s c	-1.5915098
-2.1204998	a s d	-1.5915098
-1.0071957	a s e	-1.5915098
-2.3703625	a s f	-1.5915098
-2.6479489	a s g	-1.5915098
-1.143004	a s h	-1.5915098
-1.1335616	a s i	-1.5915098
-1.506615	a s k	-1.5915098
-2.4674625	a s l	-1.5915098
-1.8258016	a s m	-1.5915098
-2.9180539	a s n	-1.5915098
-1.4414342	a s o	-1.5915098
-1.5587394	a s p	-1.5915098
-2.4812703	a s q	-1.5915098
-2.3643189	a s r	-1.5915098
-0.8421898	a s s	-1.5915098
-0.829069	a s t	-1.5915098
-1.6723192	a s u	-1.5915098
-2.9328792	a s v	-1.5915098
-2.9675657	a s x	-1.5915098
-1.3719323	a s y	-1.5915098
-2.4987327	a s z	-1.5915098
-0.9647005	a t </s>	-1.6539543
-0.8859255	a t a	-1.6539543
-2.4376169	a t b	-1.6539543
-1.372604	a t c	-1.6539543
-2.7112425	a t d	-1.6539543
-0.788913	a t e	-1.6539543
-1.9167263	a t f	-1.6539543
-2.5658455	a t g	-1.6539543
-1.4908682	a t h	-1.6539543
-0.5777785	a t i	-1.6539543
-3.0301561	a t j	-1.6539543
-2.7485922	a t k	-1.6539543
-1.8812744	a t l	-1.6539543
-1.7788144	a t m	-1.6539543
-2.4454617	a t n	-1.6539543
-1.1379042	a t o	-1.6539543
-2.0933068	a t p	-1.6539543
-1.597809	a t r	-1.6539543
-1.5765265	a t s	-1.6539543
-1.4096815	a t t	-1.6539543
-1.6939311	a t u	-1.6539543
-2.272428	a t v	-1.6539543
-2.5584956	a t w	-1.6539543
-3.0420956	a t x	-1.6539543
-2.8148433	a t y	-1.6539543
-3.0340996	a t z	-1.6539543
-1.1178295	a u </s>	-1.1086362
-1.9666306	a u b	-1.1086362
-1.7098134	a u c	-1.1086362
-0.9408751	a u d	-1.1086362
-1.9344292	a u e	-1.1086362
-2.3131626	a u f	-1.1086362
-1.4202077	a u g	-1.1086362
-1.4800079	a u i	-1.1086362
-1.1299236	a u l	-1.1086362
-1.5453577	a u m	-1.1086362
-1.2987222	a u n	-1.1086362
-2.0430392	a u o	-1.1086362
-1.905567	a u p	-1.1086362
-2.3711107	a u q	-1.1086362
-1.1412501	a u r	-1.1086362
-1.110427	a u s	-1.1086362
-0.504057	a u t	-1.1086362
-2.3457631	a u v	-1.1086362
-1.4167509	a u x	-1.1086362
-1.0391921	a v </s>	-1.2632414
-0.4454018	a v a	-1.2632414
-1.8583599	a v c	-1.2632414
-0.6165897	a v e	-1.2632414
-2.4718672	a v g	-1.2632414
-0.8002911	a v i	-1.2632414
-2.2076355	a v k	-1.2632414
-1.8007257	a v l	-1.2632414
-2.3733301	a v m	-1.2632414
-1.8063781	a v n	-1.2632414
-1.5242154	a v o	-1.2632414
-1.9857006	a v p	-1.2632414
-1.7139176	a v r	-1.2632414
-2.1127414	a v s	-1.2632414
-2.4128576	a v t	-1.2632414
-2.4745088	a v v	-1.2632414
-2.4879634	a v x	-1.2632414
-2.0262234	a v y	-1.2632414
-0.665549	a w </s>	-0.8228216
-0.6918563	a w a	-0.8228216
-1.6072901	a w b	-0.8228216
-1.7602795	a w d	-0.8228216
-0.9620434	a w e	-0.8228216
-1.7743765	a w f	-0.8228216
-2.0647226	a w g	-0.8228216
-1.0638372	a w i	-0.8228216
-1.411703	a w k	-0.8228216
-1.4918808	a w l	-0.8228216
-1.9701764	a w m	-0.8228216
-1.9802888	a w n	-0.8228216
-1.2688024	a w o	-0.8228216
-1.9828542	a w p	-0.8228216
-2.1003154	a w q	-0.8228216
-1.9932698	a w r	-0.8228216
-1.0513082	a w s	-0.8228216
-1.7649279	a w t	-0.8228216
-2.0936233	a w v	-0.8228216
-1.7759714	a w y	-0.8228216
-0.3897302	a x </s>	-0.9006154
-1.578597	a x a	-0.9006154
-1.8527117	a x b	-0.9006154
-1.3863909	a x c	-0.9006154
-1.707524	a x d	-0.9006154
-1.476535	a x e	-0.9006154
-2.1143548	a x f	-0.9006154
-2.1265452	a x g	-0.9006154
-2.1790469	a x h	-0.9006154
-0.9524765	a x i	-0.9006154
-1.7418196	a x j	-0.9006154
-1.710676	a x l	-0.9006154
-1.8334042	a x m	-0.9006154
-1.512086	a x o	-0.9006154
-1.6158484	a x p	-0.9006154
-2.1433503	a x r	-0.9006154
-1.480241	a x s	-0.9006154
-1.2839113	a x t	-0.9006154
-1.4322034	a x u	-0.9006154
-1.7300842	a x w	-0.9006154
-1.6327004	a x x	-0.9006154
-1.3704999	a x y	-0.9006154
-0.3246461	a y </s>	-1.1722983
-1.1204199	a y a	-1.1722983
-1.7144064	a y b	-1.1722983
-1.7832968	a y c	-1.1722983
-2.0041997	a y d	-1.1722983
-1.0155442	a y e	-1.1722983
-1.7292627	a y f	-1.1722983
-2.0186701	a y g	-1.1722983
-2.1891104	a y h	-1.1722983
-1.884843	a y i	-1.1722983
-2.1969617	a y k	-1.1722983
-1.5542204	a y l	-1.1722983
-1.5060824	a y m	-1.1722983
-1.7051175	a y n	-1.1722983
-1.5689426	a y o	-1.1722983
-1.5931111	a y p	-1.1722983
-2.4446433	a y r	-1.1722983
-1.1734131	a y s	-1.1722983
-1.6446241	a y t	-1.1722983
-1.9991463	a y u	-1.1722983
-2.4766224	a y v	-1.1722983
-2.0124094	a y w	-1.1722983
-2.4446433	a y x	-1.1722983
-1.1576918	a z </s>	-0.7215358
-0.8174341	a z a	-0.7215358
-1.5220455	a z b	-0.7215358
-1.8183366	a z d	-0.7215358
-0.8322961	a z e	-0.7215358
-1.5874631	a z h	-0.7215358
-1.0719408	a z i	-0.7215358
-1.5697172	a z k	-0.7215358
-1.7327758	a z l	-0.7215358
-1.7978135	a z m	-0.7215358
-0.8522809	a z o	-0.7215358
-1.7928308	a z t	-0.7215358
-1.1661131	a z u	-0.7215358
-1.0785859	a z y	-0.7215358
-1.2287784	a z z	-0.7215358
-0.0	b </s> <s>	-2.748188
-0.8546546	b a </s>	-1.3601514
-1.8799276	b a a	-1.3601514
-1.5209441	b a b	-1.3601514
-1.1789272	b a c	-1.3601514
-1.7838312	b a d	-1.3601514
-2.396974	b a e	-1.3601514
-2.3837035	b a f	-1.3601514
-1.7114336	b a g	-1.3601514
-1.569594	b a i	-1.3601514
-2.7172249	b a j	-1.3601514
-1.7735969	b a k	-1.3601514
-1.0502966	b a l	-1.3601514
-1.6879443	b a m	-1.3601514
-0.8019033	b a n	-1.3601514
-1.5860918	b a o	-1.3601514
-1.6210729	b a p	-1.3601514
-2.4258499	b a q	-1.3601514
-1.0836183	b a r	-1.3601514
-0.8735545	b a s	-1.3601514
-1.1284952	b a t	-1.3601514
-2.0098414	b a u	-1.3601514
-2.2275947	b a x	-1.3601514
-1.5219947	b a y	-1.3601514
-2.6957767	b a z	-1.3601514
-0.682873	b b </s>	-0.7522155
-1.1691652	b b a	-0.7522155
-1.7033062	b b b	-0.7522155
-1.5537065	b b c	-0.7522155
-1.5739095	b b d	-0.7522155
-0.9626714	b b e	-0.7522155
-2.0580326	b b f	-0.7522155
-1.9699712	b b g	-0.7522155
-2.0580326	b b h	-0.7522155
-0.9871459	b b i	-0.7522155
-2.0323662	b b j	-0.7522155
-2.0725082	b b k	-0.7522155
-1.247547	b b l	-0.7522155
-1.5640164	b b m	-0.7522155
-2.0401032	b b n	-0.7522155
-0.9843906	b b o	-0.7522155
-1.7142262	b b p	-0.7522155
-1.7983617	b b q	-0.7522155
-1.7947295	b b r	-0.7522155
-1.4168024	b b s	-0.7522155
-1.7263745	b b t	-0.7522155
-1.290418	b b u	-0.7522155
-1.485631	b b y	-0.7522155
-0.4305846	b c </s>	-0.8782664
-1.0997205	b c a	-0.8782664
-1.3385369	b c b	-0.8782664
-1.3756793	b c c	-0.8782664
-1.3351873	b c d	-0.8782664
-1.5908195	b c e	-0.8782664
-2.0668766	b c g	-0.8782664
-1.570389	b c h	-0.8782664
-1.6763848	b c i	-0.8782664
-1.9038231	b c l	-0.8782664
-1.0762798	b c m	-0.8782664
-1.6246432	b c n	-0.8782664
-1.2163603	b c o	-0.8782664
-1.3983861	b c p	-0.8782664
-1.8868573	b c r	-0.8782664
-1.5580264	b c s	-0.8782664
-1.2849534	b c t	-0.8782664
-2.1052183	b c w	-0.8782664
-0.563656	b d </s>	-0.6796648
-1.1978252	b d a	-0.6796648
-1.4815734	b d b	-0.6796648
-1.2920993	b d c	-0.6796648
-1.3923707	b d d	-0.6796648
-1.0196781	b d e	-0.6796648
-1.9056882	b d f	-0.6796648
-1.9301952	b d g	-0.6796648
-1.6949293	b d h	-0.6796648
-1.3984014	b d i	-0.6796648
-1.9534999	b d k	-0.6796648
-1.9068813	b d l	-0.6796648
-1.213829	b d m	-0.6796648
-1.4125635	b d n	-0.6796648
-1.5333069	b d o	-0.6796648
-1.3847646	b d p	-0.6796648
-2.0102549	b d q	-0.6796648
-1.4470844	b d r	-0.6796648
-1.5572033	b d s	-0.6796648
-1.6686097	b d t	-0.6796648
-1.6184718	b d u	-0.6796648
-1.7098495	b d x	-0.6796648
-1.679796	b d y	-0.6796648
-0.9384297	b e </s>	-1.2532572
-0.9692406	b e a	-1.2532572
-2.0840606	b e b	-1.2532572
-1.543661	b e c	-1.2532572
-1.6832028	b e d	-1.2532572
-1.3150262	b e e	-1.2532572
-2.2872511	b e f	-1.2532572
-2.2716106	b e g	-1.2532572
-1.8467526	b e h	-1.2532572
-1.3470672	b e i	-1.2532572
-2.5680781	b e k	-1.2532572
-1.0735214	b e l	-1.2532572
-2.1839771	b e m	-1.2532572
-1.0647025	b e n	-1.2532572
-1.9117862	b e o	-1.2532572
-1.9758037	b e p	-1.2532572
-0.6216565	b e r	-1.2532572
-1.0789047	b e s	-1.2532572
-1.482011	b e t	-1.2532572
-2.5703788	b e u	-1.2532572
-1.829553	b e v	-1.2532572
-1.8900612	b e x	-1.2532572
-2.0072801	b e y	-1.2532572
-2.6089506	b e z	-1.2532572
-0.652503	b f </s>	-0.4658402
-1.441724	b f c	-0.4658402
-1.5092335	b f d	-0.4658402
-1.0896263	b f e	-0.4658402
-1.3687546	b f f	-0.4658402
-1.0018475	b f i	-0.4658402
-1.067823	b f m	-0.4658402
-1.039377	b f o	-0.4658402
-1.5625962	b f q	-0.4658402
-1.3504276	b f r	-0.4658402
-1.1901668	b f s	-0.4658402
-1.3110944	b f t	-0.4658402
-1.5625962	b f v	-0.4658402
-0.2696437	b g </s>	-0.74527
-1.1586823	b g a	-0.74527
-1.8245677	b g c	-0.74527
-1.5988226	b g d	-0.74527
-1.6204487	b g f	-0.74527
-1.7471987	b g h	-0.74527
-1.3271702	b g i	-0.74527
-1.3960718	b g l	-0.74527
-1.4139276	b g m	-0.74527
-1.6444823	b g o	-0.74527
-1.8456722	b g p	-0.74527
-1.7738581	b g s	-0.74527
-1.7568828	b g u	-0.74527
-1.8952534	b g w	-0.74527
-1.4386242	b g y	-0.74527
-1.9075463	b g z	-0.74527
-0.7085664	b h </s>	-0.378196
-1.0882505	b h a	-0.378196
-1.4924663	b h c	-0.378196
-1.5065647	b h d	-0.378196
-1.1417288	b h e	-0.378196
-1.5848664	b h f	-0.378196
-1.5831537	b h g	-0.378196
-1.5988169	b h h	-0.378196
-1.1176644	b h i	-0.378196
-1.5663882	b h k	-0.378196
-1.2726505	b h m	-0.378196
-1.0965328	b h o	-0.378196
-1.496648	b h p	-0.378196
-1.2011109	b h r	-0.378196
-1.4801575	b h s	-0.378196
-1.3903363	b h u	-0.378196
-1.6132303	b h x	-0.378196
-1.4828628	b h y	-0.378196
-0.8238754	b i </s>	-1.2769211
-1.469036	b i a	-1.2769211
-2.0245578	b i b	-1.2769211
-1.4693339	b i c	-1.2769211
-1.6358308	b i d	-1.2769211
-1.3557159	b i e	-1.2769211
-2.1317784	b i f	-1.2769211
-1.3562186	b i g	-1.2769211
-2.1707222	b i i	-1.2769211
-1.8191932	b i k	-1.2769211
-0.7713642	b i l	-1.2769211
-1.5021989	b i m	-1.2769211
-1.0858744	b i n	-1.2769211
-1.2681986	b i o	-1.2769211
-1.7259558	b i p	-1.2769211
-2.3542886	b i q	-1.2769211
-1.3577301	b i r	-1.2769211
-1.4714055	b i s	-1.2769211
-0.8812485	b i t	-1.2769211
-2.3379099	b i u	-1.2769211
-2.4211385	b i v	-1.2769211
-2.6302692	b i w	-1.2769211
-1.7541506	b i x	-1.2769211
-2.6529075	b i y	-1.2769211
-1.4930004	b i z	-1.2769211
-0.6488292	b j </s>	-0.5698753
-1.2344262	b j a	-0.5698753
-1.3556391	b j b	-0.5698753
-1.1754397	b j c	-0.5698753
-0.6311913	b j e	-0.5698753
-1.626245	b j f	-0.5698753
-1.6610931	b j h	-0.5698753
-1.6116114	b j m	-0.5698753
-1.6225401	b j r	-0.5698753
-1.3595045	b j s	-0.5698753
-1.3248322	b j t	-0.5698753
-1.6491637	b j w	-0.5698753
-1.3536483	b j y	-0.5698753
-1.6413889	b j z	-0.5698753
-0.3238001	b k </s>	-0.5118834
-1.0476069	b k e	-0.5118834
-1.164987	b k i	-0.5118834
-1.3504515	b k l	-0.5118834
-1.355199	b k m	-0.5118834
-1.2818081	b k o	-0.5118834
-1.3285836	b k u	-0.5118834
-1.0741915	b k y	-0.5118834
-1.1987181	b l </s>	-1.1558153
-0.9578048	b l a	-1.1558153
-2.0543219	b l c	-1.1558153
-1.883552	b l d	-1.1558153
-0.4487638	b l e	-1.1558153
-2.3679388	b l f	-1.1558153
-0.9223886	b l i	-1.1558153
-1.9017115	b l l	-1.1558153
-2.0791892	b l m	-1.1558153
-2.4000814	b l n	-1.1558153
-0.8125405	b l o	-1.1558153
-2.0763015	b l p	-1.1558153
-2.110729	b l r	-1.1558153
-2.234766	b l s	-1.1558153
-2.2231766	b l t	-1.1558153
-1.0597725	b l u	-1.1558153
-2.1035196	b l v	-1.1558153
-1.7815025	b l y	-1.1558153
-2.4103106	b l z	-1.1558153
-0.6401185	b m </s>	-0.7676858
-0.952019	b m a	-0.7676858
-1.8933784	b m b	-0.7676858
-1.0631299	b m c	-0.7676858
-1.7340418	b m d	-0.7676858
-1.0966606	b m e	-0.7676858
-1.7578903	b m f	-0.7676858
-1.4704925	b m g	-0.7676858
-1.1963	b m i	-0.7676858
-1.4836548	b m j	-0.7676858
-1.4522254	b m l	-0.7676858
-1.8842646	b m m	-0.7676858
-1.4045788	b m o	-0.7676858
-1.7322498	b m p	-0.7676858
-1.7481932	b m r	-0.7676858
-0.9346687	b m s	-0.7676858
-1.7164198	b m t	-0.7676858
-1.927325	b m u	-0.7676858
-2.0277121	b m v	-0.7676858
-1.7542285	b m w	-0.7676858
-2.0658431	b m x	-0.7676858
-0.4886184	b n </s>	-0.5581545
-1.1750995	b n b	-0.5581545
-1.2549132	b n c	-0.5581545
-1.2185208	b n d	-0.5581545
-1.0327815	b n e	-0.5581545
-1.2538111	b n g	-0.5581545
-1.3960561	b n i	-0.5581545
-1.4943586	b n o	-0.5581545
-1.3383619	b n p	-0.5581545
-1.6630828	b n q	-0.5581545
-1.2380309	b n s	-0.5581545
-1.1618958	b n t	-0.5581545
-1.5952326	b n u	-0.5581545
-1.029558	b o </s>	-1.2752227
-1.3786964	b o a	-1.2752227
-1.6606258	b o b	-1.2752227
-1.7350878	b o c	-1.2752227
-1.5830178	b o d	-1.2752227
-1.8292658	b o e	-1.2752227
-2.2629306	b o f	-1.2752227
-2.127713	b o g	-1.2752227
-2.1923006	b o h	-1.2752227
-2.1513647	b o i	-1.2752227
-1.8824251	b o k	-1.2752227
-1.5671281	b o l	-1.2752227
-1.3791362	b o m	-1.2752227
-1.0808232	b o n	-1.2752227
-0.7600033	b o o	-1.2752227
-1.8872815	b o p	-1.2752227
-2.671785	b o q	-1.2752227
-1.2134488	b o r	-1.2752227
-1.166294	b o s	-1.2752227
-1.1974874	b o t	-1.2752227
-1.5044859	b o u	-1.2752227
-2.0501238	b o v	-1.2752227
-1.8632269	b o w	-1.2752227
-0.8621276	b o x	-1.2752227
-1.7762609	b o y	-1.2752227
-2.6641789	b o z	-1.2752227
-0.4164047	b p </s>	-0.8912985
-1.2331307	b p a	-0.8912985
-1.2252309	b p c	-0.8912985
-1.6839974	b p d	-0.8912985
-1.532317	b p e	-0.8912985
-1.7119137	b p f	-0.8912985
-1.6344084	b p h	-0.8912985
-1.3631101	b p i	-0.8912985
-1.5849578	b p l	-0.8912985
-1.0216958	b p m	-0.8912985
-1.1943867	b p o	-0.8912985
-1.3629256	b p p	-0.8912985
-1.4270558	b p r	-0.8912985
-1.1028447	b p s	-0.8912985
-0.4944698	b q </s>	-0.39794
-1.240687	b q b	-0.39794
-1.0679533	b q l	-0.39794
-1.1871381	b q m	-0.39794
-1.2282037	b q p	-0.39794
-1.2470659	b q q	-0.39794
-1.2071857	b q t	-0.39794
-0.8780239	b q u	-0.39794
-1.100993	b r </s>	-1.0675994
-0.630409	b r a	-1.0675994
-2.2600428	b r b	-1.0675994
-1.7885783	b r c	-1.0675994
-1.9361653	b r d	-1.0675994
-1.0128315	b r e	-1.0675994
-2.2747863	b r f	-1.0675994
-0.6017947	b r i	-1.0675994
-2.2528546	b r l	-1.0675994
-1.9358528	b r m	-1.0675994
-0.7461423	b r o	-1.0675994
-2.209118	b r p	-1.0675994
-2.2426069	b r r	-1.0675994
-1.8882697	b r s	-1.0675994
-1.5652008	b r t	-1.0675994
-1.6125226	b r u	-1.0675994
-2.3095421	b r w	-1.0675994
-1.9596043	b r y	-1.0675994
-2.3385512	b r z	-1.0675994
-0.5273401	b s </s>	-0.9357591
-1.2331522	b s a	-0.9357591
-1.9740384	b s b	-0.9357591
-1.1390414	b s c	-0.9357591
-1.5111909	b s d	-0.9357591
-1.0391326	b s e	-0.9357591
-2.2539359	b s f	-0.9357591
-1.8125171	b s g	-0.9357591
-1.3086977	b s h	-0.9357591
-1.4300146	b s i	-0.9357591
-1.9391393	b s k	-0.9357591
-2.1975607	b s l	-0.9357591
-1.6576462	b s m	-0.9357591
-1.979204	b s n	-0.9357591
-1.5189243	b s o	-0.9357591
-1.2777066	b s p	-0.9357591
-1.9708899	b s q	-0.9357591
-2.2333618	b s r	-0.9357591
-1.3963289	b s s	-0.9357591
-1.0473002	b s t	-0.9357591
-1.744825	b s u	-0.9357591
-2.2615266	b s v	-0.9357591
-1.961963	b s w	-0.9357591
-1.825789	b s z	-0.9357591
-0.5781792	b t </s>	-0.7075702
-1.4230501	b t a	-0.7075702
-1.6633487	b t b	-0.7075702
-1.1314836	b t c	-0.7075702
-1.6633487	b t d	-0.7075702
-1.1202707	b t e	-0.7075702
-1.6777496	b t g	-0.7075702
-1.7902184	b t h	-0.7075702
-1.1518109	b t i	-0.7075702
-1.8908958	b t l	-0.7075702
-1.3663998	b t m	-0.7075702
-1.246637	b t o	-0.7075702
-1.6376582	b t p	-0.7075702
-1.0936389	b t r	-0.7075702
-1.1150398	b t s	-0.7075702
-1.8370898	b t t	-0.7075702
-1.8185819	b t u	-0.7075702
-1.5035626	b t v	-0.7075702
-1.5916933	b t y	-0.7075702
-1.9815651	b t z	-0.7075702
-0.754019	b u </s>	-1.1448336
-1.9151435	b u a	-1.1448336
-1.8436279	b u b	-1.1448336
-1.5268039	b u c	-1.1448336
-1.7318967	b u d	-1.1448336
-1.9167222	b u e	-1.1448336
-1.7301778	b u f	-1.1448336
-1.3683802	b u g	-1.1448336
-2.4865908	b u h	-1.1448336
-0.9299509	b u i	-1.1448336
-2.440206	b u k	-1.1448336
-1.2607396	b u l	-1.1448336
-1.5612118	b u m	-1.1448336
-1.4891728	b u n	-1.1448336
-2.1699774	b u o	-1.1448336
-1.8911317	b u p	-1.1448336
-1.0928266	b u r	-1.1448336
-0.8310757	b u s	-1.1448336
-1.2991763	b u t	-1.1448336
-2.4846371	b u u	-1.1448336
-2.473096	b u v	-1.1448336
-2.1381163	b u x	-1.1448336
-0.9656752	b u y	-1.1448336
-1.8130947	b u z	-1.1448336
-0.62294	b v </s>	-0.49485
-1.299488	b v c	-0.49485
-0.9028241	b v e	-0.49485
-0.525682	b v i	-0.49485
-1.3273752	b v m	-0.49485
-1.2560267	b v o	-0.49485
-1.3251653	b v p	-0.49485
-1.3477873	b v t	-0.49485
-0.6350465	b w </s>	-0.5713912
-0.788553	b w a	-0.5713912
-0.9940186	b w b	-0.5713912
-1.5312749	b w c	-0.5713912
-1.0180502	b w e	-0.5713912
-1.0857916	b w i	-0.5713912
-1.1031113	b w m	-0.5713912
-1.1090972	b w o	-0.5713912
-1.5296551	b w p	-0.5713912
-1.536171	b w r	-0.5713912
-1.5958985	b w v	-0.5713912
-0.1438332	b x </s>	-0.7596678
-1.3380898	b x g	-0.7596678
-1.2735415	b x p	-0.7596678
-1.0305185	b x s	-0.7596678
-0.3692572	b y </s>	-0.7861202
-1.6070383	b y a	-0.7861202
-1.3886354	b y c	-0.7861202
-1.0284316	b y d	-0.7861202
-1.6399741	b y m	-0.7861202
-1.1987434	b y o	-0.7861202
-1.3815009	b y p	-0.7861202
-0.9104459	b y s	-0.7861202
-0.9414236	b y t	-0.7861202
-0.4103087	b z </s>	-0.4771213
-1.1102977	b z c	-0.4771213
-0.7710671	b z e	-0.4771213
-1.0857145	b z i	-0.4771213
-1.1579877	b z k	-0.4771213
-0.1207017	c # </s>	-0.30103
-0.1990405	c + +	-0.30103
-0.1207017	c / s	-0.30103
-0.0	c </s> <s>	-3.1051694
-0.9915833	c a </s>	-1.5847834
-1.799109	c a a	-1.5847834
-1.7626789	c a b	-1.5847834
-1.5280689	c a c	-1.5847834
-1.0957185	c a d	-1.5847834
-1.9735515	c a e	-1.5847834
-2.1203117	c a f	-1.5847834
-2.3667729	c a h	-1.5847834
-2.1469477	c a i	-1.5847834
-2.0649936	c a k	-1.5847834
-0.9180107	c a l	-1.5847834
-1.1544742	c a m	-1.5847834
-1.0436831	c a n	-1.5847834
-2.3516847	c a o	-1.5847834
-1.1751248	c a p	-1.5847834
-2.9550915	c a q	-1.5847834
-0.8382547	c a r	-1.5847834
-1.1214616	c a s	-1.5847834
-0.9296706	c a t	-1.5847834
-2.113934	c a u	-1.5847834
-2.1051397	c a v	-1.5847834
-2.9043417	c a w	-1.5847834
-2.4685318	c a x	-1.5847834
-2.5751873	c a y	-1.5847834
-2.9363755	c a z	-1.5847834
-0.7094319	c b </s>	-0.8908555
-0.8861523	c b a	-0.8908555
-1.6083907	c b b	-0.8908555
-1.2713445	c b c	-0.8908555
-1.5060465	c b d	-0.8908555
-1.5784242	c b e	-0.8908555
-1.5118909	c b g	-0.8908555
-1.1517739	c b i	-0.8908555
-1.8284104	c b k	-0.8908555
-1.5378197	c b l	-0.8908555
-1.4114476	c b m	-0.8908555
-1.528599	c b n	-0.8908555
-1.1949101	c b o	-0.8908555
-1.6147351	c b p	-0.8908555
-1.2512841	c b r	-0.8908555
-1.1140671	c b s	-0.8908555
-1.6217144	c b t	-0.8908555
-1.1333016	c b u	-0.8908555
-0.5745169	c c </s>	-1.2207617
-1.0902525	c c a	-1.2207617
-1.5472606	c c b	-1.2207617
-1.6482703	c c c	-1.2207617
-1.5447965	c c d	-1.2207617
-1.0826494	c c e	-1.2207617
-1.7432937	c c f	-1.2207617
-2.0929547	c c g	-1.2207617
-1.6866502	c c h	-1.2207617
-1.2003729	c c i	-1.2207617
-2.3393571	c c k	-1.2207617
-1.8279541	c c l	-1.2207617
-1.4691703	c c m	-1.2207617
-1.6323207	c c n	-1.2207617
-0.9573389	c c o	-1.2207617
-1.2669371	c c p	-1.2207617
-1.5210808	c c r	-1.2207617
-1.4864592	c c s	-1.2207617
-1.5437412	c c t	-1.2207617
-1.6222194	c c u	-1.2207617
-1.8883747	c c v	-1.2207617
-2.5636081	c c w	-1.2207617
-2.2640599	c c y	-1.2207617
-2.5857153	c c z	-1.2207617
-0.5677738	c d </s>	-0.8527849
-1.1891915	c d a	-0.8527849
-1.6699152	c d b	-0.8527849
-1.2060145	c d c	-0.8527849
-1.8391317	c d d	-0.8527849
-1.2050176	c d e	-0.8527849
-1.7037267	c d f	-0.8527849
-1.8704206	c d g	-0.8527849
-1.8846613	c d h	-0.8527849
-1.3036041	c d i	-0.8527849
-1.7232471	c d k	-0.8527849
-1.7042293	c d l	-0.8527849
-1.2014081	c d m	-0.8527849
-1.3717385	c d n	-0.8527849
-1.5107882	c d o	-0.8527849
-1.4161708	c d p	-0.8527849
-1.3897858	c d r	-0.8527849
-1.2288966	c d s	-0.8527849
-1.3100154	c d t	-0.8527849
-2.0086722	c d u	-0.8527849
-2.1472005	c d v	-0.8527849
-1.8674811	c d w	-0.8527849
-2.1715807	c d x	-0.8527849
-2.2133561	c d z	-0.8527849
-0.4150163	c e </s>	-1.5024271
-1.5949269	c e a	-1.5024271
-1.7081919	c e b	-1.5024271
-1.6610355	c e c	-1.5024271
-1.6710383	c e d	-1.5024271
-1.7913881	c e e	-1.5024271
-2.2741865	c e f	-1.5024271
-2.1001164	c e g	-1.5024271
-2.5731149	c e h	-1.5024271
-1.7434667	c e i	-1.5024271
-2.5640548	c e k	-1.5024271
-0.9899686	c e l	-1.5024271
-1.6487521	c e m	-1.5024271
-1.0482933	c e n	-1.5024271
-1.9328366	c e o	-1.5024271
-1.3372524	c e p	-1.5024271
-2.5833713	c e q	-1.5024271
-1.2479886	c e r	-1.5024271
-0.9816371	c e s	-1.5024271
-1.6165747	c e t	-1.5024271
-2.4002864	c e u	-1.5024271
-2.3711941	c e v	-1.5024271
-2.5307787	c e w	-1.5024271
-2.7069258	c e x	-1.5024271
-2.8748572	c e z	-1.5024271
-0.6641573	c f </s>	-0.7314992
-0.7921501	c f a	-0.7314992
-1.8938685	c f b	-0.7314992
-1.244977	c f c	-0.7314992
-1.4756604	c f d	-0.7314992
-1.0567814	c f e	-0.7314992
-1.6595396	c f g	-0.7314992
-1.4464457	c f i	-0.7314992
-1.140764	c f l	-0.7314992
-1.3485867	c f m	-0.7314992
-1.2846655	c f o	-0.7314992
-1.2586653	c f p	-0.7314992
-1.9631508	c f q	-0.7314992
-1.514994	c f r	-0.7314992
-1.5673779	c f s	-0.7314992
-1.4835411	c f t	-0.7314992
-1.7105115	c f u	-0.7314992
-1.9122635	c f x	-0.7314992
-0.4324267	c g </s>	-0.7201593
-1.3708811	c g a	-0.7201593
-1.6607326	c g b	-0.7201593
-1.3761386	c g c	-0.7201593
-1.4619074	c g e	-0.7201593
-1.6855417	c g f	-0.7201593
-1.9169329	c g g	-0.7201593
-1.0924059	c g i	-0.7201593
-1.5867507	c g l	-0.7201593
-1.1438662	c g m	-0.7201593
-1.8192868	c g n	-0.7201593
-1.3905152	c g o	-0.7201593
-1.8949975	c g p	-0.7201593
-1.50226	c g r	-0.7201593
-1.2712531	c g s	-0.7201593
-1.9050963	c g t	-0.7201593
-1.3493475	c g u	-0.7201593
-1.6971404	c g v	-0.7201593
-1.6855417	c g w	-0.7201593
-1.9694856	c g z	-0.7201593
-0.6585484	c h </s>	-1.6015662
-0.7451479	c h a	-1.6015662
-2.1449265	c h b	-1.6015662
-2.1331644	c h c	-1.6015662
-2.0738896	c h d	-1.6015662
-0.8054652	c h e	-1.6015662
-2.1554863	c h f	-1.6015662
-2.2321709	c h g	-1.6015662
-0.7323718	c h i	-1.6015662
-2.9041333	c h j	-1.6015662
-2.3203115	c h k	-1.6015662
-2.0805847	c h l	-1.6015662
-1.818157	c h m	-1.6015662
-1.3601014	c h n	-1.6015662
-1.2909127	c h o	-1.6015662
-2.1342536	c h p	-1.6015662
-1.531308	c h r	-1.6015662
-2.0679198	c h s	-1.6015662
-1.8644837	c h t	-1.6015662
-1.4981181	c h u	-1.6015662
-2.3270594	c h w	-1.6015662
-2.5449001	c h y	-1.6015662
-1.0407942	c i </s>	-1.2928097
-0.8340433	c i a	-1.2928097
-1.7461047	c i b	-1.2928097
-1.372646	c i c	-1.2928097
-1.6354863	c i d	-1.2928097
-1.1438755	c i e	-1.2928097
-1.4834636	c i f	-1.2928097
-2.0938492	c i g	-1.2928097
-1.665066	c i i	-1.2928097
-2.1725705	c i k	-1.2928097
-1.5580096	c i l	-1.2928097
-1.531673	c i m	-1.2928097
-0.9773528	c i n	-1.2928097
-1.6540336	c i o	-1.2928097
-1.3140497	c i p	-1.2928097
-2.3532134	c i q	-1.2928097
-1.5049603	c i r	-1.2928097
-1.1060355	c i s	-1.2928097
-0.7974529	c i t	-1.2928097
-2.6064866	c i u	-1.2928097
-1.9952457	c i v	-1.2928097
-2.3500148	c i w	-1.2928097
-1.947272	c i x	-1.2928097
-2.6519244	c i y	-1.2928097
-0.6302788	c j </s>	-0.4771213
-0.8804504	c j a	-0.4771213
-1.4087926	c j c	-0.4771213
-1.5088242	c j h	-0.4771213
-1.2731971	c j i	-0.4771213
-1.491594	c j j	-0.4771213
-1.2199031	c j l	-0.4771213
-1.4653732	c j m	-0.4771213
-1.0394922	c j p	-0.4771213
-1.4750215	c j r	-0.4771213
-1.2021956	c j y	-0.4771213
-1.491594	c j z	-0.4771213
-0.4001489	c k </s>	-1.1398791
-1.3655005	c k a	-1.1398791
-1.5231782	c k b	-1.1398791
-1.666164	c k c	-1.1398791
-1.8156882	c k d	-1.1398791
-0.8041691	c k e	-1.1398791
-1.7416488	c k f	-1.1398791
-2.4640274	c k g	-1.1398791
-2.1963738	c k h	-1.1398791
-1.2964732	c k i	-1.1398791
-1.8247074	c k j	-1.1398791
-2.4428852	c k k	-1.1398791
-1.7248701	c k l	-1.1398791
-1.9986029	c k m	-1.1398791
-1.6281911	c k o	-1.1398791
-1.8951432	c k p	-1.1398791
-1.8108465	c k r	-1.1398791
-1.0538598	c k s	-1.1398791
-1.9961369	c k t	-1.1398791
-1.5989112	c k u	-1.1398791
-2.4824677	c k v	-1.1398791
-2.4749974	c k w	-1.1398791
-2.4900689	c k x	-1.1398791
-1.7897028	c k y	-1.1398791
-2.2142851	c k z	-1.1398791
-0.9147692	c l </s>	-1.3458924
-0.9452284	c l a	-1.3458924
-1.937047	c l c	-1.3458924
-2.0325367	c l d	-1.3458924
-0.7535769	c l e	-1.3458924
-0.8838758	c l i	-1.3458924
-2.24469	c l k	-1.3458924
-1.8551655	c l l	-1.3458924
-2.0659895	c l m	-1.3458924
-0.4875535	c l o	-1.3458924
-2.2237558	c l p	-1.3458924
-2.5649422	c l q	-1.3458924
-2.2548469	c l r	-1.3458924
-2.3937321	c l s	-1.3458924
-2.1679291	c l t	-1.3458924
-1.3061596	c l u	-1.3458924
-2.1878824	c l y	-1.3458924
-0.6343392	c m </s>	-0.974972
-0.8893448	c m a	-0.974972
-1.5480528	c m b	-0.974972
-1.4832153	c m c	-0.974972
-1.6469663	c m d	-0.974972
-1.279922	c m e	-0.974972
-2.035238	c m f	-0.974972
-1.868561	c m g	-0.974972
-2.332829	c m h	-0.974972
-1.410296	c m i	-0.974972
-2.3533105	c m j	-0.974972
-2.0498859	c m k	-0.974972
-1.6399538	c m l	-0.974972
-1.3852026	c m m	-0.974972
-2.3105465	c m n	-0.974972
-1.1911581	c m o	-0.974972
-1.1052226	c m p	-0.974972
-2.3160108	c m q	-0.974972
-2.0238653	c m r	-0.974972
-0.8604449	c m s	-0.974972
-1.6379297	c m t	-0.974972
-1.7158046	c m u	-0.974972
-2.2945541	c m w	-0.974972
-2.2125285	c m y	-0.974972
-2.3593443	c m z	-0.974972
-0.6395533	c n </s>	-0.8176598
-1.0432241	c n a	-0.8176598
-1.5138513	c n b	-0.8176598
-1.0988549	c n c	-0.8176598
-1.6135842	c n d	-0.8176598
-0.904498	c n e	-0.8176598
-2.0281262	c n f	-0.8176598
-1.3903915	c n g	-0.8176598
-2.1051609	c n h	-0.8176598
-1.4930109	c n i	-0.8176598
-2.0924474	c n j	-0.8176598
-1.9727475	c n k	-0.8176598
-1.3342327	c n n	-0.8176598
-1.3751872	c n o	-0.8176598
-1.223283	c n p	-0.8176598
-1.8189128	c n r	-0.8176598
-1.2282953	c n s	-0.8176598
-1.4410007	c n t	-0.8176598
-1.7959491	c n v	-0.8176598
-1.631953	c n y	-0.8176598
-2.1112237	c n z	-0.8176598
-0.9854694	c o </s>	-1.6797912
-1.6717153	c o a	-1.6797912
-1.8824545	c o b	-1.6797912
-1.5465231	c o c	-1.6797912
-1.3985911	c o d	-1.6797912
-2.0265826	c o e	-1.6797912
-2.1941439	c o f	-1.6797912
-1.8838684	c o g	-1.6797912
-2.747046	c o h	-1.6797912
-1.7266999	c o i	-1.6797912
-3.0203171	c o j	-1.6797912
-2.3447587	c o k	-1.6797912
-1.276829	c o l	-1.6797912
-0.7325323	c o m	-1.6797912
-0.7187733	c o n	-1.6797912
-1.3778301	c o o	-1.6797912
-1.5299558	c o p	-1.6797912
-2.7677523	c o q	-1.6797912
-1.0489169	c o r	-1.6797912
-1.242944	c o s	-1.6797912
-1.9619831	c o t	-1.6797912
-1.2186857	c o u	-1.6797912
-1.8383863	c o v	-1.6797912
-2.6485674	c o w	-1.6797912
-2.716679	c o x	-1.6797912
-0.4428664	c p </s>	-0.9829667
-1.0079143	c p a	-0.9829667
-2.0283304	c p b	-0.9829667
-1.4019261	c p c	-0.9829667
-1.4697338	c p d	-0.9829667
-1.4826448	c p e	-0.9829667
-1.773101	c p f	-0.9829667
-2.0331952	c p g	-0.9829667
-1.9232609	c p h	-0.9829667
-1.3431469	c p i	-0.9829667
-1.9081668	c p j	-0.9829667
-2.0703864	c p k	-0.9829667
-1.2062182	c p l	-0.9829667
-1.5728378	c p m	-0.9829667
-2.0576322	c p n	-0.9829667
-1.5060861	c p o	-0.9829667
-1.4763352	c p p	-0.9829667
-2.3464198	c p q	-0.9829667
-1.5528006	c p r	-0.9829667
-1.2800938	c p s	-0.9829667
-1.7020608	c p t	-0.9829667
-2.190987	c p u	-0.9829667
-1.893229	c p v	-0.9829667
-2.3267462	c p w	-0.9829667
-1.9055544	c p x	-0.9829667
-1.7621058	c p y	-0.9829667
-0.8085135	c q </s>	-0.5351132
-0.9957464	c q a	-0.5351132
-1.2474224	c q c	-0.5351132
-1.0186695	c q e	-0.5351132
-1.6229752	c q f	-0.5351132
-1.465866	c q i	-0.5351132
-1.3304013	c q l	-0.5351132
-1.4980481	c q m	-0.5351132
-1.5805757	c q o	-0.5351132
-1.5907938	c q q	-0.5351132
-1.2740119	c q s	-0.5351132
-1.2970469	c q t	-0.5351132
-0.6444152	c q u	-0.5351132
-1.634255	c q w	-0.5351132
-1.114322	c r </s>	-1.296874
-1.0603527	c r a	-1.296874
-2.1081459	c r b	-1.296874
-1.6333675	c r c	-1.296874
-1.8684565	c r d	-1.296874
-0.8569965	c r e	-1.296874
-2.1142148	c r f	-1.296874
-2.5745555	c r h	-1.296874
-0.8811428	c r i	-1.296874
-2.1051429	c r l	-1.296874
-0.9996482	c r m	-1.296874
-2.495595	c r n	-1.296874
-0.6647415	c r o	-1.296874
-1.9745817	c r p	-1.296874
-2.257699	c r r	-1.296874
-1.6666375	c r s	-1.296874
-1.7647117	c r t	-1.296874
-1.1498329	c r u	-1.296874
-2.5009762	c r v	-1.296874
-1.3077138	c r y	-1.296874
-2.6104784	c r z	-1.296874
-0.3556655	c s </s>	-1.224274
-1.4418936	c s a	-1.224274
-1.9057311	c s b	-1.224274
-1.3418216	c s c	-1.224274
-1.753264	c s d	-1.224274
-1.2605576	c s e	-1.224274
-2.2877719	c s f	-1.224274
-1.9994473	c s g	-1.224274
-1.7074706	c s h	-1.224274
-1.4530995	c s i	-1.224274
-2.4769293	c s k	-1.224274
-1.8210506	c s l	-1.224274
-1.7427551	c s m	-1.224274
-1.4977233	c s o	-1.224274
-1.3928033	c s p	-1.224274
-2.5350004	c s q	-1.224274
-1.9046902	c s r	-1.224274
-1.0270995	c s s	-1.224274
-1.3283927	c s t	-1.224274
-2.1820327	c s u	-1.224274
-2.0053057	c s v	-1.224274
-1.9917571	c s w	-1.224274
-2.6003299	c s x	-1.224274
-1.8126992	c s y	-1.224274
-1.9150356	c s z	-1.224274
-0.6077955	c t </s>	-1.3424227
-1.6637632	c t a	-1.3424227
-2.2416958	c t b	-1.3424227
-1.6537205	c t c	-1.3424227
-2.0348699	c t d	-1.3424227
-1.2316715	c t e	-1.3424227
-2.1344412	c t f	-1.3424227
-2.2543139	c t g	-1.3424227
-2.0717045	c t h	-1.3424227
-0.7205744	c t i	-1.3424227
-2.2669626	c t j	-1.3424227
-1.9508973	c t l	-1.3424227
-1.6965649	c t m	-1.3424227
-2.2519618	c t n	-1.3424227
-0.7874464	c t o	-1.3424227
-1.7817752	c t p	-1.3424227
-2.7315739	c t q	-1.3424227
-1.1384259	c t r	-1.3424227
-1.2938871	c t s	-1.3424227
-2.0918582	c t t	-1.3424227
-1.3147039	c t u	-1.3424227
-2.0364992	c t v	-1.3424227
-2.6642698	c t w	-1.3424227
-2.4427428	c t x	-1.3424227
-2.5033118	c t y	-1.3424227
-2.722568	c t z	-1.3424227
-0.8716038	c u </s>	-1.1099952
-1.7652615	c u a	-1.1099952
-1.1482101	c u b	-1.1099952
-1.6702261	c u c	-1.1099952
-2.0714788	c u d	-1.1099952
-1.9011925	c u e	-1.1099952
-1.6444527	c u i	-1.1099952
-1.0622327	c u l	-1.1099952
-1.1686979	c u m	-1.1099952
-1.5603732	c u n	-1.1099952
-1.3898868	c u p	-1.1099952
-0.7334791	c u r	-1.1099952
-0.8391175	c u s	-1.1099952
-0.8591401	c u t	-1.1099952
-2.3114387	c u u	-1.1099952
-2.303016	c u v	-1.1099952
-2.2961197	c u z	-1.1099952
-0.5842874	c v </s>	-0.7047223
-1.1865965	c v a	-0.7047223
-1.3754747	c v b	-0.7047223
-1.7114078	c v c	-0.7047223
-1.1614179	c v d	-0.7047223
-1.1035344	c v e	-0.7047223
-1.8416016	c v g	-0.7047223
-0.9930825	c v i	-0.7047223
-1.8645215	c v k	-0.7047223
-1.2442455	c v m	-0.7047223
-1.3568003	c v p	-0.7047223
-1.1553985	c v r	-0.7047223
-1.0709456	c v s	-0.7047223
-1.371675	c v t	-0.7047223
-1.8438399	c v v	-0.7047223
-0.6093581	c w </s>	-0.5141048
-0.9676056	c w a	-0.5141048
-1.6060138	c w b	-0.5141048
-1.1741209	c w c	-0.5141048
-1.5994652	c w d	-0.5141048
-0.9392228	c w e	-0.5141048
-1.6194148	c w f	-0.5141048
-0.9221918	c w i	-0.5141048
-1.6451118	c w j	-0.5141048
-1.6427119	c w k	-0.5141048
-1.3250065	c w m	-0.5141048
-1.2716155	c w o	-0.5141048
-1.5803919	c w p	-0.5141048
-1.4824302	c w s	-0.5141048
-1.6499518	c w z	-0.5141048
-0.503046	c x </s>	-0.4101745
-1.4122936	c x a	-0.4101745
-1.1963657	c x b	-0.4101745
-1.3701043	c x e	-0.4101745
-1.2100535	c x f	-0.4101745
-1.0836032	c x i	-0.4101745
-1.4222528	c x m	-0.4101745
-1.4617765	c x o	-0.4101745
-1.3039359	c x p	-0.4101745
-1.5239511	c x q	-0.4101745
-1.325563	c x t	-0.4101745
-1.4902768	c x w	-0.4101745
-1.3296135	c x x	-0.4101745
-1.4455329	c x y	-0.4101745
-0.3554195	c y </s>	-0.6886292
-1.4911489	c y a	-0.6886292
-1.2712718	c y b	-0.6886292
-0.9428304	c y c	-0.6886292
-1.8098006	c y d	-0.6886292
-1.8117839	c y f	-0.6886292
-1.5758532	c y g	-0.6886292
-1.5851903	c y h	-0.6886292
-1.8384272	c y j	-0.6886292
-1.7719247	c y l	-0.6886292
-1.7287995	c y n	-0.6886292
-1.4555922	c y o	-0.6886292
-1.262205	c y p	-0.6886292
-1.3831921	c y s	-0.6886292
-1.5115732	c y t	-0.6886292
-1.8759333	c y v	-0.6886292
-1.8259269	c y w	-0.6886292
-0.5297262	c z </s>	-0.3881802
-1.0470745	c z e	-0.3881802
-1.2831174	c z f	-0.3881802
-1.2931344	c z g	-0.3881802
-1.1222216	c z o	-0.3881802
-1.2733261	c z w	-0.3881802
-1.2103493	c z x	-0.3881802
-1.2103493	c z y	-0.3881802
-1.196611	c z z	-0.3881802
-0.2286431	d - x	-0.30103
-0.0	d </s> <s>	-3.1287223
-0.6888057	d a </s>	-1.3113614
-1.944553	d a a	-1.3113614
-1.9202056	d a b	-1.3113614
-1.7171526	d a c	-1.3113614
-1.7799532	d a d	-1.3113614
-1.8835561	d a e	-1.3113614
-1.9428695	d a f	-1.3113614
-2.0637605	d a g	-1.3113614
-2.0317278	d a h	-1.3113614
-1.4658166	d a i	-1.3113614
-2.4285288	d a j	-1.3113614
-2.6300485	d a k	-1.3113614
-1.4157035	d a l	-1.3113614
-1.3204112	d a m	-1.3113614
-1.293456	d a n	-1.3113614
-1.6897201	d a o	-1.3113614
-1.3943004	d a p	-1.3113614
-2.426556	d a q	-1.3113614
-1.1784926	d a r	-1.3113614
-1.2270271	d a s	-1.3113614
-0.6183749	d a t	-1.3113614
-2.3582168	d a u	-1.3113614
-2.1879717	d a v	-1.3113614
-2.1180702	d a w	-1.3113614
-2.2257002	d a x	-1.3113614
-1.2569991	d a y	-1.3113614
-2.2483433	d a z	-1.3113614
-0.4337687	d b </s>	-0.9170258
-0.981957	d b a	-0.9170258
-2.0817021	d b b	-0.9170258
-1.2950028	d b c	-0.9170258
-2.1121344	d b d	-0.9170258
-1.2715691	d b e	-0.9170258
-2.2228429	d b f	-0.9170258
-1.5469178	d b g	-0.9170258
-2.2228429	d b h	-0.9170258
-1.4732174	d b i	-0.9170258
-2.1971765	d b j	-0.9170258
-1.7534697	d b l	-0.9170258
-1.7288267	d b m	-0.9170258
-1.0619086	d b o	-0.9170258
-1.7334154	d b p	-0.9170258
-1.6675065	d b r	-0.9170258
-1.4349612	d b s	-0.9170258
-1.7420681	d b t	-0.9170258
-1.0839401	d b u	-0.9170258
-2.2394263	d b v	-0.9170258
-2.2127909	d b w	-0.9170258
-2.2352207	d b x	-0.9170258
-2.182104	d b y	-0.9170258
-0.428627	d c </s>	-1.0024061
-0.9607981	d c a	-1.0024061
-1.3168579	d c c	-1.0024061
-1.6256597	d c d	-1.0024061
-2.1953552	d c f	-1.0024061
-1.757181	d c g	-1.0024061
-1.373608	d c h	-1.0024061
-1.6705072	d c i	-1.0024061
-1.5858457	d c l	-1.0024061
-1.725013	d c m	-1.0024061
-1.5393664	d c n	-1.0024061
-1.0464571	d c o	-1.0024061
-1.2829636	d c p	-1.0024061
-1.6819432	d c r	-1.0024061
-1.4275513	d c s	-1.0024061
-1.4754614	d c t	-1.0024061
-1.7272334	d c u	-1.0024061
-1.7635879	d c v	-1.0024061
-0.6392891	d d </s>	-0.7966347
-1.5589846	d d a	-0.7966347
-1.7385273	d d b	-0.7966347
-1.4942594	d d c	-0.7966347
-1.994966	d d d	-0.7966347
-0.8256674	d d e	-0.7966347
-1.7842012	d d f	-0.7966347
-2.0718018	d d h	-0.7966347
-0.8082051	d d i	-0.7966347
-2.0704697	d d k	-0.7966347
-1.2359979	d d l	-0.7966347
-1.5874683	d d m	-0.7966347
-1.6459035	d d n	-0.7966347
-1.364453	d d o	-0.7966347
-1.7542937	d d p	-0.7966347
-1.3176771	d d r	-0.7966347
-1.4551378	d d s	-0.7966347
-2.0250474	d d t	-0.7966347
-1.9414006	d d u	-0.7966347
-2.0758229	d d v	-0.7966347
-1.6389539	d d w	-0.7966347
-1.8268193	d d x	-0.7966347
-1.6399399	d d y	-0.7966347
-2.9826606	d e .	-1.536919
-0.8527546	d e </s>	-1.536919
-1.3782483	d e a	-1.536919
-1.7377299	d e b	-1.536919
-1.4216243	d e c	-1.536919
-1.5849061	d e d	-1.536919
-1.7299034	d e e	-1.536919
-1.8006404	d e f	-1.536919
-2.6128607	d e g	-1.536919
-2.653782	d e h	-1.536919
-2.1783181	d e i	-1.536919
-2.6700849	d e j	-1.536919
-2.3619071	d e k	-1.536919
-1.1002986	d e l	-1.536919
-1.4048546	d e m	-1.536919
-1.1244018	d e n	-1.536919
-1.7715383	d e o	-1.536919
-1.3970688	d e p	-1.536919
-2.9490955	d e q	-1.536919
-0.702173	d e r	-1.536919
-0.9580935	d e s	-1.536919
-1.9283802	d e t	-1.536919
-2.1278069	d e u	-1.536919
-1.1683145	d e v	-1.536919
-2.3423007	d e w	-1.536919
-1.5587307	d e x	-1.536919
-2.8814353	d e y	-1.536919
-2.9556042	d e z	-1.536919
-0.6510085	d f </s>	-0.7496627
-1.2311794	d f a	-0.7496627
-1.965258	d f b	-0.7496627
-1.5150338	d f c	-0.7496627
-1.9630018	d f d	-0.7496627
-1.3112292	d f e	-0.7496627
-0.9970058	d f i	-0.7496627
-2.0444462	d f j	-0.7496627
-2.0417401	d f k	-0.7496627
-1.2806272	d f l	-0.7496627
-1.5397929	d f m	-0.7496627
-2.0284566	d f n	-0.7496627
-0.9142557	d f o	-0.7496627
-1.9242737	d f p	-0.7496627
-1.2191662	d f r	-0.7496627
-1.0837231	d f s	-0.7496627
-1.4300573	d f t	-0.7496627
-1.3696833	d f u	-0.7496627
-2.0444462	d f v	-0.7496627
-1.7258519	d f x	-0.7496627
-2.0363778	d f z	-0.7496627
-0.6961805	d g </s>	-0.8402992
-1.6629837	d g a	-0.8402992
-0.2848688	d g e	-0.8402992
-1.355789	d g i	-0.8402992
-1.7876734	d g l	-0.8402992
-1.8237623	d g m	-0.8402992
-1.5029053	d g o	-0.8402992
-1.8681779	d g p	-0.8402992
-1.2687648	d g r	-0.8402992
-1.8066647	d g s	-0.8402992
-1.8753535	d g t	-0.8402992
-1.7919173	d g u	-0.8402992
-1.9199436	d g z	-0.8402992
-0.718658	d h </s>	-0.6651117
-0.8188338	d h a	-0.6651117
-1.3453612	d h c	-0.6651117
-0.9733085	d h e	-0.6651117
-1.825769	d h f	-0.6651117
-1.5451173	d h g	-0.6651117
-1.244004	d h l	-0.6651117
-1.7680389	d h m	-0.6651117
-1.1556113	d h o	-0.6651117
-1.7456515	d h p	-0.6651117
-1.2038646	d h r	-0.6651117
-1.7305158	d h s	-0.6651117
-1.1107903	d h t	-0.6651117
-1.3049204	d h u	-0.6651117
-1.8511962	d h x	-0.6651117
-1.4947671	d h y	-0.6651117
-1.0976029	d i </s>	-1.4235735
-0.8718165	d i a	-1.4235735
-2.0835296	d i b	-1.4235735
-1.2768016	d i c	-1.4235735
-1.6772406	d i d	-1.4235735
-1.5698295	d i e	-1.4235735
-1.6603832	d i f	-1.4235735
-1.4094268	d i g	-1.4235735
-2.7824715	d i h	-1.4235735
-2.1061321	d i i	-1.4235735
-2.0379668	d i l	-1.4235735
-1.8266672	d i m	-1.4235735
-0.8094619	d i n	-1.4235735
-1.0052246	d i o	-1.4235735
-1.826314	d i p	-1.4235735
-2.500941	d i q	-1.4235735
-1.2804913	d i r	-1.4235735
-0.9185563	d i s	-1.4235735
-1.0719739	d i t	-1.4235735
-1.9091609	d i u	-1.4235735
-1.5475038	d i v	-1.4235735
-2.7769216	d i w	-1.4235735
-2.2989053	d i x	-1.4235735
-2.7995599	d i y	-1.4235735
-2.4789726	d i z	-1.4235735
-0.767278	d j </s>	-0.559308
-0.6727795	d j a	-0.559308
-1.1064408	d j c	-0.559308
-0.8988086	d j e	-0.559308
-1.0452991	d j i	-0.559308
-1.0266925	d j s	-0.559308
-1.360781	d j t	-0.559308
-1.0774804	d j u	-0.559308
-0.131961	d k </s>	-0.8388491
-1.413548	d k e	-0.8388491
-1.8078124	d k g	-0.8388491
-1.8062216	d k h	-0.8388491
-1.5437706	d k i	-0.8388491
-1.8110117	d k j	-0.8388491
-1.4995076	d k m	-0.8388491
-1.500292	d k n	-0.8388491
-1.7845406	d k r	-0.8388491
-1.6373324	d k s	-0.8388491
-0.5526697	d l </s>	-0.7819442
-1.2171325	d l a	-0.7819442
-1.2545045	d l c	-0.7819442
-0.6665206	d l e	-0.7819442
-2.0162165	d l g	-0.7819442
-0.9296495	d l i	-0.7819442
-1.5278405	d l l	-0.7819442
-1.7053181	d l m	-0.7819442
-1.7420818	d l n	-0.7819442
-1.4716321	d l o	-0.7819442
-1.7024304	d l p	-0.7819442
-2.0162165	d l r	-0.7819442
-1.8608949	d l s	-0.7819442
-1.5011481	d l t	-0.7819442
-1.8295789	d l u	-0.7819442
-1.7296485	d l v	-0.7819442
-2.0385146	d l x	-0.7819442
-1.8850451	d l y	-0.7819442
-1.7473693	d l z	-0.7819442
-0.6366795	d m </s>	-1.0061603
-0.6587205	d m a	-1.0061603
-2.1318529	d m b	-1.0061603
-1.5064782	d m c	-1.0061603
-1.9725163	d m d	-1.0061603
-1.5615467	d m e	-1.0061603
-1.8303582	d m f	-1.0061603
-1.9933111	d m g	-1.0061603
-0.7991139	d m i	-1.0061603
-2.2006598	d m l	-1.0061603
-1.4472455	d m m	-1.0061603
-1.4337665	d m o	-1.0061603
-1.3164485	d m p	-1.0061603
-2.2800964	d m q	-1.0061603
-1.9866677	d m r	-1.0061603
-1.0660064	d m s	-1.0061603
-1.5989623	d m t	-1.0061603
-2.1657995	d m u	-1.0061603
-2.2661866	d m v	-1.0061603
-2.015152	d m x	-1.0061603
-2.0215995	d m z	-1.0061603
-0.5354544	d n </s>	-0.6222634
-1.0698465	d n a	-0.6222634
-1.8556535	d n b	-0.6222634
-1.6454832	d n c	-0.6222634
-1.3050304	d n d	-0.6222634
-1.0875023	d n e	-0.6222634
-1.4268303	d n f	-0.6222634
-1.4085887	d n i	-0.6222634
-1.897051	d n j	-0.6222634
-1.6047935	d n l	-0.6222634
-1.879855	d n m	-0.6222634
-1.8007992	d n n	-0.6222634
-1.2617147	d n o	-0.6222634
-1.8466357	d n p	-0.6222634
-1.9054852	d n r	-0.6222634
-0.982682	d n s	-0.6222634
-1.4675141	d n t	-0.6222634
-1.8625419	d n v	-0.6222634
-1.9106255	d n x	-0.6222634
-1.8579375	d n y	-0.6222634
-1.9158273	d n z	-0.6222634
-0.7756575	d o </s>	-1.146128
-2.0038343	d o a	-1.146128
-1.4080615	d o b	-1.146128
-0.921038	d o c	-1.146128
-2.1018499	d o d	-1.146128
-2.1919051	d o e	-1.146128
-1.8767372	d o f	-1.146128
-1.6617406	d o g	-1.146128
-1.8329919	d o h	-1.146128
-1.6724698	d o i	-1.146128
-2.4866539	d o j	-1.146128
-2.1625557	d o k	-1.146128
-1.3614553	d o l	-1.146128
-1.1746512	d o m	-1.146128
-1.0886485	d o n	-1.146128
-1.1619193	d o o	-1.146128
-1.7447235	d o p	-1.146128
-1.2685312	d o r	-1.146128
-1.4183376	d o s	-1.146128
-1.3384811	d o t	-1.146128
-1.4915838	d o u	-1.146128
-1.9053979	d o v	-1.146128
-1.0431957	d o w	-1.146128
-2.0260249	d o x	-1.146128
-2.2303351	d o z	-1.146128
-0.4874926	d p </s>	-0.8724212
-1.2531162	d p a	-0.8724212
-1.8551054	d p b	-0.8724212
-1.3843292	d p c	-0.8724212
-1.4822072	d p d	-0.8724212
-1.3180286	d p e	-0.8724212
-2.1421295	d p f	-0.8724212
-1.7006399	d p g	-0.8724212
-1.6314275	d p h	-0.8724212
-1.7182151	d p i	-0.8724212
-2.1834197	d p j	-0.8724212
-1.2951761	d p l	-0.8724212
-1.4682388	d p m	-0.8724212
-1.0239684	d p o	-0.8724212
-1.503798	d p p	-0.8724212
-1.1469227	d p r	-0.8724212
-1.3147253	d p s	-0.8724212
-1.5321437	d p t	-0.8724212
-2.0339864	d p u	-0.8724212
-2.1479609	d p v	-0.8724212
-2.1538716	d p w	-0.8724212
-1.7247719	d p x	-0.8724212
-0.7022013	d q </s>	-0.462398
-0.9054718	d q a	-0.462398
-1.2831527	d q c	-0.462398
-1.077299	d q e	-0.462398
-1.3241561	d q m	-0.462398
-1.3731251	d q p	-0.462398
-1.3959292	d q q	-0.462398
-1.0829565	d q s	-0.462398
-0.7581899	d q u	-0.462398
-1.4283258	d q v	-0.462398
-0.9491993	d r </s>	-1.0696359
-0.6648583	d r a	-1.0696359
-2.0760757	d r b	-1.0696359
-1.7554835	d r c	-1.0696359
-2.2030086	d r d	-1.0696359
-0.7969742	d r e	-1.0696359
-2.3461238	d r f	-1.0696359
-2.0718032	d r g	-1.0696359
-2.3828131	d r h	-1.0696359
-0.9017174	d r i	-1.0696359
-2.0009558	d r m	-1.0696359
-2.297747	d r n	-1.0696359
-0.6893043	d r o	-1.0696359
-1.8935623	d r p	-1.0696359
-2.4115883	d r q	-1.0696359
-2.3086114	d r r	-1.0696359
-1.9463853	d r s	-1.0696359
-2.0770849	d r t	-1.0696359
-1.4533719	d r u	-1.0696359
-2.3871855	d r w	-1.0696359
-2.4078854	d r x	-1.0696359
-1.6165654	d r y	-1.0696359
-2.4219372	d r z	-1.0696359
-0.3475662	d s </s>	-1.0693265
-1.4760125	d s a	-1.0693265
-1.8596079	d s b	-1.0693265
-1.4009869	d s c	-1.0693265
-1.7510215	d s d	-1.0693265
-1.4810088	d s e	-1.0693265
-1.9837423	d s f	-1.0693265
-2.4039805	d s g	-1.0693265
-1.3615509	d s h	-1.0693265
-1.7185273	d s i	-1.0693265
-1.8704533	d s j	-1.0693265
-1.8395486	d s k	-1.0693265
-1.5631568	d s l	-1.0693265
-1.6647964	d s m	-1.0693265
-2.4102785	d s n	-1.0693265
-1.297559	d s o	-1.0693265
-1.28024	d s p	-1.0693265
-1.974923	d s q	-1.0693265
-2.3954672	d s r	-1.0693265
-1.6767645	d s s	-1.0693265
-1.1267919	d s t	-1.0693265
-1.9061658	d s u	-1.0693265
-2.4256128	d s v	-1.0693265
-2.1261561	d s w	-1.0693265
-2.4615629	d s x	-1.0693265
-1.8342541	d s y	-1.0693265
-0.558505	d t </s>	-0.7257632
-1.220868	d t a	-0.7257632
-1.1879936	d t c	-0.7257632
-1.3492017	d t d	-0.7257632
-1.0265589	d t e	-0.7257632
-1.7323626	d t f	-0.7257632
-2.0050894	d t g	-0.7257632
-1.6338156	d t h	-0.7257632
-1.4237375	d t i	-0.7257632
-1.9402918	d t l	-0.7257632
-1.4221682	d t m	-0.7257632
-1.4706534	d t o	-0.7257632
-1.6908339	d t p	-0.7257632
-1.1468187	d t r	-0.7257632
-1.3771923	d t s	-0.7257632
-1.5200806	d t t	-0.7257632
-1.8630438	d t u	-0.7257632
-1.2097035	d t v	-0.7257632
-1.9881501	d t w	-0.7257632
-2.0453755	d t x	-0.7257632
-1.8447518	d t y	-0.7257632
-2.0385375	d t z	-0.7257632
-0.8735989	d u </s>	-0.9822712
-1.3860006	d u a	-0.9822712
-1.3453681	d u b	-0.9822712
-0.6944734	d u c	-0.9822712
-1.9803198	d u d	-0.9822712
-1.4456024	d u e	-0.9822712
-2.2054977	d u f	-0.9822712
-1.9241279	d u g	-0.9822712
-1.1992162	d u i	-0.9822712
-1.9448888	d u k	-0.9822712
-1.1029293	d u l	-0.9822712
-1.584262	d u m	-0.9822712
-0.9958531	d u n	-0.9822712
-1.6579034	d u o	-0.9822712
-1.7937641	d u p	-0.9822712
-1.9736273	d u q	-0.9822712
-1.2534721	d u r	-0.9822712
-1.1685914	d u s	-0.9822712
-1.3047538	d u t	-0.9822712
-2.1483252	d u x	-0.9822712
-0.7004251	d v </s>	-0.7185656
-0.8936807	d v a	-0.7185656
-1.3308281	d v b	-0.7185656
-1.2083637	d v d	-0.7185656
-1.0225296	d v e	-0.7185656
-1.7944278	d v f	-0.7185656
-0.6461435	d v i	-0.7185656
-1.723034	d v m	-0.7185656
-1.620847	d v o	-0.7185656
-1.1085244	d v p	-0.7185656
-1.3176871	d v r	-0.7185656
-1.6882555	d v s	-0.7185656
-1.7537183	d v t	-0.7185656
-0.6235227	d w </s>	-0.7607772
-0.6777089	d w a	-0.7607772
-1.6405095	d w b	-0.7607772
-1.8709624	d w c	-0.7607772
-1.4775665	d w d	-0.7607772
-1.2933432	d w e	-0.7607772
