\data\
ngram 1=4170
ngram 2=14197
ngram 3=24238

\1-grams:
-3.6201361	(	0.0
-3.6201361	)	0.0
-3.6201361	,	0.0
-3.6201361	-	0.0
-3.6201361	.	0.0
-3.6201361	</s>	0.0
-3.6201361	<num>	0.0
-3.6201361	<s>	0.0
-3.6201361	a	0.0
-3.6201361	abap	0.0
-3.6201361	abaqus	0.0
-3.6201361	access	0.0
-3.6201361	account	0.0
-3.6201361	accountant	0.0
-3.6201361	accounting	0.0
-3.6201361	accountmanager	0.0
-3.6201361	accounts	0.0
-3.6201361	acess	0.0
-3.6201361	acl	0.0
-3.6201361	acrobat	0.0
-3.6201361	activemq	0.0
-3.6201361	activex	0.0
-3.6201361	activiti	0.0
-3.6201361	ad	0.0
-3.6201361	adb	0.0
-3.6201361	ado	0.0
-3.6201361	adobe	0.0
-3.6201361	adobeillustrator	0.0
-3.6201361	adt	0.0
-3.6201361	ae	0.0
-3.6201361	agile	0.0
-3.6201361	ai	0.0
-3.6201361	air	0.0
-3.6201361	aix	0.0
-3.6201361	ajax	0.0
-3.6201361	akka	0.0
-3.6201361	alcatel	0.0
-3.6201361	algorithms	0.0
-3.6201361	alias	0.0
-3.6201361	allegro	0.0
-3.6201361	alm	0.0
-3.6201361	am	0.0
-3.6201361	amazon	0.0
-3.6201361	amos	0.0
-3.6201361	ampl	0.0
-3.6201361	analytics	0.0
-3.6201361	andriod	0.0
-3.6201361	android	0.0
-3.6201361	angular	0.0
-3.6201361	angularjs	0.0
-3.6201361	ansible	0.0
-3.6201361	ansys	0.0
-3.6201361	aoi	0.0
-3.6201361	aop	0.0
-3.6201361	apache	0.0
-3.6201361	apd	0.0
-3.6201361	apex	0.0
-3.6201361	apl	0.0
-3.6201361	app	0.0
-3.6201361	appium	0.0
-3.6201361	applescript	0.0
-3.6201361	appscan	0.0
-3.6201361	ar	0.0
-3.6201361	arcgis	0.0
-3.6201361	archicad	0.0
-3.6201361	arm	0.0
-3.6201361	arp	0.0
-3.6201361	art	0.0
-3.6201361	as	0.0
-3.6201361	asic	0.0
-3.6201361	asm	0.0
-3.6201361	asp	0.0
-3.6201361	assembler	0.0
-3.6201361	assistant	0.0
-3.6201361	asterisk	0.0
-3.6201361	ate	0.0
-3.6201361	atl	0.0
-3.6201361	atlas	0.0
-3.6201361	atm	0.0
-3.6201361	ats	0.0
-3.6201361	au	0.0
-3.6201361	auditing	0.0
-3.6201361	audition	0.0
-3.6201361	authorware	0.0
-3.6201361	autocad	0.0
-3.6201361	autodesk	0.0
-3.6201361	autoit	0.0
-3.6201361	autolayout	0.0
-3.6201361	autolisp	0.0
-3.6201361	automotive	0.0
-3.6201361	avid	0.0
-3.6201361	avidxpresspro	0.0
-3.6201361	awk	0.0
-3.6201361	aws	0.0
-3.6201361	axure	0.0
-3.6201361	b	0.0
-3.6201361	backbone	0.0
-3.6201361	backup	0.0
-3.6201361	bash	0.0
-3.6201361	bat	0.0
-3.6201361	bd	0.0
-3.6201361	bdd	0.0
-3.6201361	bgp	0.0
-3.6201361	bi	0.0
-3.6201361	biee	0.0
-3.6201361	bim	0.0
-3.6201361	bios	0.0
-3.6201361	biotechnology	0.0
-3.6201361	bip	0.0
-3.6201361	biztalk	0.0
-3.6201361	blackberry	0.0
-3.6201361	blender	0.0
-3.6201361	blog	0.0
-3.6201361	blogging	0.0
-3.6201361	bloomberg	0.0
-3.6201361	bms	0.0
-3.6201361	bodypaint	0.0
-3.6201361	bom	0.0
-3.6201361	boost	0.0
-3.6201361	bootloader	0.0
-3.6201361	bootstrap	0.0
-3.6201361	bpo	0.0
-3.6201361	bsd	0.0
-3.6201361	bsp	0.0
-3.6201361	budgeting	0.0
-3.6201361	bug	0.0
-3.6201361	bugfree	0.0
-3.6201361	bugzilla	0.0
-3.6201361	business	0.0
-3.6201361	buyer	0.0
-3.6201361	c	0.0
-3.6201361	c#	0.0
-3.6201361	c++	0.0
-3.6201361	cache	0.0
-3.6201361	cacti	0.0
-3.6201361	cad	0.0
-3.6201361	cadam	0.0
-3.6201361	cadence	0.0
-3.6201361	cae	0.0
-3.6201361	caffe	0.0
-3.6201361	cakephp	0.0
-3.6201361	cakewalk	0.0
-3.6201361	cam	0.0
-3.6201361	camera	0.0
-3.6201361	cameratuning	0.0
-3.6201361	canalyzer	0.0
-3.6201361	canbus	0.0
-3.6201361	canoe	0.0
-3.6201361	canvas	0.0
-3.6201361	cas	0.0
-3.6201361	cass	0.0
-3.6201361	cassandra	0.0
-3.6201361	catering	0.0
-3.6201361	catia	0.0
-3.6201361	cc	0.0
-3.6201361	ccie	0.0
-3.6201361	ccna	0.0
-3.6201361	ccnp	0.0
-3.6201361	ccs	0.0
-3.6201361	cct	0.0
-3.6201361	cctv	0.0
-3.6201361	cd	0.0
-3.6201361	cdn	0.0
-3.6201361	centos	0.0
-3.6201361	ceo	0.0
-3.6201361	ceph	0.0
-3.6201361	cet	0.0
-3.6201361	cfd	0.0
-3.6201361	cfo	0.0
-3.6201361	cg	0.0
-3.6201361	cgi	0.0
-3.6201361	charles	0.0
-3.6201361	chef	0.0
-3.6201361	chemdraw	0.0
-3.6201361	chemistry	0.0
-3.6201361	chemoffice	0.0
-3.6201361	chinese	0.0
-3.6201361	chipware	0.0
-3.6201361	chrome	0.0
-3.6201361	ci	0.0
-3.6201361	cics	0.0
-3.6201361	cinema	0.0
-3.6201361	cinematics	0.0
-3.6201361	cinematography	0.0
-3.6201361	cissp	0.0
-3.6201361	citrix	0.0
-3.6201361	clarity	0.0
-3.6201361	clearcase	0.0
-3.6201361	clearquest	0.0
-3.6201361	clementine	0.0
-3.6201361	cli	0.0
-3.6201361	clojure	0.0
-3.6201361	cloudstack	0.0
-3.6201361	cm	0.0
-3.6201361	cmake	0.0
-3.6201361	cmc	0.0
-3.6201361	cmf	0.0
-3.6201361	cmm	0.0
-3.6201361	cmmi	0.0
-3.6201361	cmms	0.0
-3.6201361	cmos	0.0
-3.6201361	cms	0.0
-3.6201361	cnc	0.0
-3.6201361	cnn	0.0
-3.6201361	coaching	0.0
-3.6201361	cobol	0.0
-3.6201361	cocoa	0.0
-3.6201361	cocos	0.0
-3.6201361	code	0.0
-3.6201361	codec	0.0
-3.6201361	codeigniter	0.0
-3.6201361	codewarrior	0.0
-3.6201361	coffeescript	0.0
-3.6201361	cognos	0.0
-3.6201361	collection	0.0
-3.6201361	com	0.0
-3.6201361	commercials	0.0
-3.6201361	commissioning	0.0
-3.6201361	component	0.0
-3.6201361	computational	0.0
-3.6201361	computing	0.0
-3.6201361	comsol	0.0
-3.6201361	confluence	0.0
-3.6201361	console	0.0
-3.6201361	construction	0.0
-3.6201361	consultants	0.0
-3.6201361	consulting	0.0
-3.6201361	copywriting	0.0
-3.6201361	cordova	0.0
-3.6201361	core	0.0
-3.6201361	coredata	0.0
-3.6201361	coreldraw	0.0
-3.6201361	couchdb	0.0
-3.6201361	cplex	0.0
-3.6201361	credit	0.0
-3.6201361	creo	0.0
-3.6201361	crm	0.0
-3.6201361	cs	0.0
-3.6201361	csrf	0.0
-3.6201361	css	0.0
-3.6201361	cti	0.0
-3.6201361	cto	0.0
-3.6201361	cubase	0.0
-3.6201361	cucumber	0.0
-3.6201361	cuda	0.0
-3.6201361	cutterman	0.0
-3.6201361	cvs	0.0
-3.6201361	d	0.0
-3.6201361	dart	0.0
-3.6201361	dashboard	0.0
-3.6201361	database	0.0
-3.6201361	databasemarketing	0.0
-3.6201361	databases	0.0
-3.6201361	datastage	0.0
-3.6201361	db	0.0
-3.6201361	dba	0.0
-3.6201361	dc	0.0
-3.6201361	dcs	0.0
-3.6201361	ddn	0.0
-3.6201361	debian	0.0
-3.6201361	debugging	0.0
-3.6201361	delmia	0.0
-3.6201361	delphi	0.0
-3.6201361	development	0.0
-3.6201361	devops	0.0
-3.6201361	dfs	0.0
-3.6201361	dhcp	0.0
-3.6201361	dhtml	0.0
-3.6201361	dialux	0.0
-3.6201361	directx	0.0
-3.6201361	disk	0.0
-3.6201361	div	0.0
-3.6201361	django	0.0
-3.6201361	dll	0.0
-3.6201361	dmaic	0.0
-3.6201361	dmax	0.0
-3.6201361	dmp	0.0
-3.6201361	dms	0.0
-3.6201361	dna	0.0
-3.6201361	dns	0.0
-3.6201361	docker	0.0
-3.6201361	doe	0.0
-3.6201361	dojo	0.0
-3.6201361	dom	0.0
-3.6201361	domino	0.0
-3.6201361	dos	0.0
-3.6201361	dps	0.0
-3.6201361	dqa	0.0
-3.6201361	drawing	0.0
-3.6201361	dreamweaver	0.0
-3.6201361	drools	0.0
-3.6201361	drupal	0.0
-3.6201361	ds	0.0
-3.6201361	dsl	0.0
-3.6201361	dsp	0.0
-3.6201361	dtp	0.0
-3.6201361	dubbo	0.0
-3.6201361	dv	0.0
-3.6201361	dvb	0.0
-3.6201361	dwr	0.0
-3.6201361	dx	0.0
-3.6201361	dxl	0.0
-3.6201361	dynamics	0.0
-3.6201361	ea	0.0
-3.6201361	eai	0.0
-3.6201361	eam	0.0
-3.6201361	easyui	0.0
-3.6201361	ebay	0.0
-3.6201361	eclipse	0.0
-3.6201361	ecommerce	0.0
-3.6201361	ecshop	0.0
-3.6201361	eda	0.0
-3.6201361	edge	0.0
-3.6201361	editor	0.0
-3.6201361	edius	0.0
-3.6201361	ee	0.0
-3.6201361	ef	0.0
-3.6201361	ehcache	0.0
-3.6201361	ehr	0.0
-3.6201361	ehs	0.0
-3.6201361	ejb	0.0
-3.6201361	electronics	0.0
-3.6201361	element	0.0
-3.6201361	elixir	0.0
-3.6201361	emacs	0.0
-3.6201361	email	0.0
-3.6201361	embedded	0.0
-3.6201361	emc	0.0
-3.6201361	energy	0.0
-3.6201361	english	0.0
-3.6201361	entertainment	0.0
-3.6201361	entrepreneurship	0.0
-3.6201361	envi	0.0
-3.6201361	epc	0.0
-3.6201361	epm	0.0
-3.6201361	equipment	0.0
-3.6201361	erlang	0.0
-3.6201361	erp	0.0
-3.6201361	erwin	0.0
-3.6201361	es	0.0
-3.6201361	esa	0.0
-3.6201361	essbase	0.0
-3.6201361	etabs	0.0
-3.6201361	ethernet	0.0
-3.6201361	etl	0.0
-3.6201361	eviews	0.0
-3.6201361	excel	0.0
-3.6201361	exchange	0.0
-3.6201361	express	0.0
-3.6201361	extjs	0.0
-3.6201361	facebook	0.0
-3.6201361	facility	0.0
-3.6201361	fashion	0.0
-3.6201361	fastdfs	0.0
-3.6201361	ffmpeg	0.0
-3.6201361	fiddler	0.0
-3.6201361	filezilla	0.0
-3.6201361	film	0.0
-3.6201361	filter	0.0
-3.6201361	finance	0.0
-3.6201361	firebug	0.0
-3.6201361	firefox	0.0
-3.6201361	firewalls	0.0
-3.6201361	fireworks	0.0
-3.6201361	firmware	0.0
-3.6201361	flash	0.0
-3.6201361	flask	0.0
-3.6201361	flex	0.0
-3.6201361	flexsim	0.0
-3.6201361	flinto	0.0
-3.6201361	fluid	0.0
-3.6201361	flume	0.0
-3.6201361	fmcg	0.0
-3.6201361	forecasting	0.0
-3.6201361	fortran	0.0
-3.6201361	foss	0.0
-3.6201361	foxpro	0.0
-3.6201361	fpga	0.0
-3.6201361	fpm	0.0
-3.6201361	framemaker	0.0
-3.6201361	freebsd	0.0
-3.6201361	freehand	0.0
-3.6201361	freemarker	0.0
-3.6201361	french	0.0
-3.6201361	frontpage	0.0
-3.6201361	ftp	0.0
-3.6201361	fuzzing	0.0
-3.6201361	fw	0.0
-3.6201361	gameplay	0.0
-3.6201361	games	0.0
-3.6201361	gaming	0.0
-3.6201361	gbdt	0.0
-3.6201361	gc	0.0
-3.6201361	gcc	0.0
-3.6201361	gcd	0.0
-3.6201361	gem	0.0
-3.6201361	genesys	0.0
-3.6201361	german	0.0
-3.6201361	gis	0.0
-3.6201361	git	0.0
-3.6201361	github	0.0
-3.6201361	glassfish	0.0
-3.6201361	glsl	0.0
-3.6201361	gmp	0.0
-3.6201361	gms	0.0
-3.6201361	gnu	0.0
-3.6201361	go	0.0
-3.6201361	golang	0.0
-3.6201361	golive	0.0
-3.6201361	google	0.0
-3.6201361	gpib	0.0
-3.6201361	gpm	0.0
-3.6201361	gpp	0.0
-3.6201361	gprs	0.0
-3.6201361	gps	0.0
-3.6201361	gpu	0.0
-3.6201361	gradle	0.0
-3.6201361	grails	0.0
-3.6201361	grasshopper	0.0
-3.6201361	greenplum	0.0
-3.6201361	groovy	0.0
-3.6201361	gsa	0.0
-3.6201361	gsm	0.0
-3.6201361	gstreamer	0.0
-3.6201361	gts	0.0
-3.6201361	gui	0.0
-3.6201361	gwt	0.0
-3.6201361	h	0.0
-3.6201361	hacmp	0.0
-3.6201361	hadoop	0.0
-3.6201361	halcon	0.0
-3.6201361	handlebars	0.0
-3.6201361	haproxy	0.0
-3.6201361	haskell	0.0
-3.6201361	hbuilder	0.0
-3.6201361	hdfs	0.0
-3.6201361	healthcare	0.0
-3.6201361	hfss	0.0
-3.6201361	hibernate	0.0
-3.6201361	highcharts	0.0
-3.6201361	hiring	0.0
-3.6201361	his	0.0
-3.6201361	hive	0.0
-3.6201361	hlsl	0.0
-3.6201361	hmi	0.0
-3.6201361	houdini	0.0
-3.6201361	hp	0.0
-3.6201361	hr	0.0
-3.6201361	hrbp	0.0
-3.6201361	hris	0.0
-3.6201361	hse	0.0
-3.6201361	html	0.0
-3.6201361	http	0.0
-3.6201361	https	0.0
-3.6201361	httpwatch	0.0
-3.6201361	hybris	0.0
-3.6201361	hyper	0.0
-3.6201361	hyperion	0.0
-3.6201361	hypermesh	0.0
-3.6201361	hyperworks	0.0
-3.6201361	iaas	0.0
-3.6201361	iam	0.0
-3.6201361	iar	0.0
-3.6201361	ibatis	0.0
-3.6201361	ibm	0.0
-3.6201361	ibmaix	0.0
-3.6201361	ic	0.0
-3.6201361	icmp	0.0
-3.6201361	ics	0.0
-3.6201361	ict	0.0
-3.6201361	id	0.0
-3.6201361	ida	0.0
-3.6201361	idc	0.0
-3.6201361	ide	0.0
-3.6201361	idea	0.0
-3.6201361	idl	0.0
-3.6201361	idle	0.0
-3.6201361	ids	0.0
-3.6201361	ie	0.0
-3.6201361	ieee	0.0
-3.6201361	ielts	0.0
-3.6201361	igmp	0.0
-3.6201361	iis	0.0
-3.6201361	ile	0.0
-3.6201361	illustration	0.0
-3.6201361	illustrator	0.0
-3.6201361	imap	0.0
-3.6201361	imovie	0.0
-3.6201361	inca	0.0
-3.6201361	indesign	0.0
-3.6201361	informatica	0.0
-3.6201361	information	0.0
-3.6201361	informix	0.0
-3.6201361	installshield	0.0
-3.6201361	instrument	0.0
-3.6201361	insurance	0.0
-3.6201361	integration	0.0
-3.6201361	interviewing	0.0
-3.6201361	intranet	0.0
-3.6201361	investments	0.0
-3.6201361	io	0.0
-3.6201361	ionic	0.0
-3.6201361	ios	0.0
-3.6201361	ip	0.0
-3.6201361	ipad	0.0
-3.6201361	ipc	0.0
-3.6201361	iphone	0.0
-3.6201361	ipmi	0.0
-3.6201361	ipo	0.0
-3.6201361	ipqc	0.0
-3.6201361	ips	0.0
-3.6201361	ipsec	0.0
-3.6201361	iptables	0.0
-3.6201361	iptv	0.0
-3.6201361	ipv	0.0
-3.6201361	iqc	0.0
-3.6201361	ireport	0.0
-3.6201361	iscsi	0.0
-3.6201361	isdn	0.0
-3.6201361	iso	0.0
-3.6201361	isp	0.0
-3.6201361	it	0.0
-3.6201361	itext	0.0
-3.6201361	itil	0.0
-3.6201361	itk	0.0
-3.6201361	ivr	0.0
-3.6201361	iwork	0.0
-3.6201361	j	0.0
-3.6201361	james	0.0
-3.6201361	japanese	0.0
-3.6201361	java	0.0
-3.6201361	javabean	0.0
-3.6201361	javafx	0.0
-3.6201361	javamail	0.0
-3.6201361	javascript	0.0
-3.6201361	javase	0.0
-3.6201361	javaweb	0.0
-3.6201361	jboss	0.0
-3.6201361	jbpm	0.0
-3.6201361	jbuilder	0.0
-3.6201361	jcl	0.0
-3.6201361	jdbc	0.0
-3.6201361	jdk	0.0
-3.6201361	jdom	0.0
-3.6201361	jenkins	0.0
-3.6201361	jetty	0.0
-3.6201361	jfreechart	0.0
-3.6201361	jira	0.0
-3.6201361	jmeter	0.0
-3.6201361	jmp	0.0
-3.6201361	jms	0.0
-3.6201361	jni	0.0
-3.6201361	joomla	0.0
-3.6201361	journalism	0.0
-3.6201361	jpa	0.0
-3.6201361	jprofiler	0.0
-3.6201361	jquery	0.0
-3.6201361	jquerymobile	0.0
-3.6201361	jqueryui	0.0
-3.6201361	js	0.0
-3.6201361	jscript	0.0
-3.6201361	json	0.0
-3.6201361	jsonp	0.0
-3.6201361	jsp	0.0
-3.6201361	jstl	0.0
-3.6201361	jtag	0.0
-3.6201361	julia	0.0
-3.6201361	juniper	0.0
-3.6201361	junit	0.0
-3.6201361	jvm	0.0
-3.6201361	k	0.0
-3.6201361	ka	0.0
-3.6201361	kaizen	0.0
-3.6201361	kanban	0.0
-3.6201361	keepalived	0.0
-3.6201361	keil	0.0
-3.6201361	keras	0.0
-3.6201361	kerberos	0.0
-3.6201361	kernel	0.0
-3.6201361	kettle	0.0
-3.6201361	keynote	0.0
-3.6201361	keyshot	0.0
-3.6201361	knime	0.0
-3.6201361	kohana	0.0
-3.6201361	kotlin	0.0
-3.6201361	ksh	0.0
-3.6201361	ktv	0.0
-3.6201361	kubernetes	0.0
-3.6201361	kvm	0.0
-3.6201361	labview	0.0
-3.6201361	lamp	0.0
-3.6201361	lan	0.0
-3.6201361	laravel	0.0
-3.6201361	latex	0.0
-3.6201361	lawson	0.0
-3.6201361	layer	0.0
-3.6201361	layout	0.0
-3.6201361	lcd	0.0
-3.6201361	lda	0.0
-3.6201361	leadership	0.0
-3.6201361	learn	0.0
-3.6201361	led	0.0
-3.6201361	legal	0.0
-3.6201361	less	0.0
-3.6201361	lighting	0.0
-3.6201361	lightroom	0.0
-3.6201361	lighttpd	0.0
-3.6201361	lightwave	0.0
-3.6201361	lingo	0.0
-3.6201361	linq	0.0
-3.6201361	linux	0.0
-3.6201361	linuxos	0.0
-3.6201361	lisp	0.0
-3.6201361	llvm	0.0
-3.6201361	lms	0.0
-3.6201361	lnmp	0.0
-3.6201361	loadrunner	0.0
-3.6201361	localization	0.0
-3.6201361	log	0.0
-3.6201361	lotus	0.0
-3.6201361	lr	0.0
-3.6201361	lte	0.0
-3.6201361	lua	0.0
-3.6201361	lucene	0.0
-3.6201361	lumion	0.0
-3.6201361	lvs	0.0
-3.6201361	mac	0.0
-3.6201361	magazines	0.0
-3.6201361	magento	0.0
-3.6201361	magicdraw	0.0
-3.6201361	magma	0.0
-3.6201361	mainframe	0.0
-3.6201361	makefile	0.0
-3.6201361	management	0.0
-3.6201361	mandarin	0.0
-3.6201361	mantis	0.0
-3.6201361	manufacturing	0.0
-3.6201361	mapinfo	0.0
-3.6201361	maple	0.0
-3.6201361	mapreduce	0.0
-3.6201361	marcom	0.0
-3.6201361	marketing	0.0
-3.6201361	markman	0.0
-3.6201361	mastercam	0.0
-3.6201361	mathcad	0.0
-3.6201361	mathematica	0.0
-3.6201361	matlab	0.0
-3.6201361	matplotlib	0.0
-3.6201361	maven	0.0
-3.6201361	max	0.0
-3.6201361	maya	0.0
-3.6201361	mc	0.0
-3.6201361	mcsd	0.0
-3.6201361	md	0.0
-3.6201361	me	0.0
-3.6201361	mechanics	0.0
-3.6201361	mel	0.0
-3.6201361	memcached	0.0
-3.6201361	mems	0.0
-3.6201361	mentoring	0.0
-3.6201361	merchandising	0.0
-3.6201361	mercurial	0.0
-3.6201361	mercury	0.0
-3.6201361	mes	0.0
-3.6201361	metasploit	0.0
-3.6201361	meteor	0.0
-3.6201361	metrics	0.0
-3.6201361	mfc	0.0
-3.6201361	michael	0.0
-3.6201361	microsoft	0.0
-3.6201361	microsoftoffice	0.0
-3.6201361	microstation	0.0
-3.6201361	microstrategy	0.0
-3.6201361	mina	0.0
-3.6201361	mindjet	0.0
-3.6201361	mindmanager	0.0
-3.6201361	minitab	0.0
-3.6201361	mips	0.0
-3.6201361	miscellaneous	0.0
-3.6201361	mmorpg	0.0
-3.6201361	mms	0.0
-3.6201361	mockingbot	0.0
-3.6201361	mockplus	0.0
-3.6201361	mockup	0.0
-3.6201361	mockups	0.0
-3.6201361	model	0.0
-3.6201361	modeling	0.0
-3.6201361	modelsim	0.0
-3.6201361	modem	0.0
-3.6201361	module	0.0
-3.6201361	moldflow	0.0
-3.6201361	mom	0.0
-3.6201361	monetization	0.0
-3.6201361	mongodb	0.0
-3.6201361	monkey	0.0
-3.6201361	monkeyrunner	0.0
-3.6201361	mootools	0.0
-3.6201361	motion	0.0
-3.6201361	mp	0.0
-3.6201361	mplab	0.0
-3.6201361	mpls	0.0
-3.6201361	mqseries	0.0
-3.6201361	mqtt	0.0
-3.6201361	mrc	0.0
-3.6201361	mro	0.0
-3.6201361	ms	0.0
-3.6201361	msmq	0.0
-3.6201361	msoffice	0.0
-3.6201361	mstr	0.0
-3.6201361	mtk	0.0
-3.6201361	mts	0.0
-3.6201361	mudbox	0.0
-3.6201361	mule	0.0
-3.6201361	multimedia	0.0
-3.6201361	multiplayer	0.0
-3.6201361	multisim	0.0
-3.6201361	mvc	0.0
-3.6201361	mvp	0.0
-3.6201361	mvs	0.0
-3.6201361	mybatis	0.0
-3.6201361	myeclipse	0.0
-3.6201361	mysql	0.0
-3.6201361	nagios	0.0
-3.6201361	nastran	0.0
-3.6201361	nav	0.0
-3.6201361	navicat	0.0
-3.6201361	navisworks	0.0
-3.6201361	nc	0.0
-3.6201361	ndk	0.0
-3.6201361	nds	0.0
-3.6201361	negotiation	0.0
-3.6201361	neo	0.0
-3.6201361	net	0.0
-3.6201361	netbeans	0.0
-3.6201361	netware	0.0
-3.6201361	network	0.0
-3.6201361	networking	0.0
-3.6201361	newsletters	0.0
-3.6201361	nexus	0.0
-3.6201361	nginx	0.0
-3.6201361	nhibernate	0.0
-3.6201361	nice	0.0
-3.6201361	nio	0.0
-3.6201361	nlp	0.0
-3.6201361	nmon	0.0
-3.6201361	nms	0.0
-3.6201361	node	0.0
-3.6201361	nodejs	0.0
-3.6201361	nokia	0.0
-3.6201361	nosql	0.0
-3.6201361	notepad	0.0
-3.6201361	notepad++	0.0
-3.6201361	novell	0.0
-3.6201361	nsn	0.0
-3.6201361	ntp	0.0
-3.6201361	numpy	0.0
-3.6201361	nunit	0.0
-3.6201361	nutch	0.0
-3.6201361	nvh	0.0
-3.6201361	nx	0.0
-3.6201361	o	0.0
-3.6201361	oa	0.0
-3.6201361	oaf	0.0
-3.6201361	objective	0.0
-3.6201361	ocr	0.0
-3.6201361	ocs	0.0
-3.6201361	od	0.0
-3.6201361	odbc	0.0
-3.6201361	odi	0.0
-3.6201361	oem	0.0
-3.6201361	ofbiz	0.0
-3.6201361	office	0.0
-3.6201361	offices	0.0
-3.6201361	olap	0.0
-3.6201361	oltp	0.0
-3.6201361	omnigraffle	0.0
-3.6201361	omniplan	0.0
-3.6201361	omniture	0.0
-3.6201361	oms	0.0
-3.6201361	onboarding	0.0
-3.6201361	onenote	0.0
-3.6201361	ooad	0.0
-3.6201361	oozie	0.0
-3.6201361	opc	0.0
-3.6201361	openbsd	0.0
-3.6201361	opencl	0.0
-3.6201361	opencv	0.0
-3.6201361	opengl	0.0
-3.6201361	openlayers	0.0
-3.6201361	openmp	0.0
-3.6201361	openstack	0.0
-3.6201361	openview	0.0
-3.6201361	openvpn	0.0
-3.6201361	opera	0.0
-3.6201361	operating	0.0
-3.6201361	operation	0.0
-3.6201361	optimization	0.0
-3.6201361	oracle	0.0
-3.6201361	oracleebs	0.0
-3.6201361	oracleerp	0.0
-3.6201361	orcad	0.0
-3.6201361	origin	0.0
-3.6201361	orm	0.0
-3.6201361	os	0.0
-3.6201361	osgi	0.0
-3.6201361	ospf	0.0
-3.6201361	oss	0.0
-3.6201361	ota	0.0
-3.6201361	otc	0.0
-3.6201361	outlook	0.0
-3.6201361	outsourcing	0.0
-3.6201361	owl	0.0
-3.6201361	p	0.0
-3.6201361	paas	0.0
-3.6201361	pabx	0.0
-3.6201361	pads	0.0
-3.6201361	pagemaker	0.0
-3.6201361	pages	0.0
-3.6201361	painting	0.0
-3.6201361	paradigm	0.0
-3.6201361	pascal	0.0
-3.6201361	payroll	0.0
-3.6201361	pc	0.0
-3.6201361	pca	0.0
-3.6201361	pcb	0.0
-3.6201361	pcba	0.0
-3.6201361	pda	0.0
-3.6201361	pdf	0.0
-3.6201361	pdm	0.0
-3.6201361	pdms	0.0
-3.6201361	pe	0.0
-3.6201361	pentaho	0.0
-3.6201361	peoplecode	0.0
-3.6201361	peoplesoft	0.0
-3.6201361	perforce	0.0
-3.6201361	perl	0.0
-3.6201361	pets	0.0
-3.6201361	pfc	0.0
-3.6201361	phonegap	0.0
-3.6201361	photoshop	0.0
-3.6201361	photoshopcs	0.0
-3.6201361	php	0.0
-3.6201361	phpcms	0.0
-3.6201361	phpjava	0.0
-3.6201361	phpunit	0.0
-3.6201361	pic	0.0
-3.6201361	pie	0.0
-3.6201361	pl	0.0
-3.6201361	plc	0.0
-3.6201361	pll	0.0
-3.6201361	plm	0.0
-3.6201361	pm	0.0
-3.6201361	pmc	0.0
-3.6201361	pmd	0.0
-3.6201361	pmi	0.0
-3.6201361	pmp	0.0
-3.6201361	pms	0.0
-3.6201361	poi	0.0
-3.6201361	pop	0.0
-3.6201361	portal	0.0
-3.6201361	pos	0.0
-3.6201361	postfix	0.0
-3.6201361	postgresql	0.0
-3.6201361	postman	0.0
-3.6201361	powerbuilder	0.0
-3.6201361	powerdesigner	0.0
-3.6201361	powerpc	0.0
-3.6201361	powerpoint	0.0
-3.6201361	ppc	0.0
-3.6201361	ppp	0.0
-3.6201361	ppt	0.0
-3.6201361	pr	0.0
-3.6201361	pre	0.0
-3.6201361	premier	0.0
-3.6201361	presentation	0.0
-3.6201361	presentations	0.0
-3.6201361	prezi	0.0
-3.6201361	prince	0.0
-3.6201361	principle	0.0
-3.6201361	pro	0.0
-3.6201361	proc	0.0
-3.6201361	process	0.0
-3.6201361	procurement	0.0
-3.6201361	proe	0.0
-3.6201361	program	0.0
-3.6201361	progress	0.0
-3.6201361	project	0.0
-3.6201361	protel	0.0
-3.6201361	proteus	0.0
-3.6201361	prototype	0.0
-3.6201361	proxy	0.0
-3.6201361	ps	0.0
-3.6201361	psos	0.0
-3.6201361	pspice	0.0
-3.6201361	publisher	0.0
-3.6201361	publishing	0.0
-3.6201361	puppet	0.0
-3.6201361	purchasing	0.0
-3.6201361	pvcs	0.0
-3.6201361	pxcook	0.0
-3.6201361	pycharm	0.0
-3.6201361	pyqt	0.0
-3.6201361	python	0.0
-3.6201361	pytorch	0.0
-3.6201361	qa	0.0
-3.6201361	qc	0.0
-3.6201361	qe	0.0
-3.6201361	qf	0.0
-3.6201361	qgis	0.0
-3.6201361	qlikview	0.0
-3.6201361	qml	0.0
-3.6201361	qnx	0.0
-3.6201361	qos	0.0
-3.6201361	qt	0.0
-3.6201361	qtp	0.0
-3.6201361	quartz	0.0
-3.6201361	query	0.0
-3.6201361	quickbooks	0.0
-3.6201361	r	0.0
-3.6201361	rabbitmq	0.0
-3.6201361	radius	0.0
-3.6201361	radware	0.0
-3.6201361	ranorex	0.0
-3.6201361	rcp	0.0
-3.6201361	rd	0.0
-3.6201361	rds	0.0
-3.6201361	react	0.0
-3.6201361	reactjs	0.0
-3.6201361	realflow	0.0
-3.6201361	recruiter	0.0
-3.6201361	recruiting	0.0
-3.6201361	redhat	0.0
-3.6201361	redis	0.0
-3.6201361	redmine	0.0
-3.6201361	redux	0.0
-3.6201361	rendering	0.0
-3.6201361	requirejs	0.0
-3.6201361	research	0.0
-3.6201361	resin	0.0
-3.6201361	retail	0.0
-3.6201361	revit	0.0
-3.6201361	rexx	0.0
-3.6201361	rf	0.0
-3.6201361	rfc	0.0
-3.6201361	rfid	0.0
-3.6201361	rhapsody	0.0
-3.6201361	rhino	0.0
-3.6201361	rhinoceros	0.0
-3.6201361	rigging	0.0
-3.6201361	rim	0.0
-3.6201361	rip	0.0
-3.6201361	rnn	0.0
-3.6201361	robohelp	0.0
-3.6201361	robot	0.0
-3.6201361	robotframework	0.0
-3.6201361	robotics	0.0
-3.6201361	rocketmq	0.0
-3.6201361	routers	0.0
-3.6201361	routing	0.0
-3.6201361	rp	0.0
-3.6201361	rpg	0.0
-3.6201361	rpo	0.0
-3.6201361	rsa	0.0
-3.6201361	rstudio	0.0
-3.6201361	rsync	0.0
-3.6201361	rtos	0.0
-3.6201361	rtp	0.0
-3.6201361	rtsp	0.0
-3.6201361	ruby	0.0
-3.6201361	rup	0.0
-3.6201361	s	0.0
-3.6201361	saas	0.0
-3.6201361	sales	0.0
-3.6201361	salesforce	0.0
-3.6201361	samba	0.0
-3.6201361	san	0.0
-3.6201361	sap	0.0
-3.6201361	saperp	0.0
-3.6201361	sapfico	0.0
-3.6201361	sapmm	0.0
-3.6201361	sas	0.0
-3.6201361	sass	0.0
-3.6201361	sax	0.0
-3.6201361	scada	0.0
-3.6201361	scala	0.0
-3.6201361	scalability	0.0
-3.6201361	scheduler	0.0
-3.6201361	scheme	0.0
-3.6201361	scikit	0.0
-3.6201361	screening	0.0
-3.6201361	scripting	0.0
-3.6201361	scrum	0.0
-3.6201361	sd	0.0
-3.6201361	sdet	0.0
-3.6201361	sdk	0.0
-3.6201361	sdl	0.0
-3.6201361	sdlc	0.0
-3.6201361	sdn	0.0
-3.6201361	sdp	0.0
-3.6201361	sdwebimage	0.0
-3.6201361	se	0.0
-3.6201361	securecrt	0.0
-3.6201361	security	0.0
-3.6201361	sed	0.0
-3.6201361	segmentation	0.0
-3.6201361	selenium	0.0
-3.6201361	sem	0.0
-3.6201361	semiconductors	0.0
-3.6201361	sencha	0.0
-3.6201361	seo	0.0
-3.6201361	server	0.0
-3.6201361	servlet	0.0
-3.6201361	servlets	0.0
-3.6201361	sftp	0.0
-3.6201361	shader	0.0
-3.6201361	shaders	0.0
-3.6201361	sharepoint	0.0
-3.6201361	shell	0.0
-3.6201361	siebel	0.0
-3.6201361	sigma	0.0
-3.6201361	silktest	0.0
-3.6201361	silverlight	0.0
-3.6201361	simulations	0.0
-3.6201361	sip	0.0
-3.6201361	sitecore	0.0
-3.6201361	sketch	0.0
-3.6201361	sketching	0.0
-3.6201361	sketchup	0.0
-3.6201361	skype	0.0
-3.6201361	slam	0.0
-3.6201361	sm	0.0
-3.6201361	smalltalk	0.0
-3.6201361	smartphone	0.0
-3.6201361	smarty	0.0
-3.6201361	smb	0.0
-3.6201361	smd	0.0
-3.6201361	smo	0.0
-3.6201361	sms	0.0
-3.6201361	smt	0.0
-3.6201361	smtp	0.0
-3.6201361	sna	0.0
-3.6201361	sniffer	0.0
-3.6201361	sns	0.0
-3.6201361	soa	0.0
-3.6201361	soap	0.0
-3.6201361	soapui	0.0
-3.6201361	soc	0.0
-3.6201361	software	0.0
-3.6201361	softwareengineer	0.0
-3.6201361	soildworks	0.0
-3.6201361	solidity	0.0
-3.6201361	solidworks	0.0
-3.6201361	solr	0.0
-3.6201361	sourcing	0.0
-3.6201361	space	0.0
-3.6201361	spanish	0.0
-3.6201361	spark	0.0
-3.6201361	sparkstreaming	0.0
-3.6201361	spc	0.0
-3.6201361	sphinx	0.0
-3.6201361	spi	0.0
-3.6201361	spine	0.0
-3.6201361	spl	0.0
-3.6201361	spm	0.0
-3.6201361	spring	0.0
-3.6201361	springmvc	0.0
-3.6201361	spss	0.0
-3.6201361	sqe	0.0
-3.6201361	sql	0.0
-3.6201361	sqldeveloper	0.0
-3.6201361	sqlite	0.0
-3.6201361	sqlplus	0.0
-3.6201361	sqoop	0.0
-3.6201361	squid	0.0
-3.6201361	ssd	0.0
-3.6201361	ssh	0.0
-3.6201361	ssi	0.0
-3.6201361	ssl	0.0
-3.6201361	ssp	0.0
-3.6201361	staffing	0.0
-3.6201361	start	0.0
-3.6201361	starteam	0.0
-3.6201361	stata	0.0
-3.6201361	statement	0.0
-3.6201361	stl	0.0
-3.6201361	stm	0.0
-3.6201361	storyboard	0.0
-3.6201361	storyboarding	0.0
-3.6201361	storytelling	0.0
-3.6201361	strategist	0.0
-3.6201361	strategy	0.0
-3.6201361	struct	0.0
-3.6201361	structs	0.0
-3.6201361	struts	0.0
-3.6201361	sts	0.0
-3.6201361	sublime	0.0
-3.6201361	subversion	0.0
-3.6201361	sugarcrm	0.0
-3.6201361	surface	0.0
-3.6201361	suse	0.0
-3.6201361	svg	0.0
-3.6201361	svm	0.0
-3.6201361	svn	0.0
-3.6201361	svngit	0.0
-3.6201361	swift	0.0
-3.6201361	swing	0.0
-3.6201361	swiper	0.0
-3.6201361	switch	0.0
-3.6201361	switches	0.0
-3.6201361	swt	0.0
-3.6201361	sybase	0.0
-3.6201361	symantec	0.0
-3.6201361	symbian	0.0
-3.6201361	symfony	0.0
-3.6201361	system	0.0
-3.6201361	systemverilog	0.0
-3.6201361	t	0.0
-3.6201361	tableau	0.0
-3.6201361	tablet	0.0
-3.6201361	tax	0.0
-3.6201361	tcl	0.0
-3.6201361	tcp	0.0
-3.6201361	tcpdump	0.0
-3.6201361	tdd	0.0
-3.6201361	teaching	0.0
-3.6201361	teamcenter	0.0
-3.6201361	teamcity	0.0
-3.6201361	teamwork	0.0
-3.6201361	tekla	0.0
-3.6201361	telecom	0.0
-3.6201361	telecommunications	0.0
-3.6201361	template	0.0
-3.6201361	tensorflow	0.0
-3.6201361	teradata	0.0
-3.6201361	test	0.0
-3.6201361	testcomplete	0.0
-3.6201361	testdirector	0.0
-3.6201361	testing	0.0
-3.6201361	testlink	0.0
-3.6201361	testmanager	0.0
-3.6201361	testng	0.0
-3.6201361	teststand	0.0
-3.6201361	texturing	0.0
-3.6201361	thinkphp	0.0
-3.6201361	tivoli	0.0
-3.6201361	tm	0.0
-3.6201361	toad	0.0
-3.6201361	tomcat	0.0
-3.6201361	torch	0.0
-3.6201361	tornado	0.0
-3.6201361	tp	0.0
-3.6201361	tpm	0.0
-3.6201361	tracepro	0.0
-3.6201361	trading	0.0
-3.6201361	trados	0.0
-3.6201361	training	0.0
-3.6201361	translate	0.0
-3.6201361	translation	0.0
-3.6201361	translator	0.0
-3.6201361	transportation	0.0
-3.6201361	troubleshooting	0.0
-3.6201361	tso	0.0
-3.6201361	tutoring	0.0
-3.6201361	tuxedo	0.0
-3.6201361	tv	0.0
-3.6201361	tvos	0.0
-3.6201361	twitter	0.0
-3.6201361	typescript	0.0
-3.6201361	typography	0.0
-3.6201361	u	0.0
-3.6201361	uart	0.0
-3.6201361	ubuntu	0.0
-3.6201361	ue	0.0
-3.6201361	ued	0.0
-3.6201361	ug	0.0
-3.6201361	ui	0.0
-3.6201361	uiautomator	0.0
-3.6201361	uikit	0.0
-3.6201361	uiue	0.0
-3.6201361	ultraedit	0.0
-3.6201361	umts	0.0
-3.6201361	unity	0.0
-3.6201361	unix	0.0
-3.6201361	unrealscript	0.0
-3.6201361	ups	0.0
-3.6201361	usb	0.0
-3.6201361	ux	0.0
-3.6201361	v	0.0
-3.6201361	vaadin	0.0
-3.6201361	vagrant	0.0
-3.6201361	validation	0.0
-3.6201361	valuation	0.0
-3.6201361	varnish	0.0
-3.6201361	vb	0.0
-3.6201361	vba	0.0
-3.6201361	vbscript	0.0
-3.6201361	vc	0.0
-3.6201361	vcs	0.0
-3.6201361	vectorworks	0.0
-3.6201361	vegas	0.0
-3.6201361	velocity	0.0
-3.6201361	verilog	0.0
-3.6201361	vhdl	0.0
-3.6201361	vi	0.0
-3.6201361	vim	0.0
-3.6201361	vip	0.0
-3.6201361	visio	0.0
-3.6201361	visionpro	0.0
-3.6201361	vmware	0.0
-3.6201361	vod	0.0
-3.6201361	voip	0.0
-3.6201361	vp	0.0
-3.6201361	vpn	0.0
-3.6201361	vr	0.0
-3.6201361	vray	0.0
-3.6201361	vs	0.0
-3.6201361	vsam	0.0
-3.6201361	vss	0.0
-3.6201361	vtk	0.0
-3.6201361	vue	0.0
-3.6201361	vxworks	0.0
-3.6201361	waf	0.0
-3.6201361	wamp	0.0
-3.6201361	wan	0.0
-3.6201361	wap	0.0
-3.6201361	warehouse	0.0
-3.6201361	was	0.0
-3.6201361	wave	0.0
-3.6201361	wcf	0.0
-3.6201361	wdm	0.0
-3.6201361	wealth	0.0
-3.6201361	web	0.0
-3.6201361	webapi	0.0
-3.6201361	webform	0.0
-3.6201361	webgis	0.0
-3.6201361	webgl	0.0
-3.6201361	webkit	0.0
-3.6201361	weblogic	0.0
-3.6201361	webos	0.0
-3.6201361	webpack	0.0
-3.6201361	webservice	0.0
-3.6201361	webshpere	0.0
-3.6201361	websocket	0.0
-3.6201361	websphere	0.0
-3.6201361	webstorm	0.0
-3.6201361	webtrends	0.0
-3.6201361	webwork	0.0
-3.6201361	weka	0.0
-3.6201361	wifi	0.0
-3.6201361	wii	0.0
-3.6201361	wiki	0.0
-3.6201361	wimax	0.0
-3.6201361	wince	0.0
-3.6201361	windbg	0.0
-3.6201361	windows	0.0
-3.6201361	winform	0.0
-3.6201361	winforms	0.0
-3.6201361	winrunner	0.0
-3.6201361	wireless	0.0
-3.6201361	wireshark	0.0
-3.6201361	wlan	0.0
-3.6201361	wlc	0.0
-3.6201361	wml	0.0
-3.6201361	wms	0.0
-3.6201361	word	0.0
-3.6201361	wordpress	0.0
-3.6201361	workflow	0.0
-3.6201361	wpf	0.0
-3.6201361	wps	0.0
-3.6201361	writing	0.0
-3.6201361	wsdl	0.0
-3.6201361	wtl	0.0
-3.6201361	xacml	0.0
-3.6201361	xaml	0.0
-3.6201361	xampp	0.0
-3.6201361	xbox	0.0
-3.6201361	xbrl	0.0
-3.6201361	xcode	0.0
-3.6201361	xen	0.0
-3.6201361	xhtml	0.0
-3.6201361	xilinx	0.0
-3.6201361	xmind	0.0
-3.6201361	xml	0.0
-3.6201361	xmpp	0.0
-3.6201361	xp	0.0
-3.6201361	xpath	0.0
-3.6201361	xsi	0.0
-3.6201361	xslt	0.0
-3.6201361	xss	0.0
-3.6201361	yarn	0.0
-3.6201361	yii	0.0
-3.6201361	z	0.0
-3.6201361	zabbix	0.0
-3.6201361	zbrush	0.0
-3.6201361	zemax	0.0
-3.6201361	zepto	0.0
-3.6201361	zigbee	0.0
-3.6201361	zk	0.0
-3.6201361	zookeeper	0.0
-3.6201361	一体化	0.0
-3.6201361	一手	0.0
-3.6201361	一级	0.0
-3.6201361	一线	0.0
-3.6201361	一般	0.0
-3.6201361	三板	0.0
-3.6201361	三级	0.0
-3.6201361	三维	0.0
-3.6201361	三维动画	0.0
-3.6201361	上位	0.0
-3.6201361	上岗证	0.0
-3.6201361	上海交通大学	0.0
-3.6201361	上海大学	0.0
-3.6201361	上海财经大学	0.0
-3.6201361	下单	0.0
-3.6201361	不动产	0.0
-3.6201361	与	0.0
-3.6201361	专业	0.0
-3.6201361	专业知识	0.0
-3.6201361	专八	0.0
-3.6201361	专利	0.0
-3.6201361	专利申请	0.0
-3.6201361	专卖店	0.0
-3.6201361	专员	0.0
-3.6201361	专家	0.0
-3.6201361	专工	0.0
-3.6201361	专柜	0.0
-3.6201361	专职	0.0
-3.6201361	专项	0.0
-3.6201361	专题	0.0
-3.6201361	世界观	0.0
-3.6201361	业主	0.0
-3.6201361	业代	0.0
-3.6201361	业务	0.0
-3.6201361	业务主管	0.0
-3.6201361	业务员	0.0
-3.6201361	业务流程	0.0
-3.6201361	业务管理	0.0
-3.6201361	业务经理	0.0
-3.6201361	东北	0.0
-3.6201361	东北大学	0.0
-3.6201361	个性化	0.0
-3.6201361	个贷	0.0
-3.6201361	中	0.0
-3.6201361	中介	0.0
-3.6201361	中介代理	0.0
-3.6201361	中医	0.0
-3.6201361	中医科	0.0
-3.6201361	中南大学	0.0
-3.6201361	中南财经政法大学	0.0
-3.6201361	中国人民大学	0.0
-3.6201361	中央广播电视大学	0.0
-3.6201361	中央空调	0.0
-3.6201361	中学	0.0
-3.6201361	中小学	0.0
-3.6201361	中层	0.0
-3.6201361	中山大学	0.0
-3.6201361	中心	0.0
-3.6201361	中控	0.0
-3.6201361	中控室	0.0
-3.6201361	中文	0.0
-3.6201361	中日	0.0
-3.6201361	中级	0.0
-3.6201361	中级会计	0.0
-3.6201361	中英文	0.0
-3.6201361	中药	0.0
-3.6201361	中软	0.0
-3.6201361	中间件	0.0
-3.6201361	中韩	0.0
-3.6201361	中餐	0.0
-3.6201361	串口	0.0
-3.6201361	临床	0.0
-3.6201361	临床医学	0.0
-3.6201361	临时	0.0
-3.6201361	主	0.0
-3.6201361	主任	0.0
-3.6201361	主办	0.0
-3.6201361	主厨	0.0
-3.6201361	主持	0.0
-3.6201361	主持人	0.0
-3.6201361	主播	0.0
-3.6201361	主机	0.0
-3.6201361	主板	0.0
-3.6201361	主案	0.0
-3.6201361	主程	0.0
-3.6201361	主程序	0.0
-3.6201361	主策	0.0
-3.6201361	主管	0.0
-3.6201361	主编	0.0
-3.6201361	主美	0.0
-3.6201361	乐器	0.0
-3.6201361	乐高	0.0
-3.6201361	乒乓球	0.0
-3.6201361	乘务员	0.0
-3.6201361	书店	0.0
-3.6201361	买手	0.0
-3.6201361	事业部	0.0
-3.6201361	事件	0.0
-3.6201361	事务	0.0
-3.6201361	事务管理	0.0
-3.6201361	事故	0.0
-3.6201361	二手房	0.0
-3.6201361	二手车	0.0
-3.6201361	二次开发	0.0
-3.6201361	二甲	0.0
-3.6201361	二级	0.0
-3.6201361	云	0.0
-3.6201361	互动	0.0
-3.6201361	互联网	0.0
-3.6201361	互译	0.0
-3.6201361	五官科	0.0
-3.6201361	亚马逊	0.0
-3.6201361	交互	0.0
-3.6201361	交互技术	0.0
-3.6201361	交付	0.0
-3.6201361	交换	0.0
-3.6201361	交换机	0.0
-3.6201361	交易	0.0
-3.6201361	交易员	0.0
-3.6201361	交易平台	0.0
-3.6201361	交通	0.0
-3.6201361	交通大学	0.0
-3.6201361	交通管理	0.0
-3.6201361	交通运输	0.0
-3.6201361	产业	0.0
-3.6201361	产品	0.0
-3.6201361	产品代理	0.0
-3.6201361	产品包装	0.0
-3.6201361	产品开发	0.0
-3.6201361	产品策划	0.0
-3.6201361	产品设计	0.0
-3.6201361	产品质量	0.0
-3.6201361	产品部	0.0
-3.6201361	产品销售	0.0
-3.6201361	产线	0.0
-3.6201361	京东	0.0
-3.6201361	亲子	0.0
-3.6201361	亲子园	0.0
-3.6201361	人	0.0
-3.6201361	人事	0.0
-3.6201361	人事主管	0.0
-3.6201361	人事档案	0.0
-3.6201361	人事管理	0.0
-3.6201361	人事行政	0.0
-3.6201361	人体	0.0
-3.6201361	人力	0.0
-3.6201361	人力资源	0.0
-3.6201361	人力资源部	0.0
-3.6201361	人员	0.0
-3.6201361	人员培训	0.0
-3.6201361	人工智能	0.0
-3.6201361	人才	0.0
-3.6201361	人才培养	0.0
-3.6201361	人文	0.0
-3.6201361	人机交互	0.0
-3.6201361	人脸	0.0
-3.6201361	人脸识别	0.0
-3.6201361	人资	0.0
-3.6201361	从业	0.0
-3.6201361	从业人员	0.0
-3.6201361	仓储	0.0
-3.6201361	仓务	0.0
-3.6201361	仓务员	0.0
-3.6201361	仓库	0.0
-3.6201361	仓管	0.0
-3.6201361	仓管员	0.0
-3.6201361	仓配	0.0
-3.6201361	代理	0.0
-3.6201361	代理人	0.0
-3.6201361	代理商	0.0
-3.6201361	代码生成	0.0
-3.6201361	代表	0.0
-3.6201361	代课老师	0.0
-3.6201361	代账	0.0
-3.6201361	代驾	0.0
-3.6201361	仪器	0.0
-3.6201361	仪器仪表	0.0
-3.6201361	仪控	0.0
-3.6201361	仪电	0.0
-3.6201361	仪表	0.0
-3.6201361	仲裁	0.0
-3.6201361	价值	0.0
-3.6201361	价格	0.0
-3.6201361	任课老师	0.0
-3.6201361	仿真	0.0
-3.6201361	企业	0.0
-3.6201361	企业顾问	0.0
-3.6201361	企划	0.0
-3.6201361	企宣	0.0
-3.6201361	企管	0.0
-3.6201361	休闲	0.0
-3.6201361	休闲游戏	0.0
-3.6201361	众筹	0.0
-3.6201361	优化	0.0
-3.6201361	会	0.0
-3.6201361	会务	0.0
-3.6201361	会员	0.0
-3.6201361	会声	0.0
-3.6201361	会展	0.0
-3.6201361	会影	0.0
-3.6201361	会所	0.0
-3.6201361	会计	0.0
-3.6201361	会计学	0.0
-3.6201361	会计师	0.0
-3.6201361	会计核算	0.0
-3.6201361	会计职称	0.0
-3.6201361	会议	0.0
-3.6201361	会销	0.0
-3.6201361	传动系统	0.0
-3.6201361	传感器	0.0
-3.6201361	传播	0.0
-3.6201361	传菜	0.0
-3.6201361	传菜员	0.0
-3.6201361	传讯	0.0
-3.6201361	传输	0.0
-3.6201361	传达	0.0
-3.6201361	估价师	0.0
-3.6201361	估值	0.0
-3.6201361	估算	0.0
-3.6201361	伺服	0.0
-3.6201361	低压	0.0
-3.6201361	住院医师	0.0
-3.6201361	体外	0.0
-3.6201361	体检	0.0
-3.6201361	体系	0.0
-3.6201361	体系结构	0.0
-3.6201361	体育	0.0
-3.6201361	体育教师	0.0
-3.6201361	体育老师	0.0
-3.6201361	体能	0.0
-3.6201361	体验	0.0
-3.6201361	体验式	0.0
-3.6201361	作业	0.0
-3.6201361	作业员	0.0
-3.6201361	作文	0.0
-3.6201361	使用	0.0
-3.6201361	供应商	0.0
-3.6201361	供应链	0.0
-3.6201361	供用电	0.0
-3.6201361	促销	0.0
-3.6201361	促销员	0.0
-3.6201361	俄语	0.0
-3.6201361	保修	0.0
-3.6201361	保健	0.0
-3.6201361	保健品	0.0
-3.6201361	保全	0.0
-3.6201361	保卫	0.0
-3.6201361	保姆	0.0
-3.6201361	保安	0.0
-3.6201361	保护	0.0
-3.6201361	保洁	0.0
-3.6201361	保洁员	0.0
-3.6201361	保理	0.0
-3.6201361	保管员	0.0
-3.6201361	保育员	0.0
-3.6201361	保荐	0.0
-3.6201361	保证	0.0
-3.6201361	保镖	0.0
-3.6201361	保险	0.0
-3.6201361	保险业务	0.0
-3.6201361	保险代理	0.0
-3.6201361	保险学	0.0
-3.6201361	保险经纪	0.0
-3.6201361	信号	0.0
-3.6201361	信号处理	0.0
-3.6201361	信审	0.0
-3.6201361	信息	0.0
-3.6201361	信息中心	0.0
-3.6201361	信息化	0.0
-3.6201361	信息员	0.0
-3.6201361	信息处理	0.0
-3.6201361	信息学	0.0
-3.6201361	信息安全	0.0
-3.6201361	信息工程	0.0
-3.6201361	信息技术	0.0
-3.6201361	信息检索	0.0
-3.6201361	信息沟通	0.0
-3.6201361	信息流	0.0
-3.6201361	信息管理	0.0
-3.6201361	信息系统	0.0
-3.6201361	信息部	0.0
-3.6201361	信控	0.0
-3.6201361	信用	0.0
-3.6201361	信用卡	0.0
-3.6201361	信用风险	0.0
-3.6201361	信贷	0.0
-3.6201361	信贷业务	0.0
-3.6201361	信贷管理	0.0
-3.6201361	修图	0.0
-3.6201361	修图师	0.0
-3.6201361	修复	0.0
-3.6201361	修理工	0.0
-3.6201361	债券	0.0
-3.6201361	债权	0.0
-3.6201361	值班	0.0
-3.6201361	值长	0.0
-3.6201361	停车	0.0
-3.6201361	停车场	0.0
-3.6201361	健康	0.0
-3.6201361	健身	0.0
-3.6201361	储备	0.0
-3.6201361	储运	0.0
-3.6201361	催收	0.0
-3.6201361	儿科	0.0
-3.6201361	儿科医生	0.0
-3.6201361	儿童	0.0
-3.6201361	元	0.0
-3.6201361	元器件	0.0
-3.6201361	光伏	0.0
-3.6201361	光学	0.0
-3.6201361	光学系统	0.0
-3.6201361	光电	0.0
-3.6201361	光纤	0.0
-3.6201361	光通信	0.0
-3.6201361	党办	0.0
-3.6201361	党务	0.0
-3.6201361	党建	0.0
-3.6201361	党群	0.0
-3.6201361	入库	0.0
-3.6201361	入职	0.0
-3.6201361	全	0.0
-3.6201361	全国	0.0
-3.6201361	全栈	0.0
-3.6201361	全案	0.0
-3.6201361	全科	0.0
-3.6201361	全科医师	0.0
-3.6201361	全站仪	0.0
-3.6201361	全职	0.0
-3.6201361	公众	0.0
-3.6201361	公共	0.0
-3.6201361	公共事业	0.0
-3.6201361	公共事务	0.0
-3.6201361	公共关系	0.0
-3.6201361	公共卫生	0.0
-3.6201361	公关	0.0
-3.6201361	公司	0.0
-3.6201361	公寓	0.0
-3.6201361	公积金	0.0
-3.6201361	公路	0.0
-3.6201361	六西格玛	0.0
-3.6201361	关务	0.0
-3.6201361	关卡	0.0
-3.6201361	关怀	0.0
-3.6201361	关系	0.0
-3.6201361	其它	0.0
-3.6201361	养护	0.0
-3.6201361	养殖	0.0
-3.6201361	养老	0.0
-3.6201361	兼容性	0.0
-3.6201361	兽医	0.0
-3.6201361	兽药	0.0
-3.6201361	内业	0.0
-3.6201361	内刊	0.0
-3.6201361	内勤	0.0
-3.6201361	内存	0.0
-3.6201361	内审	0.0
-3.6201361	内审员	0.0
-3.6201361	内容	0.0
-3.6201361	内控	0.0
-3.6201361	内核	0.0
-3.6201361	内科	0.0
-3.6201361	内科医生	0.0
-3.6201361	内训	0.0
-3.6201361	内训师	0.0
-3.6201361	内部	0.0
-3.6201361	再保险	0.0
-3.6201361	写作	0.0
-3.6201361	写字楼	0.0
-3.6201361	军训教官	0.0
-3.6201361	农	0.0
-3.6201361	农业	0.0
-3.6201361	农产品	0.0
-3.6201361	农艺师	0.0
-3.6201361	冰箱	0.0
-3.6201361	冲压	0.0
-3.6201361	决算	0.0
-3.6201361	冶炼	0.0
-3.6201361	冶金	0.0
-3.6201361	凉菜	0.0
-3.6201361	减排	0.0
-3.6201361	出	0.0
-3.6201361	出厂	0.0
-3.6201361	出口	0.0
-3.6201361	出境	0.0
-3.6201361	出版	0.0
-3.6201361	出版发行	0.0
-3.6201361	出票	0.0
-3.6201361	出租车	0.0
-3.6201361	出纳	0.0
-3.6201361	出纳员	0.0
-3.6201361	出账	0.0
-3.6201361	出镜	0.0
-3.6201361	函数	0.0
-3.6201361	刀具	0.0
-3.6201361	分公司	0.0
-3.6201361	分子生物学	0.0
-3.6201361	分布式	0.0
-3.6201361	分布式文件系统	0.0
-3.6201361	分布式服务	0.0
-3.6201361	分布式系统	0.0
-3.6201361	分布式计算	0.0
-3.6201361	分店	0.0
-3.6201361	分拣	0.0
-3.6201361	分期	0.0
-3.6201361	分析	0.0
-3.6201361	分析仪	0.0
-3.6201361	分析员	0.0
-3.6201361	分析师	0.0
-3.6201361	分离	0.0
-3.6201361	分类	0.0
-3.6201361	分部	0.0
-3.6201361	分销	0.0
-3.6201361	切图	0.0
-3.6201361	创业	0.0
-3.6201361	创作	0.0
-3.6201361	创意	0.0
-3.6201361	创意设计	0.0
-3.6201361	初中	0.0
-3.6201361	初审	0.0
-3.6201361	初级	0.0
-3.6201361	初高	0.0
-3.6201361	初高中	0.0
-3.6201361	别墅	0.0
-3.6201361	制作	0.0
-3.6201361	制冷	0.0
-3.6201361	制冷系统	0.0
-3.6201361	制剂	0.0
-3.6201361	制动	0.0
-3.6201361	制单	0.0
-3.6201361	制图	0.0
-3.6201361	制定	0.0
-3.6201361	制片	0.0
-3.6201361	制片人	0.0
-3.6201361	制版	0.0
-3.6201361	制程	0.0
-3.6201361	制药	0.0
-3.6201361	制造	0.0
-3.6201361	制造业	0.0
-3.6201361	前厅	0.0
-3.6201361	前台	0.0
-3.6201361	前期	0.0
-3.6201361	前端	0.0
-3.6201361	前端开发	0.0
-3.6201361	剑桥	0.0
-3.6201361	剧务	0.0
-3.6201361	剧本	0.0
-3.6201361	剪辑	0.0
-3.6201361	副	0.0
-3.6201361	副主编	0.0
-3.6201361	副厂长	0.0
-3.6201361	副总	0.0
-3.6201361	副总经理	0.0
-3.6201361	副总裁	0.0
-3.6201361	副校长	0.0
-3.6201361	副经理	0.0
-3.6201361	副部长	0.0
-3.6201361	办	0.0
-3.6201361	办事员	0.0
-3.6201361	办事处	0.0
-3.6201361	办公	0.0
-3.6201361	办公室	0.0
-3.6201361	办公自动化	0.0
-3.6201361	办公设备	0.0
-3.6201361	办证	0.0
-3.6201361	功率	0.0
-3.6201361	功能测试	0.0
-3.6201361	功能设计	0.0
-3.6201361	加密	0.0
-3.6201361	加工	0.0
-3.6201361	加油站	0.0
-3.6201361	加盟	0.0
-3.6201361	动作	0.0
-3.6201361	动力	0.0
-3.6201361	动力学	0.0
-3.6201361	动力工程	0.0
-3.6201361	动力系统	0.0
-3.6201361	动效	0.0
-3.6201361	动漫	0.0
-3.6201361	动物	0.0
-3.6201361	动画	0.0
-3.6201361	动画师	0.0
-3.6201361	动画设计	0.0
-3.6201361	助手	0.0
-3.6201361	助教	0.0
-3.6201361	助理	0.0
-3.6201361	劳务	0.0
-3.6201361	劳动	0.0
-3.6201361	劳资	0.0
-3.6201361	勘察	0.0
-3.6201361	勘查	0.0
-3.6201361	包装	0.0
-3.6201361	包装工人	0.0
-3.6201361	化	0.0
-3.6201361	化妆品	0.0
-3.6201361	化妆师	0.0
-3.6201361	化学	0.0
-3.6201361	化学分析	0.0
-3.6201361	化学工程	0.0
-3.6201361	化工	0.0
-3.6201361	化验	0.0
-3.6201361	化验员	0.0
-3.6201361	化验室	0.0
-3.6201361	北京交通大学	0.0
-3.6201361	北京大学	0.0
-3.6201361	北京理工大学	0.0
-3.6201361	北京航空航天大学	0.0
-3.6201361	北京邮电大学	0.0
-3.6201361	区	0.0
-3.6201361	区块	0.0
-3.6201361	区域	0.0
-3.6201361	区域开发	0.0
-3.6201361	区域经理	0.0
-3.6201361	医务	0.0
-3.6201361	医助	0.0
-3.6201361	医学	0.0
-3.6201361	医师	0.0
-3.6201361	医生	0.0
-3.6201361	医疗	0.0
-3.6201361	医疗器械	0.0
-3.6201361	医药	0.0
-3.6201361	医院	0.0
-3.6201361	半导体	0.0
-3.6201361	华东师范大学	0.0
-3.6201361	华东理工大学	0.0
-3.6201361	华中科技大学	0.0
-3.6201361	华为	0.0
-3.6201361	华为技术有限公司	0.0
-3.6201361	华南	0.0
-3.6201361	华南理工大学	0.0
-3.6201361	协会	0.0
-3.6201361	协同	0.0
-3.6201361	协管员	0.0
-3.6201361	协议	0.0
-3.6201361	协调员	0.0
-3.6201361	协谈岗	0.0
-3.6201361	单元测试	0.0
-3.6201361	单员	0.0
-3.6201361	单机游戏	0.0
-3.6201361	单片机	0.0
-3.6201361	单簧管	0.0
-3.6201361	单证	0.0
-3.6201361	单证员	0.0
-3.6201361	卖场	0.0
-3.6201361	南京大学	0.0
-3.6201361	南开大学	0.0
-3.6201361	南昌	0.0
-3.6201361	博士后	0.0
-3.6201361	博客	0.0
-3.6201361	博物馆	0.0
-3.6201361	卫生	0.0
-3.6201361	印刷	0.0
-3.6201361	印刷技术	0.0
-3.6201361	印前	0.0
-3.6201361	印尼语	0.0
-3.6201361	印章	0.0
-3.6201361	危机	0.0
-3.6201361	即时通讯	0.0
-3.6201361	厂务	0.0
-3.6201361	厂长	0.0
-3.6201361	历史	0.0
-3.6201361	压力	0.0
-3.6201361	压力容器	0.0
-3.6201361	压铸	0.0
-3.6201361	原	0.0
-3.6201361	原型	0.0
-3.6201361	原料	0.0
-3.6201361	原材料	0.0
-3.6201361	原理	0.0
-3.6201361	原理图	0.0
-3.6201361	原画	0.0
-3.6201361	厦门大学	0.0
-3.6201361	厨师	0.0
-3.6201361	厨师长	0.0
-3.6201361	厨房	0.0
-3.6201361	叉车	0.0
-3.6201361	及	0.0
-3.6201361	反	0.0
-3.6201361	反射	0.0
-3.6201361	反洗钱	0.0
-3.6201361	反病毒	0.0
-3.6201361	反编译	0.0
-3.6201361	发动机	0.0
-3.6201361	发型师	0.0
-3.6201361	发展	0.0
-3.6201361	发布	0.0
-3.6201361	发票	0.0
-3.6201361	发行	0.0
-3.6201361	发货	0.0
-3.6201361	发酵	0.0
-3.6201361	取样	0.0
-3.6201361	受理	0.0
-3.6201361	变压器	0.0
-3.6201361	变更	0.0
-3.6201361	口	0.0
-3.6201361	口腔	0.0
-3.6201361	口腔医学	0.0
-3.6201361	口腔科	0.0
-3.6201361	口译	0.0
-3.6201361	口语	0.0
-3.6201361	古建筑	0.0
-3.6201361	古筝	0.0
-3.6201361	可用性	0.0
-3.6201361	可行性	0.0
-3.6201361	可视化	0.0
-3.6201361	可靠	0.0
-3.6201361	可靠性	0.0
-3.6201361	号	0.0
-3.6201361	司机	0.0
-3.6201361	合伙人	0.0
-3.6201361	合作	0.0
-3.6201361	合同	0.0
-3.6201361	合同法	0.0
-3.6201361	合成	0.0
-3.6201361	合约	0.0
-3.6201361	合肥工业大学	0.0
-3.6201361	合规	0.0
-3.6201361	吉他	0.0
-3.6201361	吉林大学	0.0
-3.6201361	同济大学	0.0
-3.6201361	后	0.0
-3.6201361	后勤	0.0
-3.6201361	后台	0.0
-3.6201361	后期	0.0
-3.6201361	后期制作	0.0
-3.6201361	后期合成	0.0
-3.6201361	吧	0.0
-3.6201361	吧台	0.0
-3.6201361	员	0.0
-3.6201361	员工	0.0
-3.6201361	呼入	0.0
-3.6201361	呼叫	0.0
-3.6201361	命令	0.0
-3.6201361	命名	0.0
-3.6201361	和	0.0
-3.6201361	咖啡	0.0
-3.6201361	咖啡厅	0.0
-3.6201361	咖啡吧	0.0
-3.6201361	咖啡师	0.0
-3.6201361	咖啡店	0.0
-3.6201361	咨询	0.0
-3.6201361	咨询师	0.0
-3.6201361	品保	0.0
-3.6201361	品保副理	0.0
-3.6201361	品保部	0.0
-3.6201361	品控	0.0
-3.6201361	品检	0.0
-3.6201361	品牌	0.0
-3.6201361	品牌设计	0.0
-3.6201361	品管	0.0
-3.6201361	品管部	0.0
-3.6201361	品类	0.0
-3.6201361	品茗	0.0
-3.6201361	品质	0.0
-3.6201361	品酒	0.0
-3.6201361	哈尔滨工业大学	0.0
-3.6201361	响应	0.0
-3.6201361	哲学	0.0
-3.6201361	售前	0.0
-3.6201361	售后	0.0
-3.6201361	售后服务	0.0
-3.6201361	售楼员	0.0
-3.6201361	售票员	0.0
-3.6201361	唯品	0.0
-3.6201361	商业	0.0
-3.6201361	商业中心	0.0
-3.6201361	商业化	0.0
-3.6201361	商业地产	0.0
-3.6201361	商业模式	0.0
-3.6201361	商事	0.0
-3.6201361	商务	0.0
-3.6201361	商务中心	0.0
-3.6201361	商务代表	0.0
-3.6201361	商务英语	0.0
-3.6201361	商务谈判	0.0
-3.6201361	商务部	0.0
-3.6201361	商品	0.0
-3.6201361	商品检验	0.0
-3.6201361	商圈	0.0
-3.6201361	商场	0.0
-3.6201361	商城	0.0
-3.6201361	商学院	0.0
-3.6201361	商家	0.0
-3.6201361	商店	0.0
-3.6201361	商户	0.0
-3.6201361	商拓	0.0
-3.6201361	商旅	0.0
-3.6201361	商标代理	0.0
-3.6201361	商管	0.0
-3.6201361	商超	0.0
-3.6201361	喷涂	0.0
-3.6201361	器件	0.0
-3.6201361	器械	0.0
-3.6201361	四川大学	0.0
-3.6201361	四级	0.0
-3.6201361	回归	0.0
-3.6201361	回款	0.0
-3.6201361	团购	0.0
-3.6201361	团队	0.0
-3.6201361	园区	0.0
-3.6201361	园建	0.0
-3.6201361	园林	0.0
-3.6201361	园林施工	0.0
-3.6201361	园林景观	0.0
-3.6201361	园林绿化	0.0
-3.6201361	园艺师	0.0
-3.6201361	园长	0.0
-3.6201361	固件	0.0
-3.6201361	固定资产	0.0
-3.6201361	固废	0.0
-3.6201361	国内	0.0
-3.6201361	国学	0.0
-3.6201361	国贸	0.0
-3.6201361	国际	0.0
-3.6201361	国际会计	0.0
-3.6201361	国际贸易	0.0
-3.6201361	图书	0.0
-3.6201361	图书馆	0.0
-3.6201361	图像	0.0
-3.6201361	图像处理	0.0
-3.6201361	图像识别	0.0
-3.6201361	图形	0.0
-3.6201361	图文	0.0
-3.6201361	图案	0.0
-3.6201361	图片	0.0
-3.6201361	图纸	0.0
-3.6201361	土	0.0
-3.6201361	土地	0.0
-3.6201361	土地规划	0.0
-3.6201361	土壤	0.0
-3.6201361	土建	0.0
-3.6201361	土建工程	0.0
-3.6201361	土木	0.0
-3.6201361	土木工程	0.0
-3.6201361	在线	0.0
-3.6201361	地	0.0
-3.6201361	地下	0.0
-3.6201361	地产	0.0
-3.6201361	地区	0.0
-3.6201361	地图	0.0
-3.6201361	地编	0.0
-3.6201361	地质	0.0
-3.6201361	地道	0.0
-3.6201361	地铁	0.0
-3.6201361	地面	0.0
-3.6201361	场	0.0
-3.6201361	场地	0.0
-3.6201361	场景	0.0
-3.6201361	坐席	0.0
-3.6201361	垂直	0.0
-3.6201361	城乡	0.0
-3.6201361	城乡规划	0.0
-3.6201361	城市	0.0
-3.6201361	城市规划	0.0
-3.6201361	培养	0.0
-3.6201361	培训	0.0
-3.6201361	培训中心	0.0
-3.6201361	培训师	0.0
-3.6201361	培训班	0.0
-3.6201361	培训部	0.0
-3.6201361	基层	0.0
-3.6201361	基带	0.0
-3.6201361	基建	0.0
-3.6201361	基本	0.0
-3.6201361	基本原理	0.0
-3.6201361	基本操作	0.0
-3.6201361	基础	0.0
-3.6201361	基础医学	0.0
-3.6201361	基础架构	0.0
-3.6201361	基础知识	0.0
-3.6201361	基础科学	0.0
-3.6201361	基础设施	0.0
-3.6201361	基金	0.0
-3.6201361	基金项目	0.0
-3.6201361	塑料	0.0
-3.6201361	塑胶模具	0.0
-3.6201361	增值	0.0
-3.6201361	增删	0.0
-3.6201361	增税	0.0
-3.6201361	壁画	0.0
-3.6201361	声乐	0.0
-3.6201361	声学	0.0
-3.6201361	声纹识别	0.0
-3.6201361	处	0.0
-3.6201361	处理	0.0
-3.6201361	处置	0.0
-3.6201361	备件	0.0
-3.6201361	备份	0.0
-3.6201361	备案	0.0
-3.6201361	复旦大学	0.0
-3.6201361	外事	0.0
-3.6201361	外勤	0.0
-3.6201361	外包	0.0
-3.6201361	外协	0.0
-3.6201361	外呼	0.0
-3.6201361	外场	0.0
-3.6201361	外教	0.0
-3.6201361	外景	0.0
-3.6201361	外汇	0.0
-3.6201361	外汇交易	0.0
-3.6201361	外派	0.0
-3.6201361	外科医生	0.0
-3.6201361	外籍	0.0
-3.6201361	外联	0.0
-3.6201361	外观	0.0
-3.6201361	外观设计	0.0
-3.6201361	外访	0.0
-3.6201361	外语	0.0
-3.6201361	外语翻译	0.0
-3.6201361	外账	0.0
-3.6201361	外贸	0.0
-3.6201361	外贸部	0.0
-3.6201361	外链	0.0
-3.6201361	外销	0.0
-3.6201361	多	0.0
-3.6201361	多元化	0.0
-3.6201361	多媒体	0.0
-3.6201361	多媒体技术	0.0
-3.6201361	多线程	0.0
-3.6201361	大	0.0
-3.6201361	大区	0.0
-3.6201361	大型	0.0
-3.6201361	大堂	0.0
-3.6201361	大学	0.0
-3.6201361	大巴	0.0
-3.6201361	大师	0.0
-3.6201361	大连理工大学	0.0
-3.6201361	天成	0.0
-3.6201361	天文学	0.0
-3.6201361	天津大学	0.0
-3.6201361	天猫	0.0
-3.6201361	天线	0.0
-3.6201361	失效	0.0
-3.6201361	夹具	0.0
-3.6201361	奢侈品	0.0
-3.6201361	奥数	0.0
-3.6201361	女装	0.0
-3.6201361	奶茶	0.0
-3.6201361	妇产科	0.0
-3.6201361	妇科医生	0.0
-3.6201361	委外	0.0
-3.6201361	娱乐	0.0
-3.6201361	婚庆	0.0
-3.6201361	婚礼	0.0
-3.6201361	婚纱	0.0
-3.6201361	媒介	0.0
-3.6201361	媒体	0.0
-3.6201361	嫂	0.0
-3.6201361	存储	0.0
-3.6201361	存储系统	0.0
-3.6201361	存货	0.0
-3.6201361	学	0.0
-3.6201361	学习	0.0
-3.6201361	学徒	0.0
-3.6201361	学术	0.0
-3.6201361	学校	0.0
-3.6201361	学生	0.0
-3.6201361	学科	0.0
-3.6201361	学管师	0.0
-3.6201361	孵化器	0.0
-3.6201361	安	0.0
-3.6201361	安保	0.0
-3.6201361	安全	0.0
-3.6201361	安全员	0.0
-3.6201361	安全工程	0.0
-3.6201361	安全性	0.0
-3.6201361	安卓	0.0
-3.6201361	安检员	0.0
-3.6201361	安环	0.0
-3.6201361	安管	0.0
-3.6201361	安装	0.0
-3.6201361	安装工	0.0
-3.6201361	安装工人	0.0
-3.6201361	安规	0.0
-3.6201361	安防	0.0
-3.6201361	完整性	0.0
-3.6201361	宏业	0.0
-3.6201361	宏观	0.0
-3.6201361	宏观经济	0.0
-3.6201361	官	0.0
-3.6201361	官网	0.0
-3.6201361	定价	0.0
-3.6201361	定位	0.0
-3.6201361	定制	0.0
-3.6201361	定岗	0.0
-3.6201361	定损	0.0
-3.6201361	定编	0.0
-3.6201361	定量	0.0
-3.6201361	宝石	0.0
-3.6201361	实习生	0.0
-3.6201361	实体	0.0
-3.6201361	实务	0.0
-3.6201361	实施	0.0
-3.6201361	实践	0.0
-3.6201361	实验员	0.0
-3.6201361	实验室	0.0
-3.6201361	宠物	0.0
-3.6201361	审单员	0.0
-3.6201361	审批	0.0
-3.6201361	审查	0.0
-3.6201361	审核	0.0
-3.6201361	审核员	0.0
-3.6201361	审计	0.0
-3.6201361	审计员	0.0
-3.6201361	审计学	0.0
-3.6201361	审计师	0.0
-3.6201361	审计部	0.0
-3.6201361	客户	0.0
-3.6201361	客户关系	0.0
-3.6201361	客户服务	0.0
-3.6201361	客户端	0.0
-3.6201361	客户端程序	0.0
-3.6201361	客户经理	0.0
-3.6201361	客户部	0.0
-3.6201361	客房	0.0
-3.6201361	客房部	0.0
-3.6201361	客服	0.0
-3.6201361	客服部	0.0
-3.6201361	客诉	0.0
-3.6201361	客运	0.0
-3.6201361	宣传	0.0
-3.6201361	宣传部	0.0
-3.6201361	室	0.0
-3.6201361	室主任	0.0
-3.6201361	室内	0.0
-3.6201361	室内外	0.0
-3.6201361	室内装潢	0.0
-3.6201361	室内设计	0.0
-3.6201361	宴会	0.0
-3.6201361	宴会厅	0.0
-3.6201361	家乐福	0.0
-3.6201361	家具	0.0
-3.6201361	家居	0.0
-3.6201361	家居设计	0.0
-3.6201361	家庭	0.0
-3.6201361	家庭教师	0.0
-3.6201361	家教	0.0
-3.6201361	家电	0.0
-3.6201361	家装	0.0
-3.6201361	容器	0.0
-3.6201361	容灾	0.0
-3.6201361	宽带	0.0
-3.6201361	宿管	0.0
-3.6201361	富士康	0.0
-3.6201361	对冲	0.0
-3.6201361	对外贸易	0.0
-3.6201361	对数	0.0
-3.6201361	对账	0.0
-3.6201361	导医	0.0
-3.6201361	导师	0.0
-3.6201361	导播	0.0
-3.6201361	导游	0.0
-3.6201361	导演	0.0
-3.6201361	导玩员	0.0
-3.6201361	导航	0.0
-3.6201361	导诊	0.0
-3.6201361	导购	0.0
-3.6201361	导购员	0.0
-3.6201361	寿险	0.0
-3.6201361	封装	0.0
-3.6201361	射频	0.0
-3.6201361	小	0.0
-3.6201361	小初	0.0
-3.6201361	小学	0.0
-3.6201361	小提琴	0.0
-3.6201361	少儿	0.0
-3.6201361	少儿英语	0.0
-3.6201361	尺寸	0.0
-3.6201361	尽职	0.0
-3.6201361	局域网	0.0
-3.6201361	展会	0.0
-3.6201361	展厅	0.0
-3.6201361	展览	0.0
-3.6201361	履约	0.0
-3.6201361	山东大学	0.0
-3.6201361	岗	0.0
-3.6201361	岗位	0.0
-3.6201361	岩土	0.0
-3.6201361	嵌入式	0.0
-3.6201361	嵌入式应用	0.0
-3.6201361	嵌入式操作系统	0.0
-3.6201361	嵌入式软件	0.0
-3.6201361	巡查	0.0
-3.6201361	巡检	0.0
-3.6201361	工	0.0
-3.6201361	工业	0.0
-3.6201361	工人	0.0
-3.6201361	工会	0.0
-3.6201361	工作人员	0.0
-3.6201361	工具	0.0
-3.6201361	工务	0.0
-3.6201361	工厂	0.0
-3.6201361	工商	0.0
-3.6201361	工商管理	0.0
-3.6201361	工商行政	0.0
-3.6201361	工段长	0.0
-3.6201361	工民建	0.0
-3.6201361	工程	0.0
-3.6201361	工程化	0.0
-3.6201361	工程学	0.0
-3.6201361	工程师	0.0
-3.6201361	工程建设	0.0
-3.6201361	工程技术	0.0
-3.6201361	工程施工	0.0
-3.6201361	工程设计	0.0
-3.6201361	工程造价	0.0
-3.6201361	工程部	0.0
-3.6201361	工程项目	0.0
-3.6201361	工程顾问	0.0
-3.6201361	工程预算	0.0
-3.6201361	工艺	0.0
-3.6201361	工艺员	0.0
-3.6201361	工艺品	0.0
-3.6201361	工艺师	0.0
-3.6201361	工艺技术	0.0
-3.6201361	工艺美术	0.0
-3.6201361	工装	0.0
-3.6201361	工长	0.0
-3.6201361	市	0.0
-3.6201361	市场	0.0
-3.6201361	市场总监	0.0
-3.6201361	市场推广	0.0
-3.6201361	市场策划	0.0
-3.6201361	市场营销	0.0
-3.6201361	市场调研	0.0
-3.6201361	市场部	0.0
-3.6201361	市政	0.0
-3.6201361	布局	0.0
-3.6201361	布线	0.0
-3.6201361	布置	0.0
-3.6201361	师	0.0
-3.6201361	师傅	0.0
-3.6201361	师范大学	0.0
-3.6201361	师资	0.0
-3.6201361	帝国	0.0
-3.6201361	帮厨	0.0
-3.6201361	常务	0.0
-3.6201361	幕墙	0.0
-3.6201361	干事	0.0
-3.6201361	干部	0.0
-3.6201361	平台	0.0
-3.6201361	平面	0.0
-3.6201361	平面设计	0.0
-3.6201361	年报	0.0
-3.6201361	并发	0.0
-3.6201361	并购	0.0
-3.6201361	幼儿	0.0
-3.6201361	幼儿园	0.0
-3.6201361	幼儿教师	0.0
-3.6201361	幼小	0.0
-3.6201361	幼教	0.0
-3.6201361	广东	0.0
-3.6201361	广告	0.0
-3.6201361	广告创意	0.0
-3.6201361	广告投放	0.0
-3.6201361	广告设计	0.0
-3.6201361	广播电视	0.0
-3.6201361	广联达	0.0
-3.6201361	广龙	0.0
-3.6201361	库房	0.0
-3.6201361	库管	0.0
-3.6201361	应付	0.0
-3.6201361	应届	0.0
-3.6201361	应收	0.0
-3.6201361	应用	0.0
-3.6201361	应用软件	0.0
-3.6201361	底层	0.0
-3.6201361	底盘	0.0
-3.6201361	店务	0.0
-3.6201361	店助	0.0
-3.6201361	店员	0.0
-3.6201361	店铺	0.0
-3.6201361	店长	0.0
-3.6201361	店面	0.0
-3.6201361	度	0.0
-3.6201361	度假	0.0
-3.6201361	座席	0.0
-3.6201361	座椅	0.0
-3.6201361	康复	0.0
-3.6201361	建材	0.0
-3.6201361	建模	0.0
-3.6201361	建站	0.0
-3.6201361	建筑	0.0
-3.6201361	建筑安全	0.0
-3.6201361	建筑安装	0.0
-3.6201361	建筑工程	0.0
-3.6201361	建筑师	0.0
-3.6201361	建筑节能	0.0
-3.6201361	建筑设备	0.0
-3.6201361	建筑设计	0.0
-3.6201361	建设	0.0
-3.6201361	建造师	0.0
-3.6201361	开业	0.0
-3.6201361	开发	0.0
-3.6201361	开发人员	0.0
-3.6201361	开发工具	0.0
-3.6201361	开发技术	0.0
-3.6201361	开发者	0.0
-3.6201361	开发软件	0.0
-3.6201361	开拓	0.0
-3.6201361	开放平台	0.0
-3.6201361	开源	0.0
-3.6201361	开票	0.0
-3.6201361	异业	0.0
-3.6201361	式	0.0
-3.6201361	引导员	0.0
-3.6201361	引擎	0.0
-3.6201361	弱	0.0
-3.6201361	弱电	0.0
-3.6201361	强弱电	0.0
-3.6201361	强电	0.0
-3.6201361	录	0.0
-3.6201361	录入	0.0
-3.6201361	录入员	0.0
-3.6201361	录音师	0.0
-3.6201361	形象	0.0
-3.6201361	形象设计	0.0
-3.6201361	彩妆	0.0
-3.6201361	彩妆师	0.0
-3.6201361	影像	0.0
-3.6201361	影像学	0.0
-3.6201361	影城	0.0
-3.6201361	影视	0.0
-3.6201361	影视制作	0.0
-3.6201361	影视剧	0.0
-3.6201361	影视动画	0.0
-3.6201361	影院	0.0
-3.6201361	往来	0.0
-3.6201361	征信	0.0
-3.6201361	律师	0.0
-3.6201361	微	0.0
-3.6201361	微信	0.0
-3.6201361	微博	0.0
-3.6201361	微商	0.0
-3.6201361	微机	0.0
-3.6201361	微生物	0.0
-3.6201361	微电子	0.0
-3.6201361	德语	0.0
-3.6201361	心理	0.0
-3.6201361	心理医生	0.0
-3.6201361	心理咨询	0.0
-3.6201361	心理学	0.0
-3.6201361	志愿者	0.0
-3.6201361	快	0.0
-3.6201361	快递	0.0
-3.6201361	快速	0.0
-3.6201361	性能	0.0
-3.6201361	总	0.0
-3.6201361	总体	0.0
-3.6201361	总务	0.0
-3.6201361	总务主任	0.0
-3.6201361	总助	0.0
-3.6201361	总厨	0.0
-3.6201361	总台	0.0
-3.6201361	总工	0.0
-3.6201361	总工程师	0.0
-3.6201361	总监	0.0
-3.6201361	总经办	0.0
-3.6201361	总经理	0.0
-3.6201361	总编	0.0
-3.6201361	总裁	0.0
-3.6201361	总装	0.0
-3.6201361	总账	0.0
-3.6201361	总账会计	0.0
-3.6201361	恒智	0.0
-3.6201361	情况	0.0
-3.6201361	情商	0.0
-3.6201361	情感	0.0
-3.6201361	情报分析	0.0
-3.6201361	情报学	0.0
-3.6201361	意大利语	0.0
-3.6201361	慢病	0.0
-3.6201361	成品	0.0
-3.6201361	成控	0.0
-3.6201361	成本	0.0
-3.6201361	成本会计	0.0
-3.6201361	成本核算	0.0
-3.6201361	成本计划	0.0
-3.6201361	战斗	0.0
-3.6201361	战略	0.0
-3.6201361	战略规划	0.0
-3.6201361	户外	0.0
-3.6201361	房	0.0
-3.6201361	房产	0.0
-3.6201361	房修	0.0
-3.6201361	房地产	0.0
-3.6201361	房屋	0.0
-3.6201361	房建	0.0
-3.6201361	房源	0.0
-3.6201361	所长	0.0
-3.6201361	手	0.0
-3.6201361	手术室	0.0
-3.6201361	手机	0.0
-3.6201361	手机操作系统	0.0
-3.6201361	手机游戏	0.0
-3.6201361	手机软件	0.0
-3.6201361	手游	0.0
-3.6201361	手游主	0.0
-3.6201361	手绘	0.0
-3.6201361	打	0.0
-3.6201361	打包	0.0
-3.6201361	打印	0.0
-3.6201361	打样	0.0
-3.6201361	托业	0.0
-3.6201361	托班	0.0
-3.6201361	托福	0.0
-3.6201361	托管	0.0
-3.6201361	执业	0.0
-3.6201361	执业资格	0.0
-3.6201361	执行	0.0
-3.6201361	执行主管	0.0
-3.6201361	扫描	0.0
-3.6201361	批发	0.0
-3.6201361	技工	0.0
-3.6201361	技师	0.0
-3.6201361	技服	0.0
-3.6201361	技术	0.0
-3.6201361	技术主管	0.0
-3.6201361	技术人员	0.0
-3.6201361	技术员	0.0
-3.6201361	技术咨询	0.0
-3.6201361	技术培训	0.0
-3.6201361	技术开发	0.0
-3.6201361	技术支持	0.0
-3.6201361	技术资格	0.0
-3.6201361	技术部	0.0
-3.6201361	技术顾问	0.0
-3.6201361	技能	0.0
-3.6201361	抓包	0.0
-3.6201361	抓取	0.0
-3.6201361	投后	0.0
-3.6201361	投放	0.0
-3.6201361	投标	0.0
-3.6201361	投融资	0.0
-3.6201361	投行	0.0
-3.6201361	投诉	0.0
-3.6201361	投资	0.0
-3.6201361	投资者	0.0
-3.6201361	投资部	0.0
-3.6201361	投资银行	0.0
-3.6201361	抗体	0.0
-3.6201361	折弯	0.0
-3.6201361	护士	0.0
-3.6201361	护工	0.0
-3.6201361	护理	0.0
-3.6201361	护理员	0.0
-3.6201361	护肤品	0.0
-3.6201361	报价	0.0
-3.6201361	报关	0.0
-3.6201361	报关员	0.0
-3.6201361	报告	0.0
-3.6201361	报建	0.0
-3.6201361	报建员	0.0
-3.6201361	报批	0.0
-3.6201361	报检	0.0
-3.6201361	报纸	0.0
-3.6201361	报表	0.0
-3.6201361	报警	0.0
-3.6201361	报销	0.0
-3.6201361	抵押	0.0
-3.6201361	担当	0.0
-3.6201361	拆迁	0.0
-3.6201361	拉长	0.0
-3.6201361	拍摄	0.0
-3.6201361	拓客	0.0
-3.6201361	拓展	0.0
-3.6201361	招商	0.0
-3.6201361	招商中心	0.0
-3.6201361	招商引资	0.0
-3.6201361	招待	0.0
-3.6201361	招投标	0.0
-3.6201361	招拍	0.0
-3.6201361	招标	0.0
-3.6201361	招生	0.0
-3.6201361	招生办	0.0
-3.6201361	招聘	0.0
-3.6201361	招采	0.0
-3.6201361	拣	0.0
-3.6201361	持续	0.0
-3.6201361	挂	0.0
-3.6201361	指导	0.0
-3.6201361	按揭	0.0
-3.6201361	按摩	0.0
-3.6201361	挖掘	0.0
-3.6201361	挖掘机	0.0
-3.6201361	授信	0.0
-3.6201361	授权	0.0
-3.6201361	授薪	0.0
-3.6201361	授课	0.0
-3.6201361	排序	0.0
-3.6201361	排查	0.0
-3.6201361	排版	0.0
-3.6201361	排课	0.0
-3.6201361	接	0.0
-3.6201361	接入	0.0
-3.6201361	接口	0.0
-3.6201361	接待	0.0
-3.6201361	接待员	0.0
-3.6201361	接线	0.0
-3.6201361	接线员	0.0
-3.6201361	控制	0.0
-3.6201361	控制算法	0.0
-3.6201361	控制系统	0.0
-3.6201361	控系统	0.0
-3.6201361	推	0.0
-3.6201361	推广	0.0
-3.6201361	推广员	0.0
-3.6201361	推拿	0.0
-3.6201361	推断	0.0
-3.6201361	推荐	0.0
-3.6201361	推销员	0.0
-3.6201361	插件	0.0
-3.6201361	插花	0.0
-3.6201361	搅拌车	0.0
-3.6201361	搜索	0.0
-3.6201361	搜索引擎	0.0
-3.6201361	搜索算法	0.0
-3.6201361	搬运工	0.0
-3.6201361	搭建	0.0
-3.6201361	搭配	0.0
-3.6201361	摄像	0.0
-3.6201361	摄像师	0.0
-3.6201361	摄影	0.0
-3.6201361	摄影师	0.0
-3.6201361	摄影记者	0.0
-3.6201361	摩托车	0.0
-3.6201361	播音	0.0
-3.6201361	播音员	0.0
-3.6201361	撰写	0.0
-3.6201361	操作	0.0
-3.6201361	操作员	0.0
-3.6201361	操作工	0.0
-3.6201361	操作系统	0.0
-3.6201361	操机	0.0
-3.6201361	操盘	0.0
-3.6201361	操盘手	0.0
-3.6201361	支付	0.0
-3.6201361	支付宝	0.0
-3.6201361	支持	0.0
-3.6201361	支撑	0.0
-3.6201361	支行	0.0
-3.6201361	收	0.0
-3.6201361	收入	0.0
-3.6201361	收益	0.0
-3.6201361	收藏品	0.0
-3.6201361	收购	0.0
-3.6201361	收费	0.0
-3.6201361	收费员	0.0
-3.6201361	收银	0.0
-3.6201361	收银员	0.0
-3.6201361	收集	0.0
-3.6201361	改善	0.0
-3.6201361	改查	0.0
-3.6201361	改进	0.0
-3.6201361	改造	0.0
-3.6201361	放射科	0.0
-3.6201361	放映员	0.0
-3.6201361	放款	0.0
-3.6201361	放线	0.0
-3.6201361	政府	0.0
-3.6201361	政治	0.0
-3.6201361	政策	0.0
-3.6201361	故障	0.0
-3.6201361	故障诊断	0.0
-3.6201361	效果图	0.0
-3.6201361	敏捷	0.0
-3.6201361	教务	0.0
-3.6201361	教务处	0.0
-3.6201361	教务长	0.0
-3.6201361	教员	0.0
-3.6201361	教学	0.0
-3.6201361	教学管理	0.0
-3.6201361	教官	0.0
-3.6201361	教师	0.0
-3.6201361	教材	0.0
-3.6201361	教研	0.0
-3.6201361	教研员	0.0
-3.6201361	教研组	0.0
-3.6201361	教练	0.0
-3.6201361	教练员	0.0
-3.6201361	教育	0.0
-3.6201361	散打	0.0
-3.6201361	数值	0.0
-3.6201361	数字	0.0
-3.6201361	数字化	0.0
-3.6201361	数字电路	0.0
-3.6201361	数学	0.0
-3.6201361	数学分析	0.0
-3.6201361	数学教师	0.0
-3.6201361	数学老师	0.0
-3.6201361	数据	0.0
-3.6201361	数据中心	0.0
-3.6201361	数据仓库	0.0
-3.6201361	数据分析	0.0
-3.6201361	数据处理	0.0
-3.6201361	数据备份	0.0
-3.6201361	数据安全	0.0
-3.6201361	数据库	0.0
-3.6201361	数据库管理员	0.0
-3.6201361	数据库系统	0.0
-3.6201361	数据录入	0.0
-3.6201361	数据挖掘	0.0
-3.6201361	数据服务	0.0
-3.6201361	数据模型	0.0
-3.6201361	数据测试	0.0
-3.6201361	数据管理	0.0
-3.6201361	数据系统	0.0
-3.6201361	数据结构	0.0
-3.6201361	数据通信	0.0
-3.6201361	数控	0.0
-3.6201361	数控技术	0.0
-3.6201361	数控机床	0.0
-3.6201361	数控车床	0.0
-3.6201361	数控铣	0.0
-3.6201361	数理统计	0.0
-3.6201361	数码	0.0
-3.6201361	整合	0.0
-3.6201361	整合营销	0.0
-3.6201361	整形	0.0
-3.6201361	整改	0.0
-3.6201361	整机	0.0
-3.6201361	整理	0.0
-3.6201361	整车	0.0
-3.6201361	文件	0.0
-3.6201361	文化	0.0
-3.6201361	文化课	0.0
-3.6201361	文员	0.0
-3.6201361	文字	0.0
-3.6201361	文字编辑	0.0
-3.6201361	文学	0.0
-3.6201361	文宣	0.0
-3.6201361	文控	0.0
-3.6201361	文本	0.0
-3.6201361	文案	0.0
-3.6201361	文档	0.0
-3.6201361	文科	0.0
-3.6201361	文秘	0.0
-3.6201361	斯维尔	0.0
-3.6201361	新	0.0
-3.6201361	新店	0.0
-3.6201361	新房	0.0
-3.6201361	新能源	0.0
-3.6201361	新药	0.0
-3.6201361	新闻	0.0
-3.6201361	新闻学	0.0
-3.6201361	新闻宣传	0.0
-3.6201361	新闻稿	0.0
-3.6201361	方案	0.0
-3.6201361	方案设计	0.0
-3.6201361	方法	0.0
-3.6201361	施工	0.0
-3.6201361	施工人员	0.0
-3.6201361	施工员	0.0
-3.6201361	施工图	0.0
-3.6201361	施工工艺	0.0
-3.6201361	施工队	0.0
-3.6201361	旅游	0.0
-3.6201361	旅行	0.0
-3.6201361	旅行社	0.0
-3.6201361	旗舰店	0.0
-3.6201361	无人机	0.0
-3.6201361	无损	0.0
-3.6201361	无线	0.0
-3.6201361	无线电	0.0
-3.6201361	无线网络	0.0
-3.6201361	无线通信	0.0
-3.6201361	无菌	0.0
-3.6201361	日化	0.0
-3.6201361	日常	0.0
-3.6201361	日式	0.0
-3.6201361	日志	0.0
-3.6201361	日文	0.0
-3.6201361	日语	0.0
-3.6201361	日语翻译	0.0
-3.6201361	旧改	0.0
-3.6201361	早教	0.0
-3.6201361	时尚	0.0
-3.6201361	时装设计	0.0
-3.6201361	时间	0.0
-3.6201361	明源	0.0
-3.6201361	易飞	0.0
-3.6201361	晚辅	0.0
-3.6201361	晨曦	0.0
-3.6201361	普工	0.0
-3.6201361	普通	0.0
-3.6201361	普通工人	0.0
-3.6201361	普通话	0.0
-3.6201361	景区	0.0
-3.6201361	景地	0.0
-3.6201361	景观	0.0
-3.6201361	景观设计	0.0
-3.6201361	智慧	0.0
-3.6201361	智能	0.0
-3.6201361	智能化	0.0
-3.6201361	智能算法	0.0
-3.6201361	暖通	0.0
-3.6201361	暖通设计	0.0
-3.6201361	暨南大学	0.0
-3.6201361	月	0.0
-3.6201361	有机合成	0.0
-3.6201361	有限元	0.0
-3.6201361	有限公司	0.0
-3.6201361	服	0.0
-3.6201361	服务	0.0
-3.6201361	服务员	0.0
-3.6201361	服务器	0.0
-3.6201361	服务器端	0.0
-3.6201361	服务器软件	0.0
-3.6201361	服务生	0.0
-3.6201361	服务端	0.0
-3.6201361	服装	0.0
-3.6201361	服装设计	0.0
-3.6201361	期权	0.0
-3.6201361	期货	0.0
-3.6201361	期货交易	0.0
-3.6201361	期货经纪	0.0
-3.6201361	木工	0.0
-3.6201361	本地化	0.0
-3.6201361	机	0.0
-3.6201361	机修	0.0
-3.6201361	机修工	0.0
-3.6201361	机加工	0.0
-3.6201361	机动车	0.0
-3.6201361	机器	0.0
-3.6201361	机器人	0.0
-3.6201361	机场	0.0
-3.6201361	机床	0.0
-3.6201361	机房	0.0
-3.6201361	机构	0.0
-3.6201361	机械	0.0
-3.6201361	机械制图	0.0
-3.6201361	机械制造	0.0
-3.6201361	机械加工	0.0
-3.6201361	机械工程	0.0
-3.6201361	机械设计	0.0
-3.6201361	机电	0.0
-3.6201361	机电设备	0.0
-3.6201361	机票	0.0
-3.6201361	机软件	0.0
-3.6201361	机长	0.0
-3.6201361	杂工	0.0
-3.6201361	杂志	0.0
-3.6201361	权证	0.0
-3.6201361	材料	0.0
-3.6201361	材料力学	0.0
-3.6201361	材料科学	0.0
-3.6201361	材质	0.0
-3.6201361	来料	0.0
-3.6201361	构架	0.0
-3.6201361	林	0.0
-3.6201361	林业	0.0
-3.6201361	架构	0.0
-3.6201361	架构师	0.0
-3.6201361	架构设计	0.0
-3.6201361	染整	0.0
-3.6201361	柜台	0.0
-3.6201361	柜员	0.0
-3.6201361	查勘	0.0
-3.6201361	查询	0.0
-3.6201361	标书	0.0
-3.6201361	标准	0.0
-3.6201361	标准化	0.0
-3.6201361	标定	0.0
-3.6201361	标注	0.0
-3.6201361	栏目	0.0
-3.6201361	校准	0.0
-3.6201361	校区	0.0
-3.6201361	校园	0.0
-3.6201361	校对	0.0
-3.6201361	校招	0.0
-3.6201361	校长	0.0
-3.6201361	样	0.0
-3.6201361	样品	0.0
-3.6201361	样板间	0.0
-3.6201361	核保	0.0
-3.6201361	核保岗	0.0
-3.6201361	核保核	0.0
-3.6201361	核心	0.0
-3.6201361	核心网	0.0
-3.6201361	核损	0.0
-3.6201361	核算	0.0
-3.6201361	核算员	0.0
-3.6201361	框架	0.0
-3.6201361	案场	0.0
-3.6201361	桌面	0.0
-3.6201361	桌面操作系统	0.0
-3.6201361	档案	0.0
-3.6201361	档案管理	0.0
-3.6201361	档案资料	0.0
-3.6201361	桥梁	0.0
-3.6201361	桥梁工程	0.0
-3.6201361	桩基	0.0
-3.6201361	梯队	0.0
-3.6201361	检修	0.0
-3.6201361	检具	0.0
-3.6201361	检定	0.0
-3.6201361	检测	0.0
-3.6201361	检测中心	0.0
-3.6201361	检票员	0.0
-3.6201361	检验	0.0
-3.6201361	检验员	0.0
-3.6201361	检验科	0.0
-3.6201361	棋牌	0.0
-3.6201361	植保	0.0
-3.6201361	植物	0.0
-3.6201361	植物保护	0.0
-3.6201361	楼宇	0.0
-3.6201361	楼层	0.0
-3.6201361	楼盘	0.0
-3.6201361	楼面	0.0
-3.6201361	概念设计	0.0
-3.6201361	概要	0.0
-3.6201361	概预算	0.0
-3.6201361	模具	0.0
-3.6201361	模具设计	0.0
-3.6201361	模块	0.0
-3.6201361	模型	0.0
-3.6201361	模式	0.0
-3.6201361	模式识别	0.0
-3.6201361	模拟	0.0
-3.6201361	模特	0.0
-3.6201361	模组	0.0
-3.6201361	橱柜	0.0
-3.6201361	橱窗	0.0
-3.6201361	欺诈	0.0
-3.6201361	歌手	0.0
-3.6201361	正则表达式	0.0
-3.6201361	武术	0.0
-3.6201361	武汉大学	0.0
-3.6201361	武汉理工大学	0.0
-3.6201361	武汉科技大学	0.0
-3.6201361	母婴	0.0
-3.6201361	毕业生	0.0
-3.6201361	民商事	0.0
-3.6201361	民商法	0.0
-3.6201361	民用建筑	0.0
-3.6201361	民航	0.0
-3.6201361	气化	0.0
-3.6201361	氩弧焊	0.0
-3.6201361	水利	0.0
-3.6201361	水利水电	0.0
-3.6201361	水务	0.0
-3.6201361	水处理	0.0
-3.6201361	水工	0.0
-3.6201361	水平	0.0
-3.6201361	水手	0.0
-3.6201361	水暖	0.0
-3.6201361	水暖工	0.0
-3.6201361	水果	0.0
-3.6201361	水电	0.0
-3.6201361	水电工	0.0
-3.6201361	水电工程	0.0
-3.6201361	水育	0.0
-3.6201361	水质	0.0
-3.6201361	汇算	0.0
-3.6201361	汇编语言	0.0
-3.6201361	汉语	0.0
-3.6201361	汉语言	0.0
-3.6201361	污水处理	0.0
-3.6201361	汽车	0.0
-3.6201361	汽配	0.0
-3.6201361	沙盘	0.0
-3.6201361	沟通	0.0
-3.6201361	油泥	0.0
-3.6201361	油漆	0.0
-3.6201361	油漆工	0.0
-3.6201361	油画	0.0
-3.6201361	油站	0.0
-3.6201361	治具	0.0
-3.6201361	治安管理	0.0
-3.6201361	治理	0.0
-3.6201361	治疗	0.0
-3.6201361	治疗师	0.0
-3.6201361	泄漏	0.0
-3.6201361	法	0.0
-3.6201361	法务	0.0
-3.6201361	法律	0.0
-3.6201361	法律事务	0.0
-3.6201361	法律咨询	0.0
-3.6201361	法律文书	0.0
-3.6201361	法律顾问	0.0
-3.6201361	法规	0.0
-3.6201361	法语	0.0
-3.6201361	波兰语	0.0
-3.6201361	波峰焊	0.0
-3.6201361	波形发生器	0.0
-3.6201361	波斯语	0.0
-3.6201361	注入	0.0
-3.6201361	注册	0.0
-3.6201361	注塑	0.0
-3.6201361	泰语	0.0
-3.6201361	洗	0.0
-3.6201361	洗衣机	0.0
-3.6201361	洞察	0.0
-3.6201361	活动	0.0
-3.6201361	派员	0.0
-3.6201361	流体	0.0
-3.6201361	流体力学	0.0
-3.6201361	流媒体	0.0
-3.6201361	流程	0.0
-3.6201361	流程图	0.0
-3.6201361	流量	0.0
-3.6201361	测员	0.0
-3.6201361	测控	0.0
-3.6201361	测算	0.0
-3.6201361	测绘	0.0
-3.6201361	测评	0.0
-3.6201361	测试	0.0
-3.6201361	测试工具	0.0
-3.6201361	测试方法	0.0
-3.6201361	测试环境	0.0
-3.6201361	测试用例	0.0
-3.6201361	测试计划	0.0
-3.6201361	测量	0.0
-3.6201361	测量员	0.0
-3.6201361	测量师	0.0
-3.6201361	浙江大学	0.0
-3.6201361	浪潮	0.0
-3.6201361	海事	0.0
-3.6201361	海关	0.0
-3.6201361	海外	0.0
-3.6201361	海外投资	0.0
-3.6201361	海报	0.0
-3.6201361	海报设计	0.0
-3.6201361	海洋	0.0
-3.6201361	海运	0.0
-3.6201361	涂料	0.0
-3.6201361	消品	0.0
-3.6201361	消息	0.0
-3.6201361	消息中间件	0.0
-3.6201361	消控员	0.0
-3.6201361	消费品	0.0
-3.6201361	消费者	0.0
-3.6201361	消防	0.0
-3.6201361	消防员	0.0
-3.6201361	消防安全	0.0
-3.6201361	消防工程	0.0
-3.6201361	涉外	0.0
-3.6201361	润乾	0.0
-3.6201361	液压	0.0
-3.6201361	淘宝	0.0
-3.6201361	深化	0.0
-3.6201361	深圳大学	0.0
-3.6201361	深度	0.0
-3.6201361	混凝土	0.0
-3.6201361	清	0.0
-3.6201361	清产核资	0.0
-3.6201361	清单	0.0
-3.6201361	清欠	0.0
-3.6201361	清洁	0.0
-3.6201361	清理	0.0
-3.6201361	清算	0.0
-3.6201361	清缴	0.0
-3.6201361	渔	0.0
-3.6201361	渗透	0.0
-3.6201361	渠道	0.0
-3.6201361	渲染	0.0
-3.6201361	游客	0.0
-3.6201361	游戏	0.0
-3.6201361	游戏软件	0.0
-3.6201361	游泳	0.0
-3.6201361	湖南大学	0.0
-3.6201361	漏洞	0.0
-3.6201361	演员	0.0
-3.6201361	演奏	0.0
-3.6201361	漫画	0.0
-3.6201361	激光	0.0
-3.6201361	灯光	0.0
-3.6201361	灯光师	0.0
-3.6201361	灾备	0.0
-3.6201361	烘培	0.0
-3.6201361	烘焙	0.0
-3.6201361	烟酒	0.0
-3.6201361	热	0.0
-3.6201361	热处理	0.0
-3.6201361	热工	0.0
-3.6201361	热线	0.0
-3.6201361	热能	0.0
-3.6201361	焊工	0.0
-3.6201361	焊接	0.0
-3.6201361	焊装	0.0
-3.6201361	照明	0.0
-3.6201361	照明设计	0.0
-3.6201361	熔接	0.0
-3.6201361	爬虫	0.0
-3.6201361	爵士舞	0.0
-3.6201361	版图	0.0
-3.6201361	版师	0.0
-3.6201361	版本	0.0
-3.6201361	版权	0.0
-3.6201361	牙科医生	0.0
-3.6201361	牧	0.0
-3.6201361	物	0.0
-3.6201361	物业	0.0
-3.6201361	物业公司	0.0
-3.6201361	物业管理	0.0
-3.6201361	物控	0.0
-3.6201361	物控员	0.0
-3.6201361	物料	0.0
-3.6201361	物流	0.0
-3.6201361	物流配送	0.0
-3.6201361	物理	0.0
-3.6201361	物理学	0.0
-3.6201361	物理层	0.0
-3.6201361	物管	0.0
-3.6201361	物资	0.0
-3.6201361	特助	0.0
-3.6201361	特勤	0.0
-3.6201361	特勤队	0.0
-3.6201361	特效	0.0
-3.6201361	特种设备	0.0
-3.6201361	猎头	0.0
-3.6201361	玩具	0.0
-3.6201361	环保	0.0
-3.6201361	环境	0.0
-3.6201361	环境保护	0.0
-3.6201361	环境工程	0.0
-3.6201361	环境影响	0.0
-3.6201361	环境监测	0.0
-3.6201361	环境规划	0.0
-3.6201361	现代	0.0
-3.6201361	现场	0.0
-3.6201361	现金	0.0
-3.6201361	珠宝	0.0
-3.6201361	班主任	0.0
-3.6201361	班长	0.0
-3.6201361	理	0.0
-3.6201361	理疗	0.0
-3.6201361	理科	0.0
-3.6201361	理论	0.0
-3.6201361	理财	0.0
-3.6201361	理财师	0.0
-3.6201361	理货员	0.0
-3.6201361	理赔	0.0
-3.6201361	瑜伽	0.0
-3.6201361	甜品	0.0
-3.6201361	生	0.0
-3.6201361	生产	0.0
-3.6201361	生产工艺	0.0
-3.6201361	生产线	0.0
-3.6201361	生命周期	0.0
-3.6201361	生态学	0.0
-3.6201361	生活	0.0
-3.6201361	生物	0.0
-3.6201361	生物制药	0.0
-3.6201361	生物医学	0.0
-3.6201361	生物学	0.0
-3.6201361	生物工程	0.0
-3.6201361	生理学	0.0
-3.6201361	生管	0.0
-3.6201361	生鲜	0.0
-3.6201361	用例	0.0
-3.6201361	用友	0.0
-3.6201361	用户	0.0
-3.6201361	用户服务	0.0
-3.6201361	用户端	0.0
-3.6201361	申报	0.0
-3.6201361	电仪	0.0
-3.6201361	电信	0.0
-3.6201361	电力	0.0
-3.6201361	电力工程	0.0
-3.6201361	电商	0.0
-3.6201361	电器	0.0
-3.6201361	电器维修	0.0
-3.6201361	电声	0.0
-3.6201361	电子	0.0
-3.6201361	电子产品	0.0
-3.6201361	电子信息	0.0
-3.6201361	电子出版	0.0
-3.6201361	电子商务	0.0
-3.6201361	电子商务系统	0.0
-3.6201361	电子技术	0.0
-3.6201361	电子政务	0.0
-3.6201361	电子电路	0.0
-3.6201361	电子科技大学	0.0
-3.6201361	电子线路	0.0
-3.6201361	电子警察	0.0
-3.6201361	电子设计	0.0
-3.6201361	电工	0.0
-3.6201361	电影	0.0
-3.6201361	电控	0.0
-3.6201361	电机	0.0
-3.6201361	电机工程	0.0
-3.6201361	电梯	0.0
-3.6201361	电气	0.0
-3.6201361	电气专业	0.0
-3.6201361	电气工程	0.0
-3.6201361	电气工程师	0.0
-3.6201361	电气设备	0.0
-3.6201361	电气设计	0.0
-3.6201361	电池	0.0
-3.6201361	电源	0.0
-3.6201361	电源开关	0.0
-3.6201361	电焊工	0.0
-3.6201361	电站	0.0
-3.6201361	电算化	0.0
-3.6201361	电脑	0.0
-3.6201361	电脑操作	0.0
-3.6201361	电脑设计	0.0
-3.6201361	电芯	0.0
-3.6201361	电视	0.0
-3.6201361	电视节目	0.0
-3.6201361	电话	0.0
-3.6201361	电路	0.0
-3.6201361	电路板	0.0
-3.6201361	电路设计	0.0
-3.6201361	电销	0.0
-3.6201361	电镀	0.0
-3.6201361	男科	0.0
-3.6201361	男装	0.0
-3.6201361	画册设计	0.0
-3.6201361	画图	0.0
-3.6201361	画师	0.0
-3.6201361	界面	0.0
-3.6201361	界面设计	0.0
-3.6201361	留学	0.0
-3.6201361	畜牧师	0.0
-3.6201361	病理	0.0
-3.6201361	登记	0.0
-3.6201361	白盒	0.0
-3.6201361	百度	0.0
-3.6201361	百胜	0.0
-3.6201361	的	0.0
-3.6201361	皮肤科	0.0
-3.6201361	皮革	0.0
-3.6201361	监察	0.0
-3.6201361	监察员	0.0
-3.6201361	监控	0.0
-3.6201361	监测	0.0
-3.6201361	监理	0.0
-3.6201361	监理员	0.0
-3.6201361	监督	0.0
-3.6201361	监管	0.0
-3.6201361	盘点	0.0
-3.6201361	目标	0.0
-3.6201361	直播	0.0
-3.6201361	直播室	0.0
-3.6201361	直营	0.0
-3.6201361	直通车	0.0
-3.6201361	直销	0.0
-3.6201361	相关	0.0
-3.6201361	省区	0.0
-3.6201361	眼科医生	0.0
-3.6201361	眼镜	0.0
-3.6201361	着装	0.0
-3.6201361	督导	0.0
-3.6201361	督导员	0.0
-3.6201361	知识	0.0
-3.6201361	知识产权	0.0
-3.6201361	知识库	0.0
-3.6201361	短信	0.0
-3.6201361	石化	0.0
-3.6201361	石油	0.0
-3.6201361	石油化工	0.0
-3.6201361	矿产	0.0
-3.6201361	研发	0.0
-3.6201361	研发部	0.0
-3.6201361	研展	0.0
-3.6201361	研究	0.0
-3.6201361	研究员	0.0
-3.6201361	研究院	0.0
-3.6201361	硬件	0.0
-3.6201361	硬装	0.0
-3.6201361	确权	0.0
-3.6201361	碧桂园	0.0
-3.6201361	磨工	0.0
-3.6201361	示波器	0.0
-3.6201361	礼仪	0.0
-3.6201361	礼仪模特	0.0
-3.6201361	礼品	0.0
-3.6201361	礼宾	0.0
-3.6201361	礼宾司	0.0
-3.6201361	社交	0.0
-3.6201361	社会	0.0
-3.6201361	社会化	0.0
-3.6201361	社会学	0.0
-3.6201361	社会科学	0.0
-3.6201361	社保	0.0
-3.6201361	社区	0.0
-3.6201361	社工	0.0
-3.6201361	社群	0.0
-3.6201361	神经网络	0.0
-3.6201361	票务	0.0
-3.6201361	票据	0.0
-3.6201361	福利	0.0
-3.6201361	秀	0.0
-3.6201361	私人	0.0
-3.6201361	私募	0.0
-3.6201361	私有	0.0
-3.6201361	科	0.0
-3.6201361	科员	0.0
-3.6201361	科学	0.0
-3.6201361	科学技术	0.0
-3.6201361	科技	0.0
-3.6201361	科研	0.0
-3.6201361	科研人员	0.0
-3.6201361	科长	0.0
-3.6201361	秘书	0.0
-3.6201361	租售	0.0
-3.6201361	租售店	0.0
-3.6201361	租房	0.0
-3.6201361	租赁	0.0
-3.6201361	秩序	0.0
-3.6201361	移动	0.0
-3.6201361	移植	0.0
-3.6201361	移民	0.0
-3.6201361	程序	0.0
-3.6201361	程序员	0.0
-3.6201361	程序开发	0.0
-3.6201361	程序设计	0.0
-3.6201361	程序调试	0.0
-3.6201361	税务	0.0
-3.6201361	税务师	0.0
-3.6201361	税控	0.0
-3.6201361	税收	0.0
-3.6201361	税收管理	0.0
-3.6201361	稳定性	0.0
-3.6201361	稽核	0.0
-3.6201361	空中	0.0
-3.6201361	空气	0.0
-3.6201361	空调	0.0
-3.6201361	空运	0.0
-3.6201361	空间	0.0
-3.6201361	空间设计	0.0
-3.6201361	站长	0.0
-3.6201361	竞价	0.0
-3.6201361	竞品	0.0
-3.6201361	竞技	0.0
-3.6201361	童书	0.0
-3.6201361	端	0.0
-3.6201361	笔记本	0.0
-3.6201361	笔译	0.0
-3.6201361	等	0.0
-3.6201361	等级	0.0
-3.6201361	等级证书	0.0
-3.6201361	筑业	0.0
-3.6201361	策划	0.0
-3.6201361	策划师	0.0
-3.6201361	策展	0.0
-3.6201361	策略	0.0
-3.6201361	筹划	0.0
-3.6201361	筹备	0.0
-3.6201361	签约	0.0
-3.6201361	签证	0.0
-3.6201361	算法	0.0
-3.6201361	算量	0.0
-3.6201361	管员	0.0
-3.6201361	管培生	0.0
-3.6201361	管家	0.0
-3.6201361	管控	0.0
-3.6201361	管理	0.0
-3.6201361	管理中心	0.0
-3.6201361	管理人员	0.0
-3.6201361	管理体系	0.0
-3.6201361	管理信息系统	0.0
-3.6201361	管理员	0.0
-3.6201361	管理工作	0.0
-3.6201361	管理工具	0.0
-3.6201361	管理系统	0.0
-3.6201361	管理软件	0.0
-3.6201361	管理部	0.0
-3.6201361	管道	0.0
-3.6201361	管道工程	0.0
-3.6201361	篮球	0.0
-3.6201361	类	0.0
-3.6201361	类目	0.0
-3.6201361	粉丝	0.0
-3.6201361	粤菜	0.0
-3.6201361	粤语	0.0
-3.6201361	精准	0.0
-3.6201361	精品	0.0
-3.6201361	精益	0.0
-3.6201361	精算	0.0
-3.6201361	精算师	0.0
-3.6201361	精英	0.0
-3.6201361	精装	0.0
-3.6201361	精装修	0.0
-3.6201361	糕点	0.0
-3.6201361	系列	0.0
-3.6201361	系统	0.0
-3.6201361	系统分析	0.0
-3.6201361	系统升级	0.0
-3.6201361	系统命令	0.0
-3.6201361	系统安全	0.0
-3.6201361	系统实施	0.0
-3.6201361	系统工程	0.0
-3.6201361	系统监控	0.0
-3.6201361	系统管理	0.0
-3.6201361	系统管理员	0.0
-3.6201361	系统维护	0.0
-3.6201361	系统软件	0.0
-3.6201361	系长	0.0
-3.6201361	纪检	0.0
-3.6201361	纪检监察	0.0
-3.6201361	纬	0.0
-3.6201361	纳税	0.0
-3.6201361	纸样	0.0
-3.6201361	纺织	0.0
-3.6201361	纺织品	0.0
-3.6201361	线上	0.0
-3.6201361	线下	0.0
-3.6201361	线切割	0.0
-3.6201361	线束	0.0
-3.6201361	线程	0.0
-3.6201361	线路	0.0
-3.6201361	组件	0.0
-3.6201361	组团	0.0
-3.6201361	组建	0.0
-3.6201361	组态	0.0
-3.6201361	组策略	0.0
-3.6201361	组织	0.0
-3.6201361	组织协调	0.0
-3.6201361	组织变革	0.0
-3.6201361	组装	0.0
-3.6201361	组训	0.0
-3.6201361	组长	0.0
-3.6201361	细胞	0.0
-3.6201361	终端	0.0
-3.6201361	经济	0.0
-3.6201361	经济学	0.0
-3.6201361	经理	0.0
-3.6201361	经理人	0.0
-3.6201361	经理助理	0.0
-3.6201361	经纪	0.0
-3.6201361	经纪人	0.0
-3.6201361	经营	0.0
-3.6201361	经贸	0.0
-3.6201361	经销商	0.0
-3.6201361	经验	0.0
-3.6201361	结构	0.0
-3.6201361	结构化	0.0
-3.6201361	结构设计	0.0
-3.6201361	结算	0.0
-3.6201361	绘制	0.0
-3.6201361	绘图	0.0
-3.6201361	绘图员	0.0
-3.6201361	绘声绘影	0.0
-3.6201361	绘本	0.0
-3.6201361	绘画	0.0
-3.6201361	给排水	0.0
-3.6201361	统筹	0.0
-3.6201361	统计	0.0
-3.6201361	统计分析	0.0
-3.6201361	统计员	0.0
-3.6201361	统计学	0.0
-3.6201361	统计师	0.0
-3.6201361	绩效	0.0
-3.6201361	绩效考核	0.0
-3.6201361	续保	0.0
-3.6201361	维保	0.0
-3.6201361	维修	0.0
-3.6201361	维修工	0.0
-3.6201361	维修电工	0.0
-3.6201361	维护	0.0
-3.6201361	维护员	0.0
-3.6201361	维权	0.0
-3.6201361	综合	0.0
-3.6201361	综合部	0.0
-3.6201361	综管	0.0
-3.6201361	绿	0.0
-3.6201361	绿化	0.0
-3.6201361	绿带	0.0
-3.6201361	缅甸语	0.0
-3.6201361	缓存	0.0
-3.6201361	编	0.0
-3.6201361	编写	0.0
-3.6201361	编写程序	0.0
-3.6201361	编剧	0.0
-3.6201361	编务	0.0
-3.6201361	编导	0.0
-3.6201361	编排	0.0
-3.6201361	编目员	0.0
-3.6201361	编码	0.0
-3.6201361	编程	0.0
-3.6201361	编程技术	0.0
-3.6201361	编程语言	0.0
-3.6201361	编解码	0.0
-3.6201361	编译	0.0
-3.6201361	编辑	0.0
-3.6201361	编辑出版	0.0
-3.6201361	缝纫工	0.0
-3.6201361	网优	0.0
-3.6201361	网店	0.0
-3.6201361	网推	0.0
-3.6201361	网游	0.0
-3.6201361	网点	0.0
-3.6201361	网电	0.0
-3.6201361	网站	0.0
-3.6201361	网签	0.0
-3.6201361	网管	0.0
-3.6201361	网络	0.0
-3.6201361	网络产品	0.0
-3.6201361	网络媒介	0.0
-3.6201361	网络安全	0.0
-3.6201361	网络应用	0.0
-3.6201361	网络管理	0.0
-3.6201361	网络管理员	0.0
-3.6201361	网络系统	0.0
-3.6201361	网络综合	0.0
-3.6201361	网络营销	0.0
-3.6201361	网络设备	0.0
-3.6201361	网络通信	0.0
-3.6201361	网络部	0.0
-3.6201361	网规	0.0
-3.6201361	网贷	0.0
-3.6201361	网银	0.0
-3.6201361	网销	0.0
-3.6201361	网页	0.0
-3.6201361	置业	0.0
-3.6201361	美体	0.0
-3.6201361	美图秀	0.0
-3.6201361	美妆	0.0
-3.6201361	美容	0.0
-3.6201361	美容师	0.0
-3.6201361	美容店	0.0
-3.6201361	美容美发	0.0
-3.6201361	美工	0.0
-3.6201361	美工设计	0.0
-3.6201361	美指	0.0
-3.6201361	美术	0.0
-3.6201361	美术师	0.0
-3.6201361	美术设计	0.0
-3.6201361	美甲	0.0
-3.6201361	美编	0.0
-3.6201361	美股	0.0
-3.6201361	美陈	0.0
-3.6201361	美食	0.0
-3.6201361	群	0.0
-3.6201361	群众演员	0.0
-3.6201361	翻样	0.0
-3.6201361	翻译	0.0
-3.6201361	老师	0.0
-3.6201361	考勤	0.0
-3.6201361	考核	0.0
-3.6201361	考试	0.0
-3.6201361	耳机	0.0
-3.6201361	职业	0.0
-3.6201361	职业技能	0.0
-3.6201361	职员	0.0
-3.6201361	职场	0.0
-3.6201361	职称	0.0
-3.6201361	联盟	0.0
-3.6201361	联络官	0.0
-3.6201361	联网	0.0
-3.6201361	聚类	0.0
-3.6201361	肛肠科	0.0
-3.6201361	股权	0.0
-3.6201361	股票	0.0
-3.6201361	股票交易	0.0
-3.6201361	肥料	0.0
-3.6201361	背景	0.0
-3.6201361	能力	0.0
-3.6201361	能源	0.0
-3.6201361	能源管理	0.0
-3.6201361	脚本	0.0
-3.6201361	脚本语言	0.0
-3.6201361	自	0.0
-3.6201361	自动化	0.0
-3.6201361	自动控制	0.0
-3.6201361	自控	0.0
-3.6201361	自然科学	0.0
-3.6201361	自然语言	0.0
-3.6201361	舆情	0.0
-3.6201361	舞台	0.0
-3.6201361	舞蹈	0.0
-3.6201361	舞蹈演员	0.0
-3.6201361	航天	0.0
-3.6201361	航电	0.0
-3.6201361	航空	0.0
-3.6201361	航空航天	0.0
-3.6201361	航线	0.0
-3.6201361	船务	0.0
-3.6201361	船员	0.0
-3.6201361	船舶设计	0.0
-3.6201361	色彩	0.0
-3.6201361	艺人	0.0
-3.6201361	艺术	0.0
-3.6201361	艺术品	0.0
-3.6201361	艺术总监	0.0
-3.6201361	艺术设计	0.0
-3.6201361	节目	0.0
-3.6201361	节目主持	0.0
-3.6201361	节约	0.0
-3.6201361	节能	0.0
-3.6201361	芯片	0.0
-3.6201361	苗圃	0.0
-3.6201361	苗木	0.0
-3.6201361	英	0.0
-3.6201361	英文	0.0
-3.6201361	英文翻译	0.0
-3.6201361	英法	0.0
-3.6201361	英语	0.0
-3.6201361	英语专业	0.0
-3.6201361	英语六级	0.0
-3.6201361	英语教学	0.0
-3.6201361	英语等级	0.0
-3.6201361	英语翻译	0.0
-3.6201361	英语老师	0.0
-3.6201361	英语课程	0.0
-3.6201361	茶叶	0.0
-3.6201361	茶艺	0.0
-3.6201361	草图	0.0
-3.6201361	草坪	0.0
-3.6201361	药代	0.0
-3.6201361	药剂	0.0
-3.6201361	药剂士	0.0
-3.6201361	药剂科	0.0
-3.6201361	药品	0.0
-3.6201361	药士	0.0
-3.6201361	药师	0.0
-3.6201361	药店	0.0
-3.6201361	药物	0.0
-3.6201361	药物制剂	0.0
-3.6201361	药理	0.0
-3.6201361	菜品	0.0
-3.6201361	营业	0.0
-3.6201361	营业厅	0.0
-3.6201361	营业员	0.0
-3.6201361	营业部	0.0
-3.6201361	营养	0.0
-3.6201361	营养师	0.0
-3.6201361	营建	0.0
-3.6201361	营运	0.0
-3.6201361	营销	0.0
-3.6201361	营销中心	0.0
-3.6201361	营销学	0.0
-3.6201361	营销策划	0.0
-3.6201361	葡萄牙语	0.0
-3.6201361	葡萄酒	0.0
-3.6201361	葡语	0.0
-3.6201361	董事	0.0
-3.6201361	董事会	0.0
-3.6201361	董事局	0.0
-3.6201361	董事长	0.0
-3.6201361	董办	0.0
-3.6201361	蒙氏	0.0
-3.6201361	蓝牙	0.0
-3.6201361	薪资	0.0
-3.6201361	薪酬	0.0
-3.6201361	虚拟	0.0
-3.6201361	虚拟化	0.0
-3.6201361	蛋糕	0.0
-3.6201361	融资	0.0
-3.6201361	行业	0.0
-3.6201361	行人	0.0
-3.6201361	行政	0.0
-3.6201361	行政主管	0.0
-3.6201361	行政事务	0.0
-3.6201361	行政助理	0.0
-3.6201361	行政法	0.0
-3.6201361	行政部	0.0
-3.6201361	行政部长	0.0
-3.6201361	行李	0.0
-3.6201361	行销	0.0
-3.6201361	行长	0.0
-3.6201361	衍生品	0.0
-3.6201361	衔接	0.0
-3.6201361	衣工	0.0
-3.6201361	表	0.0
-3.6201361	表演	0.0
-3.6201361	表达能力	0.0
-3.6201361	表面	0.0
-3.6201361	裁剪	0.0
-3.6201361	裁缝	0.0
-3.6201361	装修	0.0
-3.6201361	装备	0.0
-3.6201361	装潢	0.0
-3.6201361	装订	0.0
-3.6201361	装配	0.0
-3.6201361	装配工	0.0
-3.6201361	装配式	0.0
-3.6201361	装饰	0.0
-3.6201361	裱花师	0.0
-3.6201361	西南	0.0
-3.6201361	西安交通大学	0.0
-3.6201361	西安电子科技大学	0.0
-3.6201361	西点	0.0
-3.6201361	西班牙语	0.0
-3.6201361	西门子	0.0
-3.6201361	西餐	0.0
-3.6201361	西餐厅	0.0
-3.6201361	规划	0.0
-3.6201361	规划师	0.0
-3.6201361	规划设计	0.0
-3.6201361	规则	0.0
-3.6201361	规范	0.0
-3.6201361	视光师	0.0
-3.6201361	视效	0.0
-3.6201361	视觉	0.0
-3.6201361	视觉效果	0.0
-3.6201361	视觉艺术	0.0
-3.6201361	视频	0.0
-3.6201361	视频产品	0.0
-3.6201361	视频会议	0.0
-3.6201361	视频剪辑	0.0
-3.6201361	视频格式	0.0
-3.6201361	角色	0.0
-3.6201361	解决	0.0
-3.6201361	解决方案	0.0
-3.6201361	警卫员	0.0
-3.6201361	警员	0.0
-3.6201361	计价	0.0
-3.6201361	计划	0.0
-3.6201361	计算	0.0
-3.6201361	计算机	0.0
-3.6201361	计算机专业	0.0
-3.6201361	计算机信息	0.0
-3.6201361	计算机技术	0.0
-3.6201361	计算机服务	0.0
-3.6201361	计算机硬件	0.0
-3.6201361	计算机科学	0.0
-3.6201361	计算机系统	0.0
-3.6201361	计算机网络	0.0
-3.6201361	计算机软件	0.0
-3.6201361	计算机辅助	0.0
-3.6201361	计调	0.0
-3.6201361	计费	0.0
-3.6201361	计量	0.0
-3.6201361	计量经济学	0.0
-3.6201361	订单	0.0
-3.6201361	订货	0.0
-3.6201361	认证	0.0
-3.6201361	训练	0.0
-3.6201361	记者	0.0
-3.6201361	记账	0.0
-3.6201361	记账员	0.0
-3.6201361	讲师	0.0
-3.6201361	讲解员	0.0
-3.6201361	论坛	0.0
-3.6201361	设备	0.0
-3.6201361	设备设计	0.0
-3.6201361	设备部	0.0
-3.6201361	设施	0.0
-3.6201361	设计	0.0
-3.6201361	设计员	0.0
-3.6201361	设计师	0.0
-3.6201361	设计模式	0.0
-3.6201361	设计部	0.0
-3.6201361	设计院	0.0
-3.6201361	访谈	0.0
-3.6201361	访问	0.0
-3.6201361	证	0.0
-3.6201361	证书	0.0
-3.6201361	证券	0.0
-3.6201361	证券交易	0.0
-3.6201361	证照	0.0
-3.6201361	评价	0.0
-3.6201361	评估	0.0
-3.6201361	评估师	0.0
-3.6201361	评分	0.0
-3.6201361	评审	0.0
-3.6201361	评测	0.0
-3.6201361	识别	0.0
-3.6201361	诉讼	0.0
-3.6201361	诊所	0.0
-3.6201361	诊断	0.0
-3.6201361	试制	0.0
-3.6201361	试剂	0.0
-3.6201361	试验	0.0
-3.6201361	试验室	0.0
-3.6201361	话务	0.0
-3.6201361	语文	0.0
-3.6201361	语种	0.0
-3.6201361	语言	0.0
-3.6201361	语音	0.0
-3.6201361	课件	0.0
-3.6201361	课后	0.0
-3.6201361	课程	0.0
-3.6201361	课程设计	0.0
-3.6201361	课长	0.0
-3.6201361	课题组	0.0
-3.6201361	调优	0.0
-3.6201361	调剂	0.0
-3.6201361	调度	0.0
-3.6201361	调度员	0.0
-3.6201361	调机	0.0
-3.6201361	调查	0.0
-3.6201361	调查员	0.0
-3.6201361	调研	0.0
-3.6201361	调色	0.0
-3.6201361	调试	0.0
-3.6201361	调音师	0.0
-3.6201361	调香	0.0
-3.6201361	谈判	0.0
-3.6201361	豪宅	0.0
-3.6201361	负责人	0.0
-3.6201361	财会	0.0
-3.6201361	财务	0.0
-3.6201361	财务主管	0.0
-3.6201361	财务会计	0.0
-3.6201361	财务咨询	0.0
-3.6201361	财务总监	0.0
-3.6201361	财务报表	0.0
-3.6201361	财务管理	0.0
-3.6201361	财务经理	0.0
-3.6201361	财务软件	0.0
-3.6201361	财务部	0.0
-3.6201361	财务顾问	0.0
-3.6201361	财务预算	0.0
-3.6201361	财富	0.0
-3.6201361	财税	0.0
-3.6201361	财经	0.0
-3.6201361	财资	0.0
-3.6201361	责任编辑	0.0
-3.6201361	责编	0.0
-3.6201361	账务	0.0
-3.6201361	账户	0.0
-3.6201361	账款	0.0
-3.6201361	货代	0.0
-3.6201361	货员	0.0
-3.6201361	货品	0.0
-3.6201361	货车	0.0
-3.6201361	货运	0.0
-3.6201361	质	0.0
-3.6201361	质保	0.0
-3.6201361	质安	0.0
-3.6201361	质押	0.0
-3.6201361	质控	0.0
-3.6201361	质检	0.0
-3.6201361	质检员	0.0
-3.6201361	质监	0.0
-3.6201361	质量	0.0
-3.6201361	质量体系	0.0
-3.6201361	质量保证	0.0
-3.6201361	质量检查	0.0
-3.6201361	质量检验	0.0
-3.6201361	贴图	0.0
-3.6201361	贴现	0.0
-3.6201361	贵宾	0.0
-3.6201361	贵金属	0.0
-3.6201361	贷后	0.0
-3.6201361	贷款	0.0
-3.6201361	贸易	0.0
-3.6201361	费用	0.0
-3.6201361	资产	0.0
-3.6201361	资产负债	0.0
-3.6201361	资信	0.0
-3.6201361	资料	0.0
-3.6201361	资料员	0.0
-3.6201361	资料软件	0.0
-3.6201361	资本	0.0
-3.6201361	资本运作	0.0
-3.6201361	资材	0.0
-3.6201361	资格	0.0
-3.6201361	资格证	0.0
-3.6201361	资格证书	0.0
-3.6201361	资深	0.0
-3.6201361	资源	0.0
-3.6201361	资源管理	0.0
-3.6201361	资源配置	0.0
-3.6201361	资讯	0.0
-3.6201361	资质	0.0
-3.6201361	资金	0.0
-3.6201361	赔	0.0
-3.6201361	赛事	0.0
-3.6201361	超市	0.0
-3.6201361	越南语	0.0
-3.6201361	足球	0.0
-3.6201361	跆拳道	0.0
-3.6201361	跟单	0.0
-3.6201361	跟单员	0.0
-3.6201361	跟踪	0.0
-3.6201361	跨	0.0
-3.6201361	跨境	0.0
-3.6201361	路	0.0
-3.6201361	路径	0.0
-3.6201361	路桥	0.0
-3.6201361	路由	0.0
-3.6201361	路由器	0.0
-3.6201361	车	0.0
-3.6201361	车务	0.0
-3.6201361	车工	0.0
-3.6201361	车床	0.0
-3.6201361	车手	0.0
-3.6201361	车贷	0.0
-3.6201361	车身	0.0
-3.6201361	车辆	0.0
-3.6201361	车辆管理	0.0
-3.6201361	车间	0.0
-3.6201361	车间主任	0.0
-3.6201361	车队	0.0
-3.6201361	车险	0.0
-3.6201361	转换	0.0
-3.6201361	轮机	0.0
-3.6201361	轮胎	0.0
-3.6201361	软	0.0
-3.6201361	软件	0.0
-3.6201361	软件工程	0.0
-3.6201361	软件应用	0.0
-3.6201361	软件开发	0.0
-3.6201361	软件技术	0.0
-3.6201361	软件架构	0.0
-3.6201361	软件测试	0.0
-3.6201361	软件系统	0.0
-3.6201361	软件维护	0.0
-3.6201361	软件设计	0.0
-3.6201361	软件配置管理	0.0
-3.6201361	软文	0.0
-3.6201361	软硬件	0.0
-3.6201361	软装	0.0
-3.6201361	辅助设计	0.0
-3.6201361	辅导	0.0
-3.6201361	辅导员	0.0
-3.6201361	辅导教师	0.0
-3.6201361	辅警	0.0
-3.6201361	辐射	0.0
-3.6201361	输	0.0
-3.6201361	达	0.0
-3.6201361	迁移	0.0
-3.6201361	过滤	0.0
-3.6201361	过程	0.0
-3.6201361	迎宾	0.0
-3.6201361	运作	0.0
-3.6201361	运维	0.0
-3.6201361	运营	0.0
-3.6201361	运营商	0.0
-3.6201361	运营官	0.0
-3.6201361	运行	0.0
-3.6201361	运输	0.0
-3.6201361	返修	0.0
-3.6201361	进出口	0.0
-3.6201361	进口	0.0
-3.6201361	进料	0.0
-3.6201361	进程	0.0
-3.6201361	进网	0.0
-3.6201361	远程	0.0
-3.6201361	连锁	0.0
-3.6201361	迭代	0.0
-3.6201361	退税	0.0
-3.6201361	逆变器	0.0
-3.6201361	逆向	0.0
-3.6201361	选址	0.0
-3.6201361	选矿	0.0
-3.6201361	透视	0.0
-3.6201361	通信	0.0
-3.6201361	通信协议	0.0
-3.6201361	通信工程	0.0
-3.6201361	通信软件	0.0
-3.6201361	通用	0.0
-3.6201361	通讯	0.0
-3.6201361	速卖通	0.0
-3.6201361	造价	0.0
-3.6201361	造价员	0.0
-3.6201361	造价师	0.0
-3.6201361	造型	0.0
-3.6201361	造纸	0.0
-3.6201361	逻辑	0.0
-3.6201361	道桥	0.0
-3.6201361	道路	0.0
-3.6201361	道路设计	0.0
-3.6201361	遗传学	0.0
-3.6201361	邮件系统	0.0
-3.6201361	郑州大学	0.0
-3.6201361	部	0.0
-3.6201361	部副	0.0
-3.6201361	部品	0.0
-3.6201361	部署	0.0
-3.6201361	部长	0.0
-3.6201361	部门	0.0
-3.6201361	部门经理	0.0
-3.6201361	配件	0.0
-3.6201361	配套	0.0
-3.6201361	配方	0.0
-3.6201361	配班	0.0
-3.6201361	配管	0.0
-3.6201361	配置	0.0
-3.6201361	配置管理	0.0
-3.6201361	配色	0.0
-3.6201361	配送	0.0
-3.6201361	配音员	0.0
-3.6201361	酒吧	0.0
-3.6201361	酒店	0.0
-3.6201361	酒水	0.0
-3.6201361	采掘	0.0
-3.6201361	采矿	0.0
-3.6201361	采矿工程	0.0
-3.6201361	采编	0.0
-3.6201361	采访	0.0
-3.6201361	采访编辑	0.0
-3.6201361	采购	0.0
-3.6201361	采购员	0.0
-3.6201361	采购计划	0.0
-3.6201361	采购部	0.0
-3.6201361	采销	0.0
-3.6201361	采集	0.0
-3.6201361	重工	0.0
-3.6201361	重工业	0.0
-3.6201361	重庆大学	0.0
-3.6201361	重构	0.0
-3.6201361	重点	0.0
-3.6201361	量	0.0
-3.6201361	量化	0.0
-3.6201361	金	0.0
-3.6201361	金属	0.0
-3.6201361	金牌	0.0
-3.6201361	金相	0.0
-3.6201361	金碟	0.0
-3.6201361	金算盘	0.0
-3.6201361	金蝶	0.0
-3.6201361	金融	0.0
-3.6201361	金融服务	0.0
-3.6201361	金融管理	0.0
-3.6201361	金融风险	0.0
-3.6201361	鉴定	0.0
-3.6201361	鉴赏	0.0
-3.6201361	针灸	0.0
-3.6201361	钢	0.0
-3.6201361	钢琴	0.0
-3.6201361	钢筋	0.0
-3.6201361	钢结构	0.0
-3.6201361	钣	0.0
-3.6201361	钳工	0.0
-3.6201361	铁道	0.0
-3.6201361	铣工	0.0
-3.6201361	银保	0.0
-3.6201361	银行	0.0
-3.6201361	银行业务	0.0
-3.6201361	银行信贷	0.0
-3.6201361	铸造	0.0
-3.6201361	链	0.0
-3.6201361	销售	0.0
-3.6201361	销售业务	0.0
-3.6201361	销售主管	0.0
-3.6201361	销售员	0.0
-3.6201361	销售店	0.0
-3.6201361	销售部	0.0
-3.6201361	销管	0.0
-3.6201361	锅炉	0.0
-3.6201361	锻造	0.0
-3.6201361	镀膜	0.0
-3.6201361	长	0.0
-3.6201361	长途	0.0
-3.6201361	门市	0.0
-3.6201361	门店	0.0
-3.6201361	门禁	0.0
-3.6201361	门窗	0.0
-3.6201361	门诊	0.0
-3.6201361	闭包	0.0
-3.6201361	问卷	0.0
-3.6201361	问卷调查	0.0
-3.6201361	队列	0.0
-3.6201361	队长	0.0
-3.6201361	防	0.0
-3.6201361	防伪	0.0
-3.6201361	防护	0.0
-3.6201361	防护系统	0.0
-3.6201361	防损	0.0
-3.6201361	防损员	0.0
-3.6201361	防火墙	0.0
-3.6201361	阿拉伯语	0.0
-3.6201361	阿里	0.0
-3.6201361	阿里巴巴	0.0
-3.6201361	附件	0.0
-3.6201361	陈列	0.0
-3.6201361	陈设	0.0
-3.6201361	院校	0.0
-3.6201361	院长	0.0
-3.6201361	陪同	0.0
-3.6201361	陶艺	0.0
-3.6201361	隧道	0.0
-3.6201361	雅思	0.0
-3.6201361	集合	0.0
-3.6201361	集团	0.0
-3.6201361	集团公司	0.0
-3.6201361	集成	0.0
-3.6201361	集成电路	0.0
-3.6201361	集群	0.0
-3.6201361	雇主	0.0
-3.6201361	零售	0.0
-3.6201361	零部件	0.0
-3.6201361	零配件	0.0
-3.6201361	雷达	0.0
-3.6201361	需求	0.0
-3.6201361	静态	0.0
-3.6201361	非技术	0.0
-3.6201361	非标	0.0
-3.6201361	非盈利	0.0
-3.6201361	非线	0.0
-3.6201361	非营利	0.0
-3.6201361	非诉	0.0
-3.6201361	面	0.0
-3.6201361	面包	0.0
-3.6201361	面包师傅	0.0
-3.6201361	面向对象	0.0
-3.6201361	面向对象编程	0.0
-3.6201361	面料	0.0
-3.6201361	面点师	0.0
-3.6201361	面辅料	0.0
-3.6201361	鞋类	0.0
-3.6201361	韩语	0.0
-3.6201361	音乐	0.0
-3.6201361	音乐学	0.0
-3.6201361	音乐舞蹈	0.0
-3.6201361	音视频	0.0
-3.6201361	音频	0.0
-3.6201361	音频编辑	0.0
-3.6201361	項目	0.0
-3.6201361	页面	0.0
-3.6201361	项目	0.0
-3.6201361	项目管理	0.0
-3.6201361	项目经理	0.0
-3.6201361	项目部	0.0
-3.6201361	项目风险	0.0
-3.6201361	顾问	0.0
-3.6201361	预	0.0
-3.6201361	预决算	0.0
-3.6201361	预定	0.0
-3.6201361	预测	0.0
-3.6201361	预算	0.0
-3.6201361	预算员	0.0
-3.6201361	预警	0.0
-3.6201361	预订	0.0
-3.6201361	领域	0.0
-3.6201361	领导力	0.0
-3.6201361	领班	0.0
-3.6201361	领队	0.0
-3.6201361	频道	0.0
-3.6201361	题库	0.0
-3.6201361	风控	0.0
-3.6201361	风控员	0.0
-3.6201361	风控官	0.0
-3.6201361	风控部	0.0
-3.6201361	风机	0.0
-3.6201361	风险	0.0
-3.6201361	风险投资	0.0
-3.6201361	风险管理	0.0
-3.6201361	飞机	0.0
-3.6201361	飞行器	0.0
-3.6201361	食品	0.0
-3.6201361	食品安全	0.0
-3.6201361	食品科学	0.0
-3.6201361	食堂	0.0
-3.6201361	餐厅	0.0
-3.6201361	餐饮	0.0
-3.6201361	餐饮店	0.0
-3.6201361	餐饮部	0.0
-3.6201361	饭店	0.0
-3.6201361	饮料	0.0
-3.6201361	饰	0.0
-3.6201361	首席	0.0
-3.6201361	驱动	0.0
-3.6201361	驻厂	0.0
-3.6201361	驻场	0.0
-3.6201361	驻外	0.0
-3.6201361	驻店	0.0
-3.6201361	驾校	0.0
-3.6201361	驾照	0.0
-3.6201361	驾驶员	0.0
-3.6201361	驾驶执照	0.0
-3.6201361	驾驶证	0.0
-3.6201361	验光师	0.0
-3.6201361	验厂	0.0
-3.6201361	验房	0.0
-3.6201361	验收	0.0
-3.6201361	验证	0.0
-3.6201361	验货	0.0
-3.6201361	骨科医生	0.0
-3.6201361	骨骼	0.0
-3.6201361	高分子	0.0
-3.6201361	高压	0.0
-3.6201361	高尔夫	0.0
-3.6201361	高端	0.0
-3.6201361	高管	0.0
-3.6201361	高级	0.0
-3.6201361	高配	0.0
-3.6201361	高铁	0.0
-3.6201361	鲁班	0.0
-3.6201361	鸿业	0.0
-3.6201361	麻醉	0.0
-3.6201361	麻醉科	0.0
-3.6201361	黄金	0.0
-3.6201361	黑盒	0.0

\2-grams:
-1.321283	( 原料	-0.3679768
-1.0207209	( 咨询	-0.3679768
-1.321283	( 应用	-0.3679768
-1.321283	( 物业管理	-0.3679768
-1.0207209	( 系统	-0.3679768
-1.321283	( 设备	-0.3679768
-1.321283	( 财会	-0.3679768
-1.321283	( 非技术	-0.3679768
-1.0207209	( 食品	-0.3679768
-0.0347534	) </s>	-1.1139434
-2.4117353	, <num>	-0.3740279
-2.4117353	, excel	-0.3740279
-2.4117353	, os	-0.3740279
-2.4117353	, pets	-0.3740279
-2.4117353	, powerpoint	-0.3740279
-2.4117353	, sql	-0.3740279
-2.4117353	, word	-0.3740279
-2.1164224	, 互联网	-0.3740279
-2.1164224	, 人力资源	-0.3740279
-2.4117353	, 休闲	-0.3740279
-2.1164224	, 会展	-0.3740279
-2.4117353	, 体育	-0.3740279
-2.4117353	, 供应链	-0.3740279
-2.4117353	, 保健	-0.3740279
-2.4117353	, 光电	-0.3740279
-1.9422538	, 公共事业	-0.3740279
-2.1164224	, 公关	-0.3740279
-2.4117353	, 冶炼	-0.3740279
-2.1164224	, 出版	-0.3740279
-2.1164224	, 助理	-0.3740279
-2.4117353	, 包装	-0.3740279
-2.4117353	, 化妆品	-0.3740279
-2.1164224	, 化工	-0.3740279
-2.4117353	, 半导体	-0.3740279
-2.4117353	, 卫生	-0.3740279
-2.4117353	, 咨询	-0.3740279
-2.4117353	, 商业中心	-0.3740279
-2.4117353	, 器械	-0.3740279
-2.4117353	, 地产	-0.3740279
-2.4117353	, 地质	-0.3740279
-2.1164224	, 培训	-0.3740279
-2.1164224	, 增值	-0.3740279
-2.4117353	, 奢侈品	-0.3740279
-2.1164224	, 媒体	-0.3740279
-2.4117353	, 学术	-0.3740279
-2.1164224	, 室内设计	-0.3740279
-2.4117353	, 家电	-0.3740279
-2.4117353	, 工业	-0.3740279
-1.9422538	, 工程	-0.3740279
-2.4117353	, 工艺美术	-0.3740279
-2.4117353	, 市场推广	-0.3740279
-2.4117353	, 度假	-0.3740279
-1.9422538	, 建材	-0.3740279
-2.1164224	, 建筑	-0.3740279
-2.4117353	, 录入	-0.3740279
-2.4117353	, 影视	-0.3740279
-2.4117353	, 微电子	-0.3740279
-2.4117353	, 批发	-0.3740279
-2.4117353	, 投资	-0.3740279
-2.4117353	, 护理	-0.3740279
-2.4117353	, 摩托车	-0.3740279
-2.4117353	, 收藏品	-0.3740279
-2.4117353	, 数据	-0.3740279
-2.4117353	, 数据服务	-0.3740279
-1.9422538	, 文化	-0.3740279
-2.4117353	, 旅游	-0.3740279
-2.1164224	, 日化	-0.3740279
-2.4117353	, 期货	-0.3740279
-2.1164224	, 机电	-0.3740279
-2.4117353	, 机电设备	-0.3740279
-2.4117353	, 林	-0.3740279
-2.4117353	, 模具	-0.3740279
-2.4117353	, 水利	-0.3740279
-2.1164224	, 法律	-0.3740279
-2.4117353	, 注册	-0.3740279
-2.4117353	, 渔	-0.3740279
-2.1164224	, 烟酒	-0.3740279
-2.4117353	, 牧	-0.3740279
-2.4117353	, 物料	-0.3740279
-2.4117353	, 物流	-0.3740279
-2.1164224	, 玩具	-0.3740279
-2.1164224	, 生物工程	-0.3740279
-2.1164224	, 电信	-0.3740279
-2.4117353	, 电力	-0.3740279
-1.8182795	, 电子商务	-0.3740279
-2.4117353	, 皮革	-0.3740279
-2.4117353	, 石化	-0.3740279
-2.1164224	, 矿产	-0.3740279
-2.4117353	, 礼品	-0.3740279
-2.1164224	, 科研	-0.3740279
-2.4117353	, 移动	-0.3740279
-2.4117353	, 税务	-0.3740279
-2.1164224	, 系统	-0.3740279
-2.4117353	, 纺织	-0.3740279
-2.4117353	, 维修	-0.3740279
-2.4117353	, 维护	-0.3740279
-2.4117353	, 网游	-0.3740279
-2.4117353	, 网络设备	-0.3740279
-2.4117353	, 美容	-0.3740279
-2.4117353	, 翻译	-0.3740279
-2.4117353	, 航天	-0.3740279
-2.1164224	, 艺术	-0.3740279
-2.1164224	, 装潢	-0.3740279
-2.4117353	, 装饰	-0.3740279
-2.4117353	, 计算机软件	-0.3740279
-2.4117353	, 设备	-0.3740279
-2.4117353	, 设计	-0.3740279
-2.4117353	, 证券	-0.3740279
-2.1164224	, 财会	-0.3740279
-2.4117353	, 运营	-0.3740279
-2.1164224	, 运输	-0.3740279
-2.4117353	, 造纸	-0.3740279
-2.4117353	, 采掘	-0.3740279
-2.1164224	, 重工	-0.3740279
-2.4117353	, 重工业	-0.3740279
-2.1164224	, 院校	-0.3740279
-2.4117353	, 集成电路	-0.3740279
-2.4117353	, 零售	-0.3740279
-2.4117353	, 非盈利	-0.3740279
-2.4117353	, 非营利	-0.3740279
-2.4117353	, 餐饮	-0.3740279
-1.9422538	, 饮料	-0.3740279
-1.3789633	- <num>	-0.30103
-1.3789633	- access	-0.30103
-1.3789633	- c	-0.30103
-1.3789633	- fpm	-0.30103
-1.3789633	- learn	-0.30103
-1.3789633	- oracle	-0.30103
-1.3789633	- sales	-0.30103
-1.3789633	- sql	-0.30103
-1.3789633	- test	-0.30103
-1.3789633	- ups	-0.30103
-1.3789633	- ux	-0.30103
-1.3789633	- v	-0.30103
-0.4559022	. js	-1.0
-0.2596184	. net	-1.0
-4.34e-05	</s> <s>	-4.0
-2.1586686	<num> .	-0.7463947
-0.8390198	<num> </s>	-0.7463947
-2.1586686	<num> a	-0.7463947
-1.5586316	<num> b	-0.7463947
-1.8589862	<num> c	-0.7463947
-0.4453126	<num> d	-0.7463947
-2.1586686	<num> dmax	-0.7463947
-1.3827657	<num> dx	-0.7463947
-1.6833451	<num> ee	-0.7463947
-2.1586686	<num> gpp	-0.7463947
-1.6833451	<num> j	-0.7463947
-2.1586686	<num> me	-0.7463947
-2.1586686	<num> net	-0.7463947
-2.1586686	<num> o	-0.7463947
-1.6833451	<num> p	-0.7463947
-2.1586686	<num> s	-0.7463947
-2.1586686	<num> se	-0.7463947
-2.1586686	<num> sigma	-0.7463947
-2.1586686	<num> 主程	-0.7463947
-1.6833451	<num> 前端	-0.7463947
-2.1586686	<num> 客服	-0.7463947
-1.4618568	<num> 开发	-0.7463947
-2.1586686	<num> 系列	-0.7463947
-2.1586686	<num> 讲师	-0.7463947
-2.1586686	<num> 质量体系	-0.7463947
-1.8589862	<num> 驾照	-0.7463947
-3.5365813	<s> .	-0.8102329
-2.8571589	<s> <num>	-0.8102329
-0.3740317	<s> <s>	-0.8102329
-4.1002777	<s> a	-0.8102329
-4.1002777	<s> abap	-0.8102329
-4.1002777	<s> abaqus	-0.8102329
-4.1002777	<s> account	-0.8102329
-4.1002777	<s> accountant	-0.8102329
-4.1002777	<s> accounting	-0.8102329
-4.1002777	<s> accountmanager	-0.8102329
-4.1002777	<s> accounts	-0.8102329
-4.1002777	<s> acess	-0.8102329
-4.1002777	<s> acl	-0.8102329
-4.1002777	<s> acrobat	-0.8102329
-4.1002777	<s> activemq	-0.8102329
-4.1002777	<s> activex	-0.8102329
-4.1002777	<s> activiti	-0.8102329
-4.1002777	<s> ad	-0.8102329
-3.9149161	<s> adb	-0.8102329
-3.9149161	<s> ado	-0.8102329
-3.9149161	<s> adobe	-0.8102329
-4.1002777	<s> adobeillustrator	-0.8102329
-4.1002777	<s> adt	-0.8102329
-3.9149161	<s> ae	-0.8102329
-4.1002777	<s> agile	-0.8102329
-3.9149161	<s> ai	-0.8102329
-4.1002777	<s> air	-0.8102329
-3.9149161	<s> aix	-0.8102329
-4.1002777	<s> ajax	-0.8102329
-4.1002777	<s> akka	-0.8102329
-4.1002777	<s> alcatel	-0.8102329
-4.1002777	<s> algorithms	-0.8102329
-4.1002777	<s> alias	-0.8102329
-4.1002777	<s> allegro	-0.8102329
-4.1002777	<s> alm	-0.8102329
-4.1002777	<s> am	-0.8102329
-3.9149161	<s> amazon	-0.8102329
-4.1002777	<s> amos	-0.8102329
-4.1002777	<s> ampl	-0.8102329
-4.1002777	<s> analytics	-0.8102329
-4.1002777	<s> andriod	-0.8102329
-3.4776308	<s> android	-0.8102329
-3.9149161	<s> angular	-0.8102329
-4.1002777	<s> angularjs	-0.8102329
-4.1002777	<s> ansible	-0.8102329
-3.9149161	<s> ansys	-0.8102329
-3.9149161	<s> aoi	-0.8102329
-4.1002777	<s> aop	-0.8102329
-3.9149161	<s> apache	-0.8102329
-4.1002777	<s> apd	-0.8102329
-4.1002777	<s> apex	-0.8102329
-4.1002777	<s> apl	-0.8102329
-3.0146438	<s> app	-0.8102329
-4.1002777	<s> appium	-0.8102329
-4.1002777	<s> applescript	-0.8102329
-4.1002777	<s> appscan	-0.8102329
-3.9149161	<s> ar	-0.8102329
-4.1002777	<s> arcgis	-0.8102329
-4.1002777	<s> archicad	-0.8102329
-3.9149161	<s> arm	-0.8102329
-4.1002777	<s> arp	-0.8102329
-4.1002777	<s> art	-0.8102329
-3.7854153	<s> as	-0.8102329
-3.9149161	<s> asic	-0.8102329
-4.1002777	<s> asm	-0.8102329
-3.7854153	<s> asp	-0.8102329
-4.1002777	<s> assembler	-0.8102329
-4.1002777	<s> assistant	-0.8102329
-4.1002777	<s> asterisk	-0.8102329
-4.1002777	<s> ate	-0.8102329
-4.1002777	<s> atl	-0.8102329
-4.1002777	<s> atlas	-0.8102329
-4.1002777	<s> atm	-0.8102329
-4.1002777	<s> ats	-0.8102329
-4.1002777	<s> au	-0.8102329
-4.1002777	<s> auditing	-0.8102329
-4.1002777	<s> audition	-0.8102329
-4.1002777	<s> authorware	-0.8102329
-4.1002777	<s> autocad	-0.8102329
-4.1002777	<s> autodesk	-0.8102329
-4.1002777	<s> autoit	-0.8102329
-4.1002777	<s> autolayout	-0.8102329
-4.1002777	<s> autolisp	-0.8102329
-4.1002777	<s> automotive	-0.8102329
-4.1002777	<s> avid	-0.8102329
-4.1002777	<s> avidxpresspro	-0.8102329
-4.1002777	<s> awk	-0.8102329
-4.1002777	<s> aws	-0.8102329
-3.9149161	<s> axure	-0.8102329
-3.3793824	<s> b	-0.8102329
-4.1002777	<s> backbone	-0.8102329
-4.1002777	<s> backup	-0.8102329
-4.1002777	<s> bash	-0.8102329
-4.1002777	<s> bat	-0.8102329
-3.3793824	<s> bd	-0.8102329
-4.1002777	<s> bdd	-0.8102329
-4.1002777	<s> bgp	-0.8102329
-3.4257343	<s> bi	-0.8102329
-4.1002777	<s> biee	-0.8102329
-4.1002777	<s> bim	-0.8102329
-4.1002777	<s> bios	-0.8102329
-4.1002777	<s> biotechnology	-0.8102329
-4.1002777	<s> bip	-0.8102329
-4.1002777	<s> biztalk	-0.8102329
-4.1002777	<s> blackberry	-0.8102329
-4.1002777	<s> blender	-0.8102329
-4.1002777	<s> blog	-0.8102329
-4.1002777	<s> blogging	-0.8102329
-4.1002777	<s> bloomberg	-0.8102329
-4.1002777	<s> bms	-0.8102329
-4.1002777	<s> bodypaint	-0.8102329
-4.1002777	<s> bom	-0.8102329
-4.1002777	<s> boost	-0.8102329
-4.1002777	<s> bootloader	-0.8102329
-4.1002777	<s> bootstrap	-0.8102329
-4.1002777	<s> bpo	-0.8102329
-4.1002777	<s> bsd	-0.8102329
-3.6857909	<s> bsp	-0.8102329
-4.1002777	<s> budgeting	-0.8102329
-3.9149161	<s> bug	-0.8102329
-4.1002777	<s> bugfree	-0.8102329
-4.1002777	<s> bugzilla	-0.8102329
-3.9149161	<s> business	-0.8102329
-4.1002777	<s> buyer	-0.8102329
-3.5365813	<s> c	-0.8102329
-3.9149161	<s> c#	-0.8102329
-3.6048094	<s> c++	-0.8102329
-4.1002777	<s> cache	-0.8102329
-4.1002777	<s> cacti	-0.8102329
-3.3793824	<s> cad	-0.8102329
-4.1002777	<s> cadam	-0.8102329
-3.9149161	<s> cadence	-0.8102329
-3.6048094	<s> cae	-0.8102329
-4.1002777	<s> caffe	-0.8102329
-4.1002777	<s> cakephp	-0.8102329
-4.1002777	<s> cakewalk	-0.8102329
-4.1002777	<s> cam	-0.8102329
-3.9149161	<s> camera	-0.8102329
-4.1002777	<s> cameratuning	-0.8102329
-4.1002777	<s> canalyzer	-0.8102329
-4.1002777	<s> canbus	-0.8102329
-4.1002777	<s> canoe	-0.8102329
-3.9149161	<s> canvas	-0.8102329
-4.1002777	<s> cas	-0.8102329
-4.1002777	<s> cass	-0.8102329
-4.1002777	<s> cassandra	-0.8102329
-4.1002777	<s> catering	-0.8102329
-4.1002777	<s> catia	-0.8102329
-4.1002777	<s> cc	-0.8102329
-4.1002777	<s> ccie	-0.8102329
-3.7854153	<s> ccna	-0.8102329
-4.1002777	<s> ccnp	-0.8102329
-4.1002777	<s> ccs	-0.8102329
-4.1002777	<s> cct	-0.8102329
-4.1002777	<s> cctv	-0.8102329
-4.1002777	<s> cd	-0.8102329
-3.9149161	<s> cdn	-0.8102329
-4.1002777	<s> centos	-0.8102329
-4.1002777	<s> ceo	-0.8102329
-4.1002777	<s> ceph	-0.8102329
-4.1002777	<s> cet	-0.8102329
-4.1002777	<s> cfd	-0.8102329
-4.1002777	<s> cfo	-0.8102329
-4.1002777	<s> cg	-0.8102329
-4.1002777	<s> cgi	-0.8102329
-3.9149161	<s> charles	-0.8102329
-4.1002777	<s> chef	-0.8102329
-4.1002777	<s> chemdraw	-0.8102329
-4.1002777	<s> chemistry	-0.8102329
-4.1002777	<s> chemoffice	-0.8102329
-4.1002777	<s> chinese	-0.8102329
-4.1002777	<s> chipware	-0.8102329
-4.1002777	<s> chrome	-0.8102329
-4.1002777	<s> ci	-0.8102329
-4.1002777	<s> cics	-0.8102329
-4.1002777	<s> cinema	-0.8102329
-4.1002777	<s> cinematics	-0.8102329
-4.1002777	<s> cinematography	-0.8102329
-4.1002777	<s> cissp	-0.8102329
-4.1002777	<s> citrix	-0.8102329
-4.1002777	<s> clarity	-0.8102329
-4.1002777	<s> clearcase	-0.8102329
-4.1002777	<s> clearquest	-0.8102329
-4.1002777	<s> clementine	-0.8102329
-4.1002777	<s> cli	-0.8102329
-4.1002777	<s> clojure	-0.8102329
-4.1002777	<s> cloudstack	-0.8102329
-4.1002777	<s> cm	-0.8102329
-4.1002777	<s> cmake	-0.8102329
-4.1002777	<s> cmc	-0.8102329
-4.1002777	<s> cmf	-0.8102329
-4.1002777	<s> cmm	-0.8102329
-4.1002777	<s> cmmi	-0.8102329
-4.1002777	<s> cmms	-0.8102329
-4.1002777	<s> cmos	-0.8102329
-4.1002777	<s> cms	-0.8102329
-3.3375041	<s> cnc	-0.8102329
-4.1002777	<s> cnn	-0.8102329
-4.1002777	<s> coaching	-0.8102329
-3.9149161	<s> cobol	-0.8102329
-4.1002777	<s> cocoa	-0.8102329
-3.3375041	<s> cocos	-0.8102329
-4.1002777	<s> code	-0.8102329
-4.1002777	<s> codec	-0.8102329
-4.1002777	<s> codeigniter	-0.8102329
-4.1002777	<s> codewarrior	-0.8102329
-4.1002777	<s> coffeescript	-0.8102329
-3.7854153	<s> cognos	-0.8102329
-4.1002777	<s> collection	-0.8102329
-4.1002777	<s> com	-0.8102329
-4.1002777	<s> commercials	-0.8102329
-4.1002777	<s> commissioning	-0.8102329
-4.1002777	<s> component	-0.8102329
-4.1002777	<s> computational	-0.8102329
-4.1002777	<s> computing	-0.8102329
-4.1002777	<s> comsol	-0.8102329
-4.1002777	<s> confluence	-0.8102329
-4.1002777	<s> console	-0.8102329
-4.1002777	<s> construction	-0.8102329
-4.1002777	<s> consultants	-0.8102329
-4.1002777	<s> consulting	-0.8102329
-4.1002777	<s> copywriting	-0.8102329
-4.1002777	<s> cordova	-0.8102329
-4.1002777	<s> core	-0.8102329
-4.1002777	<s> coredata	-0.8102329
-4.1002777	<s> coreldraw	-0.8102329
-4.1002777	<s> couchdb	-0.8102329
-4.1002777	<s> cplex	-0.8102329
-4.1002777	<s> credit	-0.8102329
-4.1002777	<s> creo	-0.8102329
-3.4257343	<s> crm	-0.8102329
-4.1002777	<s> cs	-0.8102329
-4.1002777	<s> csrf	-0.8102329
-3.9149161	<s> css	-0.8102329
-4.1002777	<s> cti	-0.8102329
-3.9149161	<s> cto	-0.8102329
-4.1002777	<s> cubase	-0.8102329
-4.1002777	<s> cucumber	-0.8102329
-4.1002777	<s> cuda	-0.8102329
-4.1002777	<s> cutterman	-0.8102329
-4.1002777	<s> cvs	-0.8102329
-4.1002777	<s> d	-0.8102329
-4.1002777	<s> dart	-0.8102329
-4.1002777	<s> dashboard	-0.8102329
-3.9149161	<s> database	-0.8102329
-4.1002777	<s> databasemarketing	-0.8102329
-4.1002777	<s> databases	-0.8102329
-4.1002777	<s> datastage	-0.8102329
-3.9149161	<s> db	-0.8102329
-4.1002777	<s> dba	-0.8102329
-4.1002777	<s> dc	-0.8102329
-4.1002777	<s> dcs	-0.8102329
-4.1002777	<s> ddn	-0.8102329
-4.1002777	<s> debian	-0.8102329
-4.1002777	<s> debugging	-0.8102329
-4.1002777	<s> delmia	-0.8102329
-4.1002777	<s> delphi	-0.8102329
-4.1002777	<s> development	-0.8102329
-4.1002777	<s> devops	-0.8102329
-4.1002777	<s> dfs	-0.8102329
-4.1002777	<s> dhcp	-0.8102329
-4.1002777	<s> dhtml	-0.8102329
-4.1002777	<s> dialux	-0.8102329
-4.1002777	<s> directx	-0.8102329
-4.1002777	<s> disk	-0.8102329
-4.1002777	<s> div	-0.8102329
-4.1002777	<s> django	-0.8102329
-4.1002777	<s> dll	-0.8102329
-4.1002777	<s> dmaic	-0.8102329
-4.1002777	<s> dmp	-0.8102329
-4.1002777	<s> dms	-0.8102329
-4.1002777	<s> dna	-0.8102329
-4.1002777	<s> dns	-0.8102329
-4.1002777	<s> docker	-0.8102329
-4.1002777	<s> doe	-0.8102329
-4.1002777	<s> dojo	-0.8102329
-4.1002777	<s> dom	-0.8102329
-4.1002777	<s> domino	-0.8102329
-4.1002777	<s> dos	-0.8102329
-4.1002777	<s> dps	-0.8102329
-4.1002777	<s> dqa	-0.8102329
-4.1002777	<s> drawing	-0.8102329
-4.1002777	<s> dreamweaver	-0.8102329
-4.1002777	<s> drools	-0.8102329
