\data\
ngram 1=2312
ngram 2=12119
ngram 3=21914

\1-grams:
-3.3639878	(	0.0
-3.3639878	)	0.0
-3.3639878	,	0.0
-3.3639878	-	0.0
-3.3639878	.	0.0
-3.3639878	</s>	0.0
-3.3639878	<num>	0.0
-3.3639878	<s>	0.0
-3.3639878	a	0.0
-3.3639878	abap	0.0
-3.3639878	abaqus	0.0
-3.3639878	account	0.0
-3.3639878	accountant	0.0
-3.3639878	accounting	0.0
-3.3639878	acl	0.0
-3.3639878	acting	0.0
-3.3639878	activex	0.0
-3.3639878	activiti	0.0
-3.3639878	ad	0.0
-3.3639878	adabas	0.0
-3.3639878	adb	0.0
-3.3639878	ado	0.0
-3.3639878	adobe	0.0
-3.3639878	adobeacrobat	0.0
-3.3639878	adobeillustrator	0.0
-3.3639878	adso	0.0
-3.3639878	adt	0.0
-3.3639878	ae	0.0
-3.3639878	after	0.0
-3.3639878	agile	0.0
-3.3639878	ai	0.0
-3.3639878	air	0.0
-3.3639878	aix	0.0
-3.3639878	ajax	0.0
-3.3639878	akka	0.0
-3.3639878	algorithms	0.0
-3.3639878	alias	0.0
-3.3639878	alm	0.0
-3.3639878	amazon	0.0
-3.3639878	ampl	0.0
-3.3639878	analytics	0.0
-3.3639878	andriod	0.0
-3.3639878	android	0.0
-3.3639878	androidsdk	0.0
-3.3639878	angular	0.0
-3.3639878	angularjs	0.0
-3.3639878	ansible	0.0
-3.3639878	ansys	0.0
-3.3639878	aoi	0.0
-3.3639878	aop	0.0
-3.3639878	apache	0.0
-3.3639878	apd	0.0
-3.3639878	apex	0.0
-3.3639878	apl	0.0
-3.3639878	app	0.0
-3.3639878	apparel	0.0
-3.3639878	appium	0.0
-3.3639878	appscan	0.0
-3.3639878	ar	0.0
-3.3639878	arc	0.0
-3.3639878	arcgis	0.0
-3.3639878	archicad	0.0
-3.3639878	arcmap	0.0
-3.3639878	arcsde	0.0
-3.3639878	arm	0.0
-3.3639878	arp	0.0
-3.3639878	art	0.0
-3.3639878	as	0.0
-3.3639878	asic	0.0
-3.3639878	asm	0.0
-3.3639878	asp	0.0
-3.3639878	assembler	0.0
-3.3639878	assistant	0.0
-3.3639878	asterisk	0.0
-3.3639878	atl	0.0
-3.3639878	atm	0.0
-3.3639878	au	0.0
-3.3639878	audacity	0.0
-3.3639878	auditing	0.0
-3.3639878	audition	0.0
-3.3639878	authorware	0.0
-3.3639878	autocad	0.0
-3.3639878	autodesk	0.0
-3.3639878	automotive	0.0
-3.3639878	avid	0.0
-3.3639878	aws	0.0
-3.3639878	awvs	0.0
-3.3639878	axure	0.0
-3.3639878	b	0.0
-3.3639878	backup	0.0
-3.3639878	barcode	0.0
-3.3639878	bash	0.0
-3.3639878	bat	0.0
-3.3639878	batch	0.0
-3.3639878	bd	0.0
-3.3639878	bdd	0.0
-3.3639878	bgp	0.0
-3.3639878	bi	0.0
-3.3639878	bim	0.0
-3.3639878	bing	0.0
-3.3639878	biochemistry	0.0
-3.3639878	bios	0.0
-3.3639878	biotechnology	0.0
-3.3639878	bip	0.0
-3.3639878	blackberry	0.0
-3.3639878	blender	0.0
-3.3639878	blog	0.0
-3.3639878	bloomberg	0.0
-3.3639878	bms	0.0
-3.3639878	bodypaint	0.0
-3.3639878	bom	0.0
-3.3639878	bootloader	0.0
-3.3639878	bootstrap	0.0
-3.3639878	bpo	0.0
-3.3639878	brackets	0.0
-3.3639878	branding	0.0
-3.3639878	broadcast	0.0
-3.3639878	bs	0.0
-3.3639878	bsp	0.0
-3.3639878	bug	0.0
-3.3639878	bugfree	0.0
-3.3639878	bugzilla	0.0
-3.3639878	business	0.0
-3.3639878	buyer	0.0
-3.3639878	c	0.0
-3.3639878	c#	0.0
-3.3639878	c++	0.0
-3.3639878	cache	0.0
-3.3639878	cad	0.0
-3.3639878	cadam	0.0
-3.3639878	cadence	0.0
-3.3639878	cadug	0.0
-3.3639878	cae	0.0
-3.3639878	cam	0.0
-3.3639878	camera	0.0
-3.3639878	cameratuning	0.0
-3.3639878	camtasia	0.0
-3.3639878	can	0.0
-3.3639878	canbus	0.0
-3.3639878	canoe	0.0
-3.3639878	canvas	0.0
-3.3639878	cas	0.0
-3.3639878	cass	0.0
-3.3639878	cassandra	0.0
-3.3639878	catering	0.0
-3.3639878	catia	0.0
-3.3639878	cc	0.0
-3.3639878	ccie	0.0
-3.3639878	ccna	0.0
-3.3639878	ccnp	0.0
-3.3639878	cct	0.0
-3.3639878	cctv	0.0
-3.3639878	cd	0.0
-3.3639878	cdn	0.0
-3.3639878	cdr	0.0
-3.3639878	centos	0.0
-3.3639878	ceo	0.0
-3.3639878	ceph	0.0
-3.3639878	cet	0.0
-3.3639878	cfo	0.0
-3.3639878	cg	0.0
-3.3639878	cgi	0.0
-3.3639878	charles	0.0
-3.3639878	chemcad	0.0
-3.3639878	chemdraw	0.0
-3.3639878	chinese	0.0
-3.3639878	chipware	0.0
-3.3639878	chrome	0.0
-3.3639878	ci	0.0
-3.3639878	cics	0.0
-3.3639878	cinematography	0.0
-3.3639878	cisco	0.0
-3.3639878	cissp	0.0
-3.3639878	citrix	0.0
-3.3639878	clarity	0.0
-3.3639878	cli	0.0
-3.3639878	clojure	0.0
-3.3639878	cm	0.0
-3.3639878	cmc	0.0
-3.3639878	cmf	0.0
-3.3639878	cmm	0.0
-3.3639878	cmmi	0.0
-3.3639878	cmms	0.0
-3.3639878	cms	0.0
-3.3639878	cnc	0.0
-3.3639878	cnn	0.0
-3.3639878	cobol	0.0
-3.3639878	cocos	0.0
-3.3639878	code	0.0
-3.3639878	codec	0.0
-3.3639878	codeigniter	0.0
-3.3639878	codewarrior	0.0
-3.3639878	coffeescript	0.0
-3.3639878	cognos	0.0
-3.3639878	collection	0.0
-3.3639878	com	0.0
-3.3639878	commercials	0.0
-3.3639878	compaq	0.0
-3.3639878	compensation	0.0
-3.3639878	component	0.0
-3.3639878	computational	0.0
-3.3639878	computer	0.0
-3.3639878	comsol	0.0
-3.3639878	connections	0.0
-3.3639878	console	0.0
-3.3639878	construction	0.0
-3.3639878	consultants	0.0
-3.3639878	consulting	0.0
-3.3639878	contribute	0.0
-3.3639878	cordova	0.0
-3.3639878	core	0.0
-3.3639878	coredata	0.0
-3.3639878	coreldraw	0.0
-3.3639878	cpc	0.0
-3.3639878	cpld	0.0
-3.3639878	cplex	0.0
-3.3639878	cqa	0.0
-3.3639878	credit	0.0
-3.3639878	creo	0.0
-3.3639878	crm	0.0
-3.3639878	crs	0.0
-3.3639878	cruisecontrol	0.0
-3.3639878	cs	0.0
-3.3639878	css	0.0
-3.3639878	cti	0.0
-3.3639878	cto	0.0
-3.3639878	cucumber	0.0
-3.3639878	cuda	0.0
-3.3639878	cutterman	0.0
-3.3639878	cvs	0.0
-3.3639878	d	0.0
-3.3639878	dashboard	0.0
-3.3639878	database	0.0
-3.3639878	databasemarketing	0.0
-3.3639878	db	0.0
-3.3639878	dba	0.0
-3.3639878	dbx	0.0
-3.3639878	dc	0.0
-3.3639878	dcs	0.0
-3.3639878	dds	0.0
-3.3639878	debian	0.0
-3.3639878	delphi	0.0
-3.3639878	derivatives	0.0
-3.3639878	development	0.0
-3.3639878	devops	0.0
-3.3639878	dfs	0.0
-3.3639878	dft	0.0
-3.3639878	dhcp	0.0
-3.3639878	digital	0.0
-3.3639878	directing	0.0
-3.3639878	directx	0.0
-3.3639878	disk	0.0
-3.3639878	div	0.0
-3.3639878	divcss	0.0
-3.3639878	dll	0.0
-3.3639878	dmaic	0.0
-3.3639878	dmax	0.0
-3.3639878	dmp	0.0
-3.3639878	dms	0.0
-3.3639878	dna	0.0
-3.3639878	dns	0.0
-3.3639878	docker	0.0
-3.3639878	dojo	0.0
-3.3639878	domino	0.0
-3.3639878	dos	0.0
-3.3639878	dotnetnuke	0.0
-3.3639878	dps	0.0
-3.3639878	dreamweaver	0.0
-3.3639878	drm	0.0
-3.3639878	ds	0.0
-3.3639878	dsl	0.0
-3.3639878	dsp	0.0
-3.3639878	dta	0.0
-3.3639878	dubbo	0.0
-3.3639878	dv	0.0
-3.3639878	dvb	0.0
-3.3639878	dx	0.0
-3.3639878	dynamics	0.0
-3.3639878	ea	0.0
-3.3639878	eai	0.0
-3.3639878	eam	0.0
-3.3639878	easyui	0.0
-3.3639878	ebay	0.0
-3.3639878	ebs	0.0
-3.3639878	eclipse	0.0
-3.3639878	ecommerce	0.0
-3.3639878	ecshop	0.0
-3.3639878	eda	0.0
-3.3639878	edge	0.0
-3.3639878	editor	0.0
-3.3639878	editorial	0.0
-3.3639878	edius	0.0
-3.3639878	ee	0.0
-3.3639878	ef	0.0
-3.3639878	effects	0.0
-3.3639878	ehr	0.0
-3.3639878	ehs	0.0
-3.3639878	ejb	0.0
-3.3639878	electronics	0.0
-3.3639878	element	0.0
-3.3639878	elixir	0.0
-3.3639878	emacs	0.0
-3.3639878	emc	0.0
-3.3639878	endevor	0.0
-3.3639878	energy	0.0
-3.3639878	english	0.0
-3.3639878	entertainment	0.0
-3.3639878	envi	0.0
-3.3639878	epc	0.0
-3.3639878	eplan	0.0
-3.3639878	epm	0.0
-3.3639878	equipment	0.0
-3.3639878	equities	0.0
-3.3639878	erlang	0.0
-3.3639878	erp	0.0
-3.3639878	erwin	0.0
-3.3639878	es	0.0
-3.3639878	esd	0.0
-3.3639878	ethernet	0.0
-3.3639878	etl	0.0
-3.3639878	eviews	0.0
-3.3639878	excel	0.0
-3.3639878	exchange	0.0
-3.3639878	explorer	0.0
-3.3639878	express	0.0
-3.3639878	facebook	0.0
-3.3639878	facility	0.0
-3.3639878	fashion	0.0
-3.3639878	fastdfs	0.0
-3.3639878	fcoe	0.0
-3.3639878	fiddler	0.0
-3.3639878	film	0.0
-3.3639878	filter	0.0
-3.3639878	finance	0.0
-3.3639878	firmware	0.0
-3.3639878	flash	0.0
-3.3639878	flex	0.0
-3.3639878	flexsim	0.0
-3.3639878	flinto	0.0
-3.3639878	fluid	0.0
-3.3639878	fmcg	0.0
-3.3639878	fortran	0.0
-3.3639878	foss	0.0
-3.3639878	foxpro	0.0
-3.3639878	fpga	0.0
-3.3639878	fpm	0.0
-3.3639878	freemarker	0.0
-3.3639878	frontpage	0.0
-3.3639878	ftp	0.0
-3.3639878	funding	0.0
-3.3639878	fundraising	0.0
-3.3639878	fw	0.0
-3.3639878	gaming	0.0
-3.3639878	gc	0.0
-3.3639878	gcc	0.0
-3.3639878	gem	0.0
-3.3639878	genesis	0.0
-3.3639878	genesys	0.0
-3.3639878	geoserver	0.0
-3.3639878	german	0.0
-3.3639878	gimp	0.0
-3.3639878	gis	0.0
-3.3639878	git	0.0
-3.3639878	github	0.0
-3.3639878	gl	0.0
-3.3639878	glassfish	0.0
-3.3639878	glsl	0.0
-3.3639878	gmp	0.0
-3.3639878	gms	0.0
-3.3639878	go	0.0
-3.3639878	golang	0.0
-3.3639878	golive	0.0
-3.3639878	google	0.0
-3.3639878	gorm	0.0
-3.3639878	gosu	0.0
-3.3639878	governance	0.0
-3.3639878	gpm	0.0
-3.3639878	gpp	0.0
-3.3639878	gprs	0.0
-3.3639878	gps	0.0
-3.3639878	gpu	0.0
-3.3639878	gradle	0.0
-3.3639878	graphql	0.0
-3.3639878	grasshopper	0.0
-3.3639878	greenplum	0.0
-3.3639878	grid	0.0
-3.3639878	gsa	0.0
-3.3639878	gsm	0.0
-3.3639878	gts	0.0
-3.3639878	gui	0.0
-3.3639878	h	0.0
-3.3639878	hadoop	0.0
-3.3639878	handlebars	0.0
-3.3639878	hardware	0.0
-3.3639878	hbuilder	0.0
-3.3639878	hd	0.0
-3.3639878	hdmi	0.0
-3.3639878	healthcare	0.0
-3.3639878	hfss	0.0
-3.3639878	hibernate	0.0
-3.3639878	hiring	0.0
-3.3639878	his	0.0
-3.3639878	hitech	0.0
-3.3639878	hive	0.0
-3.3639878	hlsl	0.0
-3.3639878	hmi	0.0
-3.3639878	hootsuite	0.0
-3.3639878	hotspot	0.0
-3.3639878	houdini	0.0
-3.3639878	hp	0.0
-3.3639878	hr	0.0
-3.3639878	hrbp	0.0
-3.3639878	hris	0.0
-3.3639878	hsrp	0.0
-3.3639878	html	0.0
-3.3639878	http	0.0
-3.3639878	https	0.0
-3.3639878	httpunit	0.0
-3.3639878	hybris	0.0
-3.3639878	hyperion	0.0
-3.3639878	hypervisor	0.0
-3.3639878	hyperworks	0.0
-3.3639878	iaas	0.0
-3.3639878	iam	0.0
-3.3639878	iar	0.0
-3.3639878	ibm	0.0
-3.3639878	ic	0.0
-3.3639878	ics	0.0
-3.3639878	ict	0.0
-3.3639878	id	0.0
-3.3639878	ida	0.0
-3.3639878	idc	0.0
-3.3639878	idea	0.0
-3.3639878	idl	0.0
-3.3639878	idle	0.0
-3.3639878	idoc	0.0
-3.3639878	idol	0.0
-3.3639878	ie	0.0
-3.3639878	ieee	0.0
-3.3639878	ielts	0.0
-3.3639878	ifrs	0.0
-3.3639878	igmp	0.0
-3.3639878	igp	0.0
-3.3639878	iis	0.0
-3.3639878	ile	0.0
-3.3639878	imanager	0.0
-3.3639878	implementation	0.0
-3.3639878	import	0.0
-3.3639878	inca	0.0
-3.3639878	informatica	0.0
-3.3639878	information	0.0
-3.3639878	instrument	0.0
-3.3639878	insurance	0.0
-3.3639878	integration	0.0
-3.3639878	interface	0.0
-3.3639878	internet	0.0
-3.3639878	interpreting	0.0
-3.3639878	investments	0.0
-3.3639878	ionic	0.0
-3.3639878	ios	0.0
-3.3639878	iosandroid	0.0
-3.3639878	iosapp	0.0
-3.3639878	ip	0.0
-3.3639878	ipad	0.0
-3.3639878	ipc	0.0
-3.3639878	iphone	0.0
-3.3639878	ipmi	0.0
-3.3639878	ipo	0.0
-3.3639878	ipqc	0.0
-3.3639878	ips	0.0
-3.3639878	iptables	0.0
-3.3639878	iptv	0.0
-3.3639878	ipython	0.0
-3.3639878	iqc	0.0
-3.3639878	ireport	0.0
-3.3639878	isa	0.0
-3.3639878	iso	0.0
-3.3639878	isp	0.0
-3.3639878	it	0.0
-3.3639878	itil	0.0
-3.3639878	itk	0.0
-3.3639878	ivr	0.0
-3.3639878	iwork	0.0
-3.3639878	j	0.0
-3.3639878	jad	0.0
-3.3639878	james	0.0
-3.3639878	japanese	0.0
-3.3639878	java	0.0
-3.3639878	javabean	0.0
-3.3639878	javafx	0.0
-3.3639878	javascript	0.0
-3.3639878	javase	0.0
-3.3639878	javaweb	0.0
-3.3639878	jbuilder	0.0
-3.3639878	jdbc	0.0
-3.3639878	jdk	0.0
-3.3639878	jdom	0.0
-3.3639878	jetty	0.0
-3.3639878	jfreechart	0.0
-3.3639878	jira	0.0
-3.3639878	jmeter	0.0
-3.3639878	jmp	0.0
-3.3639878	jms	0.0
-3.3639878	joomla	0.0
-3.3639878	jpa	0.0
-3.3639878	jqueryui	0.0
-3.3639878	js	0.0
-3.3639878	jscss	0.0
-3.3639878	jsonp	0.0
-3.3639878	jsp	0.0
-3.3639878	jstl	0.0
-3.3639878	julia	0.0
-3.3639878	juniper	0.0
-3.3639878	junos	0.0
-3.3639878	jvm	0.0
-3.3639878	k	0.0
-3.3639878	ka	0.0
-3.3639878	kafka	0.0
-3.3639878	kaizen	0.0
-3.3639878	kanban	0.0
-3.3639878	keras	0.0
-3.3639878	kettle	0.0
-3.3639878	keynote	0.0
-3.3639878	keyshot	0.0
-3.3639878	kickstart	0.0
-3.3639878	kismet	0.0
-3.3639878	kohana	0.0
-3.3639878	kotlin	0.0
-3.3639878	ktv	0.0
-3.3639878	kubernetes	0.0
-3.3639878	kvm	0.0
-3.3639878	labview	0.0
-3.3639878	lamp	0.0
-3.3639878	lan	0.0
-3.3639878	laravel	0.0
-3.3639878	latex	0.0
-3.3639878	layer	0.0
-3.3639878	layout	0.0
-3.3639878	lcd	0.0
-3.3639878	leadership	0.0
-3.3639878	leap	0.0
-3.3639878	learn	0.0
-3.3639878	led	0.0
-3.3639878	leed	0.0
-3.3639878	legal	0.0
-3.3639878	lighting	0.0
-3.3639878	lighttpd	0.0
-3.3639878	lightwave	0.0
-3.3639878	lingo	0.0
-3.3639878	linguistics	0.0
-3.3639878	linq	0.0
-3.3639878	linux	0.0
-3.3639878	linuxos	0.0
-3.3639878	lis	0.0
-3.3639878	lisp	0.0
-3.3639878	lms	0.0
-3.3639878	lnmp	0.0
-3.3639878	loadrunner	0.0
-3.3639878	loans	0.0
-3.3639878	localization	0.0
-3.3639878	log	0.0
-3.3639878	lotus	0.0
-3.3639878	lte	0.0
-3.3639878	lua	0.0
-3.3639878	lumion	0.0
-3.3639878	lvm	0.0
-3.3639878	lvs	0.0
-3.3639878	m	0.0
-3.3639878	mac	0.0
-3.3639878	magazines	0.0
-3.3639878	mainframe	0.0
-3.3639878	makefile	0.0
-3.3639878	management	0.0
-3.3639878	manager	0.0
-3.3639878	mantis	0.0
-3.3639878	manufacturing	0.0
-3.3639878	mapinfo	0.0
-3.3639878	mapping	0.0
-3.3639878	mapreduce	0.0
-3.3639878	marcom	0.0
-3.3639878	marketing	0.0
-3.3639878	mastercam	0.0
-3.3639878	materials	0.0
-3.3639878	mathcad	0.0
-3.3639878	mathematica	0.0
-3.3639878	matlab	0.0
-3.3639878	matplotlib	0.0
-3.3639878	max	0.0
-3.3639878	maya	0.0
-3.3639878	mc	0.0
-3.3639878	md	0.0
-3.3639878	me	0.0
-3.3639878	mechanics	0.0
-3.3639878	mel	0.0
-3.3639878	memcached	0.0
-3.3639878	mems	0.0
-3.3639878	mentoring	0.0
-3.3639878	mercurial	0.0
-3.3639878	mercury	0.0
-3.3639878	mes	0.0
-3.3639878	metasploit	0.0
-3.3639878	meteor	0.0
-3.3639878	metrics	0.0
-3.3639878	mfc	0.0
-3.3639878	michael	0.0
-3.3639878	micros	0.0
-3.3639878	microsoft	0.0
-3.3639878	microsoftoffice	0.0
-3.3639878	mindjet	0.0
-3.3639878	mindmanager	0.0
-3.3639878	minitab	0.0
-3.3639878	mips	0.0
-3.3639878	miscellaneous	0.0
-3.3639878	mmorpg	0.0
-3.3639878	mms	0.0
-3.3639878	mockito	0.0
-3.3639878	mockplus	0.0
-3.3639878	mockup	0.0
-3.3639878	mockups	0.0
-3.3639878	model	0.0
-3.3639878	modeling	0.0
-3.3639878	modem	0.0
-3.3639878	module	0.0
-3.3639878	modx	0.0
-3.3639878	moldflow	0.0
-3.3639878	mongodb	0.0
-3.3639878	monitoring	0.0
-3.3639878	monkey	0.0
-3.3639878	monkeyrunner	0.0
-3.3639878	moodle	0.0
-3.3639878	mootools	0.0
-3.3639878	mp	0.0
-3.3639878	mplab	0.0
-3.3639878	mpls	0.0
-3.3639878	mqseries	0.0
-3.3639878	mqtt	0.0
-3.3639878	mro	0.0
-3.3639878	ms	0.0
-3.3639878	msmq	0.0
-3.3639878	msoffice	0.0
-3.3639878	mstr	0.0
-3.3639878	mtk	0.0
-3.3639878	mts	0.0
-3.3639878	mudbox	0.0
-3.3639878	multimedia	0.0
-3.3639878	multiplayer	0.0
-3.3639878	multisim	0.0
-3.3639878	mvc	0.0
-3.3639878	mvp	0.0
-3.3639878	mvs	0.0
-3.3639878	mybatis	0.0
-3.3639878	myeclipse	0.0
-3.3639878	mysql	0.0
-3.3639878	nav	0.0
-3.3639878	nc	0.0
-3.3639878	nds	0.0
-3.3639878	negotiation	0.0
-3.3639878	nessus	0.0
-3.3639878	net	0.0
-3.3639878	netbackup	0.0
-3.3639878	netware	0.0
-3.3639878	newsletters	0.0
-3.3639878	nexus	0.0
-3.3639878	nginx	0.0
-3.3639878	nhibernate	0.0
-3.3639878	nice	0.0
-3.3639878	nim	0.0
-3.3639878	nio	0.0
-3.3639878	nlp	0.0
-3.3639878	nmap	0.0
-3.3639878	nms	0.0
-3.3639878	node	0.0
-3.3639878	nodejs	0.0
-3.3639878	nokia	0.0
-3.3639878	nonprofits	0.0
-3.3639878	nosql	0.0
-3.3639878	ntfs	0.0
-3.3639878	ntp	0.0
-3.3639878	numpy	0.0
-3.3639878	nunit	0.0
-3.3639878	nvh	0.0
-3.3639878	nx	0.0
-3.3639878	o	0.0
-3.3639878	oa	0.0
-3.3639878	oaf	0.0
-3.3639878	oauth	0.0
-3.3639878	objective	0.0
-3.3639878	ocr	0.0
-3.3639878	ocs	0.0
-3.3639878	od	0.0
-3.3639878	odbc	0.0
-3.3639878	odi	0.0
-3.3639878	oem	0.0
-3.3639878	ofbiz	0.0
-3.3639878	office	0.0
-3.3639878	offices	0.0
-3.3639878	oltp	0.0
-3.3639878	omnigraffle	0.0
-3.3639878	oms	0.0
-3.3639878	omt	0.0
-3.3639878	onenote	0.0
-3.3639878	ontology	0.0
-3.3639878	ooad	0.0
-3.3639878	opc	0.0
-3.3639878	openbsd	0.0
-3.3639878	opengl	0.0
-3.3639878	opening	0.0
-3.3639878	openldap	0.0
-3.3639878	openmp	0.0
-3.3639878	openstack	0.0
-3.3639878	opensuse	0.0
-3.3639878	openview	0.0
-3.3639878	openvms	0.0
-3.3639878	openvpn	0.0
-3.3639878	opera	0.0
-3.3639878	operating	0.0
-3.3639878	operation	0.0
-3.3639878	optimization	0.0
-3.3639878	oracle	0.0
-3.3639878	oracleebs	0.0
-3.3639878	oracleerp	0.0
-3.3639878	orcad	0.0
-3.3639878	origin	0.0
-3.3639878	orm	0.0
-3.3639878	os	0.0
-3.3639878	oscilloscope	0.0
-3.3639878	osgi	0.0
-3.3639878	ospf	0.0
-3.3639878	oss	0.0
-3.3639878	ota	0.0
-3.3639878	otc	0.0
-3.3639878	p	0.0
-3.3639878	pack	0.0
-3.3639878	packaging	0.0
-3.3639878	pagemaker	0.0
-3.3639878	panda	0.0
-3.3639878	pascal	0.0
-3.3639878	payroll	0.0
-3.3639878	pc	0.0
-3.3639878	pca	0.0
-3.3639878	pcb	0.0
-3.3639878	pcba	0.0
-3.3639878	pda	0.0
-3.3639878	pdf	0.0
-3.3639878	pdm	0.0
-3.3639878	pdms	0.0
-3.3639878	pe	0.0
-3.3639878	pentaho	0.0
-3.3639878	peoplecode	0.0
-3.3639878	peoplesoft	0.0
-3.3639878	perl	0.0
-3.3639878	pets	0.0
-3.3639878	phonegap	0.0
-3.3639878	photoshop	0.0
-3.3639878	php	0.0
-3.3639878	phpcms	0.0
-3.3639878	pic	0.0
-3.3639878	pid	0.0
-3.3639878	pim	0.0
-3.3639878	pl	0.0
-3.3639878	plc	0.0
-3.3639878	pll	0.0
-3.3639878	plm	0.0
-3.3639878	pm	0.0
-3.3639878	pmc	0.0
-3.3639878	pmd	0.0
-3.3639878	pmi	0.0
-3.3639878	pmp	0.0
-3.3639878	poi	0.0
-3.3639878	pop	0.0
-3.3639878	portlet	0.0
-3.3639878	pos	0.0
-3.3639878	postfix	0.0
-3.3639878	postgis	0.0
-3.3639878	powerdesigner	0.0
-3.3639878	powerpiont	0.0
-3.3639878	powerpoint	0.0
-3.3639878	ppc	0.0
-3.3639878	ppp	0.0
-3.3639878	pr	0.0
-3.3639878	pre	0.0
-3.3639878	premier	0.0
-3.3639878	prezi	0.0
-3.3639878	principle	0.0
-3.3639878	pro	0.0
-3.3639878	probability	0.0
-3.3639878	proc	0.0
-3.3639878	procurement	0.0
-3.3639878	producing	0.0
-3.3639878	product	0.0
-3.3639878	production	0.0
-3.3639878	program	0.0
-3.3639878	progress	0.0
-3.3639878	project	0.0
-3.3639878	prolog	0.0
-3.3639878	protel	0.0
-3.3639878	proteus	0.0
-3.3639878	proxy	0.0
-3.3639878	ps	0.0
-3.3639878	pspice	0.0
-3.3639878	publicity	0.0
-3.3639878	publishing	0.0
-3.3639878	purchase	0.0
-3.3639878	purchasing	0.0
-3.3639878	pvcs	0.0
-3.3639878	pxcook	0.0
-3.3639878	pycharm	0.0
-3.3639878	pyside	0.0
-3.3639878	python	0.0
-3.3639878	qa	0.0
-3.3639878	qaqc	0.0
-3.3639878	qbasic	0.0
-3.3639878	qc	0.0
-3.3639878	qe	0.0
-3.3639878	qf	0.0
-3.3639878	qgis	0.0
-3.3639878	qml	0.0
-3.3639878	qnx	0.0
-3.3639878	qos	0.0
-3.3639878	qt	0.0
-3.3639878	qtp	0.0
-3.3639878	quarkxpress	0.0
-3.3639878	query	0.0
-3.3639878	quickbooks	0.0
-3.3639878	radius	0.0
-3.3639878	radware	0.0
-3.3639878	ranorex	0.0
-3.3639878	rcp	0.0
-3.3639878	rd	0.0
-3.3639878	rds	0.0
-3.3639878	react	0.0
-3.3639878	realflow	0.0
-3.3639878	recruiter	0.0
-3.3639878	recruiting	0.0
-3.3639878	redhat	0.0
-3.3639878	redis	0.0
-3.3639878	redmine	0.0
-3.3639878	redux	0.0
-3.3639878	rendering	0.0
-3.3639878	research	0.0
-3.3639878	resharper	0.0
-3.3639878	resin	0.0
-3.3639878	restructuring	0.0
-3.3639878	retail	0.0
-3.3639878	revit	0.0
-3.3639878	rexx	0.0
-3.3639878	rf	0.0
-3.3639878	rfc	0.0
-3.3639878	rfid	0.0
-3.3639878	rhapsody	0.0
-3.3639878	rhel	0.0
-3.3639878	rhino	0.0
-3.3639878	rhinoceros	0.0
-3.3639878	riak	0.0
-3.3639878	rim	0.0
-3.3639878	risc	0.0
-3.3639878	rnn	0.0
-3.3639878	robot	0.0
-3.3639878	robotframework	0.0
-3.3639878	robotics	0.0
-3.3639878	rohs	0.0
-3.3639878	routers	0.0
-3.3639878	routing	0.0
-3.3639878	rp	0.0
-3.3639878	rpg	0.0
-3.3639878	rpo	0.0
-3.3639878	rsa	0.0
-3.3639878	rsync	0.0
-3.3639878	rtos	0.0
-3.3639878	rtp	0.0
-3.3639878	rtsp	0.0
-3.3639878	ruby	0.0
-3.3639878	rumba	0.0
-3.3639878	rup	0.0
-3.3639878	s	0.0
-3.3639878	saas	0.0
-3.3639878	sales	0.0
-3.3639878	salesforce	0.0
-3.3639878	samba	0.0
-3.3639878	saml	0.0
-3.3639878	san	0.0
-3.3639878	sap	0.0
-3.3639878	sapabap	0.0
-3.3639878	saperp	0.0
-3.3639878	sapfico	0.0
-3.3639878	sapmm	0.0
-3.3639878	sas	0.0
-3.3639878	sax	0.0
-3.3639878	scada	0.0
-3.3639878	scala	0.0
-3.3639878	scheduler	0.0
-3.3639878	scheme	0.0
-3.3639878	scikit	0.0
-3.3639878	scp	0.0
-3.3639878	screening	0.0
-3.3639878	screenwriting	0.0
-3.3639878	scripting	0.0
-3.3639878	scrum	0.0
-3.3639878	sd	0.0
-3.3639878	sdet	0.0
-3.3639878	sdh	0.0
-3.3639878	sdk	0.0
-3.3639878	sdl	0.0
-3.3639878	sdlc	0.0
-3.3639878	sdn	0.0
-3.3639878	sdwebimage	0.0
-3.3639878	securecrt	0.0
-3.3639878	security	0.0
-3.3639878	sed	0.0
-3.3639878	segmentation	0.0
-3.3639878	sem	0.0
-3.3639878	semiconductors	0.0
-3.3639878	sencha	0.0
-3.3639878	sendmail	0.0
-3.3639878	seo	0.0
-3.3639878	seoaso	0.0
-3.3639878	server	0.0
-3.3639878	servlets	0.0
-3.3639878	set	0.0
-3.3639878	shader	0.0
-3.3639878	shaders	0.0
-3.3639878	sharepoint	0.0
-3.3639878	shell	0.0
-3.3639878	siebel	0.0
-3.3639878	sigma	0.0
-3.3639878	signal	0.0
-3.3639878	sikuli	0.0
-3.3639878	silktest	0.0
-3.3639878	simd	0.0
-3.3639878	simulations	0.0
-3.3639878	sinatra	0.0
-3.3639878	sip	0.0
-3.3639878	sitecore	0.0
-3.3639878	sketch	0.0
-3.3639878	sketching	0.0
-3.3639878	sketchup	0.0
-3.3639878	skype	0.0
-3.3639878	slam	0.0
-3.3639878	sm	0.0
-3.3639878	smalltalk	0.0
-3.3639878	smartphone	0.0
-3.3639878	smb	0.0
-3.3639878	smd	0.0
-3.3639878	smo	0.0
-3.3639878	sms	0.0
-3.3639878	smt	0.0
-3.3639878	sniffer	0.0
-3.3639878	sns	0.0
-3.3639878	soa	0.0
-3.3639878	soc	0.0
-3.3639878	softphone	0.0
-3.3639878	software	0.0
-3.3639878	softwaredevelopment	0.0
-3.3639878	softwareengineer	0.0
-3.3639878	soildworks	0.0
-3.3639878	solidworks	0.0
-3.3639878	sonnet	0.0
-3.3639878	sourcesafe	0.0
-3.3639878	sourcing	0.0
-3.3639878	space	0.0
-3.3639878	spark	0.0
-3.3639878	sparkstreaming	0.0
-3.3639878	spc	0.0
-3.3639878	sphinx	0.0
-3.3639878	spice	0.0
-3.3639878	spine	0.0
-3.3639878	spl	0.0
-3.3639878	sponsorship	0.0
-3.3639878	spring	0.0
-3.3639878	spss	0.0
-3.3639878	sql	0.0
-3.3639878	sqlite	0.0
-3.3639878	sqoop	0.0
-3.3639878	ssd	0.0
-3.3639878	ssh	0.0
-3.3639878	ssl	0.0
-3.3639878	ssm	0.0
-3.3639878	ssms	0.0
-3.3639878	ssp	0.0
-3.3639878	staffing	0.0
-3.3639878	start	0.0
-3.3639878	starteam	0.0
-3.3639878	stata	0.0
-3.3639878	stl	0.0
-3.3639878	stm	0.0
-3.3639878	storytelling	0.0
-3.3639878	stp	0.0
-3.3639878	strategist	0.0
-3.3639878	struct	0.0
-3.3639878	struts	0.0
-3.3639878	sts	0.0
-3.3639878	sublime	0.0
-3.3639878	sugarcrm	0.0
-3.3639878	superannuation	0.0
-3.3639878	surface	0.0
-3.3639878	suse	0.0
-3.3639878	sustainability	0.0
-3.3639878	svg	0.0
-3.3639878	svm	0.0
-3.3639878	svngit	0.0
-3.3639878	swift	0.0
-3.3639878	swiper	0.0
-3.3639878	switch	0.0
-3.3639878	swt	0.0
-3.3639878	sybase	0.0
-3.3639878	symantec	0.0
-3.3639878	symbian	0.0
-3.3639878	symfony	0.0
-3.3639878	syspro	0.0
-3.3639878	system	0.0
-3.3639878	systemverilog	0.0
-3.3639878	t	0.0
-3.3639878	tableau	0.0
-3.3639878	tablet	0.0
-3.3639878	tar	0.0
-3.3639878	tax	0.0
-3.3639878	tcl	0.0
-3.3639878	tcp	0.0
-3.3639878	tcpdump	0.0
-3.3639878	teaching	0.0
-3.3639878	teamcenter	0.0
-3.3639878	teamcity	0.0
-3.3639878	teamwork	0.0
-3.3639878	telecom	0.0
-3.3639878	telecommunications	0.0
-3.3639878	telnet	0.0
-3.3639878	template	0.0
-3.3639878	tensorflow	0.0
-3.3639878	teradata	0.0
-3.3639878	test	0.0
-3.3639878	testdirector	0.0
-3.3639878	testing	0.0
-3.3639878	testlink	0.0
-3.3639878	testmanager	0.0
-3.3639878	testng	0.0
-3.3639878	testpartner	0.0
-3.3639878	teststand	0.0
-3.3639878	texturing	0.0
-3.3639878	tga	0.0
-3.3639878	theano	0.0
-3.3639878	theorem	0.0
-3.3639878	thinkphp	0.0
-3.3639878	tk	0.0
-3.3639878	tmk	0.0
-3.3639878	tomcat	0.0
-3.3639878	torch	0.0
-3.3639878	tp	0.0
-3.3639878	tpm	0.0
-3.3639878	trac	0.0
-3.3639878	trading	0.0
-3.3639878	training	0.0
-3.3639878	translate	0.0
-3.3639878	translation	0.0
-3.3639878	translator	0.0
-3.3639878	transportation	0.0
-3.3639878	tutoring	0.0
-3.3639878	tv	0.0
-3.3639878	typescript	0.0
-3.3639878	typo	0.0
-3.3639878	typography	0.0
-3.3639878	u	0.0
-3.3639878	ubuntu	0.0
-3.3639878	ue	0.0
-3.3639878	ued	0.0
-3.3639878	ug	0.0
-3.3639878	ui	0.0
-3.3639878	uikit	0.0
-3.3639878	unity	0.0
-3.3639878	unix	0.0
-3.3639878	unrealscript	0.0
-3.3639878	ups	0.0
-3.3639878	usb	0.0
-3.3639878	ux	0.0
-3.3639878	v	0.0
-3.3639878	validation	0.0
-3.3639878	valuation	0.0
-3.3639878	vb	0.0
-3.3639878	vcs	0.0
-3.3639878	vector	0.0
-3.3639878	velocity	0.0
-3.3639878	vi	0.0
-3.3639878	vim	0.0
-3.3639878	vios	0.0
-3.3639878	visio	0.0
-3.3639878	visual	0.0
-3.3639878	vmm	0.0
-3.3639878	vmware	0.0
-3.3639878	vod	0.0
-3.3639878	voip	0.0
-3.3639878	vp	0.0
-3.3639878	vpn	0.0
-3.3639878	vr	0.0
-3.3639878	vray	0.0
-3.3639878	vrml	0.0
-3.3639878	vrrp	0.0
-3.3639878	vss	0.0
-3.3639878	vtk	0.0
-3.3639878	vue	0.0
-3.3639878	wap	0.0
-3.3639878	warehouse	0.0
-3.3639878	was	0.0
-3.3639878	watson	0.0
-3.3639878	wdm	0.0
-3.3639878	wealth	0.0
-3.3639878	web	0.0
-3.3639878	webform	0.0
-3.3639878	webgis	0.0
-3.3639878	webgl	0.0
-3.3639878	webkit	0.0
-3.3639878	weblogic	0.0
-3.3639878	webos	0.0
-3.3639878	webpack	0.0
-3.3639878	webservice	0.0
-3.3639878	websocket	0.0
-3.3639878	websphere	0.0
-3.3639878	webstorm	0.0
-3.3639878	webtrends	0.0
-3.3639878	wifi	0.0
-3.3639878	wii	0.0
-3.3639878	wincc	0.0
-3.3639878	wince	0.0
-3.3639878	windbg	0.0
-3.3639878	windows	0.0
-3.3639878	winform	0.0
-3.3639878	winforms	0.0
-3.3639878	winrunner	0.0
-3.3639878	winscp	0.0
-3.3639878	wireless	0.0
-3.3639878	wireshark	0.0
-3.3639878	wlan	0.0
-3.3639878	wlc	0.0
-3.3639878	wml	0.0
-3.3639878	wms	0.0
-3.3639878	word	0.0
-3.3639878	wordpptexcel	0.0
-3.3639878	workflow	0.0
-3.3639878	wpf	0.0
-3.3639878	wps	0.0
-3.3639878	writing	0.0
-3.3639878	wsdl	0.0
-3.3639878	wsus	0.0
-3.3639878	wtl	0.0
-3.3639878	wxpython	0.0
-3.3639878	wxwidgets	0.0
-3.3639878	xacml	0.0
-3.3639878	xampp	0.0
-3.3639878	xbox	0.0
-3.3639878	xbrl	0.0
-3.3639878	xcat	0.0
-3.3639878	xcode	0.0
-3.3639878	xmind	0.0
-3.3639878	xml	0.0
-3.3639878	xmpp	0.0
-3.3639878	xp	0.0
-3.3639878	xpath	0.0
-3.3639878	xquery	0.0
-3.3639878	xsi	0.0
-3.3639878	yarn	0.0
-3.3639878	yii	0.0
-3.3639878	youtube	0.0
-3.3639878	yy	0.0
-3.3639878	z	0.0
-3.3639878	zabbix	0.0
-3.3639878	zemax	0.0
-3.3639878	zepto	0.0
-3.3639878	zeromq	0.0
-3.3639878	zigbee	0.0
-3.3639878	丁	0.0
-3.3639878	上	0.0
-3.3639878	下	0.0
-3.3639878	不	0.0
-3.3639878	与	0.0
-3.3639878	专	0.0
-3.3639878	业	0.0
-3.3639878	东	0.0
-3.3639878	丝	0.0
-3.3639878	个	0.0
-3.3639878	中	0.0
-3.3639878	串	0.0
-3.3639878	临	0.0
-3.3639878	为	0.0
-3.3639878	主	0.0
-3.3639878	乐	0.0
-3.3639878	乒	0.0
-3.3639878	乓	0.0
-3.3639878	乘	0.0
-3.3639878	习	0.0
-3.3639878	乡	0.0
-3.3639878	书	0.0
-3.3639878	买	0.0
-3.3639878	乳	0.0
-3.3639878	乾	0.0
-3.3639878	事	0.0
-3.3639878	云	0.0
-3.3639878	互	0.0
-3.3639878	亚	0.0
-3.3639878	交	0.0
-3.3639878	产	0.0
-3.3639878	京	0.0
-3.3639878	亮	0.0
-3.3639878	亲	0.0
-3.3639878	人	0.0
-3.3639878	介	0.0
-3.3639878	从	0.0
-3.3639878	仓	0.0
-3.3639878	他	0.0
-3.3639878	付	0.0
-3.3639878	代	0.0
-3.3639878	令	0.0
-3.3639878	仪	0.0
-3.3639878	仲	0.0
-3.3639878	件	0.0
-3.3639878	价	0.0
-3.3639878	任	0.0
-3.3639878	份	0.0
-3.3639878	仿	0.0
-3.3639878	企	0.0
-3.3639878	伏	0.0
-3.3639878	休	0.0
-3.3639878	众	0.0
-3.3639878	优	0.0
-3.3639878	伙	0.0
-3.3639878	会	0.0
-3.3639878	传	0.0
-3.3639878	伤	0.0
-3.3639878	伯	0.0
-3.3639878	估	0.0
-3.3639878	伴	0.0
-3.3639878	伸	0.0
-3.3639878	伺	0.0
-3.3639878	伽	0.0
-3.3639878	位	0.0
-3.3639878	低	0.0
-3.3639878	住	0.0
-3.3639878	体	0.0
-3.3639878	作	0.0
-3.3639878	使	0.0
-3.3639878	侈	0.0
-3.3639878	例	0.0
-3.3639878	供	0.0
-3.3639878	促	0.0
-3.3639878	俄	0.0
-3.3639878	保	0.0
-3.3639878	信	0.0
-3.3639878	修	0.0
-3.3639878	债	0.0
-3.3639878	值	0.0
-3.3639878	假	0.0
-3.3639878	停	0.0
-3.3639878	健	0.0
-3.3639878	傅	0.0
-3.3639878	储	0.0
-3.3639878	催	0.0
-3.3639878	像	0.0
-3.3639878	儿	0.0
-3.3639878	元	0.0
-3.3639878	光	0.0
-3.3639878	克	0.0
-3.3639878	兑	0.0
-3.3639878	党	0.0
-3.3639878	入	0.0
-3.3639878	全	0.0
-3.3639878	公	0.0
-3.3639878	兰	0.0
-3.3639878	共	0.0
-3.3639878	关	0.0
-3.3639878	其	0.0
-3.3639878	具	0.0
-3.3639878	养	0.0
-3.3639878	兼	0.0
-3.3639878	兽	0.0
-3.3639878	内	0.0
-3.3639878	册	0.0
-3.3639878	再	0.0
-3.3639878	写	0.0
-3.3639878	军	0.0
-3.3639878	农	0.0
-3.3639878	冰	0.0
-3.3639878	冲	0.0
-3.3639878	决	0.0
-3.3639878	况	0.0
-3.3639878	冶	0.0
-3.3639878	冷	0.0
-3.3639878	准	0.0
-3.3639878	凉	0.0
-3.3639878	减	0.0
-3.3639878	凭	0.0
-3.3639878	出	0.0
-3.3639878	击	0.0
-3.3639878	函	0.0
-3.3639878	刀	0.0
-3.3639878	分	0.0
-3.3639878	切	0.0
-3.3639878	刊	0.0
-3.3639878	划	0.0
-3.3639878	列	0.0
-3.3639878	则	0.0
-3.3639878	创	0.0
-3.3639878	初	0.0
-3.3639878	判	0.0
-3.3639878	利	0.0
-3.3639878	别	0.0
-3.3639878	制	0.0
-3.3639878	刷	0.0
-3.3639878	券	0.0
-3.3639878	剂	0.0
-3.3639878	前	0.0
-3.3639878	剑	0.0
-3.3639878	剧	0.0
-3.3639878	剪	0.0
-3.3639878	副	0.0
-3.3639878	割	0.0
-3.3639878	力	0.0
-3.3639878	办	0.0
-3.3639878	功	0.0
-3.3639878	加	0.0
-3.3639878	务	0.0
-3.3639878	动	0.0
-3.3639878	助	0.0
-3.3639878	励	0.0
-3.3639878	劳	0.0
-3.3639878	勘	0.0
-3.3639878	募	0.0
-3.3639878	勤	0.0
-3.3639878	包	0.0
-3.3639878	化	0.0
-3.3639878	北	0.0
-3.3639878	区	0.0
-3.3639878	医	0.0
-3.3639878	升	0.0
-3.3639878	半	0.0
-3.3639878	华	0.0
-3.3639878	协	0.0
-3.3639878	卓	0.0
-3.3639878	单	0.0
-3.3639878	卖	0.0
-3.3639878	南	0.0
-3.3639878	博	0.0
-3.3639878	卡	0.0
-3.3639878	卫	0.0
-3.3639878	印	0.0
-3.3639878	危	0.0
-3.3639878	即	0.0
-3.3639878	卷	0.0
-3.3639878	厂	0.0
-3.3639878	厅	0.0
-3.3639878	历	0.0
-3.3639878	压	0.0
-3.3639878	原	0.0
-3.3639878	厦	0.0
-3.3639878	厨	0.0
-3.3639878	叉	0.0
-3.3639878	及	0.0
-3.3639878	友	0.0
-3.3639878	双	0.0
-3.3639878	反	0.0
-3.3639878	发	0.0
-3.3639878	取	0.0
-3.3639878	受	0.0
-3.3639878	变	0.0
-3.3639878	叠	0.0
-3.3639878	口	0.0
-3.3639878	古	0.0
-3.3639878	叫	0.0
-3.3639878	可	0.0
-3.3639878	台	0.0
-3.3639878	史	0.0
-3.3639878	叶	0.0
-3.3639878	号	0.0
-3.3639878	司	0.0
-3.3639878	合	0.0
-3.3639878	吉	0.0
-3.3639878	同	0.0
-3.3639878	名	0.0
-3.3639878	后	0.0
-3.3639878	向	0.0
-3.3639878	吧	0.0
-3.3639878	听	0.0
-3.3639878	告	0.0
-3.3639878	员	0.0
-3.3639878	呼	0.0
-3.3639878	命	0.0
-3.3639878	和	0.0
-3.3639878	咖	0.0
-3.3639878	咨	0.0
-3.3639878	品	0.0
-3.3639878	哈	0.0
-3.3639878	响	0.0
-3.3639878	哲	0.0
-3.3639878	售	0.0
-3.3639878	唯	0.0
-3.3639878	商	0.0
-3.3639878	啡	0.0
-3.3639878	善	0.0
-3.3639878	喷	0.0
-3.3639878	器	0.0
-3.3639878	回	0.0
-3.3639878	因	0.0
-3.3639878	团	0.0
-3.3639878	园	0.0
-3.3639878	固	0.0
-3.3639878	国	0.0
-3.3639878	图	0.0
-3.3639878	圈	0.0
-3.3639878	土	0.0
-3.3639878	在	0.0
-3.3639878	地	0.0
-3.3639878	圳	0.0
-3.3639878	场	0.0
-3.3639878	址	0.0
-3.3639878	坐	0.0
-3.3639878	块	0.0
-3.3639878	坛	0.0
-3.3639878	垂	0.0
-3.3639878	型	0.0
-3.3639878	城	0.0
-3.3639878	域	0.0
-3.3639878	培	0.0
-3.3639878	基	0.0
-3.3639878	堂	0.0
-3.3639878	堆	0.0
-3.3639878	塑	0.0
-3.3639878	填	0.0
-3.3639878	境	0.0
-3.3639878	墅	0.0
-3.3639878	墙	0.0
-3.3639878	增	0.0
-3.3639878	壁	0.0
-3.3639878	士	0.0
-3.3639878	声	0.0
-3.3639878	处	0.0
-3.3639878	备	0.0
-3.3639878	复	0.0
-3.3639878	外	0.0
-3.3639878	多	0.0
-3.3639878	大	0.0
-3.3639878	天	0.0
-3.3639878	夫	0.0
-3.3639878	央	0.0
-3.3639878	失	0.0
-3.3639878	头	0.0
-3.3639878	夹	0.0
-3.3639878	奏	0.0
-3.3639878	套	0.0
-3.3639878	奢	0.0
-3.3639878	女	0.0
-3.3639878	好	0.0
-3.3639878	妆	0.0
-3.3639878	妇	0.0
-3.3639878	姆	0.0
-3.3639878	委	0.0
-3.3639878	娱	0.0
-3.3639878	婚	0.0
-3.3639878	婴	0.0
-3.3639878	媒	0.0
-3.3639878	嫂	0.0
-3.3639878	子	0.0
-3.3639878	字	0.0
-3.3639878	存	0.0
-3.3639878	学	0.0
-3.3639878	孵	0.0
-3.3639878	宅	0.0
-3.3639878	宇	0.0
-3.3639878	安	0.0
-3.3639878	完	0.0
-3.3639878	宏	0.0
-3.3639878	宗	0.0
-3.3639878	官	0.0
-3.3639878	定	0.0
-3.3639878	宝	0.0
-3.3639878	实	0.0
-3.3639878	宠	0.0
-3.3639878	审	0.0
-3.3639878	客	0.0
-3.3639878	宣	0.0
-3.3639878	室	0.0
-3.3639878	宴	0.0
-3.3639878	家	0.0
-3.3639878	容	0.0
-3.3639878	宽	0.0
-3.3639878	宾	0.0
-3.3639878	宿	0.0
-3.3639878	密	0.0
-3.3639878	富	0.0
-3.3639878	寓	0.0
-3.3639878	察	0.0
-3.3639878	寸	0.0
-3.3639878	对	0.0
-3.3639878	导	0.0
-3.3639878	寿	0.0
-3.3639878	封	0.0
-3.3639878	射	0.0
-3.3639878	小	0.0
-3.3639878	少	0.0
-3.3639878	尔	0.0
-3.3639878	尚	0.0
-3.3639878	就	0.0
-3.3639878	尺	0.0
-3.3639878	尼	0.0
-3.3639878	尽	0.0
-3.3639878	局	0.0
-3.3639878	层	0.0
-3.3639878	居	0.0
-3.3639878	届	0.0
-3.3639878	屋	0.0
-3.3639878	展	0.0
-3.3639878	属	0.0
-3.3639878	履	0.0
-3.3639878	山	0.0
-3.3639878	岗	0.0
-3.3639878	岩	0.0
-3.3639878	峰	0.0
-3.3639878	嵌	0.0
-3.3639878	川	0.0
-3.3639878	州	0.0
-3.3639878	巡	0.0
-3.3639878	工	0.0
-3.3639878	差	0.0
-3.3639878	巴	0.0
-3.3639878	币	0.0
-3.3639878	市	0.0
-3.3639878	布	0.0
-3.3639878	师	0.0
-3.3639878	带	0.0
-3.3639878	帧	0.0
-3.3639878	席	0.0
-3.3639878	帮	0.0
-3.3639878	常	0.0
-3.3639878	幕	0.0
-3.3639878	干	0.0
-3.3639878	平	0.0
-3.3639878	并	0.0
-3.3639878	幻	0.0
-3.3639878	幼	0.0
-3.3639878	广	0.0
-3.3639878	庆	0.0
-3.3639878	床	0.0
-3.3639878	序	0.0
-3.3639878	库	0.0
-3.3639878	应	0.0
-3.3639878	底	0.0
-3.3639878	店	0.0
-3.3639878	府	0.0
-3.3639878	废	0.0
-3.3639878	度	0.0
-3.3639878	座	0.0
-3.3639878	庭	0.0
-3.3639878	康	0.0
-3.3639878	延	0.0
-3.3639878	建	0.0
-3.3639878	开	0.0
-3.3639878	弊	0.0
-3.3639878	式	0.0
-3.3639878	引	0.0
-3.3639878	弧	0.0
-3.3639878	弯	0.0
-3.3639878	弱	0.0
-3.3639878	强	0.0
-3.3639878	归	0.0
-3.3639878	当	0.0
-3.3639878	录	0.0
-3.3639878	形	0.0
-3.3639878	彩	0.0
-3.3639878	影	0.0
-3.3639878	往	0.0
-3.3639878	征	0.0
-3.3639878	径	0.0
-3.3639878	待	0.0
-3.3639878	律	0.0
-3.3639878	徒	0.0
-3.3639878	微	0.0
-3.3639878	德	0.0
-3.3639878	心	0.0
-3.3639878	志	0.0
-3.3639878	快	0.0
-3.3639878	念	0.0
-3.3639878	怀	0.0
-3.3639878	态	0.0
-3.3639878	思	0.0
-3.3639878	急	0.0
-3.3639878	性	0.0
-3.3639878	总	0.0
-3.3639878	恋	0.0
-3.3639878	恒	0.0
-3.3639878	息	0.0
-3.3639878	情	0.0
-3.3639878	意	0.0
-3.3639878	感	0.0
-3.3639878	愿	0.0
-3.3639878	慢	0.0
-3.3639878	慧	0.0
-3.3639878	戏	0.0
-3.3639878	成	0.0
-3.3639878	战	0.0
-3.3639878	户	0.0
-3.3639878	房	0.0
-3.3639878	所	0.0
-3.3639878	手	0.0
-3.3639878	才	0.0
-3.3639878	打	0.0
-3.3639878	托	0.0
-3.3639878	执	0.0
-3.3639878	扫	0.0
-3.3639878	批	0.0
-3.3639878	技	0.0
-3.3639878	抓	0.0
-3.3639878	投	0.0
-3.3639878	抗	0.0
-3.3639878	折	0.0
-3.3639878	抛	0.0
-3.3639878	护	0.0
-3.3639878	报	0.0
-3.3639878	押	0.0
-3.3639878	抽	0.0
-3.3639878	担	0.0
-3.3639878	拆	0.0
-3.3639878	拉	0.0
-3.3639878	拍	0.0
-3.3639878	拓	0.0
-3.3639878	招	0.0
-3.3639878	拟	0.0
-3.3639878	拨	0.0
-3.3639878	拳	0.0
-3.3639878	拿	0.0
-3.3639878	持	0.0
-3.3639878	挂	0.0
-3.3639878	指	0.0
-3.3639878	按	0.0
-3.3639878	挖	0.0
-3.3639878	振	0.0
-3.3639878	损	0.0
-3.3639878	换	0.0
-3.3639878	据	0.0
-3.3639878	捷	0.0
-3.3639878	授	0.0
-3.3639878	排	0.0
-3.3639878	掘	0.0
-3.3639878	接	0.0
-3.3639878	控	0.0
-3.3639878	推	0.0
-3.3639878	描	0.0
-3.3639878	提	0.0
-3.3639878	插	0.0
-3.3639878	揭	0.0
-3.3639878	援	0.0
-3.3639878	搜	0.0
-3.3639878	搬	0.0
-3.3639878	搭	0.0
-3.3639878	摄	0.0
-3.3639878	摩	0.0
-3.3639878	撑	0.0
-3.3639878	播	0.0
-3.3639878	撰	0.0
-3.3639878	操	0.0
-3.3639878	擎	0.0
-3.3639878	支	0.0
-3.3639878	收	0.0
-3.3639878	改	0.0
-3.3639878	攻	0.0
-3.3639878	放	0.0
-3.3639878	政	0.0
-3.3639878	故	0.0
-3.3639878	效	0.0
-3.3639878	敏	0.0
-3.3639878	救	0.0
-3.3639878	教	0.0
-3.3639878	散	0.0
-3.3639878	数	0.0
-3.3639878	整	0.0
-3.3639878	文	0.0
-3.3639878	斗	0.0
-3.3639878	料	0.0
-3.3639878	断	0.0
-3.3639878	斯	0.0
-3.3639878	新	0.0
-3.3639878	方	0.0
-3.3639878	施	0.0
-3.3639878	旅	0.0
-3.3639878	旗	0.0
-3.3639878	无	0.0
-3.3639878	日	0.0
-3.3639878	旦	0.0
-3.3639878	早	0.0
-3.3639878	时	0.0
-3.3639878	昌	0.0
-3.3639878	明	0.0
-3.3639878	易	0.0
-3.3639878	晒	0.0
-3.3639878	晚	0.0
-3.3639878	普	0.0
-3.3639878	景	0.0
-3.3639878	智	0.0
-3.3639878	暖	0.0
-3.3639878	暨	0.0
-3.3639878	更	0.0
-3.3639878	月	0.0
-3.3639878	有	0.0
-3.3639878	服	0.0
-3.3639878	朝	0.0
-3.3639878	期	0.0
-3.3639878	木	0.0
-3.3639878	本	0.0
-3.3639878	术	0.0
-3.3639878	机	0.0
-3.3639878	杂	0.0
-3.3639878	权	0.0
-3.3639878	杆	0.0
-3.3639878	李	0.0
-3.3639878	材	0.0
-3.3639878	束	0.0
-3.3639878	来	0.0
-3.3639878	板	0.0
-3.3639878	极	0.0
-3.3639878	构	0.0
-3.3639878	析	0.0
-3.3639878	林	0.0
-3.3639878	果	0.0
-3.3639878	架	0.0
-3.3639878	染	0.0
-3.3639878	柜	0.0
-3.3639878	查	0.0
-3.3639878	标	0.0
-3.3639878	栈	0.0
-3.3639878	栏	0.0
-3.3639878	校	0.0
-3.3639878	样	0.0
-3.3639878	核	0.0
-3.3639878	格	0.0
-3.3639878	桂	0.0
-3.3639878	框	0.0
-3.3639878	案	0.0
-3.3639878	桌	0.0
-3.3639878	档	0.0
-3.3639878	桥	0.0
-3.3639878	梁	0.0
-3.3639878	梯	0.0
-3.3639878	械	0.0
-3.3639878	检	0.0
-3.3639878	棋	0.0
-3.3639878	植	0.0
-3.3639878	楼	0.0
-3.3639878	概	0.0
-3.3639878	模	0.0
-3.3639878	橱	0.0
-3.3639878	欠	0.0
-3.3639878	次	0.0
-3.3639878	欺	0.0
-3.3639878	款	0.0
-3.3639878	歌	0.0
-3.3639878	正	0.0
-3.3639878	武	0.0
-3.3639878	殖	0.0
-3.3639878	段	0.0
-3.3639878	母	0.0
-3.3639878	毒	0.0
-3.3639878	比	0.0
-3.3639878	毕	0.0
-3.3639878	氏	0.0
-3.3639878	民	0.0
-3.3639878	气	0.0
-3.3639878	氩	0.0
-3.3639878	水	0.0
-3.3639878	求	0.0
-3.3639878	汇	0.0
-3.3639878	汉	0.0
-3.3639878	江	0.0
-3.3639878	池	0.0
-3.3639878	污	0.0
-3.3639878	汽	0.0
-3.3639878	沙	0.0
-3.3639878	沟	0.0
-3.3639878	油	0.0
-3.3639878	治	0.0
-3.3639878	法	0.0
-3.3639878	泛	0.0
-3.3639878	波	0.0
-3.3639878	泥	0.0
-3.3639878	注	0.0
-3.3639878	泳	0.0
-3.3639878	泵	0.0
-3.3639878	洁	0.0
-3.3639878	洋	0.0
-3.3639878	洗	0.0
-3.3639878	洞	0.0
-3.3639878	津	0.0
-3.3639878	活	0.0
-3.3639878	派	0.0
-3.3639878	流	0.0
-3.3639878	浆	0.0
-3.3639878	测	0.0
-3.3639878	济	0.0
-3.3639878	浏	0.0
-3.3639878	浙	0.0
-3.3639878	浪	0.0
-3.3639878	海	0.0
-3.3639878	涂	0.0
-3.3639878	消	0.0
-3.3639878	涉	0.0
-3.3639878	润	0.0
-3.3639878	液	0.0
-3.3639878	淘	0.0
-3.3639878	深	0.0
-3.3639878	清	0.0
-3.3639878	渔	0.0
-3.3639878	渗	0.0
-3.3639878	渠	0.0
-3.3639878	温	0.0
-3.3639878	渲	0.0
-3.3639878	游	0.0
-3.3639878	湖	0.0
-3.3639878	湘	0.0
-3.3639878	源	0.0
-3.3639878	滑	0.0
-3.3639878	滤	0.0
-3.3639878	滨	0.0
-3.3639878	漏	0.0
-3.3639878	演	0.0
-3.3639878	漫	0.0
-3.3639878	潜	0.0
-3.3639878	潢	0.0
-3.3639878	潮	0.0
-3.3639878	激	0.0
-3.3639878	灌	0.0
-3.3639878	火	0.0
-3.3639878	灯	0.0
-3.3639878	灸	0.0
-3.3639878	灾	0.0
-3.3639878	炉	0.0
-3.3639878	炭	0.0
-3.3639878	炮	0.0
-3.3639878	点	0.0
-3.3639878	炼	0.0
-3.3639878	烘	0.0
-3.3639878	烟	0.0
-3.3639878	烤	0.0
-3.3639878	烧	0.0
-3.3639878	热	0.0
-3.3639878	烹	0.0
-3.3639878	焊	0.0
-3.3639878	焙	0.0
-3.3639878	然	0.0
-3.3639878	煤	0.0
-3.3639878	照	0.0
-3.3639878	熔	0.0
-3.3639878	燃	0.0
-3.3639878	爆	0.0
-3.3639878	爬	0.0
-3.3639878	爵	0.0
-3.3639878	片	0.0
-3.3639878	版	0.0
-3.3639878	牌	0.0
-3.3639878	牙	0.0
-3.3639878	牛	0.0
-3.3639878	牧	0.0
-3.3639878	物	0.0
-3.3639878	特	0.0
-3.3639878	犀	0.0
-3.3639878	狗	0.0
-3.3639878	猎	0.0
-3.3639878	猫	0.0
-3.3639878	率	0.0
-3.3639878	玛	0.0
-3.3639878	玩	0.0
-3.3639878	环	0.0
-3.3639878	现	0.0
-3.3639878	珠	0.0
-3.3639878	班	0.0
-3.3639878	球	0.0
-3.3639878	理	0.0
-3.3639878	琴	0.0
-3.3639878	瑜	0.0
-3.3639878	瓦	0.0
-3.3639878	瓷	0.0
-3.3639878	甜	0.0
-3.3639878	生	0.0
-3.3639878	用	0.0
-3.3639878	由	0.0
-3.3639878	甲	0.0
-3.3639878	申	0.0
-3.3639878	电	0.0
-3.3639878	男	0.0
-3.3639878	甸	0.0
-3.3639878	画	0.0
-3.3639878	界	0.0
-3.3639878	留	0.0
-3.3639878	畜	0.0
-3.3639878	略	0.0
-3.3639878	疑	0.0
-3.3639878	疗	0.0
-3.3639878	病	0.0
-3.3639878	瘦	0.0
-3.3639878	登	0.0
-3.3639878	白	0.0
-3.3639878	的	0.0
-3.3639878	皮	0.0
-3.3639878	盈	0.0
-3.3639878	益	0.0
-3.3639878	监	0.0
-3.3639878	盒	0.0
-3.3639878	盘	0.0
-3.3639878	盟	0.0
-3.3639878	目	0.0
-3.3639878	直	0.0
-3.3639878	相	0.0
-3.3639878	省	0.0
-3.3639878	真	0.0
-3.3639878	眠	0.0
-3.3639878	眼	0.0
-3.3639878	着	0.0
-3.3639878	睡	0.0
-3.3639878	督	0.0
-3.3639878	知	0.0
-3.3639878	矩	0.0
-3.3639878	短	0.0
-3.3639878	石	0.0
-3.3639878	矿	0.0
-3.3639878	码	0.0
-3.3639878	研	0.0
-3.3639878	破	0.0
-3.3639878	础	0.0
-3.3639878	硬	0.0
-3.3639878	确	0.0
-3.3639878	碗	0.0
-3.3639878	碟	0.0
-3.3639878	碧	0.0
-3.3639878	磁	0.0
-3.3639878	磨	0.0
-3.3639878	示	0.0
-3.3639878	礼	0.0
-3.3639878	社	0.0
-3.3639878	神	0.0
-3.3639878	票	0.0
-3.3639878	禁	0.0
-3.3639878	福	0.0
-3.3639878	秀	0.0
-3.3639878	私	0.0
-3.3639878	种	0.0
-3.3639878	科	0.0
-3.3639878	秘	0.0
-3.3639878	租	0.0
-3.3639878	秩	0.0
-3.3639878	称	0.0
-3.3639878	移	0.0
-3.3639878	程	0.0
-3.3639878	税	0.0
-3.3639878	稳	0.0
-3.3639878	稽	0.0
-3.3639878	稿	0.0
-3.3639878	究	0.0
-3.3639878	空	0.0
-3.3639878	突	0.0
-3.3639878	窗	0.0
-3.3639878	立	0.0
-3.3639878	站	0.0
-3.3639878	竞	0.0
-3.3639878	章	0.0
-3.3639878	童	0.0
-3.3639878	端	0.0
-3.3639878	笔	0.0
-3.3639878	符	0.0
-3.3639878	等	0.0
-3.3639878	筋	0.0
-3.3639878	筑	0.0
-3.3639878	答	0.0
-3.3639878	策	0.0
-3.3639878	筝	0.0
-3.3639878	筹	0.0
-3.3639878	签	0.0
-3.3639878	算	0.0
-3.3639878	管	0.0
-3.3639878	箱	0.0
-3.3639878	篮	0.0
-3.3639878	籍	0.0
-3.3639878	米	0.0
-3.3639878	类	0.0
-3.3639878	粉	0.0
-3.3639878	粤	0.0
-3.3639878	精	0.0
-3.3639878	糕	0.0
-3.3639878	系	0.0
-3.3639878	素	0.0
-3.3639878	索	0.0
-3.3639878	红	0.0
-3.3639878	纤	0.0
-3.3639878	约	0.0
-3.3639878	级	0.0
-3.3639878	纪	0.0
-3.3639878	纫	0.0
-3.3639878	纯	0.0
-3.3639878	纱	0.0
-3.3639878	纳	0.0
-3.3639878	纸	0.0
-3.3639878	纹	0.0
-3.3639878	纺	0.0
-3.3639878	线	0.0
-3.3639878	练	0.0
-3.3639878	组	0.0
-3.3639878	细	0.0
-3.3639878	织	0.0
-3.3639878	终	0.0
-3.3639878	经	0.0
-3.3639878	绑	0.0
-3.3639878	结	0.0
-3.3639878	绘	0.0
-3.3639878	给	0.0
-3.3639878	络	0.0
-3.3639878	统	0.0
-3.3639878	绣	0.0
-3.3639878	继	0.0
-3.3639878	绩	0.0
-3.3639878	续	0.0
-3.3639878	维	0.0
-3.3639878	综	0.0
-3.3639878	绿	0.0
-3.3639878	缅	0.0
-3.3639878	编	0.0
-3.3639878	缘	0.0
-3.3639878	缝	0.0
-3.3639878	缴	0.0
-3.3639878	缺	0.0
-3.3639878	网	0.0
-3.3639878	置	0.0
-3.3639878	署	0.0
-3.3639878	美	0.0
-3.3639878	群	0.0
-3.3639878	翠	0.0
-3.3639878	翡	0.0
-3.3639878	翻	0.0
-3.3639878	老	0.0
-3.3639878	考	0.0
-3.3639878	者	0.0
-3.3639878	耗	0.0
-3.3639878	耳	0.0
-3.3639878	职	0.0
-3.3639878	联	0.0
-3.3639878	聘	0.0
-3.3639878	聚	0.0
-3.3639878	肛	0.0
-3.3639878	肠	0.0
-3.3639878	股	0.0
-3.3639878	肤	0.0
-3.3639878	肥	0.0
-3.3639878	育	0.0
-3.3639878	胎	0.0
-3.3639878	胜	0.0
-3.3639878	胞	0.0
-3.3639878	胶	0.0
-3.3639878	能	0.0
-3.3639878	脑	0.0
-3.3639878	脚	0.0
-3.3639878	脸	0.0
-3.3639878	腔	0.0
-3.3639878	膜	0.0
-3.3639878	自	0.0
-3.3639878	舆	0.0
-3.3639878	舍	0.0
-3.3639878	舞	0.0
-3.3639878	航	0.0
-3.3639878	般	0.0
-3.3639878	舰	0.0
-3.3639878	舶	0.0
-3.3639878	船	0.0
-3.3639878	艇	0.0
-3.3639878	色	0.0
-3.3639878	艺	0.0
-3.3639878	节	0.0
-3.3639878	芯	0.0
-3.3639878	花	0.0
-3.3639878	苗	0.0
-3.3639878	英	0.0
-3.3639878	范	0.0
-3.3639878	茗	0.0
-3.3639878	茶	0.0
-3.3639878	草	0.0
-3.3639878	荐	0.0
-3.3639878	药	0.0
-3.3639878	荷	0.0
-3.3639878	获	0.0
-3.3639878	菌	0.0
-3.3639878	菜	0.0
-3.3639878	萄	0.0
-3.3639878	营	0.0
-3.3639878	葡	0.0
-3.3639878	董	0.0
-3.3639878	蒙	0.0
-3.3639878	蓝	0.0
-3.3639878	薪	0.0
-3.3639878	藏	0.0
-3.3639878	虚	0.0
-3.3639878	虫	0.0
-3.3639878	蛋	0.0
-3.3639878	蝶	0.0
-3.3639878	融	0.0
-3.3639878	血	0.0
-3.3639878	行	0.0
-3.3639878	衍	0.0
-3.3639878	衣	0.0
-3.3639878	表	0.0
-3.3639878	裁	0.0
-3.3639878	装	0.0
-3.3639878	裱	0.0
-3.3639878	西	0.0
-3.3639878	要	0.0
-3.3639878	观	0.0
-3.3639878	规	0.0
-3.3639878	视	0.0
-3.3639878	览	0.0
-3.3639878	觉	0.0
-3.3639878	角	0.0
-3.3639878	解	0.0
-3.3639878	言	0.0
-3.3639878	警	0.0
-3.3639878	计	0.0
-3.3639878	订	0.0
-3.3639878	认	0.0
-3.3639878	训	0.0
-3.3639878	议	0.0
-3.3639878	讯	0.0
-3.3639878	记	0.0
-3.3639878	讲	0.0
-3.3639878	论	0.0
-3.3639878	讼	0.0
-3.3639878	设	0.0
-3.3639878	访	0.0
-3.3639878	证	0.0
-3.3639878	评	0.0
-3.3639878	识	0.0
-3.3639878	诈	0.0
-3.3639878	诉	0.0
-3.3639878	诊	0.0
-3.3639878	词	0.0
-3.3639878	译	0.0
-3.3639878	试	0.0
-3.3639878	话	0.0
-3.3639878	询	0.0
-3.3639878	语	0.0
-3.3639878	说	0.0
-3.3639878	请	0.0
-3.3639878	诺	0.0
-3.3639878	读	0.0
-3.3639878	课	0.0
-3.3639878	调	0.0
-3.3639878	谈	0.0
-3.3639878	谐	0.0
-3.3639878	象	0.0
-3.3639878	豪	0.0
-3.3639878	负	0.0
-3.3639878	财	0.0
-3.3639878	责	0.0
-3.3639878	账	0.0
-3.3639878	货	0.0
-3.3639878	质	0.0
-3.3639878	购	0.0
-3.3639878	贴	0.0
-3.3639878	贵	0.0
-3.3639878	贷	0.0
-3.3639878	贸	0.0
-3.3639878	费	0.0
-3.3639878	赁	0.0
-3.3639878	资	0.0
-3.3639878	赏	0.0
-3.3639878	赔	0.0
-3.3639878	赛	0.0
-3.3639878	起	0.0
-3.3639878	超	0.0
-3.3639878	越	0.0
-3.3639878	足	0.0
-3.3639878	跆	0.0
-3.3639878	跟	0.0
-3.3639878	跨	0.0
-3.3639878	路	0.0
-3.3639878	踪	0.0
-3.3639878	蹈	0.0
-3.3639878	身	0.0
-3.3639878	车	0.0
-3.3639878	轮	0.0
-3.3639878	软	0.0
-3.3639878	载	0.0
-3.3639878	辅	0.0
-3.3639878	辆	0.0
-3.3639878	辐	0.0
-3.3639878	辑	0.0
-3.3639878	输	0.0
-3.3639878	边	0.0
-3.3639878	达	0.0
-3.3639878	迁	0.0
-3.3639878	过	0.0
-3.3639878	迎	0.0
-3.3639878	运	0.0
-3.3639878	进	0.0
-3.3639878	远	0.0
-3.3639878	连	0.0
-3.3639878	迭	0.0
-3.3639878	退	0.0
-3.3639878	送	0.0
-3.3639878	逆	0.0
-3.3639878	选	0.0
-3.3639878	逊	0.0
-3.3639878	透	0.0
-3.3639878	递	0.0
-3.3639878	途	0.0
-3.3639878	通	0.0
-3.3639878	速	0.0
-3.3639878	造	0.0
-3.3639878	逻	0.0
-3.3639878	道	0.0
-3.3639878	遗	0.0
-3.3639878	邮	0.0
-3.3639878	郑	0.0
-3.3639878	部	0.0
-3.3639878	配	0.0
-3.3639878	酒	0.0
-3.3639878	酬	0.0
-3.3639878	酵	0.0
-3.3639878	酿	0.0
-3.3639878	醉	0.0
-3.3639878	采	0.0
-3.3639878	里	0.0
-3.3639878	重	0.0
-3.3639878	量	0.0
-3.3639878	金	0.0
-3.3639878	鉴	0.0
-3.3639878	针	0.0
-3.3639878	钟	0.0
-3.3639878	钢	0.0
-3.3639878	钣	0.0
-3.3639878	钱	0.0
-3.3639878	钳	0.0
-3.3639878	铁	0.0
-3.3639878	铣	0.0
-3.3639878	银	0.0
-3.3639878	铸	0.0
-3.3639878	铺	0.0
-3.3639878	链	0.0
-3.3639878	销	0.0
-3.3639878	锁	0.0
-3.3639878	锅	0.0
-3.3639878	锻	0.0
-3.3639878	镀	0.0
-3.3639878	镖	0.0
-3.3639878	镜	0.0
-3.3639878	长	0.0
-3.3639878	门	0.0
-3.3639878	闭	0.0
-3.3639878	问	0.0
-3.3639878	闲	0.0
-3.3639878	间	0.0
-3.3639878	闻	0.0
-3.3639878	队	0.0
-3.3639878	防	0.0
-3.3639878	阵	0.0
-3.3639878	阿	0.0
-3.3639878	际	0.0
-3.3639878	陈	0.0
-3.3639878	限	0.0
-3.3639878	院	0.0
-3.3639878	险	0.0
-3.3639878	陪	0.0
-3.3639878	陶	0.0
-3.3639878	陷	0.0
-3.3639878	障	0.0
-3.3639878	隧	0.0
-3.3639878	雅	0.0
-3.3639878	集	0.0
-3.3639878	雇	0.0
-3.3639878	雕	0.0
-3.3639878	雷	0.0
-3.3639878	需	0.0
-3.3639878	静	0.0
-3.3639878	非	0.0
-3.3639878	靠	0.0
-3.3639878	面	0.0
-3.3639878	鞋	0.0
-3.3639878	韩	0.0
-3.3639878	音	0.0
-3.3639878	页	0.0
-3.3639878	顶	0.0
-3.3639878	项	0.0
-3.3639878	顾	0.0
-3.3639878	预	0.0
-3.3639878	领	0.0
-3.3639878	频	0.0
-3.3639878	题	0.0
-3.3639878	风	0.0
-3.3639878	飞	0.0
-3.3639878	食	0.0
-3.3639878	餐	0.0
-3.3639878	饮	0.0
-3.3639878	饰	0.0
-3.3639878	饲	0.0
-3.3639878	饼	0.0
-3.3639878	馆	0.0
-3.3639878	首	0.0
-3.3639878	香	0.0
-3.3639878	马	0.0
-3.3639878	驱	0.0
-3.3639878	驶	0.0
-3.3639878	驻	0.0
-3.3639878	驾	0.0
-3.3639878	验	0.0
-3.3639878	骨	0.0
-3.3639878	高	0.0
-3.3639878	鲁	0.0
-3.3639878	鲜	0.0
-3.3639878	麦	0.0
-3.3639878	麻	0.0
-3.3639878	黄	0.0
-3.3639878	黑	0.0
-3.3639878	鼎	0.0
-3.3639878	鼓	0.0
-3.3639878	齿	0.0
-3.3639878	龙	0.0

\2-grams:
-1.1747783	( 原	-0.3309932
-1.1747783	( 咨	-0.3309932
-1.1747783	( 应	-0.3309932
-1.1747783	( 设	-0.3309932
-1.1747783	( 财	-0.3309932
-1.1747783	( 非	-0.3309932
-0.8744043	( 食	-0.3309932
-0.051129	) </s>	-0.9542425
-1.9838689	, <num>	-0.394629
-2.2776643	, excel	-0.394629
-2.2776643	, os	-0.394629
-2.2776643	, pets	-0.394629
-2.2776643	, powerpoint	-0.394629
-2.2776643	, sql	-0.394629
-2.2776643	, word	-0.394629
-2.2776643	, 互	-0.394629
-2.2776643	, 人	-0.394629
-2.2776643	, 休	-0.394629
-2.2776643	, 会	-0.394629
-2.2776643	, 体	-0.394629
-2.2776643	, 供	-0.394629
-2.2776643	, 保	-0.394629
-2.2776643	, 光	-0.394629
-1.6865019	, 公	-0.394629
-2.2776643	, 冶	-0.394629
-1.9838689	, 出	-0.394629
-1.9838689	, 助	-0.394629
-2.2776643	, 包	-0.394629
-1.8102162	, 化	-0.394629
-2.2776643	, 卫	-0.394629
-2.2776643	, 咨	-0.394629
-2.2776643	, 器	-0.394629
-2.2776643	, 地	-0.394629
-1.9838689	, 培	-0.394629
-2.2776643	, 增	-0.394629
-2.2776643	, 奢	-0.394629
-1.9838689	, 媒	-0.394629
-2.2776643	, 学	-0.394629
-2.2776643	, 家	-0.394629
-1.5903282	, 工	-0.394629
-2.2776643	, 市	-0.394629
-2.2776643	, 度	-0.394629
-1.5903282	, 建	-0.394629
-2.2776643	, 影	-0.394629
-2.2776643	, 微	-0.394629
-2.2776643	, 护	-0.394629
-2.2776643	, 摩	-0.394629
-2.2776643	, 收	-0.394629
-1.8102162	, 文	-0.394629
-2.2776643	, 旅	-0.394629
-1.9838689	, 日	-0.394629
-1.9838689	, 机	-0.394629
-2.2776643	, 林	-0.394629
-2.2776643	, 模	-0.394629
-2.2776643	, 水	-0.394629
-1.9838689	, 法	-0.394629
-2.2776643	, 注	-0.394629
-2.2776643	, 渔	-0.394629
-1.9838689	, 烟	-0.394629
-2.2776643	, 牧	-0.394629
-2.2776643	, 物	-0.394629
-1.9838689	, 玩	-0.394629
-1.9838689	, 生	-0.394629
-1.6865019	, 电	-0.394629
-2.2776643	, 石	-0.394629
-1.9838689	, 矿	-0.394629
-2.2776643	, 礼	-0.394629
-1.9838689	, 科	-0.394629
-2.2776643	, 税	-0.394629
-2.2776643	, 系	-0.394629
-2.2776643	, 网	-0.394629
-2.2776643	, 美	-0.394629
-2.2776643	, 翻	-0.394629
-2.2776643	, 航	-0.394629
-1.9838689	, 艺	-0.394629
-2.2776643	, 装	-0.394629
-2.2776643	, 计	-0.394629
-2.2776643	, 设	-0.394629
-2.2776643	, 财	-0.394629
-1.9838689	, 运	-0.394629
-2.2776643	, 造	-0.394629
-2.2776643	, 采	-0.394629
-1.9838689	, 重	-0.394629
-1.9838689	, 院	-0.394629
-1.9838689	, 非	-0.394629
-2.2776643	, 餐	-0.394629
-1.8102162	, 饮	-0.394629
-1.4743127	- <num>	-0.30103
-1.4743127	- c	-0.30103
-1.4743127	- computer	-0.30103
-1.4743127	- fpm	-0.30103
-1.4743127	- learn	-0.30103
-1.4743127	- mysql	-0.30103
-1.4743127	- opening	-0.30103
-1.4743127	- oracle	-0.30103
-1.4743127	- production	-0.30103
-1.4743127	- sales	-0.30103
-1.4743127	- sql	-0.30103
-1.4743127	- test	-0.30103
-1.4743127	- ups	-0.30103
-1.4743127	- ux	-0.30103
-1.4743127	- v	-0.30103
-1.2547093	. <num>	-0.7781513
-0.410094	. js	-0.7781513
-0.410094	. net	-0.7781513
-4.34e-05	</s> <s>	-4.0
-2.0867174	<num> .	-0.6684211
-1.1616628	<num> </s>	-0.6684211
-1.546179	<num> <num>	-0.6684211
-2.3828536	<num> a	-0.6684211
-1.6917404	<num> b	-0.6684211
-2.0867174	<num> c	-0.6684211
-0.7490181	<num> d	-0.6684211
-2.0867174	<num> dmax	-0.6684211
-1.6917404	<num> dx	-0.6684211
-1.9122697	<num> ee	-0.6684211
-2.3828536	<num> gl	-0.6684211
-2.3828536	<num> gpp	-0.6684211
-2.3828536	<num> j	-0.6684211
-2.3828536	<num> me	-0.6684211
-2.3828536	<num> net	-0.6684211
-2.3828536	<num> o	-0.6684211
-1.6917404	<num> p	-0.6684211
-2.3828536	<num> s	-0.6684211
-2.3828536	<num> sigma	-0.6684211
-2.3828536	<num> 主	-0.6684211
-2.3828536	<num> 体	-0.6684211
-1.9122697	<num> 前	-0.6684211
-2.3828536	<num> 加	-0.6684211
-2.3828536	<num> 厨	-0.6684211
-2.3828536	<num> 司	-0.6684211
-1.6128896	<num> 售	-0.6684211
-2.3828536	<num> 官	-0.6684211
-2.3828536	<num> 川	-0.6684211
-2.0867174	<num> 工	-0.6684211
-2.0867174	<num> 度	-0.6684211
-1.6917404	<num> 开	-0.6684211
-1.4373497	<num> 手	-0.6684211
-2.3828536	<num> 服	-0.6684211
-2.0867174	<num> 板	-0.6684211
-2.3828536	<num> 框	-0.6684211
-1.546179	<num> 次	-0.6684211
-2.3828536	<num> 用	-0.6684211
-2.3828536	<num> 甲	-0.6684211
-2.3828536	<num> 程	-0.6684211
-2.3828536	<num> 系	-0.6684211
-1.1879552	<num> 级	-0.6684211
-2.0867174	<num> 线	-0.6684211
-1.2779885	<num> 维	-0.6684211
-2.3828536	<num> 网	-0.6684211
-2.3828536	<num> 胜	-0.6684211
-2.3828536	<num> 般	-0.6684211
-2.0867174	<num> 西	-0.6684211
-2.3828536	<num> 设	-0.6684211
-2.3828536	<num> 质	-0.6684211
-2.3828536	<num> 部	-0.6684211
-2.3828536	<num> 配	-0.6684211
-2.3828536	<num> 金	-0.6684211
-1.9122697	<num> 驾	-0.6684211
-3.6582138	<s> .	-1.0724947
-2.4655315	<s> <num>	-1.0724947
-0.3393968	<s> <s>	-1.0724947
-4.0842217	<s> a	-1.0724947
-4.0842217	<s> abap	-1.0724947
-4.0842217	<s> abaqus	-1.0724947
-4.0842217	<s> account	-1.0724947
-4.0842217	<s> accountant	-1.0724947
-4.0842217	<s> accounting	-1.0724947
-4.0842217	<s> acl	-1.0724947
-4.0842217	<s> acting	-1.0724947
-4.0842217	<s> activex	-1.0724947
-4.0842217	<s> activiti	-1.0724947
-4.0842217	<s> ad	-1.0724947
-4.0842217	<s> adabas	-1.0724947
-3.8923138	<s> adb	-1.0724947
-4.0842217	<s> ado	-1.0724947
-4.0842217	<s> adobe	-1.0724947
-4.0842217	<s> adobeacrobat	-1.0724947
-4.0842217	<s> adobeillustrator	-1.0724947
-4.0842217	<s> adso	-1.0724947
-4.0842217	<s> adt	-1.0724947
-4.0842217	<s> ae	-1.0724947
-4.0842217	<s> after	-1.0724947
-4.0842217	<s> agile	-1.0724947
-4.0842217	<s> ai	-1.0724947
-4.0842217	<s> air	-1.0724947
-4.0842217	<s> aix	-1.0724947
-4.0842217	<s> ajax	-1.0724947
-4.0842217	<s> akka	-1.0724947
-4.0842217	<s> algorithms	-1.0724947
-4.0842217	<s> alias	-1.0724947
-4.0842217	<s> alm	-1.0724947
-3.7596776	<s> amazon	-1.0724947
-4.0842217	<s> ampl	-1.0724947
-4.0842217	<s> analytics	-1.0724947
-4.0842217	<s> andriod	-1.0724947
-3.3949617	<s> android	-1.0724947
-4.0842217	<s> androidsdk	-1.0724947
-3.8923138	<s> angular	-1.0724947
-4.0842217	<s> angularjs	-1.0724947
-4.0842217	<s> ansible	-1.0724947
-3.8923138	<s> ansys	-1.0724947
-3.8923138	<s> aoi	-1.0724947
-4.0842217	<s> aop	-1.0724947
-4.0842217	<s> apache	-1.0724947
-4.0842217	<s> apd	-1.0724947
-4.0842217	<s> apex	-1.0724947
-4.0842217	<s> apl	-1.0724947
-3.0652797	<s> app	-1.0724947
-4.0842217	<s> apparel	-1.0724947
-4.0842217	<s> appium	-1.0724947
-4.0842217	<s> appscan	-1.0724947
-3.8923138	<s> ar	-1.0724947
-4.0842217	<s> arc	-1.0724947
-4.0842217	<s> arcgis	-1.0724947
-4.0842217	<s> archicad	-1.0724947
-4.0842217	<s> arcmap	-1.0724947
-4.0842217	<s> arcsde	-1.0724947
-3.7596776	<s> arm	-1.0724947
-4.0842217	<s> arp	-1.0724947
-4.0842217	<s> art	-1.0724947
-3.7596776	<s> as	-1.0724947
-4.0842217	<s> asic	-1.0724947
-4.0842217	<s> asm	-1.0724947
-3.6582138	<s> asp	-1.0724947
-4.0842217	<s> assembler	-1.0724947
-4.0842217	<s> assistant	-1.0724947
-4.0842217	<s> asterisk	-1.0724947
-4.0842217	<s> atl	-1.0724947
-4.0842217	<s> atm	-1.0724947
-4.0842217	<s> au	-1.0724947
-4.0842217	<s> audacity	-1.0724947
-4.0842217	<s> auditing	-1.0724947
-4.0842217	<s> audition	-1.0724947
-4.0842217	<s> authorware	-1.0724947
-4.0842217	<s> autocad	-1.0724947
-4.0842217	<s> autodesk	-1.0724947
-4.0842217	<s> automotive	-1.0724947
-4.0842217	<s> avid	-1.0724947
-4.0842217	<s> aws	-1.0724947
-4.0842217	<s> awvs	-1.0724947
-3.8923138	<s> axure	-1.0724947
-3.2675591	<s> b	-1.0724947
-4.0842217	<s> backup	-1.0724947
-4.0842217	<s> barcode	-1.0724947
-4.0842217	<s> bash	-1.0724947
-4.0842217	<s> bat	-1.0724947
-4.0842217	<s> batch	-1.0724947
-3.5069392	<s> bd	-1.0724947
-4.0842217	<s> bdd	-1.0724947
-4.0842217	<s> bgp	-1.0724947
-3.4473514	<s> bi	-1.0724947
-3.8923138	<s> bim	-1.0724947
-4.0842217	<s> bing	-1.0724947
-4.0842217	<s> biochemistry	-1.0724947
-4.0842217	<s> bios	-1.0724947
-4.0842217	<s> biotechnology	-1.0724947
-4.0842217	<s> bip	-1.0724947
-4.0842217	<s> blackberry	-1.0724947
-4.0842217	<s> blender	-1.0724947
-4.0842217	<s> blog	-1.0724947
-4.0842217	<s> bloomberg	-1.0724947
-4.0842217	<s> bms	-1.0724947
-4.0842217	<s> bodypaint	-1.0724947
-3.8923138	<s> bom	-1.0724947
-4.0842217	<s> bootloader	-1.0724947
-4.0842217	<s> bootstrap	-1.0724947
-4.0842217	<s> bpo	-1.0724947
-4.0842217	<s> brackets	-1.0724947
-4.0842217	<s> branding	-1.0724947
-4.0842217	<s> broadcast	-1.0724947
-4.0842217	<s> bs	-1.0724947
-3.8923138	<s> bsp	-1.0724947
-3.8923138	<s> bug	-1.0724947
-4.0842217	<s> bugfree	-1.0724947
-4.0842217	<s> bugzilla	-1.0724947
-3.8923138	<s> business	-1.0724947
-3.8923138	<s> buyer	-1.0724947
-3.4473514	<s> c	-1.0724947
-3.8923138	<s> c#	-1.0724947
-3.8923138	<s> c++	-1.0724947
-4.0842217	<s> cache	-1.0724947
-3.3949617	<s> cad	-1.0724947
-4.0842217	<s> cadam	-1.0724947
-4.0842217	<s> cadence	-1.0724947
-4.0842217	<s> cadug	-1.0724947
-3.576023	<s> cae	-1.0724947
-4.0842217	<s> cam	-1.0724947
-4.0842217	<s> camera	-1.0724947
-4.0842217	<s> cameratuning	-1.0724947
-4.0842217	<s> camtasia	-1.0724947
-4.0842217	<s> can	-1.0724947
-4.0842217	<s> canbus	-1.0724947
-4.0842217	<s> canoe	-1.0724947
-4.0842217	<s> canvas	-1.0724947
-4.0842217	<s> cas	-1.0724947
-4.0842217	<s> cass	-1.0724947
-4.0842217	<s> cassandra	-1.0724947
-4.0842217	<s> catering	-1.0724947
-3.8923138	<s> catia	-1.0724947
-4.0842217	<s> cc	-1.0724947
-4.0842217	<s> ccie	-1.0724947
-4.0842217	<s> ccna	-1.0724947
-4.0842217	<s> ccnp	-1.0724947
-3.7596776	<s> cct	-1.0724947
-4.0842217	<s> cctv	-1.0724947
-4.0842217	<s> cd	-1.0724947
-3.8923138	<s> cdn	-1.0724947
-4.0842217	<s> cdr	-1.0724947
-4.0842217	<s> centos	-1.0724947
-4.0842217	<s> ceo	-1.0724947
-4.0842217	<s> ceph	-1.0724947
-4.0842217	<s> cet	-1.0724947
-4.0842217	<s> cfo	-1.0724947
-4.0842217	<s> cg	-1.0724947
-4.0842217	<s> cgi	-1.0724947
-4.0842217	<s> charles	-1.0724947
-4.0842217	<s> chemcad	-1.0724947
-4.0842217	<s> chemdraw	-1.0724947
-4.0842217	<s> chinese	-1.0724947
-4.0842217	<s> chipware	-1.0724947
-4.0842217	<s> chrome	-1.0724947
-4.0842217	<s> ci	-1.0724947
-4.0842217	<s> cics	-1.0724947
-4.0842217	<s> cinematography	-1.0724947
-4.0842217	<s> cisco	-1.0724947
-4.0842217	<s> cissp	-1.0724947
-3.8923138	<s> citrix	-1.0724947
-4.0842217	<s> clarity	-1.0724947
-4.0842217	<s> cli	-1.0724947
-4.0842217	<s> clojure	-1.0724947
-4.0842217	<s> cm	-1.0724947
-4.0842217	<s> cmc	-1.0724947
-4.0842217	<s> cmf	-1.0724947
-4.0842217	<s> cmm	-1.0724947
-4.0842217	<s> cmmi	-1.0724947
-4.0842217	<s> cmms	-1.0724947
-3.8923138	<s> cms	-1.0724947
-3.2322304	<s> cnc	-1.0724947
-4.0842217	<s> cnn	-1.0724947
-3.8923138	<s> cobol	-1.0724947
-3.3949617	<s> cocos	-1.0724947
-4.0842217	<s> code	-1.0724947
-4.0842217	<s> codec	-1.0724947
-4.0842217	<s> codeigniter	-1.0724947
-4.0842217	<s> codewarrior	-1.0724947
-4.0842217	<s> coffeescript	-1.0724947
-3.8923138	<s> cognos	-1.0724947
-4.0842217	<s> collection	-1.0724947
-4.0842217	<s> com	-1.0724947
-4.0842217	<s> commercials	-1.0724947
-4.0842217	<s> compaq	-1.0724947
-4.0842217	<s> compensation	-1.0724947
-4.0842217	<s> component	-1.0724947
-4.0842217	<s> computational	-1.0724947
-4.0842217	<s> comsol	-1.0724947
-4.0842217	<s> console	-1.0724947
-4.0842217	<s> construction	-1.0724947
-4.0842217	<s> consultants	-1.0724947
-4.0842217	<s> consulting	-1.0724947
-4.0842217	<s> contribute	-1.0724947
-4.0842217	<s> cordova	-1.0724947
-3.8923138	<s> core	-1.0724947
-4.0842217	<s> coredata	-1.0724947
-4.0842217	<s> coreldraw	-1.0724947
-4.0842217	<s> cpc	-1.0724947
-4.0842217	<s> cpld	-1.0724947
-4.0842217	<s> cplex	-1.0724947
-4.0842217	<s> cqa	-1.0724947
-4.0842217	<s> credit	-1.0724947
-4.0842217	<s> creo	-1.0724947
-3.4473514	<s> crm	-1.0724947
-4.0842217	<s> crs	-1.0724947
-4.0842217	<s> cruisecontrol	-1.0724947
-4.0842217	<s> cs	-1.0724947
-3.7596776	<s> css	-1.0724947
-4.0842217	<s> cti	-1.0724947
-4.0842217	<s> cto	-1.0724947
-4.0842217	<s> cucumber	-1.0724947
-4.0842217	<s> cuda	-1.0724947
-4.0842217	<s> cutterman	-1.0724947
-4.0842217	<s> cvs	-1.0724947
-4.0842217	<s> d	-1.0724947
-4.0842217	<s> dashboard	-1.0724947
-3.8923138	<s> database	-1.0724947
-4.0842217	<s> databasemarketing	-1.0724947
-4.0842217	<s> db	-1.0724947
-4.0842217	<s> dba	-1.0724947
-4.0842217	<s> dbx	-1.0724947
-4.0842217	<s> dc	-1.0724947
-3.8923138	<s> dcs	-1.0724947
-4.0842217	<s> dds	-1.0724947
-4.0842217	<s> debian	-1.0724947
-4.0842217	<s> delphi	-1.0724947
-4.0842217	<s> derivatives	-1.0724947
-4.0842217	<s> development	-1.0724947
-4.0842217	<s> devops	-1.0724947
-4.0842217	<s> dfs	-1.0724947
-4.0842217	<s> dft	-1.0724947
-4.0842217	<s> dhcp	-1.0724947
-4.0842217	<s> digital	-1.0724947
-4.0842217	<s> directing	-1.0724947
-4.0842217	<s> directx	-1.0724947
-4.0842217	<s> disk	-1.0724947
-4.0842217	<s> div	-1.0724947
-4.0842217	<s> divcss	-1.0724947
-4.0842217	<s> dll	-1.0724947
-4.0842217	<s> dmaic	-1.0724947
-4.0842217	<s> dmp	-1.0724947
-4.0842217	<s> dms	-1.0724947
-4.0842217	<s> dna	-1.0724947
-4.0842217	<s> dns	-1.0724947
-4.0842217	<s> docker	-1.0724947
-4.0842217	<s> dojo	-1.0724947
-4.0842217	<s> domino	-1.0724947
-4.0842217	<s> dos	-1.0724947
-4.0842217	<s> dotnetnuke	-1.0724947
-4.0842217	<s> dps	-1.0724947
-4.0842217	<s> dreamweaver	-1.0724947
-4.0842217	<s> drm	-1.0724947
-4.0842217	<s> ds	-1.0724947
-4.0842217	<s> dsl	-1.0724947
-3.6582138	<s> dsp	-1.0724947
-4.0842217	<s> dta	-1.0724947
-3.7596776	<s> dubbo	-1.0724947
-4.0842217	<s> dv	-1.0724947
-4.0842217	<s> dvb	-1.0724947
-4.0842217	<s> ea	-1.0724947
-4.0842217	<s> eai	-1.0724947
-4.0842217	<s> eam	-1.0724947
-4.0842217	<s> easyui	-1.0724947
-3.576023	<s> ebay	-1.0724947
-4.0842217	<s> eclipse	-1.0724947
-4.0842217	<s> ecommerce	-1.0724947
-3.8923138	<s> ecshop	-1.0724947
-4.0842217	<s> eda	-1.0724947
-4.0842217	<s> edge	-1.0724947
-4.0842217	<s> editor	-1.0724947
-4.0842217	<s> editorial	-1.0724947
-4.0842217	<s> edius	-1.0724947
-3.8923138	<s> ef	-1.0724947
-4.0842217	<s> ehr	-1.0724947
-3.8923138	<s> ehs	-1.0724947
-4.0842217	<s> ejb	-1.0724947
-4.0842217	<s> electronics	-1.0724947
-4.0842217	<s> element	-1.0724947
-4.0842217	<s> elixir	-1.0724947
-4.0842217	<s> emacs	-1.0724947
-3.8923138	<s> emc	-1.0724947
-4.0842217	<s> endevor	-1.0724947
-4.0842217	<s> energy	-1.0724947
-4.0842217	<s> english	-1.0724947
-4.0842217	<s> entertainment	-1.0724947
-4.0842217	<s> envi	-1.0724947
-4.0842217	<s> epc	-1.0724947
-4.0842217	<s> eplan	-1.0724947
-4.0842217	<s> epm	-1.0724947
-4.0842217	<s> equipment	-1.0724947
-4.0842217	<s> equities	-1.0724947
-4.0842217	<s> erlang	-1.0724947
-2.880043	<s> erp	-1.0724947
-4.0842217	<s> erwin	-1.0724947
-3.8923138	<s> es	-1.0724947
-4.0842217	<s> esd	-1.0724947
-4.0842217	<s> ethernet	-1.0724947
-3.6582138	<s> etl	-1.0724947
-4.0842217	<s> eviews	-1.0724947
-3.8923138	<s> excel	-1.0724947
-4.0842217	<s> exchange	-1.0724947
-4.0842217	<s> express	-1.0724947
-4.0842217	<s> facebook	-1.0724947
-4.0842217	<s> facility	-1.0724947
-4.0842217	<s> fashion	-1.0724947
-4.0842217	<s> fastdfs	-1.0724947
-4.0842217	<s> fcoe	-1.0724947
-4.0842217	<s> fiddler	-1.0724947
-4.0842217	<s> film	-1.0724947
-4.0842217	<s> filter	-1.0724947
-4.0842217	<s> finance	-1.0724947
-4.0842217	<s> firmware	-1.0724947
-3.7596776	<s> flash	-1.0724947
-3.7596776	<s> flex	-1.0724947
-4.0842217	<s> flexsim	-1.0724947
-4.0842217	<s> flinto	-1.0724947
-4.0842217	<s> fmcg	-1.0724947
-4.0842217	<s> fortran	-1.0724947
-4.0842217	<s> foss	-1.0724947
-4.0842217	<s> foxpro	-1.0724947
-3.5069392	<s> fpga	-1.0724947
-4.0842217	<s> freemarker	-1.0724947
-4.0842217	<s> frontpage	-1.0724947
-4.0842217	<s> ftp	-1.0724947
-4.0842217	<s> funding	-1.0724947
-4.0842217	<s> fundraising	-1.0724947
-4.0842217	<s> fw	-1.0724947
-4.0842217	<s> gaming	-1.0724947
-4.0842217	<s> gc	-1.0724947
-4.0842217	<s> gcc	-1.0724947
-4.0842217	<s> gem	-1.0724947
-4.0842217	<s> genesis	-1.0724947
-4.0842217	<s> genesys	-1.0724947
-4.0842217	<s> geoserver	-1.0724947
-4.0842217	<s> german	-1.0724947
-4.0842217	<s> gimp	-1.0724947
-3.3949617	<s> gis	-1.0724947
-4.0842217	<s> git	-1.0724947
-4.0842217	<s> github	-1.0724947
-4.0842217	<s> glassfish	-1.0724947
-4.0842217	<s> glsl	-1.0724947
-4.0842217	<s> gmp	-1.0724947
-4.0842217	<s> gms	-1.0724947
-3.8923138	<s> go	-1.0724947
-4.0842217	<s> golang	-1.0724947
-4.0842217	<s> golive	-1.0724947
-3.8923138	<s> google	-1.0724947
-4.0842217	<s> gorm	-1.0724947
-4.0842217	<s> gosu	-1.0724947
-4.0842217	<s> governance	-1.0724947
-4.0842217	<s> gpm	-1.0724947
-4.0842217	<s> gprs	-1.0724947
-4.0842217	<s> gps	-1.0724947
-4.0842217	<s> gpu	-1.0724947
-4.0842217	<s> gradle	-1.0724947
-4.0842217	<s> graphql	-1.0724947
-4.0842217	<s> grasshopper	-1.0724947
-3.8923138	<s> greenplum	-1.0724947
-4.0842217	<s> grid	-1.0724947
-4.0842217	<s> gsa	-1.0724947
-4.0842217	<s> gsm	-1.0724947
-4.0842217	<s> gts	-1.0724947
-4.0842217	<s> gui	-1.0724947
-3.576023	<s> h	-1.0724947
-3.5069392	<s> hadoop	-1.0724947
-4.0842217	<s> handlebars	-1.0724947
-4.0842217	<s> hardware	-1.0724947
-4.0842217	<s> hbuilder	-1.0724947
-4.0842217	<s> hd	-1.0724947
-4.0842217	<s> hdmi	-1.0724947
-4.0842217	<s> healthcare	-1.0724947
-4.0842217	<s> hfss	-1.0724947
-4.0842217	<s> hibernate	-1.0724947
-4.0842217	<s> hiring	-1.0724947
-3.8923138	<s> his	-1.0724947
-4.0842217	<s> hitech	-1.0724947
-4.0842217	<s> hive	-1.0724947
-4.0842217	<s> hlsl	-1.0724947
-4.0842217	<s> hmi	-1.0724947
-4.0842217	<s> hootsuite	-1.0724947
-4.0842217	<s> hotspot	-1.0724947
-4.0842217	<s> houdini	-1.0724947
-4.0842217	<s> hp	-1.0724947
-3.8923138	<s> hr	-1.0724947
-4.0842217	<s> hrbp	-1.0724947
-4.0842217	<s> hris	-1.0724947
-4.0842217	<s> hsrp	-1.0724947
-3.576023	<s> html	-1.0724947
-4.0842217	<s> http	-1.0724947
-4.0842217	<s> https	-1.0724947
-4.0842217	<s> httpunit	-1.0724947
-4.0842217	<s> hybris	-1.0724947
-4.0842217	<s> hyperion	-1.0724947
-4.0842217	<s> hypervisor	-1.0724947
-4.0842217	<s> hyperworks	-1.0724947
-4.0842217	<s> iaas	-1.0724947
-4.0842217	<s> iam	-1.0724947
-4.0842217	<s> iar	-1.0724947
-3.7596776	<s> ibm	-1.0724947
-3.8923138	<s> ic	-1.0724947
-4.0842217	<s> ics	-1.0724947
-4.0842217	<s> ict	-1.0724947
-3.8923138	<s> id	-1.0724947
-4.0842217	<s> ida	-1.0724947
-3.8923138	<s> idc	-1.0724947
-4.0842217	<s> idea	-1.0724947
-4.0842217	<s> idl	-1.0724947
-4.0842217	<s> idle	-1.0724947
-4.0842217	<s> idoc	-1.0724947
-4.0842217	<s> idol	-1.0724947
-3.7596776	<s> ie	-1.0724947
-4.0842217	<s> ieee	-1.0724947
-4.0842217	<s> ielts	-1.0724947
-4.0842217	<s> ifrs	-1.0724947
-4.0842217	<s> igmp	-1.0724947
-4.0842217	<s> igp	-1.0724947
-3.8923138	<s> iis	-1.0724947
-4.0842217	<s> ile	-1.0724947
-4.0842217	<s> imanager	-1.0724947
-4.0842217	<s> implementation	-1.0724947
-4.0842217	<s> import	-1.0724947
-4.0842217	<s> inca	-1.0724947
-3.8923138	<s> informatica	-1.0724947
-4.0842217	<s> information	-1.0724947
-4.0842217	<s> instrument	-1.0724947
-4.0842217	<s> insurance	-1.0724947
-4.0842217	<s> integration	-1.0724947
-4.0842217	<s> interface	-1.0724947
-4.0842217	<s> internet	-1.0724947
-4.0842217	<s> interpreting	-1.0724947
-4.0842217	<s> investments	-1.0724947
-4.0842217	<s> ionic	-1.0724947
-3.348217	<s> ios	-1.0724947
-4.0842217	<s> iosandroid	-1.0724947
-4.0842217	<s> iosapp	-1.0724947
-4.0842217	<s> ip	-1.0724947
-4.0842217	<s> ipad	-1.0724947
-4.0842217	<s> ipc	-1.0724947
-4.0842217	<s> iphone	-1.0724947
-4.0842217	<s> ipmi	-1.0724947
-3.8923138	<s> ipo	-1.0724947
-4.0842217	<s> ipqc	-1.0724947
-4.0842217	<s> ips	-1.0724947
-4.0842217	<s> iptables	-1.0724947
-4.0842217	<s> iptv	-1.0724947
-4.0842217	<s> ipython	-1.0724947
-3.6582138	<s> iqc	-1.0724947
-4.0842217	<s> ireport	-1.0724947
-4.0842217	<s> isa	-1.0724947
-3.5069392	<s> iso	-1.0724947
-4.0842217	<s> isp	-1.0724947
-2.8652191	<s> it	-1.0724947
-3.8923138	<s> itil	-1.0724947
-4.0842217	<s> itk	-1.0724947
-4.0842217	<s> ivr	-1.0724947
-4.0842217	<s> iwork	-1.0724947
-3.6582138	<s> j	-1.0724947
-4.0842217	<s> jad	-1.0724947
-4.0842217	<s> japanese	-1.0724947
-2.7855517	<s> java	-1.0724947
-4.0842217	<s> javabean	-1.0724947
-4.0842217	<s> javafx	-1.0724947
-4.0842217	<s> javascript	-1.0724947
-3.8923138	<s> javase	-1.0724947
-3.5069392	<s> javaweb	-1.0724947
-4.0842217	<s> jbuilder	-1.0724947
-4.0842217	<s> jdbc	-1.0724947
-4.0842217	<s> jdk	-1.0724947
-4.0842217	<s> jdom	-1.0724947
-4.0842217	<s> jetty	-1.0724947
-4.0842217	<s> jfreechart	-1.0724947
-4.0842217	<s> jira	-1.0724947
-4.0842217	<s> jmeter	-1.0724947
-4.0842217	<s> jmp	-1.0724947
-4.0842217	<s> jms	-1.0724947
-4.0842217	<s> joomla	-1.0724947
-4.0842217	<s> jpa	-1.0724947
-4.0842217	<s> jqueryui	-1.0724947
-4.0842217	<s> jscss	-1.0724947
-4.0842217	<s> jsonp	-1.0724947
-4.0842217	<s> jsp	-1.0724947
-4.0842217	<s> jstl	-1.0724947
-4.0842217	<s> julia	-1.0724947
-4.0842217	<s> juniper	-1.0724947
-4.0842217	<s> junos	-1.0724947
-4.0842217	<s> jvm	-1.0724947
-3.5069392	<s> ka	-1.0724947
-4.0842217	<s> kafka	-1.0724947
-4.0842217	<s> kaizen	-1.0724947
-4.0842217	<s> kanban	-1.0724947
-4.0842217	<s> keras	-1.0724947
-3.8923138	<s> kettle	-1.0724947
-4.0842217	<s> keynote	-1.0724947
-3.7596776	<s> keyshot	-1.0724947
-4.0842217	<s> kickstart	-1.0724947
-4.0842217	<s> kismet	-1.0724947
-4.0842217	<s> kohana	-1.0724947
-4.0842217	<s> kotlin	-1.0724947
-4.0842217	<s> ktv	-1.0724947
-4.0842217	<s> kubernetes	-1.0724947
-4.0842217	<s> kvm	-1.0724947
-3.8923138	<s> labview	-1.0724947
-4.0842217	<s> lamp	-1.0724947
-4.0842217	<s> lan	-1.0724947
-4.0842217	<s> laravel	-1.0724947
-4.0842217	<s> latex	-1.0724947
-4.0842217	<s> layer	-1.0724947
-4.0842217	<s> layout	-1.0724947
-4.0842217	<s> lcd	-1.0724947
-4.0842217	<s> leadership	-1.0724947
-4.0842217	<s> leap	-1.0724947
-3.7596776	<s> led	-1.0724947
-4.0842217	<s> leed	-1.0724947
-4.0842217	<s> legal	-1.0724947
-4.0842217	<s> lighting	-1.0724947
-4.0842217	<s> lighttpd	-1.0724947
-4.0842217	<s> lightwave	-1.0724947
-4.0842217	<s> lingo	-1.0724947
-4.0842217	<s> linguistics	-1.0724947
-4.0842217	<s> linq	-1.0724947
-3.1691775	<s> linux	-1.0724947
-4.0842217	<s> linuxos	-1.0724947
-4.0842217	<s> lis	-1.0724947
-4.0842217	<s> lisp	-1.0724947
-4.0842217	<s> lms	-1.0724947
-4.0842217	<s> lnmp	-1.0724947
-3.8923138	<s> loadrunner	-1.0724947
-4.0842217	<s> loans	-1.0724947
-4.0842217	<s> localization	-1.0724947
-3.8923138	<s> log	-1.0724947
-4.0842217	<s> lotus	-1.0724947
-4.0842217	<s> lte	-1.0724947
-4.0842217	<s> lua	-1.0724947
-4.0842217	<s> lumion	-1.0724947
-4.0842217	<s> lvm	-1.0724947
-4.0842217	<s> lvs	-1.0724947
-4.0842217	<s> m	-1.0724947
-3.6582138	<s> mac	-1.0724947
-4.0842217	<s> magazines	-1.0724947
-4.0842217	<s> mainframe	-1.0724947
-4.0842217	<s> makefile	-1.0724947
-4.0842217	<s> management	-1.0724947
-4.0842217	<s> mantis	-1.0724947
-4.0842217	<s> manufacturing	-1.0724947
-4.0842217	<s> mapinfo	-1.0724947
-4.0842217	<s> mapping	-1.0724947
-4.0842217	<s> mapreduce	-1.0724947
-4.0842217	<s> marcom	-1.0724947
-4.0842217	<s> marketing	-1.0724947
-4.0842217	<s> mastercam	-1.0724947
-4.0842217	<s> materials	-1.0724947
-4.0842217	<s> mathcad	-1.0724947
-4.0842217	<s> mathematica	-1.0724947
-3.7596776	<s> matlab	-1.0724947
-4.0842217	<s> matplotlib	-1.0724947
-4.0842217	<s> max	-1.0724947
-3.8923138	<s> maya	-1.0724947
-3.8923138	<s> mc	-1.0724947
-3.8923138	<s> md	-1.0724947
-4.0842217	<s> me	-1.0724947
-4.0842217	<s> mechanics	-1.0724947
-4.0842217	<s> mel	-1.0724947
-4.0842217	<s> memcached	-1.0724947
-4.0842217	<s> mems	-1.0724947
-4.0842217	<s> mentoring	-1.0724947
-4.0842217	<s> mercurial	-1.0724947
-4.0842217	<s> mercury	-1.0724947
-3.5069392	<s> mes	-1.0724947
-4.0842217	<s> metasploit	-1.0724947
-4.0842217	<s> meteor	-1.0724947
-4.0842217	<s> metrics	-1.0724947
-4.0842217	<s> mfc	-1.0724947
-4.0842217	<s> michael	-1.0724947
-4.0842217	<s> micros	-1.0724947
-4.0842217	<s> microsoft	-1.0724947
-4.0842217	<s> microsoftoffice	-1.0724947
-4.0842217	<s> mindjet	-1.0724947
-3.8923138	<s> mindmanager	-1.0724947
-3.8923138	<s> minitab	-1.0724947
-4.0842217	<s> mips	-1.0724947
-4.0842217	<s> miscellaneous	-1.0724947
-4.0842217	<s> mmorpg	-1.0724947
-4.0842217	<s> mms	-1.0724947
-4.0842217	<s> mockito	-1.0724947
-4.0842217	<s> mockplus	-1.0724947
-4.0842217	<s> mockup	-1.0724947
-4.0842217	<s> mockups	-1.0724947
-4.0842217	<s> model	-1.0724947
-4.0842217	<s> modeling	-1.0724947
-4.0842217	<s> modem	-1.0724947
-4.0842217	<s> module	-1.0724947
-4.0842217	<s> modx	-1.0724947
-4.0842217	<s> moldflow	-1.0724947
-4.0842217	<s> mongodb	-1.0724947
-4.0842217	<s> monitoring	-1.0724947
-3.8923138	<s> monkey	-1.0724947
-4.0842217	<s> monkeyrunner	-1.0724947
-4.0842217	<s> moodle	-1.0724947
-4.0842217	<s> mootools	-1.0724947
-4.0842217	<s> mp	-1.0724947
-4.0842217	<s> mplab	-1.0724947
-4.0842217	<s> mpls	-1.0724947
-4.0842217	<s> mqseries	-1.0724947
-4.0842217	<s> mqtt	-1.0724947
-4.0842217	<s> mro	-1.0724947
-3.6582138	<s> ms	-1.0724947
-4.0842217	<s> msmq	-1.0724947
-4.0842217	<s> msoffice	-1.0724947
-4.0842217	<s> mstr	-1.0724947
-4.0842217	<s> mtk	-1.0724947
-4.0842217	<s> mts	-1.0724947
-4.0842217	<s> mudbox	-1.0724947
-4.0842217	<s> multimedia	-1.0724947
-4.0842217	<s> multiplayer	-1.0724947
-3.7596776	<s> multisim	-1.0724947
-4.0842217	<s> mvc	-1.0724947
-4.0842217	<s> mvp	-1.0724947
-4.0842217	<s> mvs	-1.0724947
-4.0842217	<s> mybatis	-1.0724947
-4.0842217	<s> myeclipse	-1.0724947
-3.5069392	<s> mysql	-1.0724947
-4.0842217	<s> nav	-1.0724947
-4.0842217	<s> nds	-1.0724947
-4.0842217	<s> negotiation	-1.0724947
-4.0842217	<s> nessus	-1.0724947
-4.0842217	<s> netbackup	-1.0724947
-4.0842217	<s> netware	-1.0724947
-4.0842217	<s> newsletters	-1.0724947
-4.0842217	<s> nexus	-1.0724947
-4.0842217	<s> nginx	-1.0724947
-4.0842217	<s> nhibernate	-1.0724947
-4.0842217	<s> nice	-1.0724947
-4.0842217	<s> nim	-1.0724947
-4.0842217	<s> nio	-1.0724947
-3.7596776	<s> nlp	-1.0724947
-4.0842217	<s> nmap	-1.0724947
-4.0842217	<s> nms	-1.0724947
-3.576023	<s> node	-1.0724947
-4.0842217	<s> nodejs	-1.0724947
-4.0842217	<s> nokia	-1.0724947
-4.0842217	<s> nonprofits	-1.0724947
-4.0842217	<s> nosql	-1.0724947
-4.0842217	<s> ntfs	-1.0724947
-4.0842217	<s> ntp	-1.0724947
-4.0842217	<s> numpy	-1.0724947
-4.0842217	<s> nunit	-1.0724947
-4.0842217	<s> nvh	-1.0724947
-3.8923138	<s> nx	-1.0724947
-4.0842217	<s> o	-1.0724947
-3.7596776	<s> oa	-1.0724947
-4.0842217	<s> oaf	-1.0724947
-4.0842217	<s> oauth	-1.0724947
-4.0842217	<s> objective	-1.0724947
-4.0842217	<s> ocr	-1.0724947
-4.0842217	<s> ocs	-1.0724947
-4.0842217	<s> od	-1.0724947
-4.0842217	<s> odbc	-1.0724947
-4.0842217	<s> odi	-1.0724947
-3.8923138	<s> oem	-1.0724947
-4.0842217	<s> ofbiz	-1.0724947
-4.0842217	<s> office	-1.0724947
-4.0842217	<s> offices	-1.0724947
-4.0842217	<s> oltp	-1.0724947
-4.0842217	<s> omnigraffle	-1.0724947
-4.0842217	<s> oms	-1.0724947
-4.0842217	<s> omt	-1.0724947
-4.0842217	<s> onenote	-1.0724947
-4.0842217	<s> ontology	-1.0724947
-4.0842217	<s> ooad	-1.0724947
-4.0842217	<s> opc	-1.0724947
-4.0842217	<s> openbsd	-1.0724947
-3.8923138	<s> opengl	-1.0724947
-4.0842217	<s> openldap	-1.0724947
-4.0842217	<s> openmp	-1.0724947
-4.0842217	<s> openstack	-1.0724947
-4.0842217	<s> opensuse	-1.0724947
-4.0842217	<s> openview	-1.0724947
-4.0842217	<s> openvms	-1.0724947
-4.0842217	<s> openvpn	-1.0724947
-4.0842217	<s> opera	-1.0724947
-4.0842217	<s> operation	-1.0724947
-4.0842217	<s> optimization	-1.0724947
-3.3060182	<s> oracle	-1.0724947
-4.0842217	<s> oracleebs	-1.0724947
-4.0842217	<s> oracleerp	-1.0724947
-4.0842217	<s> orcad	-1.0724947
-3.8923138	<s> origin	-1.0724947
-4.0842217	<s> orm	-1.0724947
-4.0842217	<s> os	-1.0724947
-4.0842217	<s> oscilloscope	-1.0724947
-4.0842217	<s> osgi	-1.0724947
-4.0842217	<s> ospf	-1.0724947
-4.0842217	<s> oss	-1.0724947
-4.0842217	<s> ota	-1.0724947
-3.8923138	<s> otc	-1.0724947
-3.576023	<s> p	-1.0724947
-4.0842217	<s> pack	-1.0724947
-4.0842217	<s> packaging	-1.0724947
-4.0842217	<s> pagemaker	-1.0724947
-4.0842217	<s> panda	-1.0724947
-4.0842217	<s> pascal	-1.0724947
-4.0842217	<s> payroll	-1.0724947
-3.576023	<s> pc	-1.0724947
-4.0842217	<s> pca	-1.0724947
-3.7596776	<s> pcb	-1.0724947
-4.0842217	<s> pcba	-1.0724947
-4.0842217	<s> pda	-1.0724947
-4.0842217	<s> pdf	-1.0724947
-4.0842217	<s> pdm	-1.0724947
-4.0842217	<s> pdms	-1.0724947
-4.0842217	<s> pe	-1.0724947
-4.0842217	<s> pentaho	-1.0724947
-4.0842217	<s> peoplecode	-1.0724947
-4.0842217	<s> peoplesoft	-1.0724947
-4.0842217	<s> perl	-1.0724947
-4.0842217	<s> phonegap	-1.0724947
-4.0842217	<s> photoshop	-1.0724947
-3.114129	<s> php	-1.0724947
-3.8923138	<s> phpcms	-1.0724947
-4.0842217	<s> pic	-1.0724947
-4.0842217	<s> pid	-1.0724947
-4.0842217	<s> pim	-1.0724947
-4.0842217	<s> pl	-1.0724947
-3.6582138	<s> plc	-1.0724947
-4.0842217	<s> pll	-1.0724947
-3.8923138	<s> plm	-1.0724947
-3.8923138	<s> pmc	-1.0724947
-4.0842217	<s> pmd	-1.0724947
-4.0842217	<s> pmi	-1.0724947
-3.6582138	<s> pmp	-1.0724947
-3.8923138	<s> poi	-1.0724947
-4.0842217	<s> pop	-1.0724947
-4.0842217	<s> portlet	-1.0724947
-4.0842217	<s> pos	-1.0724947
-4.0842217	<s> postfix	-1.0724947
-4.0842217	<s> postgis	-1.0724947
-4.0842217	<s> powerdesigner	-1.0724947
-4.0842217	<s> powerpiont	-1.0724947
-4.0842217	<s> powerpoint	-1.0724947
-4.0842217	<s> ppc	-1.0724947
-3.576023	<s> ppp	-1.0724947
-4.0842217	<s> pr	-1.0724947
-3.7596776	<s> pre	-1.0724947
-4.0842217	<s> premier	-1.0724947
-4.0842217	<s> prezi	-1.0724947
-4.0842217	<s> principle	-1.0724947
-4.0842217	<s> pro	-1.0724947
-4.0842217	<s> probability	-1.0724947
-4.0842217	<s> proc	-1.0724947
-4.0842217	<s> procurement	-1.0724947
-4.0842217	<s> producing	-1.0724947
-4.0842217	<s> program	-1.0724947
-4.0842217	<s> progress	-1.0724947
-4.0842217	<s> project	-1.0724947
-4.0842217	<s> prolog	-1.0724947
-4.0842217	<s> protel	-1.0724947
-4.0842217	<s> proteus	-1.0724947
-4.0842217	<s> proxy	-1.0724947
-3.8923138	<s> ps	-1.0724947
-4.0842217	<s> pspice	-1.0724947
-4.0842217	<s> publicity	-1.0724947
-4.0842217	<s> publishing	-1.0724947
-4.0842217	<s> purchase	-1.0724947
-4.0842217	<s> purchasing	-1.0724947
-4.0842217	<s> pvcs	-1.0724947
-4.0842217	<s> pxcook	-1.0724947
-4.0842217	<s> pycharm	-1.0724947
-4.0842217	<s> pyside	-1.0724947
-3.3949617	<s> python	-1.0724947
-3.5069392	<s> qa	-1.0724947
-4.0842217	<s> qaqc	-1.0724947
-4.0842217	<s> qbasic	-1.0724947
-3.3949617	<s> qc	-1.0724947
-4.0842217	<s> qe	-1.0724947
-4.0842217	<s> qf	-1.0724947
-4.0842217	<s> qgis	-1.0724947
-4.0842217	<s> qml	-1.0724947
-4.0842217	<s> qnx	-1.0724947
-4.0842217	<s> qos	-1.0724947
-4.0842217	<s> qt	-1.0724947
-4.0842217	<s> qtp	-1.0724947
-4.0842217	<s> quarkxpress	-1.0724947
-4.0842217	<s> query	-1.0724947
-4.0842217	<s> quickbooks	-1.0724947
-4.0842217	<s> radius	-1.0724947
-4.0842217	<s> radware	-1.0724947
-4.0842217	<s> ranorex	-1.0724947
-4.0842217	<s> rcp	-1.0724947
-4.0842217	<s> rd	-1.0724947
-4.0842217	<s> rds	-1.0724947
-4.0842217	<s> react	-1.0724947
-4.0842217	<s> realflow	-1.0724947
-4.0842217	<s> recruiter	-1.0724947
-4.0842217	<s> recruiting	-1.0724947
-4.0842217	<s> redhat	-1.0724947
-4.0842217	<s> redis	-1.0724947
-4.0842217	<s> redmine	-1.0724947
-4.0842217	<s> redux	-1.0724947
-4.0842217	<s> rendering	-1.0724947
-4.0842217	<s> research	-1.0724947
-4.0842217	<s> resharper	-1.0724947
-4.0842217	<s> resin	-1.0724947
-4.0842217	<s> restructuring	-1.0724947
-4.0842217	<s> retail	-1.0724947
-3.8923138	<s> revit	-1.0724947
-4.0842217	<s> rexx	-1.0724947
-4.0842217	<s> rf	-1.0724947
-4.0842217	<s> rfc	-1.0724947
-4.0842217	<s> rfid	-1.0724947
-4.0842217	<s> rhapsody	-1.0724947
-4.0842217	<s> rhel	-1.0724947
-3.7596776	<s> rhino	-1.0724947
-4.0842217	<s> rhinoceros	-1.0724947
-4.0842217	<s> riak	-1.0724947
-4.0842217	<s> rim	-1.0724947
-4.0842217	<s> risc	-1.0724947
-4.0842217	<s> rnn	-1.0724947
-4.0842217	<s> robot	-1.0724947
-4.0842217	<s> robotframework	-1.0724947
-4.0842217	<s> robotics	-1.0724947
-4.0842217	<s> rohs	-1.0724947
-4.0842217	<s> routers	-1.0724947
-4.0842217	<s> routing	-1.0724947
-4.0842217	<s> rp	-1.0724947
-4.0842217	<s> rpg	-1.0724947
-3.8923138	<s> rpo	-1.0724947
-4.0842217	<s> rsa	-1.0724947
-4.0842217	<s> rsync	-1.0724947
-4.0842217	<s> rtos	-1.0724947
-4.0842217	<s> rtp	-1.0724947
-4.0842217	<s> rtsp	-1.0724947
-3.8923138	<s> ruby	-1.0724947
-4.0842217	<s> rumba	-1.0724947
-4.0842217	<s> rup	-1.0724947
-3.7596776	<s> saas	-1.0724947
-4.0842217	<s> sales	-1.0724947
-4.0842217	<s> salesforce	-1.0724947
-4.0842217	<s> samba	-1.0724947
-4.0842217	<s> saml	-1.0724947
-4.0842217	<s> san	-1.0724947
-3.576023	<s> sap	-1.0724947
-4.0842217	<s> sapabap	-1.0724947
-4.0842217	<s> saperp	-1.0724947
-4.0842217	<s> sapfico	-1.0724947
-4.0842217	<s> sapmm	-1.0724947
-4.0842217	<s> sas	-1.0724947
-4.0842217	<s> sax	-1.0724947
-4.0842217	<s> scada	-1.0724947
-4.0842217	<s> scala	-1.0724947
-4.0842217	<s> scheduler	-1.0724947
-4.0842217	<s> scheme	-1.0724947
-4.0842217	<s> scikit	-1.0724947
-4.0842217	<s> scp	-1.0724947
-4.0842217	<s> screening	-1.0724947
-4.0842217	<s> screenwriting	-1.0724947
-4.0842217	<s> scripting	-1.0724947
-4.0842217	<s> scrum	-1.0724947
-3.8923138	<s> sd	-1.0724947
-4.0842217	<s> sdet	-1.0724947
-4.0842217	<s> sdh	-1.0724947
-3.8923138	<s> sdk	-1.0724947
-4.0842217	<s> sdl	-1.0724947
-4.0842217	<s> sdlc	-1.0724947
-3.8923138	<s> sdn	-1.0724947
-4.0842217	<s> sdwebimage	-1.0724947
-4.0842217	<s> securecrt	-1.0724947
-4.0842217	<s> security	-1.0724947
-4.0842217	<s> sed	-1.0724947
-4.0842217	<s> segmentation	-1.0724947
-3.3949617	<s> sem	-1.0724947
-4.0842217	<s> semiconductors	-1.0724947
-4.0842217	<s> sencha	-1.0724947
-4.0842217	<s> sendmail	-1.0724947
-3.3949617	<s> seo	-1.0724947
-4.0842217	<s> seoaso	-1.0724947
-4.0842217	<s> server	-1.0724947
-4.0842217	<s> servlets	-1.0724947
-4.0842217	<s> set	-1.0724947
-4.0842217	<s> shader	-1.0724947
-4.0842217	<s> shaders	-1.0724947
-3.8923138	<s> sharepoint	-1.0724947
-4.0842217	<s> shell	-1.0724947
-4.0842217	<s> siebel	-1.0724947
-4.0842217	<s> signal	-1.0724947
-4.0842217	<s> sikuli	-1.0724947
-4.0842217	<s> silktest	-1.0724947
-4.0842217	<s> simd	-1.0724947
-4.0842217	<s> simulations	-1.0724947
-4.0842217	<s> sinatra	-1.0724947
-4.0842217	<s> sip	-1.0724947
-4.0842217	<s> sitecore	-1.0724947
-4.0842217	<s> sketch	-1.0724947
-4.0842217	<s> sketching	-1.0724947
-4.0842217	<s> sketchup	-1.0724947
-4.0842217	<s> skype	-1.0724947
-4.0842217	<s> slam	-1.0724947
-4.0842217	<s> sm	-1.0724947
-4.0842217	<s> smalltalk	-1.0724947
-4.0842217	<s> smartphone	-1.0724947
-4.0842217	<s> smb	-1.0724947
-4.0842217	<s> smd	-1.0724947
-4.0842217	<s> smo	-1.0724947
-4.0842217	<s> sms	-1.0724947
-3.5069392	<s> smt	-1.0724947
-4.0842217	<s> sniffer	-1.0724947
-4.0842217	<s> sns	-1.0724947
-4.0842217	<s> soa	-1.0724947
-4.0842217	<s> soc	-1.0724947
-4.0842217	<s> softphone	-1.0724947
-4.0842217	<s> softwaredevelopment	-1.0724947
-4.0842217	<s> softwareengineer	-1.0724947
-4.0842217	<s> soildworks	-1.0724947
-3.8923138	<s> solidworks	-1.0724947
-4.0842217	<s> sonnet	-1.0724947
-4.0842217	<s> sourcing	-1.0724947
-4.0842217	<s> space	-1.0724947
-3.6582138	<s> spark	-1.0724947
-4.0842217	<s> sparkstreaming	-1.0724947
-4.0842217	<s> spc	-1.0724947
-4.0842217	<s> sphinx	-1.0724947
-4.0842217	<s> spice	-1.0724947
-4.0842217	<s> spine	-1.0724947
-4.0842217	<s> spl	-1.0724947
-4.0842217	<s> sponsorship	-1.0724947
-4.0842217	<s> spring	-1.0724947
-4.0842217	<s> spss	-1.0724947
-3.576023	<s> sql	-1.0724947
-4.0842217	<s> sqlite	-1.0724947
-4.0842217	<s> sqoop	-1.0724947
-4.0842217	<s> ssd	-1.0724947
-4.0842217	<s> ssh	-1.0724947
-4.0842217	<s> ssl	-1.0724947
-4.0842217	<s> ssm	-1.0724947
-4.0842217	<s> ssms	-1.0724947
-4.0842217	<s> ssp	-1.0724947
-4.0842217	<s> staffing	-1.0724947
-4.0842217	<s> start	-1.0724947
-4.0842217	<s> starteam	-1.0724947
-3.8923138	<s> stata	-1.0724947
-4.0842217	<s> stl	-1.0724947
-4.0842217	<s> stm	-1.0724947
-4.0842217	<s> storytelling	-1.0724947
-4.0842217	<s> stp	-1.0724947
-4.0842217	<s> strategist	-1.0724947
-4.0842217	<s> struct	-1.0724947
-4.0842217	<s> struts	-1.0724947
-4.0842217	<s> sts	-1.0724947
-4.0842217	<s> sublime	-1.0724947
-4.0842217	<s> sugarcrm	-1.0724947
-4.0842217	<s> superannuation	-1.0724947
-4.0842217	<s> surface	-1.0724947
-4.0842217	<s> suse	-1.0724947
-4.0842217	<s> sustainability	-1.0724947
-4.0842217	<s> svg	-1.0724947
-4.0842217	<s> svm	-1.0724947
-4.0842217	<s> svngit	-1.0724947
-4.0842217	<s> swift	-1.0724947
-3.8923138	<s> swiper	-1.0724947
-4.0842217	<s> switch	-1.0724947
-4.0842217	<s> swt	-1.0724947
-4.0842217	<s> sybase	-1.0724947
-4.0842217	<s> symantec	-1.0724947
-4.0842217	<s> symbian	-1.0724947
-4.0842217	<s> symfony	-1.0724947
-4.0842217	<s> syspro	-1.0724947
-4.0842217	<s> systemverilog	-1.0724947
-4.0842217	<s> t	-1.0724947
-3.8923138	<s> tableau	-1.0724947
-4.0842217	<s> tablet	-1.0724947
-4.0842217	<s> tar	-1.0724947
-4.0842217	<s> tax	-1.0724947
-4.0842217	<s> tcl	-1.0724947
-4.0842217	<s> tcp	-1.0724947
-4.0842217	<s> tcpdump	-1.0724947
-4.0842217	<s> teaching	-1.0724947
-4.0842217	<s> teamcenter	-1.0724947
-4.0842217	<s> teamcity	-1.0724947
-4.0842217	<s> teamwork	-1.0724947
-4.0842217	<s> telecom	-1.0724947
-4.0842217	<s> telecommunications	-1.0724947
-4.0842217	<s> telnet	-1.0724947
-4.0842217	<s> template	-1.0724947
-4.0842217	<s> tensorflow	-1.0724947
-3.8923138	<s> teradata	-1.0724947
-4.0842217	<s> testdirector	-1.0724947
-4.0842217	<s> testing	-1.0724947
-4.0842217	<s> testlink	-1.0724947
-4.0842217	<s> testmanager	-1.0724947
-4.0842217	<s> testng	-1.0724947
-4.0842217	<s> testpartner	-1.0724947
-4.0842217	<s> teststand	-1.0724947
-4.0842217	<s> texturing	-1.0724947
-4.0842217	<s> tga	-1.0724947
-4.0842217	<s> theano	-1.0724947
-4.0842217	<s> theorem	-1.0724947
-3.8923138	<s> thinkphp	-1.0724947
-4.0842217	<s> tk	-1.0724947
-4.0842217	<s> tmk	-1.0724947
-3.576023	<s> tomcat	-1.0724947
-4.0842217	<s> torch	-1.0724947
-3.8923138	<s> tp	-1.0724947
-3.8923138	<s> tpm	-1.0724947
-4.0842217	<s> trac	-1.0724947
-4.0842217	<s> trading	-1.0724947
-4.0842217	<s> training	-1.0724947
-4.0842217	<s> translate	-1.0724947
-4.0842217	<s> translation	-1.0724947
-4.0842217	<s> translator	-1.0724947
-4.0842217	<s> transportation	-1.0724947
-4.0842217	<s> tutoring	-1.0724947
-4.0842217	<s> tv	-1.0724947
-4.0842217	<s> typescript	-1.0724947
-4.0842217	<s> typo	-1.0724947
-4.0842217	<s> typography	-1.0724947
-3.348217	<s> u	-1.0724947
-4.0842217	<s> ubuntu	-1.0724947
-4.0842217	<s> ue	-1.0724947
-3.7596776	<s> ued	-1.0724947
-3.348217	<s> ug	-1.0724947
-3.576023	<s> ui	-1.0724947
-4.0842217	<s> uikit	-1.0724947
-3.3949617	<s> unity	-1.0724947
-3.8923138	<s> unix	-1.0724947
-4.0842217	<s> unrealscript	-1.0724947
-3.8923138	<s> ups	-1.0724947
-4.0842217	<s> usb	-1.0724947
-4.0842217	<s> validation	-1.0724947
-4.0842217	<s> valuation	-1.0724947
-4.0842217	<s> vb	-1.0724947
-4.0842217	<s> vcs	-1.0724947
-4.0842217	<s> vector	-1.0724947
-4.0842217	<s> velocity	-1.0724947
-3.7596776	<s> vi	-1.0724947
-4.0842217	<s> vim	-1.0724947
-4.0842217	<s> vios	-1.0724947
-3.8923138	<s> visio	-1.0724947
-3.8923138	<s> visual	-1.0724947
-4.0842217	<s> vmm	-1.0724947
-3.7596776	<s> vmware	-1.0724947
-4.0842217	<s> vod	-1.0724947
-4.0842217	<s> voip	-1.0724947
-4.0842217	<s> vp	-1.0724947
-4.0842217	<s> vpn	-1.0724947
-3.7596776	<s> vr	-1.0724947
-4.0842217	<s> vray	-1.0724947
-4.0842217	<s> vrml	-1.0724947
-4.0842217	<s> vrrp	-1.0724947
-4.0842217	<s> vss	-1.0724947
-4.0842217	<s> vtk	-1.0724947
-3.8923138	<s> vue	-1.0724947
-4.0842217	<s> wap	-1.0724947
-4.0842217	<s> warehouse	-1.0724947
-4.0842217	<s> was	-1.0724947
-4.0842217	<s> watson	-1.0724947
-4.0842217	<s> wdm	-1.0724947
-4.0842217	<s> wealth	-1.0724947
-2.9628593	<s> web	-1.0724947
-4.0842217	<s> webform	-1.0724947
-4.0842217	<s> webgis	-1.0724947
-4.0842217	<s> webgl	-1.0724947
-4.0842217	<s> webkit	-1.0724947
-4.0842217	<s> weblogic	-1.0724947
-4.0842217	<s> webos	-1.0724947
-4.0842217	<s> webpack	-1.0724947
-4.0842217	<s> webservice	-1.0724947
-4.0842217	<s> websocket	-1.0724947
-4.0842217	<s> websphere	-1.0724947
-4.0842217	<s> webstorm	-1.0724947
-4.0842217	<s> webtrends	-1.0724947
-3.7596776	<s> wifi	-1.0724947
-4.0842217	<s> wii	-1.0724947
-4.0842217	<s> wince	-1.0724947
-4.0842217	<s> windbg	-1.0724947
-3.3949617	<s> windows	-1.0724947
-4.0842217	<s> winform	-1.0724947
-4.0842217	<s> winforms	-1.0724947
-4.0842217	<s> winrunner	-1.0724947
-4.0842217	<s> winscp	-1.0724947
-4.0842217	<s> wireless	-1.0724947
-4.0842217	<s> wireshark	-1.0724947
-4.0842217	<s> wlan	-1.0724947
-4.0842217	<s> wlc	-1.0724947
-4.0842217	<s> wml	-1.0724947
-3.7596776	<s> wms	-1.0724947
-4.0842217	<s> word	-1.0724947
-4.0842217	<s> wordpptexcel	-1.0724947
-4.0842217	<s> workflow	-1.0724947
-4.0842217	<s> wpf	-1.0724947
-3.8923138	<s> wps	-1.0724947
-4.0842217	<s> writing	-1.0724947
-4.0842217	<s> wsdl	-1.0724947
-4.0842217	<s> wsus	-1.0724947
-4.0842217	<s> wtl	-1.0724947
-4.0842217	<s> wxpython	-1.0724947
-4.0842217	<s> wxwidgets	-1.0724947
-4.0842217	<s> xacml	-1.0724947
-4.0842217	<s> xampp	-1.0724947
-4.0842217	<s> xbox	-1.0724947
-4.0842217	<s> xbrl	-1.0724947
-4.0842217	<s> xcat	-1.0724947
-4.0842217	<s> xcode	-1.0724947
-3.8923138	<s> xmind	-1.0724947
-4.0842217	<s> xml	-1.0724947
-4.0842217	<s> xmpp	-1.0724947
-4.0842217	<s> xp	-1.0724947
-4.0842217	<s> xpath	-1.0724947
-4.0842217	<s> xquery	-1.0724947
-4.0842217	<s> xsi	-1.0724947
-4.0842217	<s> yarn	-1.0724947
-4.0842217	<s> yii	-1.0724947
-4.0842217	<s> youtube	-1.0724947
-4.0842217	<s> yy	-1.0724947
-4.0842217	<s> z	-1.0724947
-4.0842217	<s> zabbix	-1.0724947
-4.0842217	<s> zemax	-1.0724947
-4.0842217	<s> zepto	-1.0724947
-4.0842217	<s> zeromq	-1.0724947
-4.0842217	<s> zigbee	-1.0724947
-3.576023	<s> 上	-1.0724947
-4.0842217	<s> 下	-1.0724947
-4.0842217	<s> 不	-1.0724947
-2.880043	<s> 专	-1.0724947
-2.9449844	<s> 业	-1.0724947
-3.8923138	<s> 东	-1.0724947
-3.8923138	<s> 丝	-1.0724947
-3.8923138	<s> 个	-1.0724947
-2.625104	<s> 中	-1.0724947
-3.8923138	<s> 串	-1.0724947
-3.0427721	<s> 临	-1.0724947
-2.9815017	<s> 主	-1.0724947
-3.7596776	<s> 乐	-1.0724947
-4.0842217	<s> 乒	-1.0724947
-4.0842217	<s> 乘	-1.0724947
-3.6582138	<s> 书	-1.0724947
-4.0842217	<s> 买	-1.0724947
-3.7596776	<s> 事	-1.0724947
-3.1407816	<s> 云	-1.0724947
-2.9628593	<s> 互	-1.0724947
-3.5069392	<s> 亚	-1.0724947
-2.9628593	<s> 交	-1.0724947
-2.2682872	<s> 产	-1.0724947
-4.0842217	<s> 京	-1.0724947
-4.0842217	<s> 亮	-1.0724947
-3.8923138	<s> 亲	-1.0724947
-2.411037	<s> 人	-1.0724947
-2.7619427	<s> 仓	-1.0724947
-4.0842217	<s> 付	-1.0724947
-3.348217	<s> 代	-1.0724947
-3.2322304	<s> 仪	-1.0724947
-4.0842217	<s> 仲	-1.0724947
-3.7596776	<s> 价	-1.0724947
-4.0842217	<s> 任	-1.0724947
-3.7596776	<s> 仿	-1.0724947
-2.69796	<s> 企	-1.0724947
-4.0842217	<s> 休	-1.0724947
-3.6582138	<s> 优	-1.0724947
-2.5484449	<s> 会	-1.0724947
-3.2322304	<s> 传	-1.0724947
-3.8923138	<s> 估	-1.0724947
-3.8923138	<s> 伺	-1.0724947
-4.0842217	<s> 低	-1.0724947
-4.0842217	<s> 住	-1.0724947
-3.1691775	<s> 体	-1.0724947
-4.0842217	<s> 作	-1.0724947
-4.0842217	<s> 使	-1.0724947
-2.9815017	<s> 供	-1.0724947
-3.8923138	<s> 促	-1.0724947
-4.0842217	<s> 俄	-1.0724947
-2.5927994	<s> 保	-1.0724947
-2.3910199	<s> 信	-1.0724947
-3.6582138	<s> 修	-1.0724947
-3.6582138	<s> 债	-1.0724947
-3.8923138	<s> 值	-1.0724947
-3.8923138	<s> 停	-1.0724947
-3.4473514	<s> 健	-1.0724947
-3.2675591	<s> 储	-1.0724947
-3.4473514	<s> 催	-1.0724947
-3.6582138	<s> 儿	-1.0724947
-3.8923138	<s> 元	-1.0724947
-3.2675591	<s> 光	-1.0724947
-3.7596776	<s> 党	-1.0724947
-3.8923138	<s> 入	-1.0724947
-2.9449844	<s> 全	-1.0724947
-2.9278162	<s> 公	-1.0724947
-3.6582138	<s> 关	-1.0724947
-3.6582138	<s> 养	-1.0724947
-4.0842217	<s> 兼	-1.0724947
-3.8923138	<s> 兽	-1.0724947
-2.7287742	<s> 内	-1.0724947
-4.0842217	<s> 再	-1.0724947
-3.7596776	<s> 写	-1.0724947
-3.7596776	<s> 军	-1.0724947
-3.576023	<s> 农	-1.0724947
-4.0842217	<s> 冰	-1.0724947
-3.4473514	<s> 冲	-1.0724947
-4.0842217	<s> 决	-1.0724947
-4.0842217	<s> 冶	-1.0724947
-4.0842217	<s> 凉	-1.0724947
-4.0842217	<s> 凭	-1.0724947
-2.9628593	<s> 出	-1.0724947
-4.0842217	<s> 击	-1.0724947
-4.0842217	<s> 函	-1.0724947
-4.0842217	<s> 刀	-1.0724947
-2.8235612	<s> 分	-1.0724947
-3.1407816	<s> 创	-1.0724947
-3.5069392	<s> 初	-1.0724947
-4.0842217	<s> 利	-1.0724947
-4.0842217	<s> 别	-1.0724947
-2.7978556	<s> 制	-1.0724947
-2.6691881	<s> 前	-1.0724947
-4.0842217	<s> 剑	-1.0724947
-3.576023	<s> 剧	-1.0724947
-4.0842217	<s> 剪	-1.0724947
-3.6582138	<s> 副	-1.0724947
-2.9449844	<s> 办	-1.0724947
-3.8923138	<s> 功	-1.0724947
-3.348217	<s> 加	-1.0724947
-3.0427721	<s> 动	-1.0724947
-3.6582138	<s> 助	-1.0724947
-3.5069392	<s> 劳	-1.0724947
-4.0842217	<s> 勘	-1.0724947
-3.3949617	<s> 包	-1.0724947
-2.7855517	<s> 化	-1.0724947
-3.576023	<s> 北	-1.0724947
-2.9815017	<s> 区	-1.0724947
-2.6691881	<s> 医	-1.0724947
-3.4473514	<s> 半	-1.0724947
-3.4473514	<s> 华	-1.0724947
-3.576023	<s> 协	-1.0724947
-3.1691775	<s> 单	-1.0724947
-3.576023	<s> 卖	-1.0724947
-3.7596776	<s> 南	-1.0724947
-3.7596776	<s> 博	-1.0724947
-3.8923138	<s> 卫	-1.0724947
-3.1995606	<s> 印	-1.0724947
-4.0842217	<s> 危	-1.0724947
-4.0842217	<s> 即	-1.0724947
-3.5069392	<s> 厂	-1.0724947
-4.0842217	<s> 历	-1.0724947
-3.576023	<s> 压	-1.0724947
-3.2675591	<s> 原	-1.0724947
-4.0842217	<s> 厦	-1.0724947
-3.6582138	<s> 厨	-1.0724947
-3.576023	<s> 叉	-1.0724947
-4.0842217	<s> 双	-1.0724947
-3.3060182	<s> 反	-1.0724947
-3.348217	<s> 发	-1.0724947
-4.0842217	<s> 取	-1.0724947
-4.0842217	<s> 受	-1.0724947
-3.8923138	<s> 变	-1.0724947
-3.576023	<s> 口	-1.0724947
-3.7596776	<s> 古	-1.0724947
-3.576023	<s> 可	-1.0724947
-3.8923138	<s> 司	-1.0724947
-2.9278162	<s> 合	-1.0724947
-3.8923138	<s> 吉	-1.0724947
-4.0842217	<s> 同	-1.0724947
-2.7395513	<s> 后	-1.0724947
-3.7596776	<s> 吧	-1.0724947
-3.576023	<s> 员	-1.0724947
-3.3949617	<s> 呼	-1.0724947
-4.0842217	<s> 命	-1.0724947
-3.5069392	<s> 咖	-1.0724947
-3.3949617	<s> 咨	-1.0724947
-2.5082035	<s> 品	-1.0724947
-4.0842217	<s> 哈	-1.0724947
-4.0842217	<s> 哲	-1.0724947
-2.837008	<s> 售	-1.0724947
-4.0842217	<s> 唯	-1.0724947
-2.3359722	<s> 商	-1.0724947
-3.8923138	<s> 喷	-1.0724947
-3.7596776	<s> 器	-1.0724947
-3.576023	<s> 回	-1.0724947
-3.348217	<s> 团	-1.0724947
-3.0652797	<s> 园	-1.0724947
-3.2675591	<s> 固	-1.0724947
-2.880043	<s> 国	-1.0724947
-2.7735868	<s> 图	-1.0724947
-2.7735868	<s> 土	-1.0724947
-3.7596776	<s> 在	-1.0724947
-3.0890179	<s> 地	-1.0724947
-3.3949617	<s> 场	-1.0724947
-4.0842217	<s> 垂	-1.0724947
-3.4473514	<s> 城	-1.0724947
-2.880043	<s> 培	-1.0724947
-2.837008	<s> 基	-1.0724947
-4.0842217	<s> 堆	-1.0724947
-3.6582138	<s> 塑	-1.0724947
-4.0842217	<s> 壁	-1.0724947
-3.7596776	<s> 声	-1.0724947
-3.348217	<s> 备	-1.0724947
-3.7596776	<s> 复	-1.0724947
-2.5212074	<s> 外	-1.0724947
-3.1407816	<s> 多	-1.0724947
-2.6691881	<s> 大	-1.0724947
-3.114129	<s> 天	-1.0724947
-4.0842217	<s> 失	-1.0724947
-4.0842217	<s> 奢	-1.0724947
-3.7596776	<s> 女	-1.0724947
-3.8923138	<s> 妇	-1.0724947
-4.0842217	<s> 委	-1.0724947
-3.7596776	<s> 娱	-1.0724947
-3.576023	<s> 婚	-1.0724947
-2.8235612	<s> 媒	-1.0724947
-4.0842217	<s> 字	-1.0724947
-3.6582138	<s> 存	-1.0724947
-3.1995606	<s> 学	-1.0724947
-3.6582138	<s> 孵	-1.0724947
-2.3403022	<s> 安	-1.0724947
-4.0842217	<s> 完	-1.0724947
-3.5069392	<s> 宏	-1.0724947
-4.0842217	<s> 官	-1.0724947
-3.3949617	<s> 定	-1.0724947
-3.114129	<s> 实	-1.0724947
-3.7596776	<s> 宠	-1.0724947
-2.9449844	<s> 审	-1.0724947
-2.5212074	<s> 客	-1.0724947
-3.3949617	<s> 宣	-1.0724947
-3.0890179	<s> 室	-1.0724947
-3.6582138	<s> 宴	-1.0724947
-2.9449844	<s> 家	-1.0724947
-3.7596776	<s> 容	-1.0724947
-3.576023	<s> 宽	-1.0724947
-3.8923138	<s> 宿	-1.0724947
-4.0842217	<s> 密	-1.0724947
-3.8923138	<s> 对	-1.0724947
-3.114129	<s> 导	-1.0724947
-3.7596776	<s> 寿	-1.0724947
-3.8923138	<s> 封	-1.0724947
-3.576023	<s> 射	-1.0724947
-3.114129	<s> 小	-1.0724947
-3.576023	<s> 少	-1.0724947
-4.0842217	<s> 就	-1.0724947
-4.0842217	<s> 尺	-1.0724947
-3.8923138	<s> 尽	-1.0724947
-3.8923138	<s> 局	-1.0724947
-3.3060182	<s> 展	-1.0724947
-4.0842217	<s> 山	-1.0724947
-4.0842217	<s> 岩	-1.0724947
-2.9628593	<s> 嵌	-1.0724947
-3.6582138	<s> 巡	-1.0724947
-2.2609757	<s> 工	-1.0724947
-4.0842217	<s> 差	-1.0724947
-2.3274395	<s> 市	-1.0724947
-3.8923138	<s> 布	-1.0724947
-4.0842217	<s> 师	-1.0724947
-4.0842217	<s> 帮	-1.0724947
-4.0842217	<s> 常	-1.0724947
-3.5069392	<s> 幕	-1.0724947
-2.9278162	<s> 平	-1.0724947
-3.6582138	<s> 并	-1.0724947
-3.348217	<s> 幼	-1.0724947
-2.6422045	<s> 广	-1.0724947
-3.6582138	<s> 库	-1.0724947
-2.880043	<s> 应	-1.0724947
-3.7596776	<s> 底	-1.0724947
-3.0213736	<s> 店	-1.0724947
-4.0842217	<s> 废	-1.0724947
-3.6582138	<s> 康	-1.0724947
-2.7287742	<s> 建	-1.0724947
-2.911301	<s> 开	-1.0724947
-3.7596776	<s> 引	-1.0724947
-3.114129	<s> 弱	-1.0724947
-3.5069392	<s> 强	-1.0724947
-3.8923138	<s> 录	-1.0724947
-3.8923138	<s> 形	-1.0724947
-3.6582138	<s> 彩	-1.0724947
-2.8652191	<s> 影	-1.0724947
-4.0842217	<s> 往	-1.0724947
-4.0842217	<s> 征	-1.0724947
-4.0842217	<s> 律	-1.0724947
-2.8105182	<s> 微	-1.0724947
-3.6582138	<s> 德	-1.0724947
-3.348217	<s> 心	-1.0724947
-4.0842217	<s> 志	-1.0724947
-3.576023	<s> 快	-1.0724947
-3.7596776	<s> 思	-1.0724947
-4.0842217	<s> 急	-1.0724947
-3.4473514	<s> 性	-1.0724947
-2.7978556	<s> 总	-1.0724947
-4.0842217	<s> 恒	-1.0724947
-3.7596776	<s> 情	-1.0724947
-3.6582138	<s> 意	-1.0724947
-4.0842217	<s> 慢	-1.0724947
-2.8235612	<s> 成	-1.0724947
-3.0890179	<s> 战	-1.0724947
-3.6582138	<s> 户	-1.0724947
-2.5082035	<s> 房	-1.0724947
-2.6510141	<s> 手	-1.0724947
-3.3949617	<s> 打	-1.0724947
-3.576023	<s> 托	-1.0724947
-3.7596776	<s> 执	-1.0724947
-4.0842217	<s> 批	-1.0724947
-2.7978556	<s> 技	-1.0724947
-4.0842217	<s> 抓	-1.0724947
-2.5850852	<s> 投	-1.0724947
-4.0842217	<s> 抗	-1.0724947
-3.8923138	<s> 折	-1.0724947
-3.8923138	<s> 抛	-1.0724947
-3.576023	<s> 护	-1.0724947
-2.911301	<s> 报	-1.0724947
-4.0842217	<s> 抽	-1.0724947
-4.0842217	<s> 拆	-1.0724947
-3.8923138	<s> 拉	-1.0724947
-3.4473514	<s> 拓	-1.0724947
-2.5346127	<s> 招	-1.0724947
-4.0842217	<s> 持	-1.0724947
-4.0842217	<s> 挂	-1.0724947
-3.8923138	<s> 按	-1.0724947
-3.8923138	<s> 挖	-1.0724947
-4.0842217	<s> 损	-1.0724947
-3.576023	<s> 授	-1.0724947
-3.3949617	<s> 排	-1.0724947
-3.2322304	<s> 接	-1.0724947
-3.8923138	<s> 控	-1.0724947
-3.0652797	<s> 推	-1.0724947
-3.8923138	<s> 插	-1.0724947
-3.2675591	<s> 搜	-1.0724947
-4.0842217	<s> 搬	-1.0724947
-4.0842217	<s> 搭	-1.0724947
-3.4473514	<s> 摄	-1.0724947
-3.6582138	<s> 播	-1.0724947
-3.3060182	<s> 操	-1.0724947
-3.576023	<s> 支	-1.0724947
-3.1691775	<s> 收	-1.0724947
-3.7596776	<s> 放	-1.0724947
-3.1995606	<s> 政	-1.0724947
-3.6582138	<s> 故	-1.0724947
-3.7596776	<s> 效	-1.0724947
-3.6582138	<s> 敏	-1.0724947
-4.0842217	<s> 救	-1.0724947
-2.6691881	<s> 教	-1.0724947
-3.8923138	<s> 散	-1.0724947
-2.1847041	<s> 数	-1.0724947
-3.1691775	<s> 整	-1.0724947
-2.7506027	<s> 文	-1.0724947
-3.7596776	<s> 斯	-1.0724947
-2.7506027	<s> 新	-1.0724947
-3.3949617	<s> 方	-1.0724947
-3.0009802	<s> 施	-1.0724947
-3.0652797	<s> 旅	-1.0724947
-4.0842217	<s> 旗	-1.0724947
-3.1407816	<s> 无	-1.0724947
-2.837008	<s> 日	-1.0724947
-4.0842217	<s> 早	-1.0724947
-3.6582138	<s> 时	-1.0724947
-4.0842217	<s> 明	-1.0724947
-4.0842217	<s> 晒	-1.0724947
-4.0842217	<s> 晚	-1.0724947
-3.348217	<s> 普	-1.0724947
-3.2675591	<s> 景	-1.0724947
-3.0652797	<s> 智	-1.0724947
-3.348217	<s> 暖	-1.0724947
-4.0842217	<s> 暨	-1.0724947
-4.0842217	<s> 月	-1.0724947
-3.6582138	<s> 有	-1.0724947
-2.5627323	<s> 服	-1.0724947
-4.0842217	<s> 朝	-1.0724947
-3.348217	<s> 期	-1.0724947
-4.0842217	<s> 木	-1.0724947
-3.8923138	<s> 本	-1.0724947
-2.3190714	<s> 机	-1.0724947
-3.6582138	<s> 杂	-1.0724947
-3.7596776	<s> 权	-1.0724947
-3.1995606	<s> 材	-1.0724947
-4.0842217	<s> 板	-1.0724947
-4.0842217	<s> 极	-1.0724947
-3.4473514	<s> 架	-1.0724947
-4.0842217	<s> 染	-1.0724947
-4.0842217	<s> 柜	-1.0724947
-4.0842217	<s> 查	-1.0724947
-3.1691775	<s> 标	-1.0724947
-3.5069392	<s> 栏	-1.0724947
-3.3949617	<s> 校	-1.0724947
-3.8923138	<s> 样	-1.0724947
-3.4473514	<s> 核	-1.0724947
-3.3060182	<s> 案	-1.0724947
-3.7596776	<s> 桌	-1.0724947
-3.348217	<s> 档	-1.0724947
-3.7596776	<s> 桥	-1.0724947
-3.114129	<s> 检	-1.0724947
-4.0842217	<s> 棋	-1.0724947
-3.576023	<s> 植	-1.0724947
-3.348217	<s> 楼	-1.0724947
-3.6582138	<s> 概	-1.0724947
-2.837008	<s> 模	-1.0724947
